{"input_nodes":6,"hidden_nodes":24,"output_nodes":2,"weights_ih":{"rows":24,"cols":6,"data":[[-0.6699085755028354,-0.20416493250658857,0.04368705578625811,-0.5000721464174702,-0.46142119652524005,-1.0534668333419266],[0.80470211912765,0.5367387564502795,0.08324665308634227,-0.00018595142958917343,0.7762538695109008,0.29176603392271194],[-0.5901181933817183,-0.9903556170981312,0.06893759205475174,-0.18818300922322023,-0.5687752124125349,0.2542341551548536],[-0.7606267323802025,-0.8030713450649765,0.6593482341359439,-0.3751490221185323,0.7032111159758028,-0.27157467549341785],[0.6617399492135003,0.5557453991050137,-0.349884612827165,0.6294822428280357,-0.7422397783590706,0.5624269923212735],[0.20226787366819776,-0.3557654197421212,0.535867902263953,-0.8046809363094268,-0.653546374046114,-0.2672475204523006],[1.3418469379876483,0.9983238563058874,0.31727322943857206,0.1902954046590698,0.7730362643911284,1.0161059654917566],[0.14714435454829466,-0.37399242427585877,-0.12104306825739088,-0.4832362044788122,-0.020860124617124547,-0.1725820247093544],[-0.094863550811217,0.1259655266902755,0.2330951036300234,-0.020658319738148065,0.18416949326266285,-0.9295005577298089],[0.769105871647753,0.21148828541122366,-0.7732834255077953,-0.6240330602201376,-0.15218372782573877,0.062445694042728137],[-0.47399402538681307,-0.5076645203750036,0.443055345303335,-0.6270157723207909,0.9327947874630413,-0.26729773727791195],[-0.054127613793185134,0.7268487016130475,0.9153935508309059,-0.8291784287487594,0.9572851063886372,0.19707818732978705],[-0.2690733282288119,-0.28293176814402976,0.04549591886656383,0.2772988815527885,-0.5924074671065696,-0.8879867100134886],[-0.20766387111600482,-0.5126972143914927,0.5489017875594895,-1.0147514040015504,-0.16380817166779327,0.5883973529195536],[-0.629429317119949,-0.11761730580484146,-0.14545904113399444,0.6795489733565399,0.7274808271585771,0.7327203029193553],[-0.30276819784135717,0.2378407391627892,1.0077391755543044,0.622193193398947,-0.9770975309216519,0.6438245147516038],[-0.710227650466416,0.9705078102153646,0.19013183221891172,-0.2274895370945784,-0.731556781477241,-0.7113882834627424],[-0.1687563009920273,-0.013352124164053118,-0.04743294773964203,0.039525746125022986,-0.4295391284420544,0.06196350103660701],[0.5914127020177025,0.6823738408067379,-0.9640146431937545,0.05328719817707528,0.12783287706449367,0.4959342821757226],[0.6142881765525938,0.8268691281371557,0.6240436183047295,0.18932510153081877,-0.7249707583262934,0.24442948291630234],[0.36642121532893546,0.9819766709067242,0.7459036854989939,0.7594244773788877,-0.8674025626343154,0.21420862905726684],[0.1839644849551938,-1.0262442671774943,-0.45542167690422675,0.07145607110715896,0.8434611479520318,0.13038031024012706],[-0.9606225920971969,0.7792736464364514,-0.2768954271743599,-0.5941101444894108,0.10296515638304309,-0.38936166515999027],[-0.5900076374861797,-0.08811485692015264,-0.2837073892307593,0.5248596097140297,0.7407298485903542,-0.5274692097946]]},"weights_ho":{"rows":2,"cols":24,"data":[[-0.4414688490000187,0.7020727277207722,-0.08433110213244444,1.0794275238685116,0.38658415299234417,0.15869695309158854,0.44896014541598056,0.26900010912767586,-0.5748392166621762,-0.03900935861210712,0.06952612221998294,-0.9144383083540483,0.6962431796242048,-0.6839015624786038,0.6471568555019636,-0.823893813444881,-0.9267255539120786,0.8859169441064544,-0.8289316973178984,0.5042051113418831,0.8776965073796471,0.7329161721010429,0.5186663775364898,-0.06135026893771174],[0.19214444281474824,-0.23247557491625404,-0.2932060956438411,-0.4592912980056793,0.34176758935061113,0.2777402113708627,0.7942023508544875,-0.21250961721291745,-0.6312938004164934,-0.13131541414141132,0.8729330998384326,1.0612869202318518,0.6783713696532045,0.4252704669632233,-0.6427194909654026,-0.16892917142349753,-0.533597371069719,0.01962378033902011,0.5847125085943752,0.77846948749138,0.8619516767067754,-0.8589330800647046,-0.7268502481840151,0.01772194432703221]]},"bias_h":{"rows":24,"cols":1,"data":[[-0.05277030619293696],[0.9882831729386501],[-0.9148624582736027],[0.3576127656332358],[-0.8207512534753021],[-0.8888843721829938],[-0.579496567040551],[0.5634786839170662],[-0.9833392594579047],[0.0026301697268428514],[0.6224764064755766],[-0.12402663580045055],[-0.0924412097186669],[-0.27475800452181076],[0.31752842370258305],[0.42118886702814545],[0.24797875794958013],[0.10351729493140047],[0.6351049192813591],[1.0504559291356028],[0.8469932588279891],[0.2899451033427791],[-0.9768820080704552],[0.22269820427355408]]},"bias_o":{"rows":2,"cols":1,"data":[[0.855738740894604],[0.5378623092730122]]},"learning_rate":0.1,"activation_function":{}}