{"input_nodes":6,"hidden_nodes":24,"output_nodes":2,"weights_ih":{"rows":24,"cols":6,"data":[[-1.0167473560522526,-0.2950548591757634,0.8601200414623833,-0.2707303012558144,-0.3876363311207125,-0.7589652785045881],[0.9487231621177485,0.6620672711314269,0.14597681566417253,-0.561055311047524,0.5533456941758345,0.5080372378271171],[-0.40637844642872034,-0.8262064646523446,-0.5322039283153102,-0.23075352261706364,-0.31964420653574377,0.13867032122004988],[-0.6270967726489458,-1.0821102134348592,0.6285339583780156,0.39705361227852026,0.7743265694892069,-0.047708303222188046],[0.8647400600233571,0.7451356775682958,-0.6468870479357551,0.5235879370643315,-0.7160629358454098,0.8381625654143078],[-0.04265301132897514,-0.7947708187051445,0.758016695846851,-0.48349175613676115,-0.26740294082011595,-0.4498953621523326],[1.5272081433164453,0.7854908195137836,0.10338900011329823,-0.10507454946234726,0.8630499433740162,0.9194546568866748],[0.0700737466754787,-0.37174078051869147,-0.010197604780000077,0.101822787120976,0.011423285794471605,-0.4850092566197314],[0.019452387002826727,-0.3007300702061406,0.36619727089069787,0.628225102306103,0.4608672246724696,-0.9494573474291846],[0.8457840240339367,0.640834237258913,0.0692723474196869,-0.5648317764981038,0.22408768053944567,0.19730362858466796],[-0.22263497030016702,-0.6165136491455464,0.6899385719263798,-0.6786224920916676,0.9681657075680064,-0.776922319922656],[-0.09226355969320169,0.6877188896131164,0.7861367277661739,-1.1283225630044011,0.8409878360334291,0.8581754340313186],[-0.24095377589868028,-0.23990447461858824,-0.1351309205159419,0.07431430888810982,-0.6322533733842652,-0.9122088506922683],[0.1161745123663473,-0.5336285639209841,0.7154366448608964,-0.8879504363519732,0.007966438320980262,0.9771042330832054],[-0.7719135837689032,-0.14100144146510285,-0.029085938990780106,0.6371080173452899,0.5250692413363522,1.4254395800544613],[-0.18842358680967872,0.15601035357960674,0.8607180650495944,0.6333072316118227,-1.282879275569032,0.6168773051974631],[-1.1366763552404278,1.3996537471207333,0.20976979192997652,-0.05322987352824793,-0.7629805124048463,-0.7731480196594267],[-0.3327364550310608,0.08728509812648333,-0.3695943625153291,0.13620952246011192,-0.36770235786849287,-0.06492062897023052],[0.335217825175153,0.9143801200903727,-0.7176955137940235,0.3905064931316027,0.1166898577486985,1.018391990711299],[0.5541893400391382,0.8420954627154156,0.3729450380478201,-0.26813516387424463,-0.5605888570124341,0.09026016930170025],[0.29076087705048204,1.4276985867860117,0.7032561069109593,0.903272457896973,-0.7577152364170485,0.5558436462639658],[0.8450736660894748,-0.8382481262513618,0.09756401884633477,0.21391796709281663,0.872105193846799,-0.39742241429726644],[-0.6629056982156936,0.4165235305196613,-1.2224414957997185,-0.6700789962865835,0.04898824219121332,-0.6911740900113502],[-0.629156460553982,-0.047158671868775676,-0.2783392026204867,0.3232798565106058,1.0555878257111788,-0.015298156782131478]]},"weights_ho":{"rows":2,"cols":24,"data":[[-0.6773597205425186,0.909981369748704,-0.13096855685937497,1.2877999623954348,0.13635998269222543,0.6359747980282211,0.3182979891697896,0.6297812089422214,-0.7166676969855139,0.458251627636734,0.17335724507141445,-1.1269606639823955,0.6256104511241966,-0.49993125086404155,0.5857495629817118,-0.836997200722934,-0.934766028114779,0.9551377758645266,-0.7265947456660494,0.45440188262978076,0.8439481414804467,0.4366155574807865,0.45090357145785853,0.14188620541920935],[0.590621142493918,-0.32953180301845136,-0.2457902581250755,-0.6328813476644317,0.25057598608467385,-0.2674935027686812,1.329791900036193,-0.5706516289279036,-0.8707842411504103,0.09070401534783464,1.3167207118834987,0.8479778445141541,0.06188696413614364,0.6434143970373939,-0.3583503360409626,0.11326677310664289,-0.5330268929033819,-0.20897221985041187,0.8577525240205459,0.6119790830549131,0.7644061199545369,-0.8144830902191653,-0.8345818746280182,-0.33150937323354274]]},"bias_h":{"rows":24,"cols":1,"data":[[0.7626539852556642],[0.7682587866536842],[-1.072631769091028],[0.7590197100559567],[-1.0435261961125002],[-0.7862029195095276],[-0.8178879586170705],[0.34406394346351227],[-0.5113007410767194],[0.2703136941425361],[0.5801199044029142],[0.539624706422682],[0.2799456012658102],[-0.3341644344535351],[0.4389756226060968],[0.024985219466146125],[-0.1001153069237554],[-0.12208614027293863],[0.5621452385313445],[1.0652523789972572],[1.038700953951286],[0.22684086291827132],[-1.5408174617656953],[0.16819195561292233]]},"bias_o":{"rows":2,"cols":1,"data":[[0.5788545542039901],[0.7461459524835117]]},"learning_rate":0.1,"activation_function":{}}