{"input_nodes":6,"hidden_nodes":24,"output_nodes":2,"weights_ih":{"rows":24,"cols":6,"data":[[-0.7373175348906743,-0.11859480450663655,0.20084187454698893,-0.618812386679351,-0.3648058909389756,-0.6926155236398532],[0.509404358426575,0.47375726566821547,0.020700459958684744,-0.14973713296811847,0.5773596029675567,0.3315520328350957],[-0.6174409077461384,-1.015395520718318,-0.09324754895454872,-0.19517759451783945,-0.6204263701809696,0.18237717657292676],[-0.8740115092265993,-0.5457170561761964,0.4711917576022192,0.07284400911983839,0.7949944080217932,-0.45629857005655783],[0.45962848226288877,0.8967946729283822,-0.5521238360221058,0.7639689440006607,-0.6182620662535457,0.5499049282012873],[0.14210174283323684,-0.31392127610238635,0.8076882924531165,-0.6801810128994781,-0.29514976074826965,-0.3396486329133628],[1.438002725051588,1.0627254344780117,0.2957191117689813,0.006418156300021009,1.2363267479078652,0.959630916667364],[0.05633030984464733,-0.6784597722657331,-0.31345527797735717,0.04015654431223187,0.03355101014894454,-0.3141917693721203],[0.09975184552769598,0.17403073297670618,0.24207524601113792,-0.026431992829171067,0.34598511161768286,-1.0971991000488173],[0.47395311449356925,0.43310309239901285,-0.397843612859611,-0.6147616450658523,-0.0316688935777143,0.09245194652842666],[-0.47399402538681307,-0.5585150758899783,0.4360703605820415,-0.7268460421603089,1.1385344793929408,-0.4645428584410787],[-0.0236089222942905,0.4928639051328051,0.8187632220750181,-0.9776758817279043,0.9912431447915527,0.2879713221913205],[-0.2879601815567689,-0.2747531596612217,0.20841992708089396,0.09990904212156917,-0.5050841683356878,-0.8073367411018171],[-0.20766387111600482,-0.5182888691586225,0.6333836951147761,-1.1042922968750915,-0.07974677594103659,0.8679883693941931],[-0.7795991623049972,-0.09766899561536233,-0.18940220097299612,0.7494020264744434,0.7903659681662334,0.8670477576343564],[0.06298456942974093,0.5683800669311733,1.0237792168739184,0.6545593139960938,-1.0857246003733807,0.6522226499766636],[-1.3117729443395294,0.9075720232070609,0.1541224922816647,-0.22941013979496427,-0.731556781477241,-0.6507290081439905],[-0.4985411367625672,-0.08107807216751317,-0.2743170589964121,0.09695904885255036,-0.3724804876831216,0.16713628123012658],[0.49946909264160766,0.5909473667243705,-0.7503085314201507,0.5295620229838172,0.12783287706449367,1.0662115059228223],[0.5499823758191338,0.8508508491769117,0.5500022024908562,0.018525124195416687,-0.6867472276542748,0.20579023065834384],[0.36869073747365616,0.9678095956383058,0.448112677390736,0.5710737026390741,-0.9461488122367007,0.3839723139594979],[0.5302057472717976,-0.9167127964887384,-0.2531877094986568,0.06046069970333258,1.008528624951862,0.0023268052081600876],[-0.9721656512436334,0.4286463024927969,-0.6586375816884367,-0.5502618320487164,0.12087959358279646,-0.5771737015549181],[-0.4156963040011999,-0.3436784260004515,-0.37191936824637356,0.1498141433836549,0.8112659565666498,-0.4255793387299012]]},"weights_ho":{"rows":2,"cols":24,"data":[[-0.6249802599438525,0.9454587211168486,0.22862533433796883,1.2163923919113677,0.38658415299234417,0.30825765277035344,0.3981512165247262,0.2803935057736243,-0.5748392166621762,0.1387264211103796,0.06955899045327273,-0.9087972493245462,0.5562001224459943,-0.7208837715214921,0.7428155264720103,-0.9614183685242819,-0.8791511311732911,0.8921068877828502,-0.827203180470361,0.565563793442748,0.7240234413436523,0.7947221182568063,0.5169561679078718,0.0034392106100996633],[0.19214444281474824,-0.1626244290011844,-0.5969347479749229,-0.35466221289638045,0.45962586180334275,0.22892616564451854,0.7770915538957435,-0.2894674439753473,-0.6122786756633876,-0.3893992436838461,0.92630958023492,0.9464438143980298,0.5635440012758588,0.3004208595541924,-0.6446734352767552,0.11723797508408501,-0.6449593533658012,-0.06752896651258132,0.7450218551920044,1.0868141405662621,0.6619821052862922,-0.9385839949769985,-0.7999173132305466,0.34620084651912314]]},"bias_h":{"rows":24,"cols":1,"data":[[0.4389061865106183],[0.9259300425854119],[-1.149971213911457],[0.5032217681981979],[-0.893174750738636],[-0.8882522025087268],[-0.6016098861878116],[0.34459452556996284],[-0.547326887755482],[-0.03163649674731036],[0.5848020005800434],[0.2396679240108014],[-0.12938214839109016],[-0.27475800452181076],[0.3023791557390508],[0.3985626138590559],[0.4314949246483035],[0.1020790953506305],[0.6992656852160755],[0.7989771181155425],[0.6545779536113395],[0.2256932364171988],[-0.9634165081793638],[-0.07598240416761681]]},"bias_o":{"rows":2,"cols":1,"data":[[0.8706692344584988],[0.6258181903592019]]},"learning_rate":0.1,"activation_function":{}}