{"input_nodes":6,"hidden_nodes":24,"output_nodes":2,"weights_ih":{"rows":24,"cols":6,"data":[[-0.9080997716816637,-0.21737314505052793,0.27704788742135145,-0.5479073352783249,-0.42899873908074926,-0.6926155236398532],[0.5078013881396716,0.38833212390435906,-0.032560338373200076,-0.20886260253105832,0.7949525908677906,0.22867866816337465],[-0.3956494032317116,-0.6580400039884804,-0.06872611297697515,-0.25087861783770615,-1.0824278290330902,0.28200710863212686],[-0.9103394422551837,-0.6910914524775721,0.3533271127072053,0.11777011964501986,0.7949944080217932,-0.2781662350858377],[0.4241065563840782,0.6140768184979732,-0.6722412869029648,0.9401912417828932,-0.4441453925393365,0.4022149043247344],[0.15790014435216088,-0.31392127610238635,0.6533665096903996,-0.6762750300730891,-0.3692425633065724,-0.28983556069106575],[1.5517448098222906,1.0627254344780117,0.33892107308521174,0.042881972667578566,0.9762279715279917,1.0142190633663601],[0.006625136712347379,-0.49152035525707,-0.3399356155864125,-0.0995700740096887,-0.055399423891751405,-0.024966404817886957],[0.019452387002826727,-0.017731452496831918,0.2926045569879632,-0.11135172907306314,0.21720885647637692,-1.0597752232462272],[0.29687141153704155,0.3823281321077634,-0.29295555693039543,-0.13301487453485464,-0.020951298360981307,0.10095157950430295],[-0.1970603960835725,-0.41428865523084346,0.5464188309924974,-0.7201931257328168,1.1573751358595763,-0.5437837735369908],[0.030433740464818552,0.4928639051328051,0.906179246328079,-0.7784571526778684,1.0236880931651369,0.29314596804214166],[-0.1955912245348532,-0.286369661365652,0.13780566848812434,0.09990904212156917,-0.5125448317693337,-0.6974026986644738],[-0.2067213760117358,-0.4696016320644642,0.5164327362243587,-1.153034463688863,-0.041453858805064414,0.9274820618257301],[-0.6200191705740441,-0.13217502211323232,-0.21442893753032355,0.7371470646425191,0.6832186240618086,0.7757989121518717],[-0.22947499991629505,0.34537632529582585,0.9585287245930877,0.796450203049873,-1.0938546960198607,0.6522226499766636],[-1.1446452413607004,1.0152361471316103,0.3112178918796943,-0.22941013979496427,-0.731556781477241,-0.584131304431144],[-0.43452121612255973,0.029422984040733048,-0.14874074466490692,-0.26288942668341586,-0.23026700813367415,0.058794502303021294],[0.49946909264160766,0.5612182001849546,-0.8664351297560978,0.5090749489396155,0.12783287706449367,1.0985989244456134],[0.4882017726555804,1.1093830461081011,0.10240669225562848,-0.06782287047002311,-0.5488209026617564,0.14084751032072343],[0.2987095837853839,1.0887781161673793,0.4942452390028183,0.8216385882851914,-0.7332422557506477,0.3766694111808149],[0.4921540724393693,-0.6160507808284813,-0.34432909448253346,-0.029444324936045346,1.0394068311532052,0.2796993403808235],[-0.840815821168041,0.2534601625465702,-0.5701063510361415,-0.5963208651084443,-0.08915599913128364,-0.5671302898205384],[-0.2986589758293874,-0.25510447967952865,-0.45719738268866256,0.5342549703459791,0.8112659565666498,-0.33835686391970854]]},"weights_ho":{"rows":2,"cols":24,"data":[[-0.7881629610857522,0.7001456403414487,0.22862533433796883,1.2163923919113677,0.5539861673906111,0.4770147732736949,0.5619036044319577,0.2474396551572272,-0.5748392166621762,-0.09021703543059711,0.02548896691322465,-0.9087972493245462,0.7131537374599123,-0.6455446623319686,0.6471568555019636,-0.8251703342062348,-0.8631568002660717,0.9191216236528811,-0.9116425823381014,0.662779790526962,0.5629615830894924,0.6321175706894455,0.591235317962268,0.2087345996411733],[0.262345245739002,-0.1878739214138728,-0.6089219481987249,-0.29039872603408323,0.37259020426244926,0.07434407687387112,0.8122638613436116,-0.1371419398770226,-0.37385786309142094,-0.11434328775013317,0.745080674249897,0.7373559392326553,0.5874850945015141,0.2254581687094234,-0.6553932029170512,0.25279412663188616,-0.6996587712088321,-0.12001218016168022,0.7134475953312569,0.7411941024053991,0.8653537747358804,-0.8543355692484956,-0.6522735373502468,0.39025271440180637]]},"bias_h":{"rows":24,"cols":1,"data":[[0.0005038661940111044],[0.923843219978453],[-1.3281155637411193],[0.5884703027488388],[-0.914405889954955],[-0.8882522025087268],[-0.5128555950313505],[0.2725476298144597],[-0.6739789758131955],[0.07820573807532627],[0.4897430739486021],[0.1665498428246625],[-0.21421770926254396],[-0.4690699705764294],[0.3683284044838086],[0.3140799871079646],[0.27672777134218657],[0.08195612026300904],[0.5677634758053325],[1.0379823617516903],[0.4124173841096084],[0.37292972462056284],[-1.2292490226399866],[0.0027308946816728408]]},"bias_o":{"rows":2,"cols":1,"data":[[0.8254712275986843],[0.604282703679281]]},"learning_rate":0.1,"activation_function":{}}