{"input_nodes":6,"hidden_nodes":24,"output_nodes":2,"weights_ih":{"rows":24,"cols":6,"data":[[0.4176762459134525,-0.7119279261878813,-0.3314580570551495,-0.7280030231134058,-0.6005057414916988,0.9310647802356637],[0.1726560311279104,-0.43614760849735906,-0.6216744378995142,-0.4732428884508786,0.6163867476298495,-0.9035860343553024],[0.916624573176082,0.9645411615490884,-0.6221486221268031,-0.8467466464127735,0.13992573058818986,-0.7455263922200612],[-0.796944711681435,-0.1408831363451979,0.014910617419812588,-0.41628246219472176,-0.167539904293303,0.9444775662177967],[-0.45645490297236774,0.6970844991620138,0.0027391407248377186,-0.8803390009372324,0.28999349100963334,-0.9452053794506683],[-0.4979611106095441,0.8858041796708971,0.7699528083863765,0.20676718453944523,0.39410487883155454,0.06565309081611181],[-0.09508248787360937,-0.28647503628785964,0.8631882556576893,-0.28457979920809917,-0.8851291843550473,0.9101024225103824],[0.7365629691824798,0.5067853743387349,-0.133492059358798,-0.1705333675033911,0.24249765303894902,-0.9891622760680013],[-0.2887678074454732,-0.3961274522000638,-0.5363166933508239,-0.5441043997074759,-1.2316810622530738,-0.7016299548843374],[0.18111016130312954,0.6059425533653365,-0.1348318465865681,-0.13578008623800214,0.9605857299957504,-0.5396556227769129],[-0.8863761974344482,0.49242733778803655,-0.11820104988956703,-0.7875149485964887,0.1310970888602565,-0.2731171115991686],[-0.3152710047529501,-0.6652954953631731,0.9229516327872994,0.7931198857839155,-0.5718315027405905,0.043643559237994456],[0.48056627763336146,0.16670207995694408,-0.08946344140577978,-0.20916330931432858,-0.9986047617652809,0.31741728078323106],[0.23187706078553205,-0.2810395369521304,-0.4276989755196947,0.11422207384663285,-0.35540413124624815,-0.731715757940691],[-0.05611088550038311,0.2564343968212799,0.29146158281534174,-1.0821457959714436,-0.24042915324774894,-0.4674908390043493],[0.5281151885259807,-0.6195700632783097,-0.6849861207889302,-0.7977797009968648,0.15241117671297522,-0.17854545799329635],[0.6502999793382049,-0.46516040443617745,-0.44472708206030254,-0.21114983708878077,-0.0765932383964203,0.743833848503864],[0.5009587825677304,0.7038619549967917,0.49737667954027664,-0.6253402566871108,0.3901975814995793,0.6560124666525579],[0.17453586822776979,-0.31998898444625706,0.4406521216775401,0.488596638170042,1.0641458348846915,0.8307478958812484],[-0.4684440109702819,0.3873078437781607,0.9331089398251946,-0.2225618660690647,-0.5532342360355142,0.9999464385122666],[0.4795453409184628,-0.3917172050463816,-0.17859479601254247,1.0152906391018095,-0.4363208179175871,0.3178646770478811],[0.06290119076029255,-0.1474562869897884,0.0288955884610803,-0.8901468831796102,0.60875195796779,0.46188115478117364],[-0.7804667240213452,0.6379987988274363,0.6758488453935394,0.9758287906518293,-0.2541504591106535,0.6338121580308231],[-0.6568086822641914,0.6489492956104832,-0.6804640489100857,-0.35692366154059374,-0.8723079144429008,-1.0001502270225715]]},"weights_ho":{"rows":2,"cols":24,"data":[[-0.7734790416947517,0.39097872628517294,0.9610189639549569,1.028910995162652,0.5118561819706182,0.8520832444299402,0.6854602460519437,-0.5123260526524339,0.18063997277096142,-0.6252295534626522,0.5052677764886759,0.29769859422200307,-0.6355955688770766,0.051500246076478025,-0.3662681085859222,0.531370393833996,-0.33291701657509476,0.7405213869103828,0.9238155354927688,-0.5713242151840388,0.8713326142990372,-0.556367845241145,0.2878737158580784,0.4403610566936324],[0.26021300424796756,0.4198744005236894,-0.3787862083053258,0.8426481037504261,0.8150110938212967,-0.7767989489917819,0.7876673138157015,0.5283222008719477,0.9656454744963037,0.09811970470472658,-0.27595756603705324,0.9660563778760197,0.2629613252355244,0.5974508296267287,0.20623571650652783,-0.4820262241902995,0.4747290381358797,-0.3253543250405757,0.0007491992138250747,-0.8126515934550057,-0.38992600442730474,-0.05952276511909904,-0.9218625820161934,0.9628673680132596]]},"bias_h":{"rows":24,"cols":1,"data":[[-0.7303806586175031],[-0.004566348986934532],[0.842970795112602],[-0.8942869051262247],[0.8052827897161667],[-0.8002002863066946],[-0.18547898850473699],[0.8761355013054981],[-0.7684233334411125],[0.6352866823148658],[1.0061931054116504],[0.12290241772428502],[-0.8460311887574369],[-0.3251228837616339],[-0.31177361211371757],[0.28741232026549945],[-0.5902316530142597],[0.6647189453688298],[-0.22291175716363196],[-0.7951478623853211],[-0.7302436183065129],[0.07985243524338248],[0.7916760339320362],[-0.04537752711854333]]},"bias_o":{"rows":2,"cols":1,"data":[[0.2802891842169446],[0.9837950359084142]]},"learning_rate":0.1,"activation_function":{}}