{"input_nodes":6,"hidden_nodes":24,"output_nodes":2,"weights_ih":{"rows":24,"cols":6,"data":[[-0.6054488965442952,-0.3034890660803757,0.360919106116143,-0.3731367927916684,-0.42899873908074926,-0.6926155236398532],[0.43490121838544404,0.3264915160647016,0.05742695850177762,-0.26134855870755647,0.6487841720986103,0.2176983784989669],[-0.5621535148821571,-1.015395520718318,-0.09430560889723277,-0.46209304371642873,-0.6649279900748947,0.3040667357036848],[-0.8740115092265993,-0.6580889165019657,0.5412637695829356,0.147243663489581,0.7949944080217932,-0.2781662350858377],[0.45962848226288877,0.752622797087127,-0.5246943581295642,0.8387670895718344,-0.4148261378403156,0.7131354199000587],[0.144949742874189,-0.31392127610238635,0.92224275579179,-0.9454274966118534,-0.4163395820830672,-0.37258434251678724],[1.438002725051588,1.0329641510457404,0.40004206293117056,-0.03464875556175198,0.9832590689430627,0.7716629034203125],[0.18709024210783662,-0.505847915203996,-0.19283273237292065,-0.02958928863477306,-0.1025984864488337,-0.27143388891981246],[-0.07498992924998381,0.06893589265967566,0.39695760921532,0.0723476359135319,0.30826232530239184,-1.0313458506853466],[0.4869709399041058,0.4159267175946731,-0.2918016889958819,-0.7321856693990569,0.04511446069383518,0.09245194652842666],[-0.47399402538681307,-0.7021530049525676,0.4021367302076938,-0.5684567139067798,0.9927591770711495,-0.32246445115492317],[0.13167554970947898,0.4928639051328051,0.822434773918707,-0.9776758817279043,1.0552493582671736,0.505262449495342],[-0.24124460797614397,-0.29466271552106227,0.36797530622574104,0.034541908272235654,-0.6118589775828555,-0.7538160731010243],[-0.5065699267269919,-0.700275686203935,0.7515890574426662,-1.108436850084632,-0.2232160412666487,0.8279695209186836],[-0.8824977673074961,-0.2672744121124657,-0.3409263258068336,0.7979608524216815,0.6772428913181365,0.8104788158800157],[-0.23671398601429247,0.5020720906275961,1.0585610093259887,0.7862751169323433,-1.0510711013432414,0.8564062853592841],[-1.0961822111701878,1.159644510232555,0.17501274747962856,-0.22941013979496427,-0.5582097814661804,-0.653613307215899],[-0.1581836512401614,0.14754846894023366,-0.16935463192499606,-0.003896210503104895,-0.22869236379326702,0.062378913342554215],[0.5339796476911998,0.839433139422374,-0.7631421189950514,0.620963813205014,0.011997589920768006,1.0429583194516636],[0.5933203101529223,1.1963616186070674,0.5072333737042907,0.06543848281369766,-0.9118007714243184,0.2200058622434789],[0.38398131434936633,0.8703534523144099,0.3983988094865412,0.607588296064686,-0.8256467420607457,0.6890277314654264],[0.6047239784727453,-0.8703706119424716,-0.4162705863280915,0.06856402243526821,1.0195573670461064,0.05037594818636257],[-0.8433665405652828,0.4507513320554913,-0.5295750658836943,-0.6009024568694484,0.16849450904322794,-0.8146185137827442],[-0.3992970771795843,-0.3272884842710534,-0.19228994509220199,0.37915776160040704,0.7430654760543005,-0.4255793387299012]]},"weights_ho":{"rows":2,"cols":24,"data":[[-0.6249802599438525,0.9363327229922582,0.3212023194504856,1.2120353867671334,0.38658415299234417,0.3797654485615847,0.07808325848322212,0.2803935057736243,-0.560537424886231,-0.10899301559641447,0.2528165107345075,-0.7622693335192763,0.6600869615336123,-0.7070618436317064,0.567631121015007,-0.8765057552734412,-0.7654243264790775,0.9768447412151413,-0.9838424605122135,0.9466473982311334,0.7604246353141492,0.5034368343350326,0.5184861578924405,0.17417985835513886],[0.19214444281474824,-0.1878739214138728,-0.5947790184634756,-0.35961438504734833,0.27779230026709933,0.15528894505562024,0.8576360847057416,-0.18444777226942408,-0.43280579749715187,-0.12673128595495253,0.8201161403966815,1.0291485783636485,0.4607605545185395,0.3004208595541924,-0.6760733666284529,0.03432782995891484,-0.5848113679496687,-0.06752896651258132,0.6883202819619807,0.7163487182042662,0.635226466319991,-0.8164552242374176,-0.8676432597641535,0.0953884894586277]]},"bias_h":{"rows":24,"cols":1,"data":[[0.2335661153133074],[0.5962668581009295],[-1.149971213911457],[0.5884703027488388],[-0.8629069652781303],[-0.7677987425650482],[-0.49698627329622275],[0.45204362480642546],[-0.7303729508246612],[0.0939947694965844],[0.7849793731729485],[0.16359579945455507],[-0.2691033276698626],[-0.258763960626861],[0.03439333906937986],[0.6242812856973964],[0.31246419432190287],[-0.05856736604534356],[0.6328495565695573],[1.012598266898283],[0.6710105996626959],[0.4057901339104413],[-1.525480323457452],[-0.07598240416761681]]},"bias_o":{"rows":2,"cols":1,"data":[[0.8706692344584988],[0.6258181903592019]]},"learning_rate":0.1,"activation_function":{}}