{"input_nodes":6,"hidden_nodes":7,"output_nodes":2,"weights_ih":{"rows":7,"cols":6,"data":[[0.15736938497366426,-1.9343724309033934,1.1462859105463878,0.757447697863112,-0.5085025052641731,1.2444765602757886],[0.03103517119658389,0.4363223850825802,0.14177334260962673,-0.4608174302848853,0.29902116592429095,-1.3610936312758843],[-2.060844306119803,-0.5494947377011224,0.40070778120454764,0.625601072227163,0.04345132562193488,0.4377641712809224],[2.0473845120925205,-1.8069733008000477,0.990121209656561,-1.4101516991105763,1.2263079057816708,0.5764170714962793],[-0.26742698207356425,0.9069956088318233,0.300117520488285,0.4756334617618272,0.7939763181613027,0.2539369570856304],[1.0654356883472786,-0.21765563550416334,0.1382236708604107,-2.4740695854516597,-0.14303917679767902,-1.0077793773836539],[0.039159435494357436,1.5137884068653369,-0.6995497354999796,0.029536044793023263,-0.4759365510398007,0.9570724853659942]]},"weights_ho":{"rows":2,"cols":7,"data":[[0.14243510489273983,-0.7053617073771196,1.4059237960397422,-0.43079139558144375,-0.7044778387707925,-1.2375418041354684,-1.5215359247708387],[0.4642437547937436,1.2929742935624242,0.17316998436859307,1.0179094164773275,-0.836456228902651,-0.7347739056411546,-0.5745420904827552]]},"bias_h":{"rows":7,"cols":1,"data":[[-1.256895609097247],[-1.4077389569052798],[-0.2318029381643642],[-0.24259008521526598],[0.2227998029426453],[-0.8985546558525448],[0.6120001312427967]]},"bias_o":{"rows":2,"cols":1,"data":[[-0.6241090031455037],[1.112694307393703]]},"learning_rate":0.1,"activation_function":{}}