{"input_nodes":6,"hidden_nodes":7,"output_nodes":2,"weights_ih":{"rows":7,"cols":6,"data":[[-1.1834651079468337,-1.7833163565529697,1.1166424620811295,-0.4039763881450502,-0.27802351580799084,0.2845742963373865],[-1.3075859698122339,0.3417360703292113,0.5067219260318009,-0.7577702937073045,-0.2804604001929976,-0.9277914149185236],[-0.7724439900705817,0.2073755968832328,0.04738085001605071,-0.9153768531842047,-1.8086987351885986,1.4720430608594846],[2.1724007033750166,-0.9038000047967791,0.6149716364773694,-0.5534466250686372,0.3381286344364192,0.9933277096870144],[-0.4935060695123236,0.12251232580805257,0.8242133340742057,-1.9175759201053373,0.3920281251306298,1.6025003871788097],[1.8155950774129324,-0.48351592297721957,0.7356529994729714,-2.705846133537146,-0.27350232137116076,-1.8052601510226922],[0.7287383516122478,1.5770948018960913,-0.7918116572410785,-0.27459139170190944,1.116049356260421,0.2671333765249969]]},"weights_ho":{"rows":2,"cols":7,"data":[[1.246609158619373,-0.5118357146647049,1.2928959028519,-0.14324850022709334,-0.7889611142117379,-0.9749758218640413,-1.3852262311419803],[-0.1857590602072175,1.4977076685079647,-0.5734825777095279,0.13357109790370972,-0.24130241033024416,-1.2785129166332603,-0.8055581093370255]]},"bias_h":{"rows":7,"cols":1,"data":[[-1.6011380084938407],[-1.6162303502948892],[-1.1090451092136384],[-1.2809569713009124],[0.2009801660368979],[-0.785336819105805],[-0.3905880533760798]]},"bias_o":{"rows":2,"cols":1,"data":[[-0.6267886892045803],[0.5104577627841108]]},"learning_rate":0.1,"activation_function":{}}