{"input_nodes":6,"hidden_nodes":7,"output_nodes":2,"weights_ih":{"rows":7,"cols":6,"data":[[-1.4248959350303418,-1.151826901360849,1.5175773632453895,0.10262414924072996,-0.0037828564632254452,0.34784745216489577],[-1.9838915948895828,0.5428180475795954,0.20363336719639635,-1.0008567915574231,0.7273296204626754,-1.1516731771226745],[-1.5878099768513816,-0.13864833273570787,-0.2777865025377609,-0.49906657328839976,-2.2497085528905547,1.1753017156259133],[2.146920542359052,0.2634232190184128,0.19522143475986475,-0.136536149155857,0.35981609288066807,-0.2546479330931499],[-0.8998599961747967,0.5790465185227147,0.8424370285947222,-2.2463176392374757,0.5719268850218221,1.9421302171364445],[0.9369789680149337,-0.6186245964412036,1.5347162216807348,-3.0456216202807616,0.48080078758860534,-2.1062404070420935],[0.6019987812022891,1.6497097953967688,-0.6002103504421842,-0.7721635882324389,1.986065738156076,1.424218624542721]]},"weights_ho":{"rows":2,"cols":7,"data":[[1.372323946820703,-1.0214272442196766,1.5979483416019664,-0.485835803395779,-0.6061788408001247,-0.6882453010055241,-1.5416494797799398],[-0.6443371259368794,1.300990660782197,-0.755437716754641,0.4946067384245823,-0.8981605691969727,-1.1460241467695809,-1.1418494139760809]]},"bias_h":{"rows":7,"cols":1,"data":[[-1.4387168727281214],[-1.7340431044750473],[-0.804905420372125],[-1.0988302066278823],[0.18870515768339385],[-0.9997346302723514],[0.16745010258753845]]},"bias_o":{"rows":2,"cols":1,"data":[[-0.23139667416835258],[0.424146247979728]]},"learning_rate":0.1,"activation_function":{}}