{"input_nodes":6,"hidden_nodes":7,"output_nodes":2,"weights_ih":{"rows":7,"cols":6,"data":[[-0.29444662377590447,-1.5100300610499224,1.3638649874348874,0.7173462474440799,-0.34410887213663943,1.1788068745948752],[0.16307592835760482,0.20726559512465997,0.1931667964424271,-0.47574657413780713,-0.3341708139755733,-1.4377801394321064],[-1.9183806449144845,-0.2639718263264504,0.3010356458103167,0.6947070768965077,-0.46023917873424686,0.9130177431050382],[1.63619495379553,-1.7728664752584757,0.7139786388329341,-1.0053476130288872,1.0362257640341996,0.3061585338404658],[-0.36193936200974797,0.9888677830059655,-0.03674392625423474,-0.3378318155027873,1.1107213225753423,0.3892799933696603],[1.4001502241843626,-0.6286790182973157,0.052720195433643396,-1.981051368705382,-0.13076616757872356,-0.8615804182253275],[-0.20665328195542093,1.0299855362129637,-0.5237285866107492,-0.4352952757730379,-0.04821062280016308,0.6857563220954708]]},"weights_ho":{"rows":2,"cols":7,"data":[[0.5209659476815678,-0.41556304008852074,0.5558427558639909,-0.2522761788889418,-0.7505377712558515,-0.9277451690132599,-1.5503427702135457],[0.02427805062202447,1.835746582296297,0.15058936120878275,0.6527061595280996,-1.1823053332627176,-0.9578056359459587,-0.24887789854265668]]},"bias_h":{"rows":7,"cols":1,"data":[[-1.0865086125532388],[-0.9633068270753394],[-0.8399177810831967],[-0.4878620613860965],[-0.013034933749683703],[-0.6605056841174535],[0.23230226129846987]]},"bias_o":{"rows":2,"cols":1,"data":[[-0.6258677364115506],[1.204423119904077]]},"learning_rate":0.1,"activation_function":{}}