{"input_nodes":6,"hidden_nodes":7,"output_nodes":2,"weights_ih":{"rows":7,"cols":6,"data":[[-1.1743383449319895,-1.4682751026242429,1.374832669952622,0.13706388260310645,-0.4805965913495004,0.48764705634716504],[-0.5070539474779533,1.1043750873800904,0.3957179268741544,-0.029333088331009533,0.012545604692118933,-1.5108478124438667],[-1.5682869292644805,-0.1891787180989689,0.46163548651457625,-0.2604164980907196,-1.298396878306359,1.4366061519955835],[1.8311326815552753,-1.282600979517462,0.8394113549676605,-0.6885199882164786,-0.026669439183154536,-0.5804302974207068],[-1.0830021950374107,1.078255430275921,0.7829230240986857,-1.6028304017151231,1.5473519273154317,1.1528109644805407],[1.4764704336995305,-1.2076789901796015,0.524920931639097,-3.027552093083892,-0.21980363624922603,-1.2201898914591267],[0.2963998961876252,1.432742694999305,-0.4354610929582944,-0.6981214230685681,0.16859471181832272,0.25446787266738663]]},"weights_ho":{"rows":2,"cols":7,"data":[[0.696995009756489,-0.4149943023768911,0.43489900463215525,-0.18007797048421154,-0.9883099342396702,-0.9203722374787977,-1.25771963338432],[0.016583461626546225,1.4222823014966046,0.13911425306659916,0.17129076856248243,-0.10242964963820414,-0.8981614249458275,-0.811618253747793]]},"bias_h":{"rows":7,"cols":1,"data":[[-1.1232341603922142],[-1.5628878954290553],[-0.8407111836076143],[-1.1494123301668835],[-0.29444905697134205],[-0.7474672024152037],[0.2906378810118406]]},"bias_o":{"rows":2,"cols":1,"data":[[-0.5171405771329114],[0.9105835034160108]]},"learning_rate":0.1,"activation_function":{}}