{"input_nodes":6,"hidden_nodes":7,"output_nodes":2,"weights_ih":{"rows":7,"cols":6,"data":[[-0.32284544723882247,-1.3597597978504548,1.082617066994197,0.7382433811879429,-0.3774944254235786,1.229100741108966],[0.1073653393110505,0.26681087967500244,0.24071090156301858,-0.44065983602143055,-0.16154621210824813,-1.4377801394321064],[-1.9831578675686343,-0.31706808259657393,0.3010356458103167,0.6947070768965077,-0.46023917873424686,0.8288548689414964],[1.6125870572812728,-1.5331231132458791,0.9922699953378386,-1.0829437547067842,1.0362257640341996,0.27598254672305556],[-0.27884622762547784,0.7880739246780906,0.10318007710106988,-0.32276378094874203,1.149273986241024,0.3892799933696603],[1.3049407499765489,-0.6634661157246818,0.10308266594662086,-1.8730034967368727,-0.0002775092851206862,-0.8615804182253275],[-0.2598509292921843,1.0948934272156234,-0.7108469299657132,-0.48365590431352473,-0.08169792687533717,0.8177123871363331]]},"weights_ho":{"rows":2,"cols":7,"data":[[0.6161651895272716,-0.41556304008852074,0.4639444151821269,-0.10896640435430596,-0.7505377712558515,-0.9708081070329184,-1.4704690627851107],[0.020929965915132714,1.8126346098937818,0.13412592125496775,0.7566226077100934,-1.1823053332627176,-1.1882818681316294,-0.19866760817314813]]},"bias_h":{"rows":7,"cols":1,"data":[[-1.094226075892606],[-1.0660773712366396],[-0.6085955506209128],[-0.4474932810741684],[-0.013034933749683703],[-0.5899546870628813],[0.4694926867957959]]},"bias_o":{"rows":2,"cols":1,"data":[[-0.6583066705118131],[1.2459020488620849]]},"learning_rate":0.1,"activation_function":{}}