{"input_nodes":6,"hidden_nodes":7,"output_nodes":2,"weights_ih":{"rows":7,"cols":6,"data":[[-0.8885336684453043,-1.3436343155768118,0.6911745459238212,-0.0895503789060627,-0.3895740824608537,-0.2368374465897503],[-1.0346037814844122,0.5326882960493498,0.3032287288361011,-0.6022856345222283,0.19950710879198022,-1.7383523121676612],[-1.3020132191241451,0.15917450443515976,-0.1358672098916595,-1.2118900430641961,-1.230245283581991,1.4479449528208512],[1.5252233127024786,-1.0158957150968446,0.41595443843891944,-0.5728866263280322,0.261283997750573,-0.29975836595804967],[-1.250374268392831,1.2754952023539339,0.9268345218313984,-1.810132716695045,0.9352523436265344,1.2871518959650654],[1.562136078844741,-1.524958137090618,1.3088737610040346,-2.5856823665460396,-0.23962122072995123,-1.0930226982027793],[0.16815185610557684,1.3193466944011951,-0.9546414075369156,-0.23423635982962343,0.28588871291691104,0.365350186495522]]},"weights_ho":{"rows":2,"cols":7,"data":[[1.2854873638227944,-0.7326041173025668,0.6781887132926989,-0.42491968381794065,-0.8446770274447442,-1.1078320151832401,-1.4915066847416576],[0.3498633644175305,1.5008065104793729,0.02476984995339762,-0.09630090422096073,-0.525806145145694,-1.235744714455821,-0.7138617600371316]]},"bias_h":{"rows":7,"cols":1,"data":[[-1.0123735994499876],[-1.8830790590521242],[-0.2899167167691622],[-1.0415899313288237],[-0.19061989809543517],[-0.3013229280683072],[0.07611232664789212]]},"bias_o":{"rows":2,"cols":1,"data":[[-0.5257668151458829],[0.938111055477288]]},"learning_rate":0.1,"activation_function":{}}