{"input_nodes":6,"hidden_nodes":7,"output_nodes":2,"weights_ih":{"rows":7,"cols":6,"data":[[-0.6666970814883282,-1.814922024351308,1.0350492909827633,1.561439782319989,-0.5632144415124462,1.0393324663405132],[-0.6339707000988688,0.5956457338405697,-0.5622333069212422,-0.21662925171341404,-0.46321071801964436,-1.242774375048364],[-1.9843901125633914,-0.3564576047352858,0.41696465588986314,-0.38740325466985936,-0.23802417618557084,0.90823696963476],[1.216191739075862,-2.306858673003187,0.8900753088111701,-1.019959121217224,0.378920168200953,0.5142733804981211],[-1.1677213157322042,1.4480291495015165,0.42990730506026453,-0.357274909281146,1.1945475548771496,0.3953397756440258],[1.4450518587961874,-0.8848376926362849,0.45725103524321964,-1.9895113523900732,-0.6234291143883379,-1.5672013873247346],[-0.7223898539084843,1.3230023550552712,-0.5901141193712904,-0.33051464929232066,0.00956155095360231,0.29818793613996664]]},"weights_ho":{"rows":2,"cols":7,"data":[[0.6083607616918935,0.20473385830998458,0.3787855330626685,-0.6864368432867094,-0.8622242622326445,-0.8181108680030353,-1.5793025671809204],[-0.5678585298348813,1.1939839153367142,-0.09804812798766491,0.6149338755487586,-1.5015737026574252,-0.7965648363296564,-0.3230826989358727]]},"bias_h":{"rows":7,"cols":1,"data":[[-0.9526247411734645],[-1.9446360146605153],[-1.2013422432255647],[-0.37542012767018795],[-0.0673737450703204],[-0.23471234632512006],[-0.39640226284997115]]},"bias_o":{"rows":2,"cols":1,"data":[[-0.6602431464774375],[0.9634403517768337]]},"learning_rate":0.1,"activation_function":{}}