{"input_nodes":6,"hidden_nodes":7,"output_nodes":2,"weights_ih":{"rows":7,"cols":6,"data":[[-0.4823593994855224,-1.8000755819255332,1.0350492909827633,1.561439782319989,-0.4390038486925514,1.244971418127042],[-0.5355445195530822,0.6187570990035143,-0.5786785075476683,-0.32623888880990076,-0.46491621724167265,-0.9782629795585396],[-1.8930113202046335,-0.29668441339499524,0.46859507178854126,-0.220071634705647,-0.3709020469402132,0.90823696963476],[1.311123746195678,-2.1659364231927705,1.0122186925967371,-1.0988279623366208,0.18143459683636806,0.3959208940580165],[-1.1339525026033979,1.4550551195920223,0.2533801409174483,-0.29046823498252045,1.1945475548771496,0.3953397756440258],[1.324856918120832,-0.9741979268280438,0.553802730501972,-2.090104281688406,-0.43616212447119995,-1.5672013873247346],[-0.7223898539084843,1.3230023550552712,-0.49499363795448814,-0.3971354481401972,0.00956155095360231,0.4329974101394445]]},"weights_ho":{"rows":2,"cols":7,"data":[[0.5671691181940638,0.06115404521882493,0.3101751315826246,-0.5708688928471483,-0.8622242622326445,-0.7307891418532205,-1.5801190218587733],[-0.617487605633997,1.2409603634241237,-0.2130712385897828,0.6149338755487586,-1.3309424457024663,-0.5956366655960639,-0.32149074686949675]]},"bias_h":{"rows":7,"cols":1,"data":[[-0.9526247411734645],[-2.034217711757736],[-1.4073555232374861],[-0.46069059089316705],[-0.17799795363991172],[-0.2745300468907812],[-0.2927675717978441]]},"bias_o":{"rows":2,"cols":1,"data":[[-0.6602431464774375],[1.098472425711047]]},"learning_rate":0.1,"activation_function":{}}