{"input_nodes":6,"hidden_nodes":18,"output_nodes":2,"weights_ih":{"rows":18,"cols":6,"data":[[-0.4206793247442151,0.0007250799371436925,-0.3433916547274463,-0.40828160399544683,-0.5271068085518897,0.47651132947084146],[0.41170298056696997,-0.33623994095602616,-1.5456085480998767,0.9371122297640319,-1.0371223798973297,0.27971679701591656],[-0.3527252486309106,1.0930689083714813,1.3991486000783147,1.519677167876051,-0.6202622133820319,-0.3135019083528644],[-1.0068510261103734,-2.1824369582845478,0.5686414096296184,1.070015912097064,-1.1381433990014407,1.357544118912209],[-0.15622447931552214,-0.4287518501683931,-0.20422716686051334,-0.7030732910692301,1.0869650882226878,-0.32764014543425585],[-0.9858487342800027,-1.2325579865014769,-1.4472222396288132,0.27843423195278016,0.7194427187352666,-0.5618778530831923],[0.816050020619723,-0.7565633427328367,-0.13561875473022753,1.6764879391366962,0.03108880570790176,0.8007548112739595],[-0.13271178681792883,-1.2284640513223701,0.8576097894216952,1.0094822986641676,-1.2952028199558614,-0.2769490329946758],[-0.24407768279811348,-0.2476346345429297,1.4314592079027324,-0.1813658198492287,0.020295325201054037,-0.4100361701217867],[0.1475106007542965,0.4675415445508684,-0.06735420269359196,0.07522348512924126,-0.7285587897250461,0.5490646840413311],[0.17573390930536126,-0.9559099075994657,1.2831715866986177,-0.7346849529079127,-0.5498814662346563,-0.3349729152588609],[-0.8766696038802363,-0.623000605971652,1.473105913794407,0.3380050519060662,0.5618737180102706,0.21230108673164402],[0.421587906642768,-0.21422358536802677,-0.2720731746246758,0.3211685912386651,2.2796891673049675,-0.2622117949547794],[0.677787268611697,-0.7611644842859747,1.9251208923248455,-0.5174169830769769,1.3274031514231268,1.4208245742737255],[-0.9968669520790268,-1.9457796249558068,-1.2523179297958955,0.43207776809069487,0.9247484552545335,-0.5627708248094],[0.1320894039573757,0.6488506686935271,0.7158233950690517,0.31720805722766665,-0.5459233201833175,0.4852381227579896],[-0.03514611884653171,1.0789266423406838,0.22966792462501912,-1.4322860207515682,-1.1785478444434527,0.591207689446659],[-1.2669768528294805,0.636264957414112,0.09977671948161726,0.6492908221234691,1.090166157470483,0.16623342333694177]]},"weights_ho":{"rows":2,"cols":18,"data":[[-0.6558713544747097,0.5870518375804633,0.658706872483628,1.4364093587798459,-1.5208994222817664,1.5987467365971153,0.6784670217514037,0.5113337641731925,-0.9347227046804052,0.22098473511661576,-1.3353335120785748,0.6974318173740786,-0.10608577360067872,-0.9721567218027155,1.7696139045624966,-0.5813918272801337,-1.06941303827984,0.34284252074277777],[0.5399211427625872,-0.35954461555075523,-0.9148980952855089,1.0863772634366375,0.985848556574539,-0.11638621777926061,-0.08927718973561949,-0.1927059839311704,1.190073576231708,-0.7383328224494711,0.3759318605823061,-0.14258520821373422,-0.5246768426340517,0.015579035092425508,1.0849690753909895,0.26806129400017703,0.8974360479741619,1.617729324133775]]},"bias_h":{"rows":18,"cols":1,"data":[[-0.16433100656755106],[0.0731821218142048],[0.5939135804206529],[-0.34113901636568433],[-0.7326997060737129],[1.3701219831387326],[0.45817039994257214],[-0.9506559208326004],[-0.43054833547430044],[-0.4994876155633595],[0.3336540836242567],[2.0343737916011957],[0.9469020032464898],[0.8756051199827661],[0.16432387536674142],[-0.8393119350002528],[-0.22929087562168018],[0.6548544019276241]]},"bias_o":{"rows":2,"cols":1,"data":[[-0.9000738998466938],[-1.3665504370437673]]},"learning_rate":0.1,"activation_function":{}}