{"input_nodes":6,"hidden_nodes":18,"output_nodes":2,"weights_ih":{"rows":18,"cols":6,"data":[[-0.5918075129434957,-0.11119558827478747,-0.518837662845806,-0.17401590829845795,-0.7352886122616139,0.13419483186671893],[0.26359402967913975,-0.19605244292171478,-1.3161853834308235,0.4183444712086083,-1.0225582677411624,-0.012321493364584452],[-0.5392280852200171,1.206242479155417,1.1962854775288976,1.5895329978909933,-0.5373543190034479,-0.34756188461544657],[-1.1460573441144668,-2.209138257593233,0.8025530451200222,0.7411458929790837,-1.1116016501820312,1.2072785063151088],[-0.34672053411151227,-0.05715694268861668,-0.8441504497793018,-1.257784276666086,0.9319921863922658,-0.23134051936269814],[-0.9780107810801392,-1.69557054099846,-1.7078714312831582,-0.05426982734820833,0.8212527715073589,-0.6376906875453168],[0.799007689189021,-0.8351784771207138,0.4674725540960269,1.7243925151321235,0.334601169149511,0.8441941082378785],[-0.12283206255420802,-1.1050178213898518,0.9742368766529075,1.3868534659432996,-1.0133059180499508,-0.29252652093648956],[-0.24550601551597678,-0.7359335850382847,1.3421134876143785,-0.270745610870682,0.02527051502677094,-0.5838681119210282],[0.26274858594583006,0.43058738487489756,-0.07357335029444835,0.27782861460084285,-0.5508909568275061,0.5093793249721559],[0.2596584634052647,-0.7589220552389144,0.7956641615935391,-0.43130005976438834,-0.5913055838703358,0.18403589768664436],[-0.46261509813034246,-0.7590639561292472,1.141595146505061,0.8707133805155034,0.7226833909505717,0.12313986619943934],[0.25715659107691097,-0.193009746667085,-0.5918651412235469,-0.1400869989171662,2.272787723189304,-0.22298650435669054],[0.9851393716692654,-0.715478143976695,1.8005087505743436,-0.7545725239587833,1.6100790364927045,1.5356663188589488],[-0.9475046340500731,-2.0139703989555584,-1.3711347412357842,0.8933580334494733,1.0094971424882704,-0.5811811073683605],[0.1385692205525984,0.3082777892643792,1.0356201637969367,0.18128777204066276,-0.7211820264450293,0.30883736916241766],[-0.5948105546194544,0.9270058913950465,0.6486932629475842,-1.3159080281996227,-1.2841855985321378,0.23625535066390024],[-1.1594323336969588,0.5649086668973345,0.2336593201719021,0.19347734185934135,0.7540131881675926,0.3074962167361917]]},"weights_ho":{"rows":2,"cols":18,"data":[[-0.7022899871539932,0.2944401848557918,1.0827596556673011,1.611538649503287,-1.244255616192368,1.5678849536422939,0.3915827550105132,0.41717229544245854,-1.211834029961546,0.40414270351882897,-1.1519441448772885,0.804199079657972,-0.4169957732654227,-1.0281673669884903,1.9179212068685807,-0.7984883122887978,-1.4498631945821538,0.4264307958944249],[0.28740159093743395,-0.6207803517764368,-1.4584763432165042,0.896664540000672,1.2884495277865953,0.016574878293805717,0.13826967825003367,-0.1407217583716461,1.474793582123084,-0.3612165587710371,0.11795148509530065,-0.2721008104040011,-0.701325870256143,-0.09552884241534075,0.6955128842759533,0.36931895888318067,0.771795511886115,1.8555361758128057]]},"bias_h":{"rows":18,"cols":1,"data":[[0.27925846551148076],[0.08709482493475443],[1.033871249141348],[-0.31595339846872017],[-0.46284918965106825],[1.4754347620772412],[0.6095013419682103],[-1.3235020418943861],[-0.5992680223713134],[-0.42898827245857585],[0.4621632544907575],[2.1461215707563954],[0.3446927046068046],[1.2694136913992806],[0.13366103092319065],[-0.7353924964433286],[0.23079346918602456],[0.9697369263820083]]},"bias_o":{"rows":2,"cols":1,"data":[[-0.9170643442615255],[-1.2437488540552972]]},"learning_rate":0.1,"activation_function":{}}