{"input_nodes":6,"hidden_nodes":18,"output_nodes":2,"weights_ih":{"rows":18,"cols":6,"data":[[-0.23564882945456922,0.3640593971807376,-0.5698720249773487,-0.793467727463834,0.49577978051956745,-0.11569556503452023],[0.6837695456926638,-0.3186832550577471,-1.7189266572314068,0.7582611812333585,-1.0702377677997048,0.27049295470597634],[-0.5940288093733478,0.5853682079977651,1.8513643782384155,1.1041059228253798,0.04972371652924565,1.4872499310148692],[-1.529424669039469,-2.1155358641069997,0.7259560579075536,1.8207383967023427,-1.1295263134615312,1.8427697923152468],[-0.15990075343858723,-0.5145291167455504,-0.0037976071262634456,-0.4011972549725763,1.0263173059548112,-0.034575785684010145],[-0.6988172725856098,-1.7871247469464453,-1.529296527554886,-0.3390893093752745,0.27696645712155776,-1.0506572885651468],[0.4559585229139144,0.6928773085343073,0.818548245297742,1.8921746901484335,-0.7795384086752739,2.169400101288817],[-0.4176080109260808,-0.9054447649956143,-0.023014431762865453,1.2267808569806085,-0.4913919690075934,0.011859577924745925],[0.6491623684447135,-0.6281541915856178,1.1017396170956384,-0.8520955687652416,0.5095443999130931,1.0814795278221185],[0.563630383982152,-0.28059542711923025,0.1625519357778058,-0.3217901607721065,0.7315505835859956,1.1898056678539628],[0.5049543973134122,-0.6882218430080006,1.2304287262161615,-0.6849147247170263,-0.6756873157865384,-0.5772022877750856],[-0.8359658241223864,-1.0227216668321537,1.3215848101608416,0.5917772737011745,-0.13184412826539663,0.8256885429716557],[-0.5403851652052044,-0.0742122778245304,0.08487322740296688,0.44217532243667934,2.4466061484188866,0.3903751890403424],[0.6464677218015826,-0.6491597270934552,0.8210888746478349,-0.01353485985850061,1.2916947396047602,2.030784469949343],[-0.8097146743156329,-1.8224997901363726,-0.8311698202022753,1.0020432659557332,1.315585542656834,-0.3221132153338679],[-0.21911021545164003,1.2060984253207994,0.004290823976041091,0.8550301540165228,-0.08602202209544078,0.8582411872190437],[-0.19868245233841367,1.3448732364678266,-0.725809255502428,-1.0416929280405363,-1.3643499873833178,0.6443517565389315],[-1.4752352657614891,0.8244227479737052,0.1633543405861402,0.065835877248273,1.5825121658208643,0.8877705159227074]]},"weights_ho":{"rows":2,"cols":18,"data":[[-0.4713266136443224,0.6144663845594724,1.0490912290716898,1.2808147616424965,-1.7467654113487068,1.8139224144562618,0.2600747093371313,0.9112320533567185,-1.2669577840764512,-0.4008285790000889,-1.0353567908576762,-0.032684001622028225,-0.12828681210043624,-0.4212382886215304,2.0296471436276815,-0.30562568373285376,-0.8493362833088723,0.42133960300528916],[0.08990003072875424,-1.8669269292456157,-1.6881754602416328,2.1546089191930324,1.2236132264965158,-1.0022023645347085,-0.15975103248608807,0.5278052607315842,1.2923899500740301,-0.5935490870008544,1.3140469251965174,0.09605089290792868,-0.5919475231185181,-1.3411142411431207,1.7223192469423707,0.22017829246607049,1.0729121487548587,2.307541175527595]]},"bias_h":{"rows":18,"cols":1,"data":[[0.020931141115764565],[-0.1779902872092697],[-0.43392284470967457],[-0.1472193709435985],[-0.7507748607479287],[1.8373935100984893],[-0.61483716164487],[-0.4351407166227157],[0.3363124817212682],[-0.7505553612593573],[-0.01885500185878375],[2.772800637895301],[-0.023943199060914695],[1.3970418178414712],[0.7452776437675144],[-0.2770200244259942],[-0.5322756521716132],[0.9238861965184075]]},"bias_o":{"rows":2,"cols":1,"data":[[-1.2344173469290265],[-1.4091533754227072]]},"learning_rate":0.1,"activation_function":{}}