{"input_nodes":6,"hidden_nodes":18,"output_nodes":2,"weights_ih":{"rows":18,"cols":6,"data":[[-0.5368581885542622,-0.006404978558153043,-0.051047035500034504,-0.33004643148544716,-0.5027346790710528,0.9448575581593204],[0.29313112523913487,-0.117323829457861,-1.6504103983292235,0.8884508991193593,-1.1067370984636433,-0.07950577752336642],[-0.4864587343837842,1.1982687100528304,1.0483039270600079,1.2342208110213906,-0.9725525696442139,-0.10553294293527352],[-1.2155526394433778,-2.2316840964535314,0.4598716932439403,1.470380141177314,-1.0357705225167553,1.496616670673321],[0.08268272271829982,-0.41217538914239615,-0.12431979972130457,-0.764897531936988,1.0008793886463532,-0.3550643337301723],[-0.7449216024693956,-1.376053143311902,-1.1743040468345367,-0.22649941247071692,0.5467353368428544,-0.7283491204477076],[0.6745758046314941,-0.6859812276389611,0.3675447306380261,1.855829047315963,0.12143681037422752,1.1342872118482674],[-0.4276442329400182,-1.4975637934863804,0.7939499051941852,0.7508766107303055,-1.093216500218335,-0.04940950057175531],[-0.3569932657084,-0.1363092181023791,1.442122835441611,-0.0717955389279628,0.13424249832231436,-0.3098810882522339],[-0.25089980718376015,0.22755428082102522,0.01948379909801433,0.06189689416799585,-0.8519629866247787,0.7189467549859698],[0.227156455959919,-1.0056507837903736,1.0627321224616746,-0.5837461852382403,-0.6528410070678905,-0.40245388902850865],[-0.7141912054274172,-0.7896313208309041,1.7713370351158062,0.2039824617773417,0.3580090262458155,0.8454191848291281],[0.6163146595008768,0.1342792896936915,-0.3689463371473816,0.45104206137245406,2.44555416659055,-0.11506773177244935],[0.5631854731920448,-0.8565984771172628,1.6674997753060716,-0.5468651588156388,1.123031697706804,1.5825841813346306],[-0.748462951647687,-2.0311370687055703,-0.9813560914378439,0.9198702763525134,0.9506910911624293,-0.75310647175523],[0.016112722727703872,0.7806366782286713,0.705211730795333,0.6047604263331744,-0.13821992564999105,0.8274657756361025],[-0.4242191687175319,0.6935228630137713,0.2110222483172644,-1.1739936291151145,-1.0864435929622516,0.23493963519770733],[-1.058438288824129,0.7637563549553138,0.2044823240582913,0.6876832718696725,1.0376470015727075,0.6230141962734214]]},"weights_ho":{"rows":2,"cols":18,"data":[[-0.8014046973621658,0.44640317014009434,0.6468223760841703,1.5943205194338754,-1.5418399785750527,1.6529716517972792,0.7817038019277335,0.4643725224274016,-1.1397279889442764,-0.7043807955014417,-1.1876376764408818,0.6994564127078909,-0.32003732563067,-0.9619417081303139,1.822444061316922,-0.4858248468229563,-0.9401327744539107,0.7080101055340441],[0.39648869535512077,-1.145069018684595,-0.8881361986187131,1.1459826721397264,1.0331969875832485,-0.261872737217283,0.06609750479751024,0.6619845137788938,0.6131158462547643,-0.857304919895703,0.8121607035709649,-0.02335387987564229,-0.8980072078269379,-0.08353961556515486,1.0029084195603943,0.3973711644169519,1.0843986593831092,2.070198887625704]]},"bias_h":{"rows":18,"cols":1,"data":[[0.34866116610174214],[-0.0706593265158009],[0.3772470906305059],[-0.24969503968736761],[-1.0394759061494596],[1.549914665206926],[0.03533842365651685],[-1.1021111793736622],[-0.700661659974997],[-0.26106681491098127],[0.6217083126906116],[1.8575779343382774],[0.9594509749023836],[0.7158039438718149],[0.35943855769940103],[-0.7497754759015959],[-0.24549432587432835],[0.8787019438070443]]},"bias_o":{"rows":2,"cols":1,"data":[[-0.9242616626081575],[-1.2602249881380723]]},"learning_rate":0.1,"activation_function":{}}