{"input_nodes":6,"hidden_nodes":18,"output_nodes":2,"weights_ih":{"rows":18,"cols":6,"data":[[0.5340336007812232,0.5536320286848356,0.21275804743188892,-1.6174425113815682,0.7457192815612932,-0.32727590596825507],[1.363656094299538,-1.3419922365146169,-1.4387988445240687,0.9939332929093535,-1.292447452703357,1.158862080077498],[-0.9474198689081378,0.6996146915300586,2.221771470043853,1.6903373254641947,0.00702209641648395,0.9147777554930393],[-0.9572926766638504,-2.7767339421469788,1.3806319205813478,1.7981786834688294,-0.9827306353371861,1.704133956184517],[0.11253719884012228,0.43372483988902266,-0.05109640503073596,-0.3235660490065908,1.7520873384751825,0.47787275370133253],[-0.9862611161571193,-1.0941019466199748,-1.3329844130831907,0.7294570757862354,0.5209169952705841,-1.4228285486595325],[1.1106912171821388,1.5915802519606754,0.7044073169772128,2.049572817121474,-0.5478423011788558,2.2461603273585973],[-1.0173326705199626,-2.0553034208479857,-0.05524072369710568,2.083702101401901,-0.32619040561221146,0.4830387565823913],[0.8090438929594528,-1.003114613538489,2.0153123480008697,-0.8409207647676942,0.5879275624986668,0.47311635328639484],[0.6332218485754487,-1.6350314080841981,0.20270085981192654,-0.5814003847347247,2.7295556076443703,0.7553712617495755],[0.6101446832937386,-1.27703977894863,0.7086208574952949,0.3548230998961004,-1.5386457657761352,0.09320893343563948],[-0.9096784351934749,-0.8905324018701783,1.7346073875787784,0.004444794677192859,-1.047465368247487,1.0183323961280568],[-0.4789952570138105,-0.40128911125650213,1.356298771758281,-0.45717321525479765,2.21509725371178,1.199393937297634],[-0.3437654112144505,-1.1785275450257473,-0.23657227203931463,-0.1562040563210515,1.1345375836101197,1.689040277571335],[-1.6268442641286673,-2.18649589852376,-0.7571412245307998,0.4252907630023975,1.0918338551167857,0.16129068978488548],[0.5070390032701202,1.2423908524240082,0.7298219150902854,1.0708913027178066,1.0531411775829005,1.799757857587648],[-0.31887594261922475,0.6873799411157587,0.12745037735136194,-1.5789456083653353,-1.7045280385524457,0.9851173281491085],[-2.4293645125770085,2.0232556308604526,0.7265225247428037,0.5925090706563436,1.832580647129322,-0.987032308489574]]},"weights_ho":{"rows":2,"cols":18,"data":[[-0.39567026092775975,-0.7223973274407447,1.6095409311707722,1.1396148341439327,-1.8392324538143119,1.5371016649946627,0.9912386596908946,0.30756843971143394,-1.1880502776072466,0.1513831662093805,-0.7927234271203965,-0.5962805577261585,0.2068398239107484,-0.0992744333521654,1.999217073284107,-0.3112509224525603,-1.4745282281034466,0.3883094608928389],[0.49277846260704355,-1.502799998489176,-1.2354632518419095,3.1005469218768917,1.4374615332251741,-0.8914434367933477,-0.43287890505548277,1.103759846505664,1.3336157488054283,-1.2026914433670857,1.5016069624909665,-0.7954594057478839,-1.482011090359816,-1.9652415382832862,1.9070957060840084,0.48098531804879796,1.3491685318779185,2.2111778717702513]]},"bias_h":{"rows":18,"cols":1,"data":[[-0.8304642951169422],[-0.027445160154624476],[-0.23367989365209096],[-0.14247325954219137],[-1.1187156345193352],[0.9471003192385904],[-1.5742895717373155],[-1.1504651090070623],[1.5222268291331416],[-0.780264952939763],[-0.37040153541103843],[2.880753285662907],[-0.1277341937982462],[1.1110892930220497],[0.46074771624305383],[0.16656055404567058],[-0.5491279286774539],[0.3696532849410229]]},"bias_o":{"rows":2,"cols":1,"data":[[-1.260152737480255],[-1.7359132160002415]]},"learning_rate":0.1,"activation_function":{}}