{"input_nodes":6,"hidden_nodes":18,"output_nodes":2,"weights_ih":{"rows":18,"cols":6,"data":[[-0.747392406804805,0.24248661347796427,-0.5358729797459367,0.032414918721543895,-0.5532870123311631,0.601661294112759],[0.2317320654775675,-0.1423420047106294,-1.5017195830870664,0.8349743238367848,-0.9841418706208072,-0.2037955699362894],[-0.36183450236159986,1.1396167080580475,0.9906479243307793,1.1644290604857703,-0.315480035253216,-0.5326796119553608],[-1.030068902416903,-1.343862515090691,1.159581357579957,0.9508872438809962,-0.9185806218451135,1.4637655070106004],[0.1554937497335701,-0.999780558858166,-0.3771375538521936,-0.7515802674266907,0.6475693313604265,-0.34062715431498336],[-0.8778830816212596,-1.0354596566907088,-1.037382096251891,0.7399314570767409,0.6656670692367604,-0.5325566908739328],[0.920958183999151,0.16731706200594226,-0.10950167668957375,0.8184644291018426,-0.12040878154407711,0.364202791948825],[0.011546549585828902,-1.039701621515171,1.1035926777176717,0.8524129003157933,-1.2483259947483114,-0.27307391128946634],[-0.12910026541316974,0.2931099323356264,1.1959505122998606,0.2191036962596173,-0.04097310425553183,-0.6634826314682871],[-0.08165623362860926,0.08965581221396793,-0.39176672802186396,0.22015744631386622,-1.1367152206599338,0.23866791584851726],[-0.12166526011639986,-0.8811544906623612,1.3113893078156513,-0.9877269756103034,-0.5813545091772998,-0.10489475238782911],[-0.6595267231989326,-0.8824321947460195,0.5394128188506394,0.1634049578021061,0.8096576182774546,0.36847734757285655],[0.305375657096772,-0.20712976588395596,-0.00899535329341071,0.5168507633733728,2.13936405430283,-0.15969997338336767],[0.6857495076165725,-0.8044970472613637,1.4669667312389454,-0.8092604664785674,0.9106935088684596,1.5494360359383648],[-0.8655359041377318,-1.5323223815127323,-0.47262568479617745,0.32275541902000404,0.7489648793147019,-0.23384501730952245],[0.32236793660911434,0.30452383402165106,0.3982406019274213,0.3378530477545098,-0.12807997970014795,-0.19846211605325445],[0.19901087984905275,0.36370915953455757,-0.014160790033788007,-0.9928556055306178,-0.40494259168330793,0.0067775880792644815],[-0.7206236849716481,0.6248345269884468,0.5340708141892263,0.7184318302652953,0.9689100615344676,0.6151360973247361]]},"weights_ho":{"rows":2,"cols":18,"data":[[-0.4007897084240617,0.07943071125011636,0.5306559766105529,1.697053429617409,-1.946818719380509,1.2122518265689983,0.5319609590058888,0.9081692354942991,-1.2086183696930237,0.010590036280974047,-1.0782976761719887,0.7118446797035396,0.035157964744595795,-0.7195466002461167,1.4848798921597588,-0.48189894152428747,-0.8732692522578681,-0.24380100716585523],[0.44673217546926647,-0.7858945947483612,-0.5173619522664805,0.9015983292500206,1.1857644377538996,-0.0971441126474553,-0.36389650748949515,-0.12566198910817852,1.3336240702266278,-1.1348127422401952,0.6484032127930627,-0.0027341066457469837,-0.5241128876636116,-0.7520637779201714,0.5076279108610436,0.017527237386901803,1.3332008011321181,1.6738242536572285]]},"bias_h":{"rows":18,"cols":1,"data":[[-0.2323557177611682],[0.4438078712848114],[0.3594931492565941],[-0.048564274368368826],[-0.6344759148344263],[0.9172973008704963],[0.6061177683343286],[-0.5098910172930493],[-0.19151700425991203],[-0.4893627661865398],[0.18857498545327894],[1.4261863490456432],[0.9953199775186498],[0.9218440401823597],[0.13902576466694327],[-0.37691284942195447],[-0.2614821369423353],[0.6653648524141658]]},"bias_o":{"rows":2,"cols":1,"data":[[-0.772220401502262],[-0.9144105791402288]]},"learning_rate":0.1,"activation_function":{}}