{"input_nodes":6,"hidden_nodes":18,"output_nodes":2,"weights_ih":{"rows":18,"cols":6,"data":[[-0.5152485056300329,0.019087457739979302,-0.1723487543363466,-0.48724110411177013,0.12238386967580547,0.7856711208069735],[0.4629607857372182,-0.1879964176318408,-1.6302993844943572,0.9821737564349867,-1.255051851318423,0.08062314452679652],[-0.27667024658263345,0.9588514024864885,0.8133792279913332,1.1844857832244478,-0.5778719488212531,0.0532729909832824],[-1.4779460639712734,-2.3878249531271374,0.5140061956377902,1.3128647708916885,-1.048327022490562,1.4432202101088134],[-0.06051135256626047,-0.45240016905095753,-0.22515850548919514,-0.6564577687343783,0.969354428875781,-0.21302631596376892],[-0.7529822393058913,-1.331358755808617,-1.295237984901207,0.02045740462925069,0.8009072521771156,-0.6830217490489745],[0.821160178053429,-0.41386027017780824,0.010728511391825457,1.6227899602098144,0.12528647852118463,1.1149093336573022],[-0.21465250221425733,-1.1857126231740491,0.3719950069985952,0.8818053785492325,-1.0038783948752612,-0.011731706727362165],[-0.13320502093441997,-0.17851621295589531,1.4758611225653246,-0.22232762720006893,-0.057578287992159125,-0.19873618742273305],[-0.1082634430308273,0.04384119114938857,0.05825338393513334,-0.11112491361719759,-0.9592617817862928,0.958117077865633],[0.2269855172952655,-1.0079711744091309,1.1719146757171115,-0.8581834239669639,-0.735331076086954,-0.5000055366656248],[-0.4569926124478856,-1.0724582390735513,1.70027566054478,0.25131706457897596,0.5424725632846067,0.7806403283604932],[0.45446837458267686,-0.33459753588137353,-0.24861003288355776,0.5690123170515408,2.5248870187430636,-0.28715514084993454],[0.45473243708352007,-1.168213215784176,1.5215145892233275,-0.2079504723468268,1.3432263125104356,1.4858514034035024],[-0.9847647420778302,-2.261659785304229,-0.7075429011434661,0.8327849400966981,0.8361036503368615,-0.5993863917871],[0.09767720333731153,0.6346385429657346,0.31504228096789727,0.41753916428720556,-0.21869228942879926,0.9359450653802655],[-0.25614017434226144,0.6748936795493116,0.13605774455586825,-0.9987747558409114,-0.847313869985979,0.14995966791891063],[-1.393883082663259,0.541108622106785,0.2562535586238537,0.612721040843744,1.2907777068699555,-0.00918976301701406]]},"weights_ho":{"rows":2,"cols":18,"data":[[-0.8326237839135303,0.8330862808711,0.8819912545065944,1.4330710829307496,-1.5116713342904193,1.7463309538897516,0.5672289600927184,0.6084748748572333,-0.9908236253913897,-0.29996705977598803,-1.0176950510438414,0.5753372437770893,-0.2794053172958453,-1.0139781751423602,1.8608760394495913,-0.41487614309798937,-0.9632130429651633,0.3057642385578383],[0.40473904912345693,-1.0163033321283523,-0.8462210402235129,1.370289604569598,0.9245821523587296,-0.17622242915426997,-0.1614770351370879,0.4774542476218962,0.9050737038560439,-1.0393934688313602,0.5583904047967276,0.01187994454481997,-0.7741379824712203,-0.1610392842122853,1.034656389217961,0.36579008971804394,1.1666944860389001,2.042355928764854]]},"bias_h":{"rows":18,"cols":1,"data":[[0.06287380119512832],[0.0001154776738552521],[0.4353571084522148],[0.0369497493256704],[-0.9025007206489872],[1.4550124890233314],[0.12038806546955289],[-1.0860396573023783],[-0.3735617342141908],[-0.1823291260664503],[0.44314504009263495],[2.127034679371783],[1.1851950831775522],[0.8117145141423525],[0.2829043852612423],[-0.6445784963370643],[-0.3398718716040804],[0.7882823004177013]]},"bias_o":{"rows":2,"cols":1,"data":[[-0.9311706650658462],[-1.5195307158084626]]},"learning_rate":0.1,"activation_function":{}}