{"input_nodes":6,"hidden_nodes":18,"output_nodes":2,"weights_ih":{"rows":18,"cols":6,"data":[[-0.44833039712189265,0.004440823701619301,-0.15085213003783193,-0.5040252450280747,-0.23279852278882351,0.9501613962880315],[0.5503259519910798,-0.24179581210991785,-1.728286189801877,0.9821737564349867,-1.370161691039106,0.05396471067095332],[-0.3401950515251412,0.8476843469667412,1.031331662306388,1.2021111038736687,-0.39503420915779824,-0.07159616795786247],[-1.1875828519151927,-2.3331111257713317,0.6048562511490462,1.470191874715765,-1.048327022490562,1.4432202101088134],[0.022439123049789844,-0.4185548221324332,-0.22515850548919514,-0.6564577687343783,1.0094048161799938,-0.06455301096706689],[-0.5828574209643507,-1.1150411178778579,-1.3873981884438151,0.012225027344022504,0.6522736512526447,-0.6478705631406906],[0.6692814434948221,-0.3116360660684925,0.14147977255120808,1.587476484355524,-0.07122140985401804,1.097059401099328],[-0.2759847323126158,-1.1460173995500762,0.28069944871947905,0.8439043872216304,-1.0207243342623036,-0.09056262868229263],[0.1132970432652522,-0.18801929809606155,1.4951955038518432,-0.32444069142847365,-0.11406348389074784,-0.2920447605274858],[-0.009128450415392605,0.31690151985819454,-0.00004272321478261676,-0.11112491361719759,-0.8620559847828427,0.7416427384161439],[0.8772793299431023,-0.910539327154725,1.2386800151560138,-0.6823510350888929,-0.889666061166585,-0.7326458823990456],[-0.6278640959722249,-0.9971744317328861,1.6875289708419814,0.1679824309625051,0.564286149309206,0.634514887062575],[0.535818488465766,-0.4216675788994553,0.0862038904177885,0.6855853821700357,2.390428315982119,-0.10380755800085828],[0.2516181557092048,-1.1961453370408666,1.5975075943156622,-0.3084799197451242,0.9933794472053006,1.5602230608666723],[-1.1941529339586163,-2.040408409914964,-0.8463375362951525,0.9428418302633479,0.9475131350261098,-0.5271962455073373],[0.15389603673138735,1.0670142550028996,0.31504228096789727,0.41745704808616574,-0.2696664163001391,1.1322733296715222],[-0.058007894651737675,0.6789266812433173,0.18343890570045504,-0.985674382918306,-1.136468944544982,-0.03652217050364222],[-1.3792740645876438,0.6285997507175036,0.40372473606422654,0.6102619343797625,1.0585619926500285,0.2149116469869017]]},"weights_ho":{"rows":2,"cols":18,"data":[[-0.7719963875067511,0.8024046288356353,0.8093801608355777,1.4330710829307496,-1.548354750902278,1.5359865265602912,0.47244510652932853,0.46978958716373403,-1.1554590972567773,-0.39992119857991554,-1.0522947060439383,0.5833567916603384,-0.28693861316023517,-0.8763950029921354,1.9400259302127645,-0.5195937817520097,-1.0034877781773741,0.23854215363136963],[0.4669311493355574,-0.933581325313737,-1.007340868350184,1.0839622102686397,1.079115672713952,-0.46475421783579396,0.37857347250900986,0.3963551724515163,1.0851223452008798,-0.9678977214848932,0.6199541146743069,0.13901121233080355,-0.8056787505248534,-0.45783941102153003,1.4468039139696505,0.19217051070775548,1.1636834303906318,2.229943433763231]]},"bias_h":{"rows":18,"cols":1,"data":[[0.0002325443712336006],[-0.04222288507954733],[0.3978848008068717],[0.07953309576118081],[-0.9025007206489872],[1.6424825020104696],[0.10970390239614203],[-1.1086030397760835],[-0.35635810547182406],[-0.381122837890627],[0.787082553923956],[2.407521564349587],[1.1184751432572084],[0.7797988940586957],[0.2899296379238969],[-0.6445784963370643],[-0.34898028295233974],[0.5911618276239038]]},"bias_o":{"rows":2,"cols":1,"data":[[-0.7377485715889924],[-1.3910038366989999]]},"learning_rate":0.1,"activation_function":{}}