{"input_nodes":6,"hidden_nodes":18,"output_nodes":2,"weights_ih":{"rows":18,"cols":6,"data":[[-0.3881856241518552,0.23587715316868155,-0.19082188135953784,0.09106733376331053,0.7214767270297217,0.1903423254738701],[0.3500310408153063,-0.3816552043941436,-1.655129135368128,0.8780554421343265,-1.459174868827595,0.16131143071195364],[-0.8620333495765786,1.0975816363177018,0.9367587074089261,1.4066211799445012,-0.47920121906699,1.0828788519960275],[-0.9274524079557797,-2.274867078855732,0.8780224669837786,1.7343378272939807,-1.1836902753495944,1.6561624659237815],[-0.027472243452761974,-0.34184096012674037,-0.5653651439690133,-0.8058476267794772,0.8514271363539234,0.0071149751841790496],[-0.3687837129858037,-1.3649939115657581,-1.2756288683854584,-0.2330305904914161,0.3391098583287153,-0.7022426599800973],[0.6914351614619935,-0.19770141321964305,0.41790734860677486,1.730599899105194,-0.5258619474616546,1.7720036476290326],[-0.4594042741618632,-1.017789086940676,-0.3050366974044425,1.449978438664773,-0.1444839017544977,0.11529963152833977],[0.5065060553462656,-0.05689784629133149,1.123534654072348,-0.120638371788604,0.5609725345180541,0.7881862520609434],[0.46970425781358704,-0.22238363269747946,-0.013607093279340357,-0.38856521316754633,0.07180443109688142,1.4090586288687583],[0.7151489399071084,-1.0012807589910762,0.9120094218154922,-0.4337022203341775,-1.1320541565188469,-0.5976587916005575],[-1.263244994586075,-1.1861815092383303,1.8176551285124671,0.3028956877534709,0.25165142524268547,0.5762103638894276],[0.0690754446252631,-0.17154991768490466,0.06418958091939725,0.2332539669569175,2.4300879458048152,0.14518716078702948],[0.6347868733997619,-0.9907253223147595,0.9184287768692352,0.5961983364475569,0.513218523162543,1.9167732311250434],[-1.1506176477712695,-2.326982302591364,-0.5146081260630959,0.9652646856790765,1.2138843209029835,-0.39056108182702304],[0.11747547179607834,0.6103736991797342,0.04347986604465519,0.15335291673656656,-0.2147893478111696,0.6350392852552456],[-0.14487810287057878,0.3396223854322108,-0.4493235807090416,-0.9087551591742241,-1.1282002585381339,0.22358326870350256],[-1.3821906804765256,1.0517311190016483,0.37762175318975094,0.6414818478720177,1.4175102747669563,0.3766190383311835]]},"weights_ho":{"rows":2,"cols":18,"data":[[-0.8214924092465191,0.6977093968455631,0.9581219456601312,1.3467757792117363,-1.6884408074193922,1.6811900618468771,0.56341690820735,0.2785774814567247,-1.1885463163741374,-0.4225125614161871,-0.6816829444188187,0.5761146430584592,-0.2168575558233425,-0.5103201683612494,2.0741802481235463,-0.05055299026797472,-0.645968316013875,0.6326844589479232],[0.7141552317944125,-1.5599384066372648,-1.491762200849903,1.4932693699160406,1.1531746667508522,-0.7259095191428812,0.4186076399627919,0.16786857418600934,0.8995006837768502,-0.9529196788080626,0.40999322066516847,-0.13893035949291616,-0.48488428392072536,-0.9766399368908436,1.5479894938195524,0.020573485710268475,1.1319898574215292,2.25122014175995]]},"bias_h":{"rows":18,"cols":1,"data":[[0.2955250042777018],[-0.12868903905574997],[-0.5544179111334732],[-0.31452959800311275],[-0.4102817284016338],[1.1836610969068904],[-0.5498877809835505],[-1.1298032290598443],[-0.3611907067122902],[-0.5816785426394987],[-0.0019217584642704788],[2.655297033567888],[0.9763351529704672],[1.0025696008840477],[0.3974778253452433],[-0.7228072418888468],[-0.3956134135596484],[0.8384454547874627]]},"bias_o":{"rows":2,"cols":1,"data":[[-1.5159344539661121],[-1.4001454760680434]]},"learning_rate":0.1,"activation_function":{}}