{"input_nodes":6,"hidden_nodes":18,"output_nodes":2,"weights_ih":{"rows":18,"cols":6,"data":[[-0.5918075129434957,-0.11119558827478747,-0.518837662845806,-0.16784208369151726,-0.7352886122616139,0.0648940231514542],[0.17657325480682173,-0.19605244292171478,-1.101920754630288,0.4183444712086083,-1.0225582677411624,0.08628911800994324],[-0.5742414852912402,1.1896313529102664,1.1962854775288976,1.5895329978909933,-0.5373543190034479,-0.23153398672652797],[-1.1460573441144668,-2.145783157891158,0.7843569620725284,0.7411458929790837,-1.1116016501820312,1.0683777642981396],[-0.34672053411151227,-0.05715694268861668,-0.8441504497793018,-1.257784276666086,0.9319921863922658,-0.08634528258378475],[-0.9293458099451197,-1.69557054099846,-1.7078714312831582,0.029384368939205943,0.8212527715073589,-0.6376906875453168],[0.799007689189021,-0.8991613738232477,0.4674725540960269,1.7243925151321235,0.20644902986079952,0.9239795650760896],[-0.12283206255420802,-1.0327046414673893,1.323405040814147,1.3868534659432996,-1.0133059180499508,-0.29252652093648956],[-0.24550601551597678,-0.6257486294520623,1.3421134876143785,-0.1764975536928061,0.0755298348589796,-0.5838681119210282],[0.26274858594583006,0.5822361254154481,-0.07357335029444835,0.24329220890428788,-0.5508909568275061,0.5672171256607832],[0.412226668291665,-0.7589220552389144,0.921911456771444,-0.47362163245346234,-0.5913055838703358,0.053597706404402784],[-0.3917512339255648,-0.7590639561292472,1.163334201592737,0.8986231115099061,0.77918891866767,0.12313986619943934],[0.25715659107691097,0.025006561719354142,-0.562571661159611,-0.27967735235905333,2.272787723189304,-0.22298650435669054],[0.8816689819959304,-0.627210497961886,1.8144568658141624,-0.7545725239587833,1.6100790364927045,1.5356663188589488],[-0.9475046340500731,-2.0139703989555584,-1.3711347412357842,0.8933580334494733,0.8632628134846865,-0.5811811073683605],[0.2369620221641606,0.2860596875287947,1.0356201637969367,0.18128777204066276,-0.7211820264450293,0.4151210598036803],[-0.5948105546194544,0.9270058913950465,0.7687868217751614,-1.3159080281996227,-1.2841855985321378,0.23625535066390024],[-1.1594323336969588,0.6128873146479836,0.2336593201719021,0.09689111988817399,0.806728571207553,0.2174767512245121]]},"weights_ho":{"rows":2,"cols":18,"data":[[-0.7022899871539932,0.2944401848557918,1.0827596556673011,1.611538649503287,-1.244255616192368,1.5932086181197003,0.3915827550105132,0.41717229544245854,-1.211834029961546,0.47761119815073605,-1.3305224915790816,0.804199079657972,-0.4169957732654227,-0.938838129388622,2.0067860910387654,-0.7984883122887978,-1.4498631945821538,0.41025754260947744],[0.28740159093743395,-0.6207803517764368,-1.4584763432165042,0.896664540000672,1.2884495277865953,0.016574878293805717,0.13826967825003367,-0.18409964579173538,1.7176450609909228,-0.3612165587710371,0.3261623775285885,-0.2721008104040011,-0.701325870256143,-0.08746562741931607,0.5518202272804494,0.5491443331776538,0.658542808314538,1.6686096614860575]]},"bias_h":{"rows":18,"cols":1,"data":[[0.5078370835978689],[0.08709482493475443],[1.0111527605795883],[-0.31595339846872017],[-0.46284918965106825],[1.4754347620772412],[0.5181945621246247],[-1.3235020418943861],[-0.7750967715309882],[-0.3324607838339825],[0.32901034512275384],[2.2898676232605317],[0.3446927046068046],[1.0332530122790107],[0.06209623909115887],[-0.7353924964433286],[0.23079346918602456],[0.9161916883637075]]},"bias_o":{"rows":2,"cols":1,"data":[[-0.9170643442615255],[-1.2437488540552972]]},"learning_rate":0.1,"activation_function":{}}