{"input_nodes":6,"hidden_nodes":18,"output_nodes":2,"weights_ih":{"rows":18,"cols":6,"data":[[-0.5918075129434957,-0.08755483853222995,-0.5659260153769581,-0.34494751284894687,-0.8033902467585411,0.17838019394028112],[0.26359402967913975,-0.19605244292171478,-1.3161853834308235,0.5421843291921853,-1.1079246424018467,-0.0650368399535745],[-0.56362432476244,1.1606814691790146,1.0767193297114102,1.5895329978909933,-0.5373543190034479,-0.34756188461544657],[-1.1358289057274757,-2.0652386649834207,0.5909786627400335,0.876233188078992,-1.1116016501820312,1.2404421195102913],[-0.3832005279027991,-0.05715694268861668,-0.8441504497793018,-1.4327286072395244,0.9319921863922658,-0.12715712372848437],[-1.264411578129823,-1.6511805586819255,-1.7078714312831582,-0.05426982734820833,0.7338391133801208,-0.6014283619539911],[0.8164120917706565,-0.86836833009401,0.4674725540960269,1.721627696851477,0.334601169149511,0.90519351986869],[-0.12283206255420802,-1.1050178213898518,0.880070580790561,1.355104519872238,-1.0133059180499508,-0.29252652093648956],[-0.09608739146636193,-0.7860413808830929,1.3421134876143785,-0.2697097311054465,0.02527051502677094,-0.5838681119210282],[0.0406681010983905,0.43058738487489756,-0.07357335029444835,0.27782861460084285,-0.6058176428164019,0.5093793249721559],[0.18988059512720387,-0.6817154362352292,0.7268354988644172,-0.43130005976438834,-0.6392913190507314,0.18403589768664436],[-0.46261509813034246,-0.7590639561292472,1.1594269890983173,0.7305416615071907,0.674083216044148,0.12313986619943934],[0.25715659107691097,0.04344215642167952,-0.5918651412235469,0.02648285297635817,2.1366280089759475,-0.22298650435669054],[0.9851393716692654,-0.715478143976695,1.8005087505743436,-0.7545725239587833,1.6304822684901055,1.335171576005565],[-0.9475046340500731,-1.8521053487557284,-1.3711347412357842,0.5916107494131393,0.9677579924976606,-0.5453237062081033],[0.1385692205525984,0.4250787966637313,0.907743784670376,0.22995919439017445,-0.7211820264450293,0.3598223339948622],[-0.3743538527421315,0.7649687034641334,0.5786500730967662,-1.3159080281996227,-1.2841855985321378,0.23625535066390024],[-1.1594323336969588,0.5649086668973345,0.2336593201719021,0.19347734185934135,0.7161126274718502,0.2754203075431266]]},"weights_ho":{"rows":2,"cols":18,"data":[[-0.7022899871539932,0.2944401848557918,1.0827596556673011,1.611538649503287,-1.239288916222306,1.5678849536422939,0.5133903870762256,0.4660415589934182,-1.1157425642580732,0.40414270351882897,-1.213548069146728,0.804199079657972,-0.434703119147417,-1.0497514675024195,2.0688967244694214,-0.9195771858470649,-1.4498631945821538,0.3695298309897274],[0.34665898879442847,-0.6207803517764368,-1.4018989595093714,0.896664540000672,1.0696061143853366,0.016574878293805717,0.13826967825003367,-0.2574884505566033,1.474793582123084,-0.4120858325707359,0.11795148509530065,-0.33605717381257394,-0.7257054633654672,-0.05991233164093808,0.7415487624311029,0.30794994247283536,0.9505261962115623,1.8430882406355782]]},"bias_h":{"rows":18,"cols":1,"data":[[0.27925846551148076],[0.08709482493475443],[0.901386871189045],[-0.31595339846872017],[-0.38498067885140447],[1.440337442298378],[0.6095013419682103],[-1.2320809588398134],[-0.5200183436225959],[-0.38732961971765245],[0.2765264153323879],[2.1461215707563954],[0.3446927046068046],[1.2694136913992806],[0.13366103092319065],[-0.7353924964433286],[0.23079346918602456],[0.9697369263820083]]},"bias_o":{"rows":2,"cols":1,"data":[[-0.9170643442615255],[-1.2709780840633655]]},"learning_rate":0.1,"activation_function":{}}