{"input_nodes":6,"hidden_nodes":18,"output_nodes":2,"weights_ih":{"rows":18,"cols":6,"data":[[-0.4611836335410058,-0.4242073187424895,-0.03254920487212967,0.13345195698367435,0.04666868578690825,0.5013915060651115],[0.628667164551272,0.2674673452190537,-0.9284822191148323,0.9273085907777444,-0.8293512893256523,0.46696486554011024],[-0.5272332664556925,1.05244651935904,0.5667407435170042,0.6131470492447726,-0.659268773671855,-0.7121749455861099],[-0.6977121666155472,-0.8512975589758638,0.7447518764532872,0.5013105901086949,-0.8261503683792066,1.0667188294894203],[0.35091930633278645,-0.7985118077147826,-0.4141025701726009,-0.6481086170488242,0.5406248895662409,0.4166531884020124],[-0.5699280102993494,-0.7428561597147703,-0.5455200587590281,0.5448558521341753,0.8101666931686484,-0.6665004196597311],[-0.17782278424553422,0.4174717332191683,-0.13576248882374298,0.6043624392956823,-0.08118910887175002,0.4216725993325967],[0.6418053794782339,-0.5654649571400698,0.4891491713602888,0.25556049634137556,-1.0295837294433317,-0.44155594909667784],[-0.32274931890075514,-0.0909481147137341,0.7329357536636576,0.7926066595268013,-0.12842150849302603,-0.5815571969889128],[0.1826356587715184,0.9431040209442259,-0.34095384582896626,0.04465606283150825,-0.5423686591741306,0.5006485079383935],[0.019379388408186315,-0.9944842413536348,0.8928799991414784,-0.35332802758835724,-0.10205708974312702,0.14922562220205782],[-1.024285917544375,-0.9671276748161013,-0.05987370753748067,0.16181401067875748,0.3811777567366885,0.3587485799715755],[0.46607915901284036,0.10584461436151127,0.14994077549352758,0.3738237209307108,0.8826388249275832,0.46185991745250343],[0.22872403605144953,-0.731961412504285,0.9777134267805607,0.2939889236752866,0.04716322948553356,0.8821379728255756],[-0.8191329573618662,-0.48764802197238977,-0.7492511250593221,0.019397448152926076,0.3933073494652346,0.19882474999821215],[0.7183367778599714,0.5041213655639822,0.10795741272608007,0.3939466738206123,-0.41287514932638525,-0.4394146963049438],[0.08275921544401324,0.9508644223449441,-0.072403685218557,-0.7444332016053758,-0.2317257817391818,-0.0637829804723582],[-0.8935861298257084,0.6615652979625591,0.8846620667736398,0.648981675524439,0.8962320790323021,0.5764637774529293]]},"weights_ho":{"rows":2,"cols":18,"data":[[-0.4397280448055901,-0.3793413113649122,0.40264915122849887,0.8776952185275655,-0.7357745329268458,0.9086832370091145,0.34429255985735996,0.8705749694835557,-0.4060988115863715,0.08932958743378183,-0.4676720856092049,0.471051540584903,-0.5855807285479098,-0.7552833851368232,0.8963214411598353,-0.46314176553213837,0.41721673514454055,-0.02832084375081352],[-0.21614637362110267,-0.881964657055943,-0.017799466766528327,0.8072429286444042,0.6953952137142099,-0.1026089150737856,-0.7141744778033465,0.19784843085431075,0.870543787814376,-0.9115320479877935,0.6291460443933673,-0.22601016674116714,-0.6821771334662585,-0.7496968784649387,0.8602974373579411,-0.14048857496992273,1.0027965931954834,0.801830926846574]]},"bias_h":{"rows":18,"cols":1,"data":[[-0.33838061579564604],[0.868126107133198],[0.40434294544446026],[0.7142161321964593],[-0.8518492330082732],[0.458903183945198],[0.8788711778912348],[-1.046429424298649],[-0.1743989250288318],[-0.33948730105324243],[0.548453690953303],[0.6879495108465514],[0.9032668810756252],[0.6796206786186523],[0.535424618834464],[0.034631064039330514],[-0.4613800142088266],[0.5515444293732257]]},"bias_o":{"rows":2,"cols":1,"data":[[-0.3767916243508041],[-0.6698417694850411]]},"learning_rate":0.1,"activation_function":{}}