{"input_nodes":6,"hidden_nodes":18,"output_nodes":2,"weights_ih":{"rows":18,"cols":6,"data":[[0.0704160954090665,0.3671642630391832,-0.0020413670032753267,-0.9813658789782246,1.2477874310311017,0.018575204542998776],[1.4349082643782904,-0.5889449276560753,-1.7434375691124493,0.2345344829627782,-0.7407801522340554,0.548949364667039],[-0.404720544386782,0.8319879652467956,2.0304422779880795,1.1867312660536982,0.22457656075606713,1.07926918820915],[-0.9757038973454402,-2.3687276371463306,1.1102453653722992,2.1364093534346544,-1.0580878708048416,2.151782264784086],[-0.11478439550646025,-0.12456224078767489,-0.48203655667610235,-0.2077596358438935,1.7145995699170218,0.05023242301563885],[-0.5507570877443326,-1.2464502846467935,-1.4846985792056664,0.9769845619904727,0.6391726113905983,-1.6569980198713672],[1.0911253315634166,0.6787663011800278,1.1130849128755282,1.7416047381100874,-1.3357220354101254,2.115235687003598],[-0.45396045041454547,-2.25397149224831,-0.5523214469979535,1.612621450365896,-0.5989127154005285,0.12203375449948523],[1.059764251006478,-0.026995718962975805,1.199668648287402,-0.41721409406113263,0.38053624473293535,0.368827016009391],[0.6436549792389125,-0.6350981256263531,0.17622801599151813,-0.19850623996686015,2.199055809911895,0.7957572727651092],[0.5279044417991392,-1.2751793066123804,0.6347503604202526,-0.2066411311724405,-1.3359440739160846,-0.05817532545140258],[-1.1077066878936253,-0.7683945196989944,1.627057397618083,0.4735551572186769,-0.928736732330389,0.7678113484048655],[-0.160548824942629,-0.524476659032123,1.4452582262761198,-0.08294715181558247,2.406120015899372,1.0654951645694883],[-0.18429023373613584,-1.1845061667107775,0.15512769182680275,-0.749812372442731,0.8442551473450288,1.7513900353858107],[-1.4661848633656738,-1.9795062460024726,-0.4124840821224133,0.623853576948218,1.3374085484797245,-0.4283483364005068],[-0.06459782315832882,1.318338932900558,-0.004943767089804207,1.362676666767625,0.4485995843069194,1.197740462409531],[0.16043421307371244,0.4918223187757357,-0.39754108826479845,-1.4430583872239728,-1.2403180895039696,1.030949205426241],[-1.738377267437535,1.770882041109133,0.4343900400288274,0.4754990315363739,2.299808429724971,-0.04966091585376224]]},"weights_ho":{"rows":2,"cols":18,"data":[[-0.7740307079220581,0.257164912459782,1.284672446187205,0.9278669551435852,-2.3144631930008495,1.563421398554734,0.6337948317837819,0.75449598642727,-1.0212040980884323,-0.08093148510340642,-0.7756634528351949,0.1547098446914084,-0.35888182814070063,-0.025507238650863878,1.9630342705022896,-0.44608259864578204,-1.3366840934014799,0.6042955240523397],[-0.24122888746514798,-1.9786515141824204,-1.6858745397239854,2.269865615386286,0.7654918019958853,-1.104862418988733,-0.26667737872060193,0.6504532636896473,1.762515595883229,-1.031237543163568,1.4012943770290678,-0.01996870772444828,-1.4848425262592304,-1.1088446381261035,1.6863725643268241,0.33090723765719,0.526532581682966,2.6007806201613635]]},"bias_h":{"rows":18,"cols":1,"data":[[-0.3351945944493894],[-0.27561521378851206],[0.2270432415036993],[-0.5792707306904274],[-0.9851530439281057],[1.5140678592655306],[-1.0663787676206151],[-1.389827779780009],[0.09771445387238092],[-0.9159252642616396],[-0.2093740909503617],[2.507178938682492],[-0.04594390217592016],[1.50089219116536],[0.4601480051021062],[-0.10965366640173295],[-0.7348122446717147],[0.8388709450308688]]},"bias_o":{"rows":2,"cols":1,"data":[[-1.3710215730251962],[-1.647274741635628]]},"learning_rate":0.1,"activation_function":{}}