{"input_nodes":6,"hidden_nodes":18,"output_nodes":2,"weights_ih":{"rows":18,"cols":6,"data":[[-0.2553603155598949,0.261082782014715,-0.0439355402740061,-0.3431406402116548,0.33433279741560834,0.7358566237751922],[0.6746871683579992,0.012830240179258962,-1.3647311872274133,1.2547642989959642,-1.1108186186758846,0.12866026507959627],[-0.6994242034299032,0.9247563245090414,0.9102429364974653,1.3074047768650139,0.030465186099632974,0.18724104924091267],[-1.4225858989324063,-2.142532459901196,0.540647828574367,1.9125306631515664,-0.6008565409055678,1.4759578558579922],[0.092741852455513,-0.5298117796874247,-0.3876768530388693,-1.055018419255616,0.8921574146871514,-0.024985800834897737],[-0.40330898905893736,-1.1889919031948728,-1.142604968877377,0.06959004205646925,0.5250244820754859,-0.6858557358309946],[0.7226880172594015,-0.33210686566833947,0.09863856183132397,1.535144921795509,-0.20168791922983612,1.1801416653941044],[-0.26101670871118554,-1.1313328858061111,0.44434956614913873,0.7986190154295087,-0.9531643376318507,-0.26190422989279044],[0.04718070517585679,-0.15640560161498623,1.5049200010260957,0.06606893942598582,0.10255546195807755,0.014398434715251665],[-0.009128450415392605,0.25874138181607853,-0.20018145507722268,-0.2021164650287599,-0.7682716639091616,0.7792320083306575],[0.9250890041008165,-0.6919200856065185,1.393891699423669,-0.3564645056852951,-0.8018049037418722,-0.5678370720854284],[-0.5501911884408366,-0.8385666568207375,2.116966033309226,0.21437861952225543,0.3675927132624093,0.553663998078687],[0.45439658904580627,-0.503008724703187,-0.030116565206398688,0.38123633333906926,2.676392574892983,0.03629030298861646],[0.4949366778717273,-1.1872736600720593,1.592406293067259,-0.4518829420396342,1.0168635803341812,1.1833899713907121],[-1.1164335398373972,-2.143893533960585,-0.8518646928474894,1.06625243924642,1.0345165170380632,-0.5945000395783203],[-0.05476075369294954,0.7616898598978045,0.2174766595553085,0.6419145964688067,-0.2438324345085028,0.7471681162961152],[0.018464323517745317,0.6685503858401852,0.08059702771607057,-0.9435136381451487,-1.0942777483033896,0.10188304938157064],[-1.3230949615232308,0.6839862123515853,0.40493770372925764,0.689656877491212,1.0735165560547466,0.25673943694653617]]},"weights_ho":{"rows":2,"cols":18,"data":[[-0.7466941712411358,0.805519716784314,0.7359757922189076,1.116185165302829,-1.4763446564096754,1.5359865265602912,0.5953198263350279,0.4967013982925721,-0.8933217583004287,-0.4576122633689671,-0.7915271163878027,0.5622157693207062,-0.36572026191411444,-0.9276164759100703,2.0130932990305084,-0.5393313550103884,-1.086832011188452,-0.039169886603867526],[0.8789435288157771,-0.988021570471792,-0.894504715642013,1.136998147809322,0.4891910738210137,-0.41286283281402636,0.18520934884188223,0.4167374841905621,1.304617293159973,-0.758461375890878,0.6199541146743069,-0.2429576552159089,-0.7366172839251497,-0.1326617295391785,1.5208196951839141,0.6176335766356185,0.93753285805581,2.287009293793235]]},"bias_h":{"rows":18,"cols":1,"data":[[-0.16871866318039921],[-0.28679621780007203],[0.21139251036901285],[0.06304798577297645],[-0.9425259467461082],[1.905891376484116],[-0.15415795003872265],[-1.1268699922579604],[-0.23167852738614284],[-0.45803631117746774],[0.3591748771908796],[2.2081882106088764],[1.2029507613375807],[0.988468254010351],[0.29531463835580496],[-0.6567645372836703],[-0.6964553676283227],[0.7771743407259243]]},"bias_o":{"rows":2,"cols":1,"data":[[-0.8442485875089337],[-1.3751039527142264]]},"learning_rate":0.1,"activation_function":{}}