{"input_nodes":6,"hidden_nodes":18,"output_nodes":2,"weights_ih":{"rows":18,"cols":6,"data":[[-0.6419591997449128,0.1673308776375234,-0.15823001878540965,-0.5040252450280747,0.1504838039974622,0.803993558327578],[0.5644517033037395,-0.060554191462299234,-1.6180766648890235,0.9821737564349867,-1.2263530132972609,0.05396471067095332],[-0.4901842282733496,0.9887734138377209,0.8662268125173149,1.3090328740067436,-0.36662133848148143,0.10330056602415355],[-1.495350498531997,-2.256247546342506,0.7190810675124099,1.6661712678281955,-0.755748088560513,1.3638522008098235],[-0.00541131710984015,-0.34891725740468504,-0.27427092622305416,-0.6564577687343783,1.0094048161799938,-0.3122499835019378],[-0.5561884471935913,-1.11840712781049,-1.4918446932456473,-0.048946255139256566,0.5901789924095546,-0.42916626722361784],[0.748564090238643,-0.11456700702917566,0.12000887074943911,1.673743697396779,-0.12452325750744338,1.3625557188964157],[-0.2778822159929464,-0.8799300313837823,0.3828753371200298,0.8345139082540881,-0.7243288966863426,-0.48075285706548915],[-0.09662300352087408,-0.23295015322158596,1.2993811620889915,-0.1737528567851841,-0.08362531848656463,-0.16725075795286015],[-0.009128450415392605,0.2899312390445623,-0.04926588382503061,-0.10496995177095923,-0.37184990869596535,0.8625858296562521],[0.3634253767661966,-0.910539327154725,1.3651968383513775,-0.08955516082711171,-0.8965933103116714,-0.6169373081560062],[-0.5501911884408366,-0.8259639786608588,1.9440722440673386,0.1881389349940335,0.48417617510894884,0.5426135810000188],[0.4049460181728417,-0.20560500065335668,-0.07637473111093185,0.45394773739406713,2.455450515440303,0.23118281490429368],[0.5922437233036045,-1.1618100590280769,1.4711258653442245,-0.4439787858936644,1.0905439192691426,1.4360103241869635],[-1.0530001676762066,-2.1272212262482735,-0.8518646928474894,1.1568130842437763,0.8292170986872487,-0.5945000395783203],[0.05943917486216617,0.7628683658156928,0.11172893021437212,0.5015179811134913,-0.2215958982374232,0.9359450653802655],[-0.02771063530027483,0.6931634288211814,0.1181787827594209,-0.8709687525612883,-0.9723472182472732,-0.01335194704099274],[-1.3301380151246467,0.7104211611145235,0.15749571393473535,0.7587981544915645,1.3428677470272712,0.07232787239907892]]},"weights_ho":{"rows":2,"cols":18,"data":[[-0.9309867881364318,0.8827176491865437,0.6690324400959158,1.2526639469463956,-1.3415957433216288,1.5359865265602912,0.5655450067774451,0.40905334622153633,-0.9913161193571536,-0.38026396678565244,-0.7295912016679392,0.5870536023132058,-0.37236921128745265,-0.9276164759100703,2.111979667036718,-0.5531641896324815,-1.0196983765318084,0.20326063618269385],[0.7859181463925705,-0.8505997955879812,-1.344607604158147,1.180233839032138,0.7018451241595391,-0.6371290706307109,0.24423430242171462,0.427221867432471,1.03878923476928,-0.9579130874335677,0.6199541146743069,0.365676673209022,-0.6333558851283515,-0.14271623200605008,1.4715654590706413,0.4794142270856535,0.9821207495847013,2.087701323055648]]},"bias_h":{"rows":18,"cols":1,"data":[[-0.064912902518348],[-0.04422637188305262],[0.16477801785619844],[-0.1670509562371295],[-0.9025007206489872],[1.7035889251834564],[-0.1708920961338446],[-1.0258571593871963],[-0.3246362516355116],[-0.5148580539664239],[0.35771280093873814],[2.300885599439388],[1.1768671299464093],[0.8592643099607553],[0.5036860091275878],[-0.6567645372836703],[-0.4130429259651694],[0.6479010580798181]]},"bias_o":{"rows":2,"cols":1,"data":[[-0.8924441460134938],[-1.3751039527142264]]},"learning_rate":0.1,"activation_function":{}}