{"input_nodes":6,"hidden_nodes":18,"output_nodes":2,"weights_ih":{"rows":18,"cols":6,"data":[[-0.012249155130526435,0.045839998787883626,-0.258616135612703,-0.8589626616980375,0.9922917576343171,0.18027774635775162],[1.1692546655739942,-0.49659884654105496,-1.7920518317708725,0.9120912614887219,-0.9137424025405005,0.5897130035039722],[-0.647657042619152,0.5868588668619099,1.7466364340984866,1.390892859800541,-0.19799600731363887,0.8661768462707551],[-1.147922519911669,-2.5678253565191937,0.5211911370602021,2.0583391555403896,-1.0013508357829912,2.082167626445055],[0.4080057521964623,-0.2536720286165004,-0.05879465504706925,-0.234387472570082,1.0895160391184207,0.40193025784016195],[-0.7460963467804864,-1.5106680838450592,-1.4796652998560382,-0.11909477204316757,0.48446841566336335,-1.1332836974555134],[0.8724584601339316,0.5024709775549707,0.7132038705353967,2.043794895462377,-1.2782943465779646,1.9451014200924124],[-0.733393195310891,-1.6903830169883334,-0.18446015938340474,1.3504698751690012,-0.7032733973096814,0.09242939564429972],[0.6844674840818743,-0.06542809413736025,0.863537035732641,-0.0933747030291093,0.35302850914724093,0.31231204304913285],[0.6660773589085952,-0.3674063845676162,-0.2723406116787316,-0.2459601197742552,1.6730826135683197,1.1193649844507156],[0.739216631654953,-1.1740801011293736,1.1231355796667475,-0.3539356907714932,-1.5796863333546125,-0.1386020679455682],[-1.1142903748978574,-0.765210948081971,1.3277284446239366,0.2671956329665768,-0.28319287621882955,0.7053508341029799],[0.12070698106118449,-0.26152211160667316,1.1113363280643447,0.40123744333676936,2.357807853043514,1.0750164344413153],[0.11223890678774195,-0.5947953463906124,0.4945483421427751,-0.4487432050631191,0.9178703447664416,1.9439577814752869],[-1.0499229598693725,-1.879883789341494,-0.6239866763793108,0.7005253853538038,1.242316430587062,-0.26449037369021355],[-0.1813503220377892,1.3986259541819768,0.5280880257939771,1.1523058082466842,-0.1494606852468576,0.9713599261371244],[0.20772505585321582,0.886875602813758,-0.18105860171920782,-1.4412680747557591,-0.9715389959797006,0.5390954017834366],[-1.4157382235950768,0.8714418427215358,0.6128314192329752,0.17675932016013784,2.3146856901406907,0.20679194880039842]]},"weights_ho":{"rows":2,"cols":18,"data":[[-0.6625115344531599,0.4960830248147394,1.2206145260222652,1.0696950943392656,-1.7878666459679475,1.6185690490975428,0.49641118834755693,0.8821787912384534,-1.0226544825009365,-0.23648515535226694,-0.705166384947715,0.2517207645755565,-0.12638105866164193,-0.22148124962043025,1.6856173087955146,-0.08319804746082413,-1.317287412099225,0.4784354210295415],[-0.04804777852093381,-1.9751730452656524,-2.04689694023,2.580303641670097,0.8060570766133657,-0.6986911230909285,-0.2716903169224048,0.7698873247879511,1.459518856746285,-0.7209852566196331,1.316842191451388,-0.15221456215678691,-0.8817514560333575,-1.0853202353052083,2.0777325198702283,0.0223474512178993,0.9349500634143757,2.505585189203356]]},"bias_h":{"rows":18,"cols":1,"data":[[-0.06702190729647864],[-0.15484511852588312],[-0.5031677827957609],[-0.09004901838396949],[-0.8718054169124773],[1.4946806450894539],[-0.8667920041238703],[-1.1751080842900092],[0.3367134440264764],[-1.1235834552662292],[0.13172583471738666],[2.764267661584232],[-0.0017393991104089346],[1.4361476344587585],[0.43136693083595035],[0.07117609460564155],[-0.6774568592021798],[0.661818437187982]]},"bias_o":{"rows":2,"cols":1,"data":[[-1.392473538921973],[-1.5190715171098539]]},"learning_rate":0.1,"activation_function":{}}