{"input_nodes":6,"hidden_nodes":18,"output_nodes":2,"weights_ih":{"rows":18,"cols":6,"data":[[-0.42797267522660404,-0.1219125902363268,-0.5351803967923738,-0.1944107597177271,-0.7070820449636445,0.8161769719478665],[0.37634744730385666,-0.1509664157639128,-0.7407672494833559,0.8483153135845126,-1.4019926779306497,0.2954375913945895],[-0.5932960158752345,0.8813918286222284,1.3470658246229754,1.131248621902482,-0.13968235287324338,-0.49390471918010637],[-1.2213135483581463,-2.390838343322839,1.349957948160642,0.6310752528215106,-0.9118808182621995,1.564296267067549],[-0.1047248752501858,-0.7690322434802074,-0.6437633414900593,-0.8376380363817636,0.6601096355917525,-0.4463475482545541],[-1.0510695210699605,-1.157842467927963,-1.5927750218536556,0.7470696759950873,0.7044500740454885,-0.5256745963611105],[0.7543142947990251,-0.22157228887032554,-0.31014403320991973,1.142711386469501,-0.2352641567063392,0.45197435765900723],[0.27743261323920937,-1.2324646401097326,0.8850173796631517,1.2985040711541374,-1.4358753110061733,-0.06638572815808852],[-0.40252780075031236,0.11660431261146487,1.3409411686317536,-0.6378691502156991,0.11501830468794204,-0.10653277999797187],[0.6038783123895837,0.22669859287948696,0.08021503277619149,0.14448655264923613,-0.5067296159130978,0.1812197134265195],[-0.010262540570841045,-1.0520771943569471,1.3028514052776135,-0.9344596859011027,-0.7637778481849147,-0.008135727508134669],[-0.9024442004839744,-0.45589313733192344,1.201231146417574,-0.0021292978671547114,0.16405876887766915,-0.03171665147989791],[0.9085969410532323,-0.2566749603472668,-0.024891524472499038,0.9133223361860328,2.3892106449078137,-0.14046447167561332],[0.7447243785037714,-0.8268879650956342,1.4783075905261325,-0.3935911653245484,1.6677265081391786,1.8173742652084082],[-0.6106208742646885,-1.8561066990854294,-0.8386882386957204,0.828897852104809,0.642795125621285,-0.6349392314066002],[0.30551334830466575,0.5935006700470808,0.7150405342553805,0.2981993828232295,-0.40723752056471674,0.28711792367051964],[0.0674294777523551,0.36719665228477477,0.0473646687921892,-1.0297142958597678,-0.8140927863507866,1.2180970878176536],[-0.7486003197916428,1.433962001881416,0.24555484257914445,0.593799093651905,1.6059792959953973,0.3498441801067683]]},"weights_ho":{"rows":2,"cols":18,"data":[[-0.4951130540200761,0.5074315415060184,0.6075261210456729,1.7385008914051021,-1.232126005725606,1.2177928411861245,0.22054678553627793,0.41645002299184264,-0.9862250275968304,0.040199075940225454,-1.5955602375977136,0.622140586251555,-0.4511709096873104,-0.6602946322167498,2.2550162663283797,-0.32350302636313477,-1.140673102972918,0.2199465340484261],[0.13882132231974126,-0.49260382362755617,-0.2593868379785006,1.0772712049965079,1.3920623274606272,-0.2750145364826826,0.20188051646411648,0.13921742813346666,0.6113437511914671,-0.18192761543964328,0.5385689750783519,-0.27998235778550673,-0.635331800677087,-0.3852457841422221,0.5152800811154109,0.01953660946803618,0.9138518920024865,1.2884458225335187]]},"bias_h":{"rows":18,"cols":1,"data":[[-0.015128757883473634],[0.015430730271676685],[0.6550317466620409],[-0.033780266796961],[-0.813864509969327],[1.3680987921250403],[0.07561147259571271],[-0.7092491651260522],[-0.015155796432601426],[-1.0931023083862204],[0.18896179702755628],[1.6089023801390994],[1.184665127270692],[1.0694821330922957],[-0.17414540249028373],[-0.8066878699385928],[0.23214989324749488],[0.769029796599829]]},"bias_o":{"rows":2,"cols":1,"data":[[-0.5268979913060392],[-1.6590877759828457]]},"learning_rate":0.1,"activation_function":{}}