{"input_nodes":6,"hidden_nodes":18,"output_nodes":2,"weights_ih":{"rows":18,"cols":6,"data":[[0.07367320025628812,0.5074322115996373,-0.0924638068076797,-0.9347992112297839,1.1413464286026194,-0.12567492974556463],[1.3428763372354908,-0.754275391392163,-1.8232364401774739,0.1611693123119813,-0.6108905057424074,0.7610945494888608],[-0.560060752360994,0.8240397027975037,2.0299624058443873,1.4306779373849587,-0.005129911243060156,1.4040948696243565],[-1.2347679231804027,-2.512456505864817,1.6445708330969637,2.5221508323610062,-1.1670542686037544,2.301067292880196],[-0.18332030375675729,-0.14269572998282348,-0.3819201574485021,-0.1706046734207247,1.718532212666457,0.21473908727938684],[-0.47120796567518713,-1.313931090533565,-1.5274332284046168,0.9706181485455392,0.6138222390323536,-1.574036046699528],[1.0448682185451381,0.30421707302625756,0.8143870373275066,1.7505128318360608,-1.3791925539661554,2.055301691318981],[-0.4309562087086347,-2.6093712779655407,-0.5749063713398908,1.586368708174954,-0.5339436298720053,0.16663326419187785],[0.9533226777320598,-0.2781526708592616,1.1441500578880486,-0.35929229484600145,0.2174970438796074,0.5885409384058005],[0.6621361030800066,-0.4701618388291648,0.10526436475114326,-0.03243308214799475,2.1264248736950857,1.0600646085510288],[0.4638481191397298,-1.2357408369023952,0.5928277118091999,-0.5826858195703906,-1.4112104720724332,-0.5660581821792097],[-1.400231403527338,-0.757816520797375,1.417040708489516,0.6100629280142976,-1.2329650018689589,0.5763238830329553],[-0.05907564076376565,-0.5221146265654341,1.2737557962993087,-0.08294715181558247,2.2165244270456284,0.776762268348342],[-0.37563017763012074,-1.2599283960384717,0.23493702629859586,-0.6625276473120756,1.069490337718294,1.7513900353858107],[-1.3865333319646234,-2.2273354834828814,-0.128803611233753,0.7321801677124506,1.3300892761674585,-0.18021940343783913],[0.01496326758086243,1.0625036019135987,-0.4661987817250737,1.4954195511408674,0.5765501964457465,1.6175710330149744],[0.06405833364179017,0.34001662900301377,-0.29991948683459646,-1.2108689874769998,-1.4959078358107516,1.0103011348590933],[-1.5847691877173489,1.770882041109133,0.49122350108941126,0.3454287734684777,2.005821856045807,0.039317209751575516]]},"weights_ho":{"rows":2,"cols":18,"data":[[-0.4952927368229745,0.05780884582235326,1.3571873292341767,0.889273969532106,-2.2072848070011033,1.4993149694580055,0.5743735836035124,0.7312763774533794,-1.1807004662485479,-0.009240710803752258,-0.44848658167315586,0.0949953926823475,-0.20106586938817772,0.004547225411071288,1.9120901102732157,-0.42630911230479407,-1.2891151821408777,0.4606134615137999],[-0.43004827415824975,-1.8900594327143492,-1.5259983818211966,2.441557814894404,0.9672994480946011,-1.0907606351565138,-0.25330373099063397,0.49860876879210475,2.1748015399280525,-0.9133719050664291,1.5793239543657487,0.17555305685334727,-1.5879469333888214,-1.1088446381261035,1.8625104279710443,0.3020710945419286,0.5720333757811861,2.862650432502657]]},"bias_h":{"rows":18,"cols":1,"data":[[-0.39548473113519256],[-0.24917921380788005],[0.003324657494768568],[-0.6010652769655767],[-1.0877838607664068],[1.495022594861352],[-0.9702766429599539],[-1.4617037293674546],[0.2281917580853708],[-0.9250017069068212],[-0.34948603283360596],[2.846835338324585],[-0.13796841042714167],[1.4907836645750145],[0.12676605387583825],[-0.021492450450658854],[-0.5792357428508642],[0.7727968933263951]]},"bias_o":{"rows":2,"cols":1,"data":[[-1.450536445571672],[-1.60132228024071]]},"learning_rate":0.1,"activation_function":{}}