{"input_nodes":6,"hidden_nodes":18,"output_nodes":2,"weights_ih":{"rows":18,"cols":6,"data":[[0.3565076506782564,0.6995249519513416,0.09643267457030831,-1.094121973290024,1.134270618718469,-0.10426860197087753],[1.0140518003950176,-0.8184998343822802,-1.3351178975466405,0.5558040293131348,-0.9652908976504744,1.1846920156778613],[-0.47632063113045886,0.6557828365273606,2.390772649785397,1.6901125859278583,0.13242612748120297,1.6683082886007985],[-0.9364892480047151,-2.7272516186050764,1.232890671568419,2.055526422129224,-1.053703179254559,1.7657100933645367],[-0.6163914118717542,-0.184412520827885,-0.5770721594241067,0.1303312192790926,1.572375667491432,0.10654930741970514],[-0.6269934774855892,-1.5694464801540402,-1.4320883378816243,0.9767894345473813,0.48154139261648116,-1.3343019115951025],[0.9686173963956286,0.7674140687670977,1.0466497438199844,1.8496191700222182,-0.8791787088255727,2.2737255545800914],[-0.609031041015024,-2.418199468193411,0.5665360950216836,1.9817510005565941,-0.2749040011361462,0.35161949734832554],[1.0346382606604323,-0.45831683525584793,1.6312918885523997,-0.49132351363274845,0.09608648226754662,0.44803417322285627],[0.40335106390686687,-0.8256046720955875,-0.05946971145767032,-0.5437740605326173,2.1514257854840917,0.8209297822280421],[0.4148132897825404,-0.9464176610424014,0.6568225677741629,-1.0808601451843234,-1.0492680714777929,0.005046073428041947],[-1.0334309468670912,-1.2742537346571743,1.629030174617951,-0.011888620220251951,-0.8485862961185004,0.8902217082982794],[-0.2161169733002998,-0.8264814852748752,1.775189603401337,-0.09155148425321424,2.4360606165371084,1.1707792282000702],[0.33710984068127386,-1.4752361828922143,-0.22102068526875915,-0.4756853493659818,1.028378687243092,1.6246438035354962],[-1.7012130681025772,-1.7642524982788206,-0.8335382872513889,0.5928706677706597,0.961980791001334,0.1641145320566529],[-0.02432429702586802,1.2057170015958008,0.3972927316518153,1.3287347450389522,0.7406856361044262,1.486641937568336],[-0.095494819185732,0.5304795393130551,-0.25484774598059784,-1.6290065470380077,-1.1399327432488362,1.2840338438091532],[-1.7958334234927311,1.812791240962287,0.6355675670892524,0.601174748300597,2.241043304252174,-0.47520387905336103]]},"weights_ho":{"rows":2,"cols":18,"data":[[-0.6274052707969515,-0.7086267758906922,1.817229333663422,1.0528849117314887,-1.89225595934606,1.590636686690107,0.7699073084015998,0.45808156327543625,-1.0588102774228645,-0.0067796356905650695,-0.29128477887641435,-0.29481065954335633,0.04471863661344205,-0.35853886885025976,1.9946492881402402,-0.3730425709284183,-1.0422607680358602,0.574330900486391],[0.16974530975123964,-1.3921666930874321,-1.1168248794184203,2.380590701049768,0.8511685279206573,-1.0440768388223673,-0.5046615441049186,0.7662012487632294,2.0067081649778906,-1.636245092217476,2.094146974068838,-0.5301252155304863,-1.5301879128924967,-1.7813767492718515,1.9686382629149295,0.3445040714145267,1.0833279637226043,2.7122953841388315]]},"bias_h":{"rows":18,"cols":1,"data":[[-0.7813892236643811],[0.1419200317645563],[0.32522944941223897],[-1.1504058374617776],[-1.2599666160456622],[1.041573935883529],[-1.536414041736964],[-1.0941994219940336],[0.9002291646310264],[-1.022266141267937],[-0.6603745426827541],[2.736355448957722],[0.14736852170484457],[1.7085271536640685],[0.35307687409655536],[-0.17181960973900456],[-0.5957136878056534],[0.7247442331717229]]},"bias_o":{"rows":2,"cols":1,"data":[[-1.5281306341749392],[-1.29617958948721]]},"learning_rate":0.1,"activation_function":{}}