{"input_nodes":6,"hidden_nodes":18,"output_nodes":2,"weights_ih":{"rows":18,"cols":6,"data":[[-0.6218069993198464,-0.12503752340603672,-0.619329088024234,-0.472124033180303,-0.5747861497225093,0.457909764517179],[0.3941839730897768,-0.09227524535035556,-0.9039645626526536,0.7882063352388164,-1.1723086366094604,-0.007668471867712072],[-0.6337841812308762,1.146630355450671,1.1224281406274117,1.4496448245989282,-0.5733849462742769,-0.4507618185248703],[-1.325540785221362,-2.1812759275307143,1.0544442283053534,0.9394330079067182,-0.7641166074165188,1.357544118912209],[-0.34809805533404,-0.22273411042218008,-0.43474921415509976,-1.0558015101746134,0.9163642792624497,0.09230033991853766],[-0.9905393668056219,-1.5665242450970824,-1.865466021138297,0.008177749132907093,0.7580203717359305,-0.43582792153204947],[0.7751505729361065,-0.9766266229659631,0.6733895400289496,1.738373347524178,0.2483294326860148,0.90519351986869],[-0.49075890910215303,-1.0481625097754121,0.8521829720054832,1.1896746432380687,-1.167001410700981,-0.160663913279875],[-0.5431882588105761,-0.8458123720394688,1.4494978880035112,-0.21749992446030225,-0.019429747359701807,-0.5005263949158612],[0.35656222811664395,0.14752084627132922,-0.0219325925284021,0.2052077202506707,-0.47843922074913015,0.6522412525065944],[0.15045571504060287,-0.8792214006632955,1.0048863311167138,-0.40948039014225585,-0.5991541980301942,-0.08388620896813226],[-0.5558920518969276,-0.8652598008452981,1.2817025830586937,0.7773621277813245,0.5818734225920195,0.21024179956015715],[0.4763987321296398,-0.19283784152717492,-0.15877808481810246,0.15289463200491635,1.973764185241033,-0.22298650435669054],[1.2034143478425983,-0.668489998991662,1.8784245378552114,-0.6750463460116797,1.6304822684901055,1.4667473569618288],[-0.7866020392480173,-1.8965323446796636,-1.3711347412357842,0.8108780051065736,1.042380249584498,-0.8740889130598654],[0.07799384932586303,0.4260841430820449,0.9614778706401004,0.37055616501401056,-0.651560118074531,0.5917687843026711],[-0.5948105546194544,0.8449614089021267,0.6238983494331262,-1.1183149151875393,-1.29236000471897,0.09747124472348756],[-1.3889639065823336,0.648317819806975,0.1684724813316483,0.3194943755885943,0.9015145553433039,0.42983848923900475]]},"weights_ho":{"rows":2,"cols":18,"data":[[-0.9284233633487597,0.2488741043199387,1.0565635411432557,1.611538649503287,-1.1980285142826468,1.5212495248170135,0.5294269370820155,0.4115117036482956,-1.091291280202159,0.3221072299962884,-1.274103958904444,0.804199079657972,-0.25875843399423004,-0.9712106165724554,1.9677690543213393,-0.8124160541779617,-1.5191988424809708,0.4276579890363953],[0.43514873471947624,-0.6703518737130308,-0.9091858869117464,1.0374686869189285,1.2321946831248303,0.0598488930736801,-0.023399884252672275,-0.37852243489642123,1.196910436083313,-0.3419395282691701,0.3418289417362652,-0.397486564841783,-0.4765215004805228,0.03949116797365465,0.7415487624311029,0.2603424539184811,0.5760540093338272,1.7259603193804463]]},"bias_h":{"rows":18,"cols":1,"data":[[0.014098316450047402],[0.16926523980775254],[0.9931480979814451],[-0.5629213599235494],[-0.41364174674824056],[1.5621114917890315],[0.48255391310235435],[-1.2696618428160789],[-0.564903685079182],[-0.4977896032613014],[0.39887721657601516],[2.1461215707563954],[0.35915397953786865],[0.9486362737132701],[0.3040262456632308],[-0.5891622950475442],[0.35860607327590366],[0.9697369263820083]]},"bias_o":{"rows":2,"cols":1,"data":[[-1.0562252393637255],[-1.4298162540041668]]},"learning_rate":0.1,"activation_function":{}}