{"input_nodes":6,"hidden_nodes":18,"output_nodes":2,"weights_ih":{"rows":18,"cols":6,"data":[[-0.977815600562061,0.375858410980637,-0.18571697952295751,-0.07930170553299543,-0.1404224290859892,0.9269258157543143],[0.3931203340702393,0.08481034636024493,-1.3422115876642307,0.8835984283834908,-0.9694288620688963,0.5416486571016645],[-0.4932613875003262,0.652553245450512,0.30111454635786966,1.0421083460658636,-0.39595724930130466,-0.7263764549044294],[-0.43367636954788386,-1.4228387547578913,1.0324369113952137,0.6125108057401633,-0.405121777434466,1.031447635987925],[0.37350055943674604,-0.8201902547907056,-0.3903849469866181,-0.8987508182535758,0.3064428568545702,0.025298388930672735],[-0.9812295424177964,-1.0450480940566342,-0.5707751379791415,0.43264564192956123,0.3962392644603,-0.9165455756808306],[0.46036344105823646,0.31042564598493,-0.2933453452211075,0.48610470993268673,-0.11652720298202088,0.18643391796914044],[0.11460265759355356,-0.2997962309503246,0.2563993764828937,0.44940596951763984,-1.2135470679255322,-0.1182327022516561],[-0.2687963276696884,0.13972458680171473,0.859826229365564,0.5412741122110898,-0.19520973874681802,-0.5899927217016787],[0.4639802011186199,0.3548346111263989,-0.5309718488275571,-0.05379636975593545,-0.8119254747048268,0.6986614357259385],[0.09213204239543737,-0.9708014133989491,0.7002394192417729,-0.6921863249981471,-0.5152097987196488,-0.0023167848058923968],[-0.5945954969003043,-0.8663474051373623,0.8195511086113776,0.2470207673420644,0.1565551125336835,0.4555855660199363],[0.3839620269160664,0.07965472109036997,0.7050110094511284,-0.010955946441492453,1.1531757041239483,0.610924355002767],[0.9357308344114798,-0.8647555403687446,1.2227470847700674,-0.34980640664182766,0.5974909341623895,1.4082087193069066],[-0.6059168181207474,-0.9094156240052933,-0.7851289541604405,0.04263765719170211,0.8010671585631701,-0.20645340357508377],[0.2676830579031418,0.4897285774698643,0.16204403286101227,0.5726851037932529,-0.7157277446960628,-0.3695527226929164],[0.3044054096898089,0.4699477672388146,0.10423024721591956,-0.630541058022126,-0.3246468150365526,-0.21599815092398927],[-0.8823650915141723,0.8117746432095767,0.7835067501330295,0.6157489434165268,0.8327743258589183,0.9264100416367324]]},"weights_ho":{"rows":2,"cols":18,"data":[[-0.3377114859702841,0.3338917406175994,0.6114350152073168,0.7281068793684187,-1.0096305223519177,0.7140528677667426,0.7306742733266971,0.8826978687880485,-0.6393435820945715,0.05950013377513555,-0.7954548120996557,0.765050985410888,-0.7627889536158673,-0.9884373850250285,1.12013250534565,-0.5887655932755584,-0.008765724805722477,-0.07602670914870212],[0.032191766136497206,-1.0536911955565795,-0.38156742068513105,0.5819215278319265,1.1246083525384794,-0.39485244118146573,-0.7494356614463991,0.5580044466344092,0.9944193786169979,-0.7809424512168136,0.8443137376407963,-0.061025678201406294,-0.9366878158813936,-0.9412681298493955,0.7533612709774457,-0.18858145940710147,1.278045646711752,1.171136435406589]]},"bias_h":{"rows":18,"cols":1,"data":[[-0.15325880009574155],[0.5805819420371756],[0.7334289459062369],[0.39733469762355045],[-0.9430978500191115],[0.7824830143305784],[0.37249948218569673],[-0.7690025873399713],[0.10747031614541598],[-0.2773898492515814],[0.29325090391606057],[0.6608713645343813],[0.9715851319658904],[0.9127775410813619],[0.5429129587720656],[0.2631633203217738],[-0.08489607641111312],[0.6580245400292262]]},"bias_o":{"rows":2,"cols":1,"data":[[-0.2981753895195403],[-0.8353394143736029]]},"learning_rate":0.1,"activation_function":{}}