{"input_nodes":6,"hidden_nodes":7,"output_nodes":2,"weights_ih":{"rows":7,"cols":6,"data":[[-0.14411787325064002,-0.5258674286185215,-0.4613035406881232,0.5562873186828807,-0.1291552396846236,0.3722813156129651],[0.9334810044461954,-0.0848412890664334,0.8750621686891322,-0.8413824279322717,0.045038449537808764,-0.7224645817070191],[-0.3548020661538587,-0.023707567651845896,-0.6550839972770154,0.9626422411732523,-0.08803388545397839,0.8471318324731665],[-0.5019143189142287,0.844435809903015,0.7120035528675438,0.5527454451480287,-0.0662689471417926,0.36133810730715155],[0.6146722726290634,-0.8097071432039302,0.6468111164860604,-0.04511347097637008,-0.042511189186407616,-0.994967309084225],[-0.61846003084842,-0.7646309490067944,0.3561414016433475,-0.5034796087268478,-0.7068198526029827,0.4889828301926406],[0.9421051268299412,-0.8248668217830799,-0.6553639718500774,-0.03279802796335769,0.4548871583896228,0.1979401537326928]]},"weights_ho":{"rows":2,"cols":7,"data":[[0.414407342803721,0.9836545395583378,0.9165710055439309,-0.3971884113896857,0.3970853221024357,0.8387069793564759,0.8451958184947892],[-0.8505083654356649,-0.5843272043990009,0.14966118012890295,-0.041342814816666795,-0.5637579704498195,-0.0700345698782523,0.8935375523586809]]},"bias_h":{"rows":7,"cols":1,"data":[[-0.13390187635006223],[-0.5959986890278],[0.19486138459522317],[0.8358737248406602],[0.3931799706830148],[0.7478125356140319],[0.10627909636850008]]},"bias_o":{"rows":2,"cols":1,"data":[[0.8301155015485331],[-0.42961806576162287]]},"learning_rate":0.1,"activation_function":{}}