{"input_nodes":6,"hidden_nodes":7,"output_nodes":2,"weights_ih":{"rows":7,"cols":6,"data":[[-0.001014290050920727,-0.9199265744894601,-1.195113527569838,-0.45257442495706446,-0.16331747863088328,0.14309338637346075],[1.4018291917350332,-0.0211948235646945,0.2730265733677355,-0.9827487076479902,-0.09183182708180007,-0.7388991078086845],[-0.15332043036067744,0.22591152138884857,-0.045014753240491194,1.066377435700874,-0.17311384406347963,0.4411817775257078],[-0.3949113027126512,0.8305294039856373,0.08477729871707107,0.727313808265274,-0.4080719457491597,0.2542607237825205],[0.0898963762925079,-0.3234204170284364,0.40222430495769024,-0.40934871028101366,-0.48139717764925893,-0.47820906310429745],[-0.575296440390334,-0.6693677696646391,0.6037854716313,-0.5360364384145471,-1.0611845947433767,0.5886721460927002],[0.8828495335759038,-0.83326679979725,-0.09825554278072186,-0.14484926981775925,0.3635539482821799,0.022814402707956857]]},"weights_ho":{"rows":2,"cols":7,"data":[[0.29246853657655403,1.0341614657861002,1.0019199213465972,-0.7325453256429248,0.6795286691337816,1.1953992136607876,0.4641701241880986],[-0.5422576783352363,-0.5935926962562781,0.5986463015931803,-0.25242697108822587,-0.8793167621745194,0.007490546769701317,1.0412590013239176]]},"bias_h":{"rows":7,"cols":1,"data":[[-0.8979977603753603],[-0.049494094244971476],[0.6474237140223751],[1.3271606939239429],[0.42928744239579897],[0.3555797441850584],[0.2688215864263247]]},"bias_o":{"rows":2,"cols":1,"data":[[1.0441510937681784],[-0.3592826058486522]]},"learning_rate":0.1,"activation_function":{}}