{"input_nodes":6,"hidden_nodes":7,"output_nodes":2,"weights_ih":{"rows":7,"cols":6,"data":[[-0.1047098911817446,-0.6460191562356845,-1.0942864351129895,-0.13320451075505324,0.3382483379421951,0.22544033252930296],[1.309095080822205,0.10507647538181689,-0.1726261909161867,-1.1236472542163072,-0.033077907618586505,-0.5575013121659338],[0.0075073079351532165,0.05562802246042664,-0.15119169639432736,1.2988772805334703,-0.4671493586477819,0.42915777062797067],[0.0934139233208304,0.977464807682775,-0.650392485731467,0.7092777769973713,-0.5200222317664224,0.39310157639390453],[0.4293335159094706,-0.12080559327607307,1.2440811249112709,-0.5014933139472941,-0.8355025171579913,-0.4076562195764976],[-0.3801819689189406,-0.8795131427773976,0.09962041523561704,-0.7159833253531173,-1.1086166963192812,0.5983874240563307],[0.934773618181144,-1.0594581961838436,0.04564393958454284,0.009638279236000996,-0.044012092885659014,-0.6657736024451525]]},"weights_ho":{"rows":2,"cols":7,"data":[[-0.024069283599721478,0.8114838332716774,1.033849531135108,-0.6179985825256359,0.687325437762888,1.188483340308334,0.26394801296936166],[-0.3217001926286751,-0.6169283321514113,0.40758995647957175,-0.19542251326079638,-1.0734291390034827,-0.27700663315656926,1.0532277620005759]]},"bias_h":{"rows":7,"cols":1,"data":[[-0.9619027584783191],[-0.2670064669445579],[0.5507317349564782],[1.308233974946135],[0.3457246202278551],[0.3791170173818857],[0.25817805867542365]]},"bias_o":{"rows":2,"cols":1,"data":[[1.3849928932535274],[0.10453997431605366]]},"learning_rate":0.1,"activation_function":{}}