{"input_nodes":6,"hidden_nodes":7,"output_nodes":2,"weights_ih":{"rows":7,"cols":6,"data":[[-0.1905022974638142,-0.9944979196737991,-0.33561713060779913,-0.13700493868537184,0.3128631749856311,0.12140670268494086],[1.2237687263498669,0.3304366387712351,-0.35672964323347384,-1.286839369499945,0.314724722756031,-0.6186938489104257],[0.32205811347852664,-0.22114342716179378,0.3766620757199025,1.472428382826026,-0.614204245462866,0.2524291833344825],[0.2003098660445507,0.5980906989385169,-0.3854637595491712,0.6763894807008262,-0.728148968242867,0.2792625447892738],[-0.08496405102680651,-0.588343882875511,1.5360116588326465,-0.5450853722356612,-0.8961857950931382,-0.26770355435533427],[-0.1078415177192334,-0.8517165876812703,0.36679381912020276,-0.4558977184470489,-1.3599397734619834,0.9585780966450964],[1.1927983553582089,-0.8731689218116867,0.07718658458310318,-0.2677897173109716,-0.057387995058701596,-0.30856929597144156]]},"weights_ho":{"rows":2,"cols":7,"data":[[0.28271961114524624,0.948510425749165,0.8408640618658842,-0.3840401134526906,0.8505200032338396,1.0412508612447124,0.43134833686049723],[-0.5057731385952602,-0.5552086295078174,0.1992595689383308,-0.2067913800995517,-0.8169353164561332,-0.27576053292282854,1.5381052917346478]]},"bias_h":{"rows":7,"cols":1,"data":[[-1.1287724734459474],[-0.3203135390016407],[0.6281838112551748],[1.775216626504455],[-0.19441980303018974],[0.3240859615793472],[0.3154655771488004]]},"bias_o":{"rows":2,"cols":1,"data":[[1.1358373017119636],[0.049247810026668365]]},"learning_rate":0.1,"activation_function":{}}