{"input_nodes":6,"hidden_nodes":7,"output_nodes":2,"weights_ih":{"rows":7,"cols":6,"data":[[-0.17270460374706512,-0.3140709078347777,-1.3504897931003477,-0.08888131334540479,0.3696266835421055,0.5685013470017729],[1.1043302995389255,0.4463291668971937,0.07804351916846622,-1.133540282437223,0.15257646104512212,-0.586253851940879],[-0.14003647228758503,0.059447097038637826,-0.18869473902100295,1.041889489017371,-0.5064375072638261,0.719922091873926],[-0.042085694508173496,0.8780467271242044,-0.6602405296207611,0.9237301115371466,-0.4058587335715239,0.29596642649744626],[0.2496471752521254,-0.3509540003318341,1.3938927981369242,-0.18489430488665368,-0.9729601002046269,-0.711846178196639],[-0.6081481975780086,-0.9482021504416654,0.283618190213909,-0.6604156437644968,-0.8135281433077984,0.8710515313770008],[1.1526830001848374,-1.135736942914534,-0.09350610439688058,-0.13657865659586943,0.5517999321293268,-0.43656020230244286]]},"weights_ho":{"rows":2,"cols":7,"data":[[-0.024086663712434037,1.0878270548845803,0.9326998082941664,-0.6135357698469723,0.8599202862787197,0.9797507906277639,0.3250204663138308],[-0.6737596669469806,-0.6854120226313645,0.38679315028877975,-0.02615828952336187,-0.9300524499507233,-0.2613109825262595,0.9111917798923231]]},"bias_h":{"rows":7,"cols":1,"data":[[-1.0548393072469247],[-0.43093856874726794],[0.6183559298556938],[1.2861702778042101],[-0.08552662098462391],[0.207510628816496],[0.6308835799116141]]},"bias_o":{"rows":2,"cols":1,"data":[[1.2674126148725202],[-0.18266653675882402]]},"learning_rate":0.1,"activation_function":{}}