{"input_nodes":6,"hidden_nodes":7,"output_nodes":2,"weights_ih":{"rows":7,"cols":6,"data":[[0.11584223915449054,-0.8410760738813609,-1.026407058733105,0.011240596735919234,-0.025447858660462494,0.05366838378377408],[0.9484588659853979,-0.0018377329918154023,0.10777811183639999,-0.8699372633948086,-0.07803815074068564,-0.5520543073072509],[0.1657761819655846,0.033509312260971515,-0.07690107513825978,1.1705509539655092,-0.31169429262809023,0.548956442414184],[-0.6627230243558918,0.8714154401768089,0.17104426152981145,0.9591748268222212,-0.22256549324418629,0.1729742779232123],[0.19379843807510203,-0.1477435085575938,0.6993942280056967,-0.2839084159098991,-0.32972317296063103,-0.9705374079608694],[-0.575296440390334,-0.7323982825358233,0.2618420100559241,-0.6532833060284507,-1.1419907883833853,0.5277726287725721],[0.8147143456277162,-0.8917158358580753,-0.19746288462849346,0.07319786422406122,0.5519322503960772,0.3335484194675284]]},"weights_ho":{"rows":2,"cols":7,"data":[[0.5582684776225266,0.8630228701282514,0.7759336180171428,-0.7397027577278765,0.5692317315694602,1.1272040197919995,0.5169542972386496],[-0.5137831374729436,-0.6865607114233219,0.2841583156607169,0.147267918924118,-0.8173040143132655,-0.09662773108735405,0.9576820047079879]]},"bias_h":{"rows":7,"cols":1,"data":[[-0.579117690102555],[-0.3689883709593871],[0.7766119940427736],[1.1687954857822276],[0.5270121464175423],[0.39183027600210246],[0.42149260486445916]]},"bias_o":{"rows":2,"cols":1,"data":[[1.3032297719715213],[-0.38565979964873476]]},"learning_rate":0.1,"activation_function":{}}