{"input_nodes":6,"hidden_nodes":7,"output_nodes":2,"weights_ih":{"rows":7,"cols":6,"data":[[-0.11923849773487738,-0.854572862788167,-1.0622171012296824,0.14691192110630266,0.09174082023870223,0.028301257677320123],[1.267975129420354,-0.07329878190387482,0.3488626843404885,-1.079053862686564,-0.07803815074068564,-0.5541704283553138],[0.1657761819655846,0.033509312260971515,-0.00416414778411113,1.1011800240995318,-0.34861911657735006,0.9200066008850349],[-0.4719017693292312,0.8012569396703757,0.15112886213763074,0.9134402412946017,-0.06627304370520004,0.3741314031266895],[0.2685273820940296,-0.18884490998071402,0.6879746646146166,-0.3315485804201354,-0.2856577376949446,-0.9198523479359587],[-0.7714607187510333,-0.5876088197953195,0.332904096996881,-0.6532833060284507,-1.0318404211458716,0.5278201670946778],[0.9148450052615396,-0.9915333188417335,-0.20051464114167222,-0.18056852318543803,0.4502198180428948,0.20132554066736338]]},"weights_ho":{"rows":2,"cols":7,"data":[[0.6019572855398373,1.0057508379834519,0.847791646809232,-0.7397027577278765,0.7133960499583736,1.0512882683218896,0.7453516005682926],[-0.6011675471158523,-0.5087707940220567,0.6302900925017416,-0.03204404234936008,-0.8357707570626735,-0.11005081322992784,0.8023516741711443]]},"bias_h":{"rows":7,"cols":1,"data":[[-0.587653923441835],[-0.3330542267174909],[0.4061240016014396],[1.3459990132956776],[0.37615315221086526],[0.281562894784835],[0.458342925273799]]},"bias_o":{"rows":2,"cols":1,"data":[[1.0593711639807908],[-0.443285980538216]]},"learning_rate":0.1,"activation_function":{}}