{"input_nodes":6,"hidden_nodes":7,"output_nodes":2,"weights_ih":{"rows":7,"cols":6,"data":[[-1.1135714410767248,0.518736687195044,0.22263095456252394,-0.9098735992223904,0.38534707728744044,0.03351096355121697],[0.15294262415563464,-0.15252682788303398,-0.21419123349414507,-0.7830187947992044,1.8518846758063847,-0.7975472297114532],[0.11350962161965267,-0.33043513904831506,-0.41088392777641125,0.5392900930770222,-0.7602799873811709,0.7607256917747554],[0.35230156411461255,0.4259520166428088,-0.30469196996126063,0.032736083813750746,-1.0521086409662805,0.2680401887207381],[-1.1947711312017155,-0.7982381624930862,0.6894121957430727,-0.7015189735655771,-0.17385447318898178,-0.8179424864989229],[0.9989710183143626,-0.8453636988436283,0.9197382774450372,-1.1776700201858823,-1.5667177581028517,0.5641222070631103],[0.37009976122494453,-0.7804125694063768,0.7657999644139594,-0.35800340422209526,0.6454688596570517,0.05336388128035052]]},"weights_ho":{"rows":2,"cols":7,"data":[[0.2919905606585589,0.8655884454024938,0.8541582454466278,-0.3945709225523576,0.7096720519166144,1.1636125978618101,0.2893948003549889],[0.35854183349093616,-0.5808600176009616,0.5794604315521374,-0.23797527573033903,-1.9359449731562686,0.6956165485821177,1.3907203142082751]]},"bias_h":{"rows":7,"cols":1,"data":[[-0.9861889902864879],[-0.4177577156457948],[0.42848388732055964],[1.0656309868426908],[-1.4461589906871146],[0.26138166026242704],[0.41964800786553347]]},"bias_o":{"rows":2,"cols":1,"data":[[1.2210028403441504],[0.28155120906535]]},"learning_rate":0.1,"activation_function":{}}