{"input_nodes":6,"hidden_nodes":7,"output_nodes":2,"weights_ih":{"rows":7,"cols":6,"data":[[-0.015435839009962954,-0.9944979196737991,-0.44798106834410767,-0.38130975377577114,0.06994482015666895,-0.006242581557179095],[1.0066826927471757,0.5087447755026758,-0.471919081535532,-1.3797454995561025,0.29431967293182887,-0.6959429729409226],[0.3794571400222439,-0.3690282180264759,0.016735523443974137,1.3318430409324964,-0.49911590844638154,0.25721955640283173],[0.15945444910136297,0.4407749393309861,-0.39222336226168536,0.836793797649865,-0.728148968242867,0.22366928629721172],[0.027787087349092902,-0.6659397256460182,1.4363788983382322,-0.6351931591320197,-1.0323959100885105,-0.501895228127874],[-0.18722301187754609,-0.8517165876812703,0.4035027686328349,-1.0197286556208283,-1.1815697682518163,0.769254392762521],[0.9539992017746346,-0.5916686160864659,0.07718658458310318,-0.22388374650898768,-0.12907285986705977,-0.13858382791756635]]},"weights_ho":{"rows":2,"cols":7,"data":[[0.28271961114524624,0.9294643361802299,0.9165975688304129,-0.3662158699077419,0.9284113217629799,1.0674825624362552,0.39361555798652864],[-0.561922593691022,-0.32093180190662185,0.2096717752971393,-0.4242036597038593,-0.8169353164561332,-0.22348183432114616,1.5402175392352853]]},"bias_h":{"rows":7,"cols":1,"data":[[-1.2960699746819138],[-0.23438884115332878],[0.6281838112551748],[1.681982577938629],[-0.19059440528377872],[0.24518248420329197],[0.3971374218512708]]},"bias_o":{"rows":2,"cols":1,"data":[[1.2107370171531864],[-0.0689529085899548]]},"learning_rate":0.1,"activation_function":{}}