{"input_nodes":6,"hidden_nodes":7,"output_nodes":2,"weights_ih":{"rows":7,"cols":6,"data":[[-1.3977208614525514,-0.43687181853767765,0.6108500469991598,-0.6069426611336075,0.45882355767561933,-0.059419648430808804],[1.0457366930544305,0.007203747414796596,-0.6986323551352536,-1.1489288359733745,1.1447452140683188,-1.4111493351922864],[0.47109427358244643,-0.031031797110345507,-0.06879029082188443,0.5039471255439305,-0.870844239979424,1.2264885821850662],[-0.0824484731071437,0.23372154484798555,-0.14147559983281538,0.4070992420737926,-0.620037537470624,0.49081432649960255],[-1.8655854461600434,-0.8582795526633838,0.9259644606516357,-0.88572131071091,-0.6518916519434538,-0.8526662323551237],[-0.3563515969006296,-0.7769794645039128,0.629783632440571,-0.6767846474930407,-0.881493158276029,0.8048726710605574],[0.40007298032660665,-1.3084425690470582,1.1564195582115624,-0.10756420388366453,0.7237973698301796,-0.3570103891428492]]},"weights_ho":{"rows":2,"cols":7,"data":[[-0.26938364713569063,1.112067274553601,0.7293193859293345,-0.7567426016917125,0.5321751617064633,1.581104015684489,0.5458706401990917],[0.11360102400984343,-0.16735408234090607,1.0000312159998292,-1.3350225766389932,-1.5185173091878554,-0.029495423710316396,0.8611287320806439]]},"bias_h":{"rows":7,"cols":1,"data":[[-1.5395211770905821],[-0.4546416407880562],[0.7841004466833458],[0.7954411984994236],[-1.254123341328811],[0.2647701941282695],[1.4860272638536816]]},"bias_o":{"rows":2,"cols":1,"data":[[1.148093591265643],[0.1379901564431472]]},"learning_rate":0.1,"activation_function":{}}