{"input_nodes":6,"hidden_nodes":7,"output_nodes":2,"weights_ih":{"rows":7,"cols":6,"data":[[-0.10000223368187941,-0.7692946000159195,-1.0622171012296824,0.148547430763932,0.06534629076203617,0.05366838378377408],[1.3117267463083435,0.05477048562906217,0.3554872844375895,-0.9925835696298684,-0.07803815074068564,-0.4532299000161181],[0.1657761819655846,0.033509312260971515,-0.051846918934581876,1.0642098859709919,-0.14679290545986867,0.5384772825883627],[-0.6210955618811349,0.8012569396703757,0.2676060739756786,0.8579077385380114,-0.22256549324418629,0.5866802350587359],[0.3280543031049529,-0.1477435085575938,0.6993942280056967,-0.19137678649121376,-0.3892163858339666,-0.8734455162037903],[-0.6190074455329507,-0.6884979694358407,0.12577061293492803,-0.6532833060284507,-1.105838770413345,0.5085295863472009],[0.931253173451768,-1.0633843263730054,-0.14388844096868156,0.06373030355090994,0.3329415096283467,0.322014531908664]]},"weights_ho":{"rows":2,"cols":7,"data":[[0.3659849332096293,1.2356002631820613,0.8523464974309771,-0.654648635455638,0.5571769726120892,1.1108330303856806,0.6932602874065652],[-0.5339680347846837,-0.729220972013637,0.28765132660531917,-0.18008112848977254,-0.8357707570626735,-0.10900356447577364,0.9576820047079879]]},"bias_h":{"rows":7,"cols":1,"data":[[-0.5531040004957888],[-0.24771571531816977],[0.5354521091984557],[1.132289775854834],[0.36257874013457025],[0.36257756591028156],[0.4675841050278889]]},"bias_o":{"rows":2,"cols":1,"data":[[0.9745031308055767],[-0.4503560109585135]]},"learning_rate":0.1,"activation_function":{}}