{"input_nodes":6,"hidden_nodes":7,"output_nodes":2,"weights_ih":{"rows":7,"cols":6,"data":[[-0.10000223368187941,-0.7989500247893865,-1.0622171012296824,0.22019720527465103,-0.01762732869894493,-0.14305411311606567],[1.3117267463083435,0.048586473731472665,0.41406736859647,-0.9418414175060831,-0.07803815074068564,-0.3795959364180208],[0.1657761819655846,0.033509312260971515,-0.11237442029135569,1.0642098859709919,-0.14679290545986867,0.548956442414184],[-0.6210955618811349,0.8012569396703757,0.2554403901999038,0.8579077385380114,-0.31687351275936376,0.5866802350587359],[0.2591354861038946,-0.08378936742017884,0.6450384271912505,-0.20707047799129336,-0.33650268490896856,-0.8734455162037903],[-0.510045319461645,-0.6425693941142674,0.332904096996881,-0.6111150480033336,-1.1419907883833853,0.4297417245519239],[0.9148450052615396,-1.010505798942674,-0.14388844096868156,0.06373030355090994,0.3361014494668431,0.322014531908664]]},"weights_ho":{"rows":2,"cols":7,"data":[[0.45939493419358,1.0142220288389627,0.8523464974309771,-0.63398475555025,0.5571769726120892,1.1108330303856806,0.6932602874065652],[-0.5400353720066083,-0.729220972013637,0.35320071019285965,-0.11999059859586966,-0.8357707570626735,-0.10900356447577364,0.9576820047079879]]},"bias_h":{"rows":7,"cols":1,"data":[[-0.5531040004957888],[-0.24771571531816977],[0.7770739827594834],[1.132289775854834],[0.47290401550621125],[0.3430466576732823],[0.4675841050278889]]},"bias_o":{"rows":2,"cols":1,"data":[[0.9294071749504251],[-0.47232100667116433]]},"learning_rate":0.1,"activation_function":{}}