{"input_nodes":6,"hidden_nodes":7,"output_nodes":2,"weights_ih":{"rows":7,"cols":6,"data":[[-0.15954823851553826,-0.8979853310115011,-0.9080175136923192,0.14691192110630266,-0.01762732869894493,0.05366838378377408],[0.92246870917599,-0.04775658714754637,0.36643071854826004,-0.8699372633948086,-0.15553159824144913,-0.626478697119298],[0.1657761819655846,0.0007677307461318589,0.10648479217925463,1.2459908094360739,-0.2533625935635493,0.6405586406634161],[-0.5632743029289352,0.8250910758517948,0.18979068035771712,1.042616554166425,-0.12209364660070281,0.3925812947132034],[0.2685273820940296,-0.1477435085575938,0.7841272350219984,-0.19265670562876724,-0.11956281083387885,-1.0250707116902473],[-0.6857200363461162,-0.5559798568229468,0.12488081976333903,-0.6646373118144344,-0.7807918456932509,0.7924949568546034],[0.9916604787056107,-1.155800906489378,-0.4162749421280058,0.020464212214956812,0.508040050528688,0.5278210199722293]]},"weights_ho":{"rows":2,"cols":7,"data":[[0.6248848007893459,1.0654369007309317,0.7759336180171428,-0.7397027577278765,0.6449084061917544,0.9908801608944738,0.7569076005582929],[-0.6584212326647471,-0.6852944300160468,0.23754802387658244,-0.11070264923494892,-0.9256716296399028,-0.07758929445296633,1.0019357069292125]]},"bias_h":{"rows":7,"cols":1,"data":[[-0.5510609230771117],[-0.6873366720310949],[0.5729800465289987],[1.1494444939818473],[0.303674542815563],[0.5357144034299197],[0.6509204575190525]]},"bias_o":{"rows":2,"cols":1,"data":[[1.0010388766699672],[-0.36107545857791734]]},"learning_rate":0.1,"activation_function":{}}