{"input_nodes":6,"hidden_nodes":7,"output_nodes":2,"weights_ih":{"rows":7,"cols":6,"data":[[-0.6917853253948373,-0.07675690304494201,1.2552189585003992,-1.4499567636769821,-0.3075601246438598,0.4691675675317779],[0.5180622531672148,0.47462255933044795,-0.8926282509119208,-2.1760784743029236,1.6833804538147945,-1.1581594047618555],[-0.09287000920847595,-1.091855397812722,-0.2640866173299348,1.0429118971340217,-0.3933654076240094,1.6043699485451155],[1.0311002666707487,-0.12201887516028237,-0.6267193188607586,0.4662175632519877,-1.9932086851071853,-0.2259543659391685],[-0.5693633442169065,-1.5384437813110077,0.659700077102944,-0.3657241677019995,-0.7267061175317866,-0.6504752200652728],[2.2741305010335466,-0.6240461579728211,0.6258969777894131,-0.855346879754624,-2.1004572662032723,0.010374363770387918],[0.8580152446166582,-0.536207051232229,1.08158136588455,-0.7628082845423473,0.13024868612722842,0.5102814290264548]]},"weights_ho":{"rows":2,"cols":7,"data":[[-0.32042951668723424,0.8086867223415743,0.8528301327128974,-0.36220637149862545,0.3929883117012556,1.5825725408268592,0.6289695570466834],[0.9604745610573283,-1.2654505915355134,-0.07384300554804896,-1.3024498331030452,-1.865683935781759,0.5548062679387952,1.4259886188110276]]},"bias_h":{"rows":7,"cols":1,"data":[[-0.9776024292506535],[-0.6375115997566834],[0.8554507385824881],[1.226697738697926],[-2.5700570487225103],[-0.3975011619184567],[0.8073653097397598]]},"bias_o":{"rows":2,"cols":1,"data":[[1.2317113041188164],[0.2178850670322673]]},"learning_rate":0.1,"activation_function":{}}