{"input_nodes":6,"hidden_nodes":7,"output_nodes":2,"weights_ih":{"rows":7,"cols":6,"data":[[-1.3119172225763853,0.7576114473331972,1.566324968201236,-1.8078501771032496,-0.15577887718598615,0.8096237232803942],[0.7542954020423636,0.018231021192250202,-0.4582797948605849,-2.236273690534581,1.8690884094687439,-1.5409361135965767],[-0.6688774961632321,-0.9213779384226428,0.1607194318971769,0.714152739845592,-0.3474418244965324,1.2730732681143406],[1.0045922025234761,-0.2086333070721679,-1.067549876397842,0.960194670809201,-2.5199402187578994,-0.47418520470949616],[-0.5535216473515127,-2.048389162370432,0.6519436036822485,-0.436204245057593,-0.8656757227789806,-0.8501198421689915],[2.25965976327574,-0.46687284279428937,0.7155522251690754,-0.4747470006825509,-2.5633237792437296,0.25875662317403547],[0.4708581628504691,-0.5757855947993566,0.6365081965218554,-0.7961754171449215,-0.04446918868862855,0.2703819045384144]]},"weights_ho":{"rows":2,"cols":7,"data":[[-0.7727301113187743,0.943325144239687,0.8931671478029489,-0.2968511300146193,-0.010031390549895214,1.2940358566024446,0.8216432913706534],[0.9138723725303676,-1.193564467835721,-0.11785418609588122,-1.4033635560156204,-1.6411539980974454,0.46893289870364585,0.902616981634031]]},"bias_h":{"rows":7,"cols":1,"data":[[-1.2562200719859826],[-0.9893660058921905],[0.8976169406213252],[0.7032473160489869],[-2.5976528630810245],[-0.18556579969458564],[0.4083895906012158]]},"bias_o":{"rows":2,"cols":1,"data":[[1.3293917281011722],[0.17040313452513986]]},"learning_rate":0.1,"activation_function":{}}