{"input_nodes":6,"hidden_nodes":7,"output_nodes":2,"weights_ih":{"rows":7,"cols":6,"data":[[-1.3571594038519097,0.41373531359571614,1.4465022430611678,-1.8450850894532067,-0.07954487413975758,0.31395502567514283],[0.0726293637137547,0.7474532168321454,-1.1904215810712786,-2.719082012357371,1.1504871560183865,-1.5255692782017283],[-0.4598546966148862,-0.46448432258893957,-0.12816521560125876,1.0755284838226011,0.32044726193632356,0.8235604596709454],[0.8848331289252782,0.59218421992811,-0.9715611376942742,1.908823499484011,-2.5598072379563854,-0.3493057216059226],[0.5045065588807612,-2.5573562910307133,0.4719657910516276,-0.4602947904511673,-0.2500275697329728,-0.20676469274976023],[3.252367624443171,-0.5398104138875358,0.9125705077273069,-0.6553718648646766,-2.4305280146319364,-0.7782497562193573],[0.9138743918269927,-1.0900140099345983,1.5936760812235846,-1.2492749942833923,0.27078128304289106,0.761355822162394]]},"weights_ho":{"rows":2,"cols":7,"data":[[-0.2454187549667623,0.38507417013486267,1.0460580569573863,-0.5878179021391896,0.39295485066577285,1.3093809504923843,0.7109306535427182],[1.109275432109628,-1.174466032541241,-0.20322323072986478,-0.7403131344758261,-1.242364653003678,0.5649107901709274,1.1927631513798944]]},"bias_h":{"rows":7,"cols":1,"data":[[-0.2714470479069318],[-0.43886833883765686],[1.1564923642046139],[0.686213871230178],[-3.480279439608176],[-0.361662578582755],[0.5719914222383995]]},"bias_o":{"rows":2,"cols":1,"data":[[1.2222325606081308],[0.2048545126530873]]},"learning_rate":0.1,"activation_function":{}}