{"input_nodes":6,"hidden_nodes":7,"output_nodes":2,"weights_ih":{"rows":7,"cols":6,"data":[[-0.10000223368187941,-0.796592560673785,-0.9093751460165925,0.22019720527465103,0.028293650707204653,0.05366838378377408],[1.2064951638198127,-0.07545449665713205,0.44767502405113146,-0.9484054858729514,-0.03572101602309602,-0.557785495594453],[0.061663312983327515,0.18935932547738069,-0.1659227639010167,1.0294906992882156,-0.003317452490894768,0.5558836792602121],[-0.7807963471130239,0.8824423249971478,0.2961139191665308,0.8836891684497848,-0.22256549324418629,0.4906985717342839],[0.08878383118505334,-0.1477435085575938,0.6647340793546219,-0.2862917178474724,-0.03302469538565897,-0.9145414189822554],[-0.5714821056999332,-0.8733534273792305,0.3440079986083596,-0.6532833060284507,-1.0783291956082695,0.6959402847543581],[0.9148450052615396,-1.0633843263730054,-0.09816763752036547,0.027392554883220767,0.3329415096283467,0.35006896042868163]]},"weights_ho":{"rows":2,"cols":7,"data":[[0.40441894031228887,0.9584679835264333,0.6156515894949515,-0.654648635455638,0.5749864817413907,1.1108330303856806,0.6932602874065652],[-0.6741186985211165,-0.5809406205159695,0.5102031489121739,0.032245499311408826,-0.6707185112151471,-0.10900356447577364,1.09316289515024]]},"bias_h":{"rows":7,"cols":1,"data":[[-0.48015569199362323],[-0.43472312183138473],[0.7016675808410203],[1.1615585001892956],[0.36822274735182897],[0.558534917690503],[0.7113306121428129]]},"bias_o":{"rows":2,"cols":1,"data":[[1.099918924362601],[-0.5717771156484048]]},"learning_rate":0.1,"activation_function":{}}