{"input_nodes":6,"hidden_nodes":7,"output_nodes":2,"weights_ih":{"rows":7,"cols":6,"data":[[-0.001014290050920727,-0.8972285012096006,-1.195113527569838,-0.6230380164200746,-0.33972960840799665,0.14309338637346075],[1.2922430034855683,-0.06228955659423658,0.2730265733677355,-0.7480329322991641,-0.053200959646954794,-0.7388991078086845],[-0.23880354196690695,0.22591152138884857,-0.045014753240491194,1.0515841639959755,-0.25789828934485565,0.33266473089847143],[-0.29212171478644816,0.8305294039856373,0.06816678851602198,0.727313808265274,-0.3694548628336815,0.18970137672765286],[0.0898963762925079,-0.3690024179737314,0.5652346301759337,-0.5388007850366876,-0.45993098589896586,-0.47820906310429745],[-0.575296440390334,-0.7599858797583363,0.59264797075638,-0.5654019181517881,-1.0611845947433767,0.5886721460927002],[0.8828495335759038,-1.0003923569899207,-0.09825554278072186,-0.06267658885919362,0.3635539482821799,0.022814402707956857]]},"weights_ho":{"rows":2,"cols":7,"data":[[0.29246853657655403,0.971434445078309,1.0019199213465972,-0.7079970099601143,0.7225593894786161,1.2829226693598654,0.5273881404883202],[-0.5422576783352363,-0.47467881474708584,0.5996194622462644,0.11325749727604092,-0.8793167621745194,-0.004095635165517995,1.0412590013239176]]},"bias_h":{"rows":7,"cols":1,"data":[[-0.8979977603753603],[-0.2512607509896949],[0.5070394075098119],[1.4294876955927922],[0.4815564824246208],[0.3555797441850584],[0.2688215864263247]]},"bias_o":{"rows":2,"cols":1,"data":[[1.0441510937681784],[-0.09816086629336096]]},"learning_rate":0.1,"activation_function":{}}