{"input_nodes":6,"hidden_nodes":7,"output_nodes":2,"weights_ih":{"rows":7,"cols":6,"data":[[-0.04682403402370769,-0.8005156729324825,-0.13412699695550576,-0.1009657615789587,0.39754991283379143,0.19771505738891135],[1.3861750420919368,0.10548966353775519,-0.6523061790726574,-1.2979950937585767,0.3303929794429657,-0.7961551672988767],[0.2148867979361772,-0.3631682283760403,-0.23296454886060083,1.4329033233185444,-0.7832276819307469,0.6631782108518821],[0.20977294627375326,0.542009835681859,-0.323966402701478,0.5519654379092066,-0.5796675557507079,-0.37578796653092256],[-0.2195469199459808,-0.6606235373572646,1.6783253055981513,-0.3599357866404276,-1.097327755752946,-0.47781932071385214],[-0.2739536819602679,-0.7349370705228668,0.02878218616969204,-0.7029371274092767,-1.0235998978945315,0.9367941062723113],[0.5789390746470906,-0.9346120394571658,0.5926752702881466,-0.34794530730013584,-0.03634381180761874,-0.2578972450861931]]},"weights_ho":{"rows":2,"cols":7,"data":[[-0.05645328729248167,1.2979961015874473,0.599617609801536,-0.22718685449906606,0.7740494653541093,0.8148491974833345,0.5372896206865987],[-0.18523835201840622,-0.5638147071067521,0.3155461389243118,-0.46361193864451267,-0.9210871231065839,-0.16564335959288912,1.431372764253103]]},"bias_h":{"rows":7,"cols":1,"data":[[-1.1502966357199633],[-0.5618645761167157],[0.6741615790107298],[1.3191684275039375],[-0.04370714808727959],[0.04683508257797386],[0.4073967305106326]]},"bias_o":{"rows":2,"cols":1,"data":[[1.3476060188356442],[0.1570545434985462]]},"learning_rate":0.1,"activation_function":{}}