{"input_nodes":6,"hidden_nodes":7,"output_nodes":2,"weights_ih":{"rows":7,"cols":6,"data":[[-0.37315135421227474,-0.9944979196737991,-0.33561713060779913,-0.37966755154688003,0.06994482015666895,0.23867035662465053],[1.2127080479729524,0.47306160507829864,-0.35672964323347384,-1.2361264047403362,0.29431967293182887,-0.7221414891883787],[0.4357664694274873,-0.25060837723271084,0.22770501219579936,1.3353695204358067,-0.507250739470518,0.25721955640283173],[0.17465144635022814,0.5503904022442201,-0.37853196421713736,0.7046733696371963,-0.728148968242867,0.12363301271629848],[0.027787087349092902,-0.485599638661944,1.262356566379685,-0.5450853722356612,-1.0323959100885105,-0.41207092688086416],[-0.2575688491111089,-0.8517165876812703,0.00394760746094186,-0.8498776165735431,-1.0187072854707115,0.769254392762521],[1.020197550383004,-0.8192403544188951,0.07718658458310318,-0.24768121701685178,-0.11135081764807069,-0.27624440805519435]]},"weights_ho":{"rows":2,"cols":7,"data":[[0.28271961114524624,0.9294643361802299,0.95242813086602,-0.5075863414197426,1.0828888365574407,1.056164390023125,0.4563725850726012],[-0.5057731385952602,-0.37503083536115234,0.2371623595885925,-0.4242036597038593,-0.8169353164561332,-0.16345194666063556,1.5402175392352853]]},"bias_h":{"rows":7,"cols":1,"data":[[-1.2920737915753966],[-0.39327345062742686],[0.8162798950129426],[1.69382257253132],[-0.34705667330516377],[0.24518248420329197],[0.4320195004648338]]},"bias_o":{"rows":2,"cols":1,"data":[[1.1881762068427848],[-0.08211157232675381]]},"learning_rate":0.1,"activation_function":{}}