{"input_nodes":6,"hidden_nodes":7,"output_nodes":2,"weights_ih":{"rows":7,"cols":6,"data":[[-0.9326185500819957,-0.39175646726050195,0.6603185673500216,-0.5289577692247018,0.738839212329881,-0.09369182363245093],[0.5492389962178816,0.23128582360358146,-0.694686662600839,-0.8372862240300906,0.9096144376949288,-1.1784050406814561],[-0.026270788779544252,-0.41263142201237923,-0.857419030626809,0.971207199023674,-0.9206859950760693,0.5903758106570215],[0.12157809290363443,0.6591702864460227,-0.005366190085838288,0.5583892908751715,-0.36038534799545424,-0.09321789865718],[-1.1588562898079544,-1.0603827981352874,1.6171368198904044,-0.25707471164626516,-1.4045293343599303,-0.6541368441278997],[0.46530458575449996,-0.9770463587000568,0.41370622153336745,-1.3410603903300125,-0.9479985025167247,0.932116709943145],[0.3404391544246509,-1.1412064857598516,0.9248834305234559,-0.08071713112930544,0.5344031317301311,-0.36329017800747004]]},"weights_ho":{"rows":2,"cols":7,"data":[[0.1271906523969578,1.2557520226723997,1.0453221041965604,-0.4491257104384424,0.5002020559433086,1.1539885867931712,0.5478162851730523],[0.26790404558277847,-0.3689151306007412,0.7142759879535957,-0.8860665568406115,-1.0232184447340331,0.16157234014443067,1.5359580640564399]]},"bias_h":{"rows":7,"cols":1,"data":[[-1.2032879086331452],[-0.4154684612748788],[0.505705251131284],[1.1566558327762047],[-0.6204744233177183],[0.04195002499000321],[0.6552109307338642]]},"bias_o":{"rows":2,"cols":1,"data":[[1.2664476351570872],[0.5329000298827046]]},"learning_rate":0.1,"activation_function":{}}