{"input_nodes":6,"hidden_nodes":7,"output_nodes":2,"weights_ih":{"rows":7,"cols":6,"data":[[-0.920984056027543,-0.3681520129081781,0.5872384263429309,-1.4343606222424254,0.05517612772636494,0.504776377867506],[-0.3984336333450362,0.1071303422132272,-0.36794314778009873,-1.2093858464055585,1.9700592888423896,-0.9666658162335255],[-0.11798173974659029,-0.6420096262348025,-0.17253898234145473,0.8546320247231894,-0.48539994646311396,1.1299977908568708],[0.10306142578479761,0.1307411940354436,0.6391957832870353,0.16534262963460866,-1.862476390877017,-0.2787562231001727],[-1.8690040390272957,-1.7096052501145442,0.7034991322974715,-1.2635775529732387,-1.0562043305047535,-1.063484956769084],[2.076781452132326,-0.8516998841442147,0.3051539367883756,-1.4100957089553572,-1.9540739753266805,0.6991784328388313],[0.1229305966178397,-1.0564026202373222,1.3284004673516758,-0.7779493966595993,0.2280454456243115,-0.1546683077532745]]},"weights_ho":{"rows":2,"cols":7,"data":[[-0.5327891420160625,1.200100767284599,0.5877693176218832,-0.7704439793841473,0.3646403361624294,1.5068439865681555,0.5140609497201124],[0.33248136980120807,-1.0878321946548464,0.44257907326953694,-0.8918886338069036,-1.3608716566106789,0.5985028225957681,1.751309477831598]]},"bias_h":{"rows":7,"cols":1,"data":[[-1.0616939524311542],[-0.31912160436955167],[0.8054791564266246],[1.0876041196870805],[-2.117514069915678],[-0.14941529559458377],[1.0180273839204852]]},"bias_o":{"rows":2,"cols":1,"data":[[1.4292730849914934],[0.4554928755973039]]},"learning_rate":0.1,"activation_function":{}}