{"input_nodes":6,"hidden_nodes":7,"output_nodes":2,"weights_ih":{"rows":7,"cols":6,"data":[[-0.11923849773487738,-0.6585111505905887,-1.0622171012296824,0.14691192110630266,0.09174082023870223,0.05366838378377408],[1.2278686011877706,-0.07545449665713205,0.3488626843404885,-0.9925835696298684,-0.07803815074068564,-0.4532299000161181],[0.1657761819655846,0.033509312260971515,-0.07690107513825978,1.1011800240995318,-0.34861911657735006,0.7762124681899439],[-0.6910846240495185,0.8012569396703757,0.15112886213763074,0.9134402412946017,-0.22256549324418629,0.4828512927575155],[0.2685273820940296,-0.1477435085575938,0.7492394220523142,-0.04809266942129509,-0.17934682794131476,-0.9198523479359587],[-0.7714607187510333,-0.8141239208286603,0.332904096996881,-0.6532833060284507,-1.0318404211458716,0.5278201670946778],[0.9148450052615396,-1.0624640135365577,-0.09474521744187292,-0.15245474136137785,0.4502198180428948,0.399583972216502]]},"weights_ho":{"rows":2,"cols":7,"data":[[0.6741458831900897,0.9425448613903722,0.7759336180171428,-0.7397027577278765,0.5692317315694602,1.0512882683218896,0.7872206359103634],[-0.5099170285753163,-0.6330490155693559,0.6302900925017416,-0.11070264923494892,-0.8357707570626735,-0.10900356447577364,0.8023516741711443]]},"bias_h":{"rows":7,"cols":1,"data":[[-0.579117690102555],[-0.30827722801370455],[0.5354521091984557],[1.3745269354599403],[0.37615315221086526],[0.4126356403643074],[0.5040050833255794]]},"bias_o":{"rows":2,"cols":1,"data":[[1.0593711639807908],[-0.443285980538216]]},"learning_rate":0.1,"activation_function":{}}