{"input_nodes":6,"hidden_nodes":7,"output_nodes":2,"weights_ih":{"rows":7,"cols":6,"data":[[-0.10000223368187941,-0.7989500247893865,-1.0622171012296824,0.18552563319392923,-0.01762732869894493,0.05366838378377408],[1.2278686011877706,-0.07545449665713205,0.3554872844375895,-0.9925835696298684,-0.07803815074068564,-0.4532299000161181],[0.1657761819655846,0.033509312260971515,-0.07690107513825978,1.0642098859709919,-0.2672051709926013,0.548956442414184],[-0.5632743029289352,0.8012569396703757,0.18025555504714386,0.9134402412946017,-0.22256549324418629,0.4828512927575155],[0.2685273820940296,-0.1477435085575938,0.6993942280056967,-0.17182487350493417,-0.30450708728367815,-0.9193474037084711],[-0.575296440390334,-0.8141239208286603,0.332904096996881,-0.6532833060284507,-1.1419907883833853,0.584513470545423],[0.9148450052615396,-1.0624640135365577,-0.14388844096868156,0.07319786422406122,0.4502198180428948,0.322014531908664]]},"weights_ho":{"rows":2,"cols":7,"data":[[0.5259148919774503,0.8630228701282514,0.7759336180171428,-0.654648635455638,0.5692317315694602,1.0512882683218896,0.7528513152961335],[-0.5317984569770438,-0.729220972013637,0.37079809279470877,-0.11070264923494892,-0.8357707570626735,-0.10900356447577364,0.9576820047079879]]},"bias_h":{"rows":7,"cols":1,"data":[[-0.5531040004957888],[-0.27879315445458625],[0.5354521091984557],[1.2147696689454874],[0.37615315221086526],[0.36257756591028156],[0.5040050833255794]]},"bias_o":{"rows":2,"cols":1,"data":[[1.1002093450047734],[-0.443285980538216]]},"learning_rate":0.1,"activation_function":{}}