{
    "input_nodes": 6,
    "output_nodes": 2,
    "hidden_layers": 6,
    "hidden_nodes": 6,
    "layers": [
        {
            "input_nodes": 6,
            "nodes": 6,
            "activation_function": "sigmoid",
            "bias": [
                -0.20324601770847767,
                0.14043208934564966,
                0.6583309598723862,
                -0.022478875130208246,
                -0.8654966946219971,
                -0.16320805211212072
            ],
            "weights": [
                [
                    0.47252194187081215,
                    0.1379137127311173,
                    0.10466430598730161,
                    -0.3152523662938307,
                    -0.4470531914594749,
                    -0.4171196995800487
                ],
                [
                    0.2580998449614932,
                    -0.030420523920974954,
                    0.11170505419186001,
                    0.9700560673995401,
                    0.06568516477035576,
                    -0.4931597184508801
                ],
                [
                    0.5381341633141403,
                    0.2599350083273939,
                    0.3072359704157759,
                    -0.17011243677890653,
                    0.19033308122058487,
                    0.24601051316538186
                ],
                [
                    -0.5318261004869365,
                    -0.9782028930820763,
                    -0.028306388157786057,
                    -0.21269589392732158,
                    -0.2166101189161048,
                    -0.4416758518895365
                ],
                [
                    0.08578530915214493,
                    0.23310086840943384,
                    0.7913170246037741,
                    -0.7649400669057836,
                    0.2263446014961086,
                    0.31510922293248517
                ],
                [
                    0.3599517428204887,
                    0.25822243452970867,
                    0.3090301904322317,
                    0.02032095709129632,
                    -1.1249495611572313,
                    -0.25671533633334986
                ]
            ]
        },
        {
            "input_nodes": 6,
            "nodes": 6,
            "activation_function": "sigmoid",
            "bias": [
                0.7241311956276384,
                -0.10123710916816386,
                -0.9096724772095848,
                -0.18963730939293216,
                0.3168406644086341,
                0.33215725186808803
            ],
            "weights": [
                [
                    -0.7649134864376055,
                    -0.2675720752363845,
                    -0.5623115398746346,
                    0.4968244461878849,
                    0.1897915588243908,
                    0.8501450774937805
                ],
                [
                    0.2002557087137198,
                    -0.19087034249705376,
                    0.49042141204889883,
                    -0.07730868216398992,
                    0.12667607955592508,
                    0.17731117229490323
                ],
                [
                    -0.1867559786341632,
                    0.28580770292671986,
                    -0.1914941503874738,
                    -0.3844324259202642,
                    0.39773121628402935,
                    -0.24223110625293656
                ],
                [
                    0.12650737807829696,
                    -1.0377702266947455,
                    0.13486455257304808,
                    -1.0739823235708912,
                    -1.5407076204374095,
                    -0.19246937257950528
                ],
                [
                    -0.3603888256745805,
                    -0.07439350120002013,
                    0.02309794183469127,
                    -0.3881442733848167,
                    -0.16790548692875146,
                    0.14672236714086453
                ],
                [
                    0.9139085653196579,
                    -0.8045864719421146,
                    1.0269143522178987,
                    0.2347561159093997,
                    0.24048887214275197,
                    -0.23095301120609898
                ]
            ]
        },
        {
            "input_nodes": 6,
            "nodes": 6,
            "activation_function": "sigmoid",
            "bias": [
                -0.48600462465122757,
                -0.4402625611471952,
                0.038450227788468405,
                0.2639832986119849,
                -0.0372335858432456,
                -0.3198038039089927
            ],
            "weights": [
                [
                    -0.9679103138786398,
                    0.029863783482275356,
                    0.2715857240931139,
                    -0.11553644861283349,
                    -0.3452399118972879,
                    0.5288554829330199
                ],
                [
                    0.7855574481970049,
                    0.28182247624023216,
                    0.024077133705866283,
                    0.3258852035133689,
                    0.08398148254240245,
                    0.5685679678734031
                ],
                [
                    0.45228662825749916,
                    -0.3440232887822867,
                    0.1442344621855984,
                    0.1371676533230051,
                    0.35763734514680756,
                    -0.009013560997787343
                ],
                [
                    0.23791121510830218,
                    -0.33261636594971233,
                    -0.016736663203761333,
                    -0.32332479040874784,
                    -0.029874302372206663,
                    -0.7019451149504531
                ],
                [
                    0.02624063882207199,
                    -0.7363234957393668,
                    -0.15018929170442624,
                    0.022102288254619875,
                    1.1485210049152064,
                    -0.2095993348037636
                ],
                [
                    0.7949298416383933,
                    -0.5088232227735314,
                    0.23593801158647174,
                    -0.13728219809595693,
                    0.9401212757936673,
                    -0.24151387071618463
                ]
            ]
        },
        {
            "input_nodes": 6,
            "nodes": 6,
            "activation_function": "sigmoid",
            "bias": [
                -0.7756684045685004,
                -0.0677470722882541,
                1.2387851113452517,
                -0.07437762457555494,
                0.15740007737886277,
                -0.05990897388108496
            ],
            "weights": [
                [
                    0.344365686478706,
                    0.014181273258596624,
                    0.4274599116965948,
                    -0.6019949231523927,
                    -0.16174973057925093,
                    0.029735067718791627
                ],
                [
                    0.5904918509374905,
                    0.90593310910772,
                    0.677512218423459,
                    -1.0581804490395947,
                    0.32201045234402714,
                    -0.42929258938651493
                ],
                [
                    0.2744821830623725,
                    0.79866849121832,
                    -0.3636234002534139,
                    0.47000390350596055,
                    -0.15938988920225866,
                    -0.3972373525278653
                ],
                [
                    -0.20676675902690655,
                    0.5993322298979177,
                    0.9396643684229569,
                    0.44663207177842223,
                    -0.04335679237787993,
                    0.48551453569187814
                ],
                [
                    0.5499631680861674,
                    -0.05292683411162447,
                    0.2502779672901737,
                    0.013551197047501375,
                    0.13448060097909087,
                    -0.1285462687648238
                ],
                [
                    0.20048896464154775,
                    -0.7295333306656963,
                    -0.19923464984186195,
                    -0.07514022133479278,
                    0.5115276227890544,
                    -0.6858865920145034
                ]
            ]
        },
        {
            "input_nodes": 6,
            "nodes": 6,
            "activation_function": "sigmoid",
            "bias": [
                -0.4742420704839025,
                0.20452896698623738,
                0.16208439980677797,
                0.31786358726764996,
                -0.5196598472155843,
                -0.5095980004253928
            ],
            "weights": [
                [
                    0.07462754242085674,
                    0.22682023409055718,
                    0.28291266093221357,
                    0.13712942526716668,
                    -0.44085076111427296,
                    0.1320062388856439
                ],
                [
                    -0.4037708596813496,
                    0.08838598521457493,
                    0.44981190457057657,
                    0.2955565736635034,
                    0.20298053469644517,
                    -0.2950812325464575
                ],
                [
                    0.6755637509989361,
                    -0.3783896763859456,
                    0.137873886599914,
                    0.1938918344383686,
                    -0.29114887467488326,
                    -1.3757645442466742
                ],
                [
                    0.3972123671107801,
                    -0.10453724681535037,
                    -0.18260581408396306,
                    0.4334228131875131,
                    0.10803607540072409,
                    0.413624076631029
                ],
                [
                    -0.7067119878556104,
                    0.03541630848034663,
                    0.5372380799770176,
                    0.20958109164161876,
                    0.5668465111677892,
                    -0.06019886648801328
                ],
                [
                    -0.0550079489827989,
                    -0.3094895736964161,
                    -0.5802254872679283,
                    -0.8525513592782236,
                    -0.3216520970564599,
                    0.9537391689476253
                ]
            ]
        },
        {
            "input_nodes": 6,
            "nodes": 6,
            "activation_function": "sigmoid",
            "bias": [
                -0.08340322866064792,
                -0.5888112278212281,
                0.2924353607853219,
                -0.9280110789358184,
                -0.6612089328511286,
                -0.6956324519340262
            ],
            "weights": [
                [
                    0.12466070802289497,
                    0.65080263153576,
                    -0.24659839209252482,
                    0.16540123588450875,
                    0.32183727042468885,
                    -0.18849503786135247
                ],
                [
                    -0.20359707265536744,
                    0.4070490823284512,
                    -0.3438595068278234,
                    0.30145229294018605,
                    -0.008350269097265758,
                    -0.6865739073966798
                ],
                [
                    0.11244649202559795,
                    -0.07052800001491669,
                    -0.10968340455540797,
                    -0.1878570449633662,
                    0.800652519282797,
                    0.4654195110141758
                ],
                [
                    0.39935162464874474,
                    -1.0314278688141956,
                    -0.3683930528681587,
                    0.08729402425132003,
                    -0.13210538638565567,
                    0.13004634153735015
                ],
                [
                    0.04008374491197682,
                    -0.2777491461769081,
                    0.2527870192414264,
                    -0.33094820651313506,
                    0.09819683238371901,
                    0.8131929342753162
                ],
                [
                    0.5632996085759108,
                    -0.8743408618013936,
                    -0.07955171602234568,
                    -0.028925357031421156,
                    -0.782471596156279,
                    0.11323539918301592
                ]
            ]
        },
        {
            "input_nodes": 6,
            "nodes": 2,
            "activation_function": "relu",
            "bias": [
                -0.005756095475821246,
                0.46563556950831664
            ],
            "weights": [
                [
                    0.6115679887224243,
                    1.348026808722793
                ],
                [
                    -0.5844243703942678,
                    0.8097067999575628
                ],
                [
                    -0.11678449439472098,
                    0.7950890339506509
                ],
                [
                    -0.27186647207060305,
                    -0.5720403230562091
                ],
                [
                    -0.0825587959478516,
                    0.9345791734270311
                ],
                [
                    -0.04686793765752548,
                    2.018609972441955
                ]
            ]
        }
    ]
}
