{
    "input_nodes": 6,
    "output_nodes": 2,
    "hidden_layers": 6,
    "hidden_nodes": 6,
    "layers": [
        {
            "input_nodes": 6,
            "nodes": 6,
            "activation_function": "sigmoid",
            "bias": [
                -0.2219269140675526,
                0.05744726840118242,
                0.4749450457419012,
                0.5683863002593925,
                -0.8984509602846021,
                -0.1720111946597903
            ],
            "weights": [
                [
                    0.30766309423779326,
                    0.3921975988398234,
                    0.07370913492162817,
                    -0.3944621137184039,
                    -0.33302433659442265,
                    -0.6223054741772353
                ],
                [
                    0.12127132258641987,
                    0.22524521258545097,
                    -0.1929179457348248,
                    1.1607103536862573,
                    0.15422509882290153,
                    -0.5860118338480763
                ],
                [
                    0.36129142278420445,
                    -0.2767212352317784,
                    0.07317926760484755,
                    -0.014312201994239104,
                    0.3630278477929578,
                    -0.18917279099962803
                ],
                [
                    -0.2332316153664472,
                    -1.0601009665669388,
                    0.03869818047618321,
                    0.006741140137972654,
                    -0.13901177434144918,
                    -0.7184201629598589
                ],
                [
                    0.017280642122542426,
                    0.4428493353600101,
                    0.5709197361536407,
                    -1.0798842003762559,
                    0.011649302789067395,
                    0.28127675779244665
                ],
                [
                    0.45493107290435375,
                    0.33307172554303976,
                    0.3468783812605549,
                    -0.1279862883935531,
                    -1.9126817754480858,
                    -0.5011003419107916
                ]
            ]
        },
        {
            "input_nodes": 6,
            "nodes": 6,
            "activation_function": "sigmoid",
            "bias": [
                0.8099458285162736,
                -0.1147854971920881,
                -0.9096724772095848,
                0.04270806742030009,
                -0.0296394153666448,
                0.23946785104457888
            ],
            "weights": [
                [
                    -1.0051120556672333,
                    -0.5557293875286624,
                    -0.4821042144702827,
                    0.4707427569457967,
                    0.42464649978414926,
                    0.820766846424033
                ],
                [
                    0.6401820804497821,
                    -0.15054322563679762,
                    0.8878100066856649,
                    -0.3090190677709484,
                    0.18257455863961816,
                    -0.10832628181904819
                ],
                [
                    0.16317094472384108,
                    0.612293386462502,
                    -0.4836658344343249,
                    -0.569172730797549,
                    0.16486384134528737,
                    -0.5051736051857112
                ],
                [
                    0.199969842643612,
                    -0.747666294929563,
                    0.009458322221928772,
                    -1.007866371476398,
                    -0.9477244647939237,
                    0.04746211712408315
                ],
                [
                    -0.5559701377549803,
                    -0.2715389547191282,
                    -0.4979141673956551,
                    -0.5121024118195155,
                    -0.5014337002990696,
                    0.38852665694943517
                ],
                [
                    0.7592107232561434,
                    -1.2632708891760496,
                    0.8439708292471579,
                    0.06335290396856477,
                    0.4154774755175279,
                    -0.40793325939813674
                ]
            ]
        },
        {
            "input_nodes": 6,
            "nodes": 6,
            "activation_function": "sigmoid",
            "bias": [
                -0.1759447228921364,
                -0.1318161892606478,
                -0.5331153002234873,
                0.24404417731895722,
                -0.0329104450773506,
                -0.4180110175922778
            ],
            "weights": [
                [
                    -0.6073182424869359,
                    -0.18052593684117396,
                    0.3044855198218742,
                    -0.07122862116890037,
                    -0.26003438120397054,
                    0.29344168382158786
                ],
                [
                    0.7800500830015313,
                    0.5569205289974871,
                    0.20424592219653703,
                    0.225987424616737,
                    0.36718319523440424,
                    0.36865868356182324
                ],
                [
                    0.21621472683228773,
                    -0.3104867304080666,
                    -0.029497501545716065,
                    -0.25324723827854634,
                    0.5282318046767539,
                    0.17844803592324657
                ],
                [
                    0.034311019941070525,
                    -0.5419149718151974,
                    0.17545637254607507,
                    -0.16276804367250494,
                    -0.1533677601328083,
                    -0.4095392694879315
                ],
                [
                    -0.061778040491205444,
                    -0.48826472114304076,
                    0.13407325671416254,
                    -0.026880044144264606,
                    1.2528020946672496,
                    -0.33344414495440505
                ],
                [
                    0.6822287649187628,
                    -0.8675211761211952,
                    0.25389657330853493,
                    0.015335303113844373,
                    0.6983835822595436,
                    -0.5287781053578879
                ]
            ]
        },
        {
            "input_nodes": 6,
            "nodes": 6,
            "activation_function": "sigmoid",
            "bias": [
                -0.4498013276108581,
                0.037394061503069814,
                1.235209043636719,
                0.42316748365887363,
                -0.06350969181251481,
                0.028713749374705624
            ],
            "weights": [
                [
                    0.538760393971192,
                    0.0007945832048941448,
                    0.5849534285243281,
                    -0.5294908827846774,
                    -0.3960952696215551,
                    0.05076875791586877
                ],
                [
                    0.7763016857092047,
                    1.023224187558404,
                    0.5817810443852589,
                    -1.1517369675091662,
                    -0.17480507101786535,
                    0.15848025246761427
                ],
                [
                    0.1400129644052411,
                    0.861534262195124,
                    -0.13163136637851444,
                    0.282154988569313,
                    -0.33337031602047923,
                    -1.0453922254568138
                ],
                [
                    0.061239324294824,
                    0.4164620457631313,
                    1.3789564043972022,
                    -0.08975638984689543,
                    -0.5798499238806621,
                    0.47582600553777954
                ],
                [
                    0.28212825837811184,
                    -0.021278745480148964,
                    0.4102981358895288,
                    0.23740616814583107,
                    0.008430989943516314,
                    -0.14810968731946364
                ],
                [
                    0.25047660371997865,
                    -0.7131410100295372,
                    -0.49738416307908695,
                    0.14307132785429683,
                    1.1641789462082723,
                    -0.2991752740620467
                ]
            ]
        },
        {
            "input_nodes": 6,
            "nodes": 6,
            "activation_function": "sigmoid",
            "bias": [
                -0.5390092072369067,
                0.39579535307107394,
                0.04092070559511013,
                0.5150199674610751,
                -0.5717367373634176,
                -0.7850159633066442
            ],
            "weights": [
                [
                    0.06387562290097151,
                    0.3230655585251829,
                    0.2017529426748405,
                    -0.025461685713194737,
                    -0.6572594239772377,
                    -0.18983563266411385
                ],
                [
                    -0.9536795553847063,
                    0.009145104752687816,
                    0.847431093761698,
                    0.281661042458822,
                    0.46727731011545787,
                    -0.4965224046135825
                ],
                [
                    0.8178239105657843,
                    -0.16435272765201128,
                    -0.3036070747543926,
                    0.5375112416198539,
                    -0.23538678854095074,
                    -1.0623949414589824
                ],
                [
                    0.3426325992287865,
                    -0.3326553279096092,
                    -0.571542612908845,
                    0.3367477954421666,
                    0.3204223418069345,
                    0.3815497262464051
                ],
                [
                    -0.7126612454403094,
                    0.16123903194817735,
                    0.5501704898109194,
                    0.5909991052191339,
                    0.9844568941257575,
                    -0.002762603479916352
                ],
                [
                    -0.5482162396313512,
                    -0.28015900041289765,
                    -0.745617378181836,
                    -0.3147556221649816,
                    -0.35339560630854444,
                    0.9573681101237628
                ]
            ]
        },
        {
            "input_nodes": 6,
            "nodes": 6,
            "activation_function": "sigmoid",
            "bias": [
                -0.25432357805555883,
                -0.21983274483566123,
                0.43374566885312416,
                -0.745929899365384,
                -1.0031964626082859,
                -0.9052094825981918
            ],
            "weights": [
                [
                    0.03619594679774579,
                    0.17633376927420347,
                    -0.4154203662209057,
                    0.4976127654819843,
                    0.7857300517920196,
                    -0.6345336617400779
                ],
                [
                    -0.3541135881804556,
                    0.44299527950249235,
                    -0.15558514548395663,
                    0.20899848111272773,
                    -0.2082209798060019,
                    -0.5875671557683777
                ],
                [
                    0.3042994123060648,
                    0.06453907338872006,
                    0.0912617059083782,
                    -0.09859040742107676,
                    0.9973679397584123,
                    0.7103829604614879
                ],
                [
                    0.2673127180586436,
                    -0.7009780860024578,
                    -0.8726955908697562,
                    -0.3286261596094116,
                    -0.09075944158960772,
                    0.2693536402456967
                ],
                [
                    -0.15299166246507823,
                    -0.22369658785092067,
                    0.2059012023356593,
                    -0.1395872116787385,
                    0.13189287926930673,
                    0.736551053974709
                ],
                [
                    0.6982335534643884,
                    -0.6745193508183911,
                    0.24147742564729863,
                    -0.32972902288355876,
                    -0.8061263576887427,
                    0.28341796648040407
                ]
            ]
        },
        {
            "input_nodes": 6,
            "nodes": 2,
            "activation_function": "relu",
            "bias": [
                -0.16966151124829132,
                0.6836995750832858
            ],
            "weights": [
                [
                    0.8984609038011926,
                    1.3301853127801093
                ],
                [
                    -0.6680684379469516,
                    1.1490613337242863
                ],
                [
                    -0.27210265590214083,
                    0.9166233303115418
                ],
                [
                    0.11835354019409372,
                    -0.8996591996390002
                ],
                [
                    0.05510066800234466,
                    0.8754256398104028
                ],
                [
                    0.09915047350352003,
                    2.3492848704368203
                ]
            ]
        }
    ]
}
