{
    "input_nodes": 6,
    "output_nodes": 2,
    "hidden_layers": 6,
    "hidden_nodes": 6,
    "layers": [
        {
            "input_nodes": 6,
            "nodes": 6,
            "activation_function": "sigmoid",
            "bias": [
                -0.20324601770847767,
                -0.1889678897117124,
                0.6583309598723862,
                -0.022081377415711888,
                -0.7835640749059581,
                -0.2769601924289411
            ],
            "weights": [
                [
                    0.47252194187081215,
                    0.07370497912076089,
                    0.10466430598730161,
                    -0.41594122370934183,
                    -0.46548070042003054,
                    -0.5716855189606634
                ],
                [
                    0.39604176460118007,
                    -0.030420523920974954,
                    0.011247476526709474,
                    0.9700560673995401,
                    0.050466311307689235,
                    -0.4931597184508801
                ],
                [
                    0.4481772374945882,
                    -0.186659021139145,
                    0.3072359704157759,
                    -0.17011243677890653,
                    0.31996693422710953,
                    0.29338981115979346
                ],
                [
                    -0.24747558286422516,
                    -0.9782028930820763,
                    -0.1464658569581399,
                    -0.21269589392732158,
                    -0.234178640677648,
                    -0.4416758518895365
                ],
                [
                    -0.09539084341187495,
                    0.1684099717552071,
                    0.734773425603727,
                    -0.8096701040879593,
                    0.13871993908983277,
                    0.2920641268636268
                ],
                [
                    0.4496035894879212,
                    0.25822243452970867,
                    0.22875727054001427,
                    -0.006991834304687621,
                    -1.191713054874206,
                    -0.3422655755309313
                ]
            ]
        },
        {
            "input_nodes": 6,
            "nodes": 6,
            "activation_function": "sigmoid",
            "bias": [
                0.5782741577850757,
                -0.10123710916816386,
                -0.9378342178098474,
                -0.11593041822982873,
                0.1864413932476353,
                0.2148004810632453
            ],
            "weights": [
                [
                    -0.9679873915139896,
                    -0.4973650823865759,
                    -0.4255529899759467,
                    0.4080166642606662,
                    0.019520534838851255,
                    0.8501450774937805
                ],
                [
                    0.4624264042778873,
                    -0.12011052443754569,
                    0.521093479827754,
                    0.045577523933608824,
                    0.12667607955592508,
                    0.10565475122879417
                ],
                [
                    -0.1867559786341632,
                    0.5989814338356168,
                    -0.33992943571802914,
                    -0.240960124500379,
                    0.3996730860594701,
                    -0.24223110625293656
                ],
                [
                    -0.08224774978605237,
                    -0.7684738972000174,
                    0.19993841395981687,
                    -0.8742069541971446,
                    -1.431587891351835,
                    0.44062393934212807
                ],
                [
                    -0.29542054407807183,
                    0.10511257883950782,
                    -0.29977284541216703,
                    -0.5156572090485297,
                    -0.33426855194234817,
                    0.13715665911324337
                ],
                [
                    0.6927122717826081,
                    -0.8045864719421146,
                    0.9834767515242026,
                    0.11087797836834676,
                    0.2615113715862657,
                    -0.34566868577846066
                ]
            ]
        },
        {
            "input_nodes": 6,
            "nodes": 6,
            "activation_function": "sigmoid",
            "bias": [
                -0.46515552462667564,
                -0.2729544404014395,
                -0.016617894318029913,
                0.2639832986119849,
                -0.003496939221364466,
                -0.1314882528549539
            ],
            "weights": [
                [
                    -0.8165848448934112,
                    -0.010413333186426704,
                    0.2715857240931139,
                    -0.41005417072058536,
                    -0.40959628828223504,
                    0.5288554829330199
                ],
                [
                    0.4525670918920529,
                    0.28182247624023216,
                    0.024077133705866283,
                    0.3309356577874445,
                    0.08398148254240245,
                    0.43453068571187714
                ],
                [
                    0.4399816813883144,
                    -0.2979419045592183,
                    0.04225410512270728,
                    0.18219996715663356,
                    0.3237713624776548,
                    -0.12147814498382653
                ],
                [
                    0.38238310941451487,
                    -0.31100613520728104,
                    0.05385239564728466,
                    -0.46716358727751695,
                    -0.006035248124723554,
                    -0.6005192094849348
                ],
                [
                    0.14544729078065902,
                    -0.7638284771458395,
                    -0.1690078806362942,
                    0.0455074986363246,
                    0.976100018999642,
                    -0.2095993348037636
                ],
                [
                    0.7949298416383933,
                    -0.8104291946036145,
                    0.2023929066341256,
                    -0.2214402772644013,
                    0.9401212757936673,
                    -0.14838713424818856
                ]
            ]
        },
        {
            "input_nodes": 6,
            "nodes": 6,
            "activation_function": "sigmoid",
            "bias": [
                -0.7689795003945082,
                0.020963170061183485,
                1.1525484611602446,
                -0.012364277240511548,
                0.15740007737886277,
                -0.1147040433822619
            ],
            "weights": [
                [
                    0.7014964563637024,
                    0.03392216595938681,
                    0.3486226568267634,
                    -0.42320583839719217,
                    -0.018765033357271088,
                    -0.00243521068647235
                ],
                [
                    0.5562842291166195,
                    0.8637425153993281,
                    0.6935396300429539,
                    -1.1048343697313396,
                    0.3149812752705452,
                    -0.6027757066565795
                ],
                [
                    0.23251029534620474,
                    0.6782359560372577,
                    -0.11167226656966064,
                    0.6028855504926508,
                    -0.09580796458491732,
                    -0.40889619042724074
                ],
                [
                    -0.20676675902690655,
                    0.5993322298979177,
                    0.7677657036038225,
                    0.07906808962098338,
                    -0.16108441240104956,
                    0.48551453569187814
                ],
                [
                    0.2601600734346671,
                    -0.046511435851437216,
                    0.3879053718589925,
                    -0.021510258803949033,
                    0.2360406737874863,
                    -0.01590681941116731
                ],
                [
                    0.22253212034307362,
                    -0.790682851810648,
                    -0.151663897604392,
                    0.09397360316416054,
                    0.6000400380796844,
                    -0.6858865920145034
                ]
            ]
        },
        {
            "input_nodes": 6,
            "nodes": 6,
            "activation_function": "sigmoid",
            "bias": [
                -0.4215239876733719,
                0.45187042025645563,
                0.16208439980677797,
                0.41238229300102136,
                -0.43139796618088205,
                -0.7600484390017912
            ],
            "weights": [
                [
                    0.07462754242085674,
                    0.0761469973975582,
                    0.28291266093221357,
                    -0.07829838588470195,
                    -0.34611674404381715,
                    0.1320062388856439
                ],
                [
                    -0.7596722516576604,
                    0.11568846401748711,
                    0.5508807688390872,
                    0.2955565736635034,
                    0.025099119640382,
                    -0.1765499390251959
                ],
                [
                    0.8069782026396448,
                    -0.41940602177923897,
                    0.06219565068871796,
                    0.1938918344383686,
                    -0.29590308262332154,
                    -1.2251289180557445
                ],
                [
                    0.21269833933233992,
                    -0.2469436519994081,
                    -0.24647735375744645,
                    0.43316871066784385,
                    0.1615028355488633,
                    0.3798460963069708
                ],
                [
                    -0.8937273870012293,
                    0.06198706470555901,
                    0.5569837912461248,
                    0.19089590942325882,
                    0.6364584451248619,
                    -0.058545939740964045
                ],
                [
                    0.037118924646155134,
                    -0.17666492343915854,
                    -0.5802254872679283,
                    -0.9307455426304461,
                    -0.5925322264208472,
                    0.9537391689476253
                ]
            ]
        },
        {
            "input_nodes": 6,
            "nodes": 6,
            "activation_function": "sigmoid",
            "bias": [
                -0.08340322866064792,
                -0.5289026776632113,
                0.2924353607853219,
                -0.9280110789358184,
                -0.7980048333592882,
                -0.2623173229298106
            ],
            "weights": [
                [
                    0.1157383326889932,
                    0.6061709284333847,
                    -0.1673473010028789,
                    0.38052963238211346,
                    0.5591074140097659,
                    -0.2537194822115312
                ],
                [
                    -0.22516693334392282,
                    0.44998474989623594,
                    -0.3438595068278234,
                    0.48724365815628323,
                    -0.008350269097265758,
                    -0.46966586783542563
                ],
                [
                    0.1190191902008971,
                    -0.07052800001491669,
                    -0.05798025698689015,
                    0.05520629659117263,
                    0.9886175355078978,
                    0.09956526776268079
                ],
                [
                    0.5172011342130728,
                    -0.9698238410000495,
                    -0.3674526853979504,
                    0.08729402425132003,
                    -0.13082091743937854,
                    0.13004634153735015
                ],
                [
                    -0.07482863006522529,
                    -0.3127379519389022,
                    0.2527870192414264,
                    -0.33094820651313506,
                    0.06990247051403838,
                    0.7739221344099507
                ],
                [
                    0.6490444572077867,
                    -0.9368146825564097,
                    -0.09910399090582443,
                    -0.028925357031421156,
                    -0.782471596156279,
                    0.11323539918301592
                ]
            ]
        },
        {
            "input_nodes": 6,
            "nodes": 2,
            "activation_function": "relu",
            "bias": [
                -0.06687795256919307,
                0.3869607555382779
            ],
            "weights": [
                [
                    0.7112525311443976,
                    1.0927129356410035
                ],
                [
                    -0.5844243703942678,
                    0.8979357785577907
                ],
                [
                    -0.06126141845018585,
                    0.9107509058283538
                ],
                [
                    -0.3074529117389588,
                    -0.6241153160681914
                ],
                [
                    -0.024157006557453675,
                    1.2194023386547372
                ],
                [
                    -0.04686793765752548,
                    2.0462628569499293
                ]
            ]
        }
    ]
}
