{
    "input_nodes": 6,
    "output_nodes": 2,
    "hidden_layers": 6,
    "hidden_nodes": 6,
    "layers": [
        {
            "input_nodes": 6,
            "nodes": 6,
            "activation_function": "sigmoid",
            "bias": [
                -0.03526904475301665,
                -0.17762883444899752,
                0.6159346101207092,
                -0.012021383985319711,
                -0.7725292991458382,
                -0.05178471671950266
            ],
            "weights": [
                [
                    0.5809176718859714,
                    -0.08681885236661654,
                    0.32414361561267624,
                    -0.30268177377710126,
                    -0.478942858143325,
                    -0.3846294750087218
                ],
                [
                    0.2820525330635484,
                    -0.13606860765020132,
                    0.28125863545558794,
                    0.39634215497204284,
                    -0.11924835229928807,
                    -0.6090918639430094
                ],
                [
                    0.6579323018709661,
                    -0.008558506775463687,
                    0.6393902746985006,
                    -0.3881590165710653,
                    -0.036628812747285744,
                    0.2985289787059093
                ],
                [
                    -0.4147437593256227,
                    -0.4034917452616659,
                    -0.1911665876044693,
                    -0.03560473958465117,
                    -0.04796690597829478,
                    -0.40734958518804776
                ],
                [
                    -0.11815042389123208,
                    0.11419429477678805,
                    0.6842896831197309,
                    -0.7984140974041175,
                    0.021427419623161102,
                    0.25472561637510005
                ],
                [
                    0.5260719233948932,
                    0.09391524330997203,
                    0.186746450375667,
                    0.27126428871988245,
                    -0.946150539946164,
                    -0.2709725039150827
                ]
            ]
        },
        {
            "input_nodes": 6,
            "nodes": 6,
            "activation_function": "sigmoid",
            "bias": [
                0.320166885125143,
                -0.20828163167880637,
                -0.47544983664062945,
                -0.8206165928797613,
                -0.08653605683577353,
                0.031568533681723715
            ],
            "weights": [
                [
                    -0.943139123780091,
                    -0.2711246081368191,
                    -0.636160750467508,
                    0.4375432206738294,
                    0.25824084062951536,
                    0.9711016432681493
                ],
                [
                    0.1390133751787958,
                    -0.3183050201717586,
                    0.06669470102971281,
                    -0.11607943364049185,
                    0.06848584220613793,
                    0.14906881857686385
                ],
                [
                    -0.04946575930105665,
                    0.09957073670075911,
                    -0.17758256659873714,
                    -0.22880359166857345,
                    0.2509583496518242,
                    -0.9113529715472491
                ],
                [
                    0.09506720467792923,
                    -0.6004497723641536,
                    -0.012451714258618851,
                    -0.6978412715570252,
                    -1.2266171686028178,
                    0.16851165067933227
                ],
                [
                    -0.32465853793026567,
                    0.4434909179934187,
                    0.13647101979418028,
                    -0.12799722834146735,
                    -0.18522223536629862,
                    0.4022524525845298
                ],
                [
                    0.5937654201025477,
                    -0.6405318235424242,
                    0.2364199279872084,
                    -0.0037915283982085275,
                    0.004055117796552144,
                    -0.39728257069207107
                ]
            ]
        },
        {
            "input_nodes": 6,
            "nodes": 6,
            "activation_function": "sigmoid",
            "bias": [
                0.004240428841718241,
                -0.14922433323773568,
                -0.16037197810523765,
                0.07643619327634006,
                0.16131889500685082,
                -0.14293241968904297
            ],
            "weights": [
                [
                    -0.9667221470105564,
                    -0.0558722292943855,
                    0.27784369363399963,
                    -0.4520596263944355,
                    -0.32924677734826435,
                    0.7150098068484906
                ],
                [
                    0.3435329767601124,
                    0.30677191507143003,
                    0.16787092884314544,
                    0.14297104003983604,
                    0.4890935345473555,
                    0.47331325773111865
                ],
                [
                    -0.036488779376027305,
                    -0.381653052488909,
                    0.0011587186065438026,
                    0.23225172001530014,
                    0.11789391148509806,
                    -0.3423113977551832
                ],
                [
                    0.4094972712529416,
                    -0.2785965968798343,
                    0.296012509772087,
                    -0.04733784550597543,
                    0.05901519050647437,
                    -0.15030803814177982
                ],
                [
                    0.0026633301031851186,
                    -0.6477669172768861,
                    -0.42192721165998154,
                    0.33526573827773953,
                    1.2202835416206281,
                    -0.022291257068106918
                ],
                [
                    0.7423228004908908,
                    -0.541840560947533,
                    0.40389364164548236,
                    -0.34502111982639505,
                    0.6550769846779922,
                    -0.5807846574512118
                ]
            ]
        },
        {
            "input_nodes": 6,
            "nodes": 6,
            "activation_function": "sigmoid",
            "bias": [
                -0.6055223574943122,
                -0.04405548978175916,
                1.8358729276391106,
                -0.14753469588755785,
                0.0496198882246337,
                0.207095491755301
            ],
            "weights": [
                [
                    0.6292849445868188,
                    0.036728052421528413,
                    0.02957224743385213,
                    -0.5086564433099066,
                    -0.05386033244049268,
                    -0.005163041319071984
                ],
                [
                    0.4232991798009631,
                    0.7843774345986453,
                    0.2912454988012165,
                    -1.2419945848229323,
                    0.5560902926726036,
                    -0.5626064287140559
                ],
                [
                    0.32583906637870574,
                    0.7032741847233462,
                    -0.11548993398685507,
                    0.32334255522770095,
                    -0.19806461799109626,
                    -0.053093677066461786
                ],
                [
                    -0.19265411946039082,
                    0.6438753159379679,
                    0.40011478172797676,
                    0.619266945655353,
                    0.009883463581097554,
                    0.4953831552201065
                ],
                [
                    0.27917818963861957,
                    0.1807598762706547,
                    0.2020611867019926,
                    -0.20353263795062485,
                    0.10908356421431267,
                    0.7835007859003136
                ],
                [
                    -0.11214574608579744,
                    -0.3910063755477701,
                    -0.34023109104421867,
                    -0.07828938649699638,
                    0.36146989606371516,
                    -0.22919254460410168
                ]
            ]
        },
        {
            "input_nodes": 6,
            "nodes": 6,
            "activation_function": "sigmoid",
            "bias": [
                -0.4250380410250975,
                0.054675752899991284,
                0.02157388964603911,
                -0.06859770082428646,
                -0.2553138281573825,
                -0.3186884465785264
            ],
            "weights": [
                [
                    0.07462754242085674,
                    0.07497304613982293,
                    0.05962487997201542,
                    0.2435794859673088,
                    -0.41589013586648427,
                    -0.34719725480217517
                ],
                [
                    -0.7538554829541884,
                    -0.10898666534914522,
                    0.31212530654811504,
                    0.14201493473036958,
                    0.10405258569773443,
                    -0.1717154275683296
                ],
                [
                    0.7233241701870733,
                    0.03589198026710633,
                    0.27038678398101773,
                    0.26503851032061077,
                    -0.5809313687486991,
                    -0.6991351989733399
                ],
                [
                    0.20719852334089933,
                    -0.24680162121561589,
                    0.3171858749320824,
                    0.24529265628723057,
                    0.03336351548090711,
                    0.13711606571552953
                ],
                [
                    -1.069773058838395,
                    -0.2055579413266338,
                    0.5785373065650379,
                    0.3357195126405956,
                    0.19067558105362536,
                    0.10108002017784665
                ],
                [
                    -0.3659010634373291,
                    -0.6399774427962955,
                    -0.6111383907853186,
                    -0.8046068533271067,
                    -0.2800113992679953,
                    0.5872976177283245
                ]
            ]
        },
        {
            "input_nodes": 6,
            "nodes": 6,
            "activation_function": "sigmoid",
            "bias": [
                -0.06607011769897717,
                -0.5856030050438383,
                0.18009989710752547,
                -0.9280110789358184,
                -0.4085918823932367,
                -0.43240392780943443
            ],
            "weights": [
                [
                    0.02412857178062854,
                    0.28017432652125246,
                    -0.1306165276652872,
                    0.5428884117245228,
                    0.3434657561532458,
                    -0.07021870847767243
                ],
                [
                    -0.2950754922697547,
                    0.37741754940569355,
                    -0.032326437850307005,
                    0.35124157888790186,
                    -0.09508922916327342,
                    -0.5457663691311031
                ],
                [
                    0.05522999358261513,
                    -0.20923421339551185,
                    -0.25138351401402304,
                    0.08370001804907207,
                    0.7456281993287249,
                    0.38311490208693416
                ],
                [
                    0.5013196329384648,
                    -0.9970325556914592,
                    -0.5755793478937943,
                    0.05690392566952491,
                    -0.21586257932527866,
                    0.33306201330430774
                ],
                [
                    0.376836296231583,
                    -0.21870586686506477,
                    0.017201222756755598,
                    -0.2499459349326164,
                    -0.07889618603709354,
                    0.867286255015692
                ],
                [
                    0.19391666461164458,
                    -0.7843165840251908,
                    0.19814621594637913,
                    0.09093239917758424,
                    -0.7187717119066087,
                    0.31344943111536855
                ]
            ]
        },
        {
            "input_nodes": 6,
            "nodes": 2,
            "activation_function": "relu",
            "bias": [
                -0.07002927558503942,
                0.7284595514644008
            ],
            "weights": [
                [
                    0.4431374103192748,
                    0.958792012192685
                ],
                [
                    -0.20991824656447733,
                    0.6931841078144263
                ],
                [
                    -0.11424327107026779,
                    0.6099355534805527
                ],
                [
                    -0.08565854445402446,
                    -0.507593911542608
                ],
                [
                    0.09034648734227047,
                    0.8987508876358176
                ],
                [
                    -0.1412088281241299,
                    1.8617206267310784
                ]
            ]
        }
    ]
}
