{
    "input_nodes": 6,
    "output_nodes": 2,
    "hidden_layers": 6,
    "hidden_nodes": 6,
    "layers": [
        {
            "input_nodes": 6,
            "nodes": 6,
            "activation_function": "sigmoid",
            "bias": [
                -0.20324601770847767,
                -0.12315704080467016,
                0.6505592370654882,
                -0.05220806437256725,
                -0.6822096365809813,
                -0.16320805211212072
            ],
            "weights": [
                [
                    0.2533752749097767,
                    0.1677831683968019,
                    0.2282474214489042,
                    -0.28751239474490187,
                    -0.484741750270811,
                    -0.8045243473475887
                ],
                [
                    0.16749480981137335,
                    0.1832680003395311,
                    0.09326844971314588,
                    0.8416544766933893,
                    -0.1433268148076174,
                    -0.4931597184508801
                ],
                [
                    0.5381307730042021,
                    0.06326840465392547,
                    0.06505939631076627,
                    -0.283565996774945,
                    0.5103002291319823,
                    0.29854096057211826
                ],
                [
                    -0.586185717420842,
                    -0.6984022327880904,
                    -0.0032355766777504708,
                    -0.15351775054168595,
                    -0.18533920389714684,
                    -0.532648539062093
                ],
                [
                    -0.34463683036123427,
                    0.2456838004947549,
                    0.4563141442583578,
                    -0.7497834896875266,
                    0.2263446014961086,
                    0.27972612203803704
                ],
                [
                    0.8011494747408239,
                    0.007988856493239882,
                    -0.01024397365259666,
                    0.13509420220627572,
                    -1.1249495611572313,
                    -0.3422655755309313
                ]
            ]
        },
        {
            "input_nodes": 6,
            "nodes": 6,
            "activation_function": "sigmoid",
            "bias": [
                0.45835487079949677,
                -0.10123710916816386,
                -0.9096724772095848,
                -0.4402506181912762,
                0.26414142622444053,
                0.1446613970864026
            ],
            "weights": [
                [
                    -0.9679873915139896,
                    -0.4234531904426969,
                    -0.4129495072064826,
                    0.4427075496318579,
                    0.4105107275468426,
                    0.8501450774937805
                ],
                [
                    0.15245813168211025,
                    -0.1762112131479288,
                    0.486000593801024,
                    -0.06454457682173727,
                    0.16525971162808512,
                    0.23065031262873859
                ],
                [
                    -0.1867559786341632,
                    0.3848566686056899,
                    -0.19891927518219119,
                    -0.37201000155318154,
                    0.4225327986010803,
                    -0.20788491708903883
                ],
                [
                    0.03289227062370323,
                    -0.6450826693799199,
                    0.06496078535246302,
                    -0.9955272738725776,
                    -1.5235569377984381,
                    0.1513582597193698
                ],
                [
                    -0.29542054407807183,
                    -0.1852667833335086,
                    -0.06822117065465672,
                    -0.41589726534550875,
                    -0.08139841392199193,
                    0.13715665911324337
                ],
                [
                    0.6958533668447928,
                    -0.5513089291493041,
                    0.8981216747956133,
                    -0.015622789961412975,
                    0.31187233749700727,
                    -0.16958083540485838
                ]
            ]
        },
        {
            "input_nodes": 6,
            "nodes": 6,
            "activation_function": "sigmoid",
            "bias": [
                -0.4361017069258041,
                -0.2729544404014395,
                -0.12573767465143568,
                0.13978202809825996,
                0.11166984714690265,
                -0.2188424935698875
            ],
            "weights": [
                [
                    -0.8043459184476616,
                    0.10319549396262534,
                    0.3293806366586043,
                    -0.3258388357065406,
                    -0.3452399118972879,
                    0.4767818338740201
                ],
                [
                    0.5741486863194245,
                    0.28182247624023216,
                    0.31919000067459463,
                    0.060179040414232415,
                    -0.04966898410670381,
                    0.4967495986658752
                ],
                [
                    0.39114550121108893,
                    -0.01612722719545079,
                    0.25732770575077984,
                    0.10542561106135179,
                    0.048058250000352076,
                    -0.058142194990412746
                ],
                [
                    0.5230073476928325,
                    -0.2864274126032452,
                    0.04480527595607908,
                    -0.46716358727751695,
                    -0.006035248124723554,
                    -0.6304168777219451
                ],
                [
                    0.31734540468113914,
                    -0.7047447214783813,
                    -0.26981579079074663,
                    0.13213674229479588,
                    0.9556483338550741,
                    -0.2095993348037636
                ],
                [
                    0.7948759174415516,
                    -0.5674617302004801,
                    0.2233092432947814,
                    -0.2214402772644013,
                    1.0344786047640269,
                    -0.3382553004985716
                ]
            ]
        },
        {
            "input_nodes": 6,
            "nodes": 6,
            "activation_function": "sigmoid",
            "bias": [
                -0.830259607662834,
                0.058133551886083906,
                1.1262068968734764,
                0.11709284692188321,
                0.0418575658548056,
                -0.1147040433822619
            ],
            "weights": [
                [
                    0.3465361372642968,
                    0.14508597813789698,
                    0.2686339827372469,
                    -0.5454188008468591,
                    -0.08519933676386122,
                    0.11722376692226368
                ],
                [
                    0.6680230829059071,
                    0.9311868848204714,
                    0.677512218423459,
                    -1.0581804490395947,
                    0.28479309652362494,
                    -0.31577759363488406
                ],
                [
                    0.4616755141605239,
                    1.0138991531862105,
                    -0.3820987146368265,
                    0.4477406210936426,
                    -0.014148360960101542,
                    -0.053093677066461786
                ],
                [
                    -0.10497149704107786,
                    0.6158322746439826,
                    0.5518089128702856,
                    0.32504523390344414,
                    -0.21317872051030975,
                    0.20945803160800885
                ],
                [
                    -0.34901764035719274,
                    0.013559135347150982,
                    0.3690274273008296,
                    0.020378889359526274,
                    0.20435896347115012,
                    0.02619772317215159
                ],
                [
                    0.20048896464154775,
                    -0.7044075807878645,
                    -0.29558349046172216,
                    0.14586006949177024,
                    0.4961369310517517,
                    -0.6858865920145034
                ]
            ]
        },
        {
            "input_nodes": 6,
            "nodes": 6,
            "activation_function": "sigmoid",
            "bias": [
                -0.5084683614824056,
                0.21671044177701432,
                -0.0038598561685983107,
                0.41238229300102136,
                -0.3863105833411258,
                -0.49078742231211736
            ],
            "weights": [
                [
                    0.07462754242085674,
                    0.1223124567919759,
                    0.4975294268707229,
                    0.036419972407562146,
                    -0.18715941482012163,
                    0.18336183089113162
                ],
                [
                    -0.6327720077270839,
                    -0.2027377868402679,
                    0.5377878454667265,
                    0.18013546709533543,
                    0.23117675089333606,
                    -0.38757749936355124
                ],
                [
                    0.845674337457287,
                    -0.2965603620995186,
                    0.1257279722233191,
                    0.1938918344383686,
                    -0.29590308262332154,
                    -0.9900140668628351
                ],
                [
                    0.3114871659360725,
                    -0.34605827159631064,
                    -0.18260581408396306,
                    0.3727367520700713,
                    0.03336351548090711,
                    0.34543924043076285
                ],
                [
                    -0.7751515131633193,
                    0.22628131600306298,
                    0.6806061328216512,
                    0.20176827207366682,
                    0.5100680239988031,
                    -0.24508567628819694
                ],
                [
                    -0.01200152086367115,
                    -0.17666492343915854,
                    -0.6167168068659411,
                    -0.866937116432793,
                    -0.4612355155241601,
                    0.7782473013499835
                ]
            ]
        },
        {
            "input_nodes": 6,
            "nodes": 6,
            "activation_function": "sigmoid",
            "bias": [
                -0.087734647522479,
                -0.5554381817603641,
                0.12798637451607045,
                -0.9280110789358184,
                -0.5959479606712936,
                -0.4730673058981669
            ],
            "weights": [
                [
                    0.014024681955875327,
                    0.6061709284333847,
                    -0.17964315845727183,
                    0.38052963238211346,
                    0.5956451310345077,
                    -0.2537194822115312
                ],
                [
                    -0.15848581701749695,
                    0.05844782695150437,
                    -0.3438595068278234,
                    0.44621858956942484,
                    -0.12244927308349922,
                    -0.523330744728611
                ],
                [
                    0.0013561866250967544,
                    -0.07052800001491669,
                    -0.14078305009178688,
                    0.15243690987537087,
                    0.9622284438936087,
                    0.22482552811439085
                ],
                [
                    0.4853077448790172,
                    -1.0314278688141956,
                    -0.334585188387869,
                    -0.018910624024546074,
                    -0.13210538638565567,
                    0.2884998164316336
                ],
                [
                    0.04008374491197682,
                    -0.13010218221024938,
                    0.014809416443974682,
                    -0.6007737635447544,
                    0.07201609286785815,
                    0.7796370594522438
                ],
                [
                    0.41129125993188637,
                    -1.0712958736315954,
                    -0.007987329615156954,
                    -0.10571165401106532,
                    -0.718660078426961,
                    0.40386753308071033
                ]
            ]
        },
        {
            "input_nodes": 6,
            "nodes": 2,
            "activation_function": "relu",
            "bias": [
                -0.1077022844841471,
                0.6462679175716947
            ],
            "weights": [
                [
                    1.0024192455288303,
                    1.379074555649795
                ],
                [
                    -0.6345208907502702,
                    0.6835720028182506
                ],
                [
                    -0.08604629514646167,
                    0.8234430088194536
                ],
                [
                    -0.3643843204875022,
                    -0.5635326324408043
                ],
                [
                    -0.1540443698180515,
                    1.0025807942464129
                ],
                [
                    -0.15712698742177894,
                    1.9047363251010059
                ]
            ]
        }
    ]
}
