{
    "input_nodes": 6,
    "output_nodes": 2,
    "hidden_layers": 1,
    "hidden_nodes": 20,
    "layers": [
        {
            "input_nodes": 6,
            "nodes": 20,
            "activation_function": "sigmoid",
            "bias": [
                -0.5030870011047166,
                -0.04577622359404328,
                -0.21839059514648493,
                0.15119573149381393,
                0.3805922923430237,
                -0.26062175466261356,
                0.32956555661710596,
                -0.0711705633776256,
                -0.13045115271889024,
                -0.6487895305046798,
                -0.042705208442318426,
                0.13253058133270168,
                0.2340141128060594,
                -0.5651531381331865,
                -0.42599268609606766,
                0.3499149906845037,
                0.16108206744184436,
                0.2615156749819765,
                0.44477765799761887,
                -0.4399553173792722
            ],
            "weights": [
                [
                    -0.010567169887477062,
                    0.4231548983009637,
                    0.45015008638714527,
                    0.40715235257423954,
                    0.8102677113136697,
                    0.11389278717111812,
                    0.3799476302168593,
                    -0.24345891871998776,
                    -0.023622354579597493,
                    0.6666223101162838,
                    -0.053910284494098064,
                    1.2228234635131174,
                    0.28338126091231625,
                    0.10498266391512186,
                    0.537619944938772,
                    0.6655526929757685,
                    0.18709797530795025,
                    0.7669468727279872,
                    0.5219902282691101,
                    0.10478627065993196
                ],
                [
                    0.8903608253634506,
                    -0.0578533572146787,
                    0.43310313138837236,
                    0.6640597885189405,
                    0.08205617399812358,
                    0.8340942251734875,
                    0.7952948202810297,
                    -0.12728238396919256,
                    0.6186644368161991,
                    0.13016513221762255,
                    0.5561852879341957,
                    0.970054614574117,
                    0.5473450477986876,
                    0.7648173358288158,
                    0.4141031931473865,
                    -0.03201366249355145,
                    0.4707244536762844,
                    0.39669565939612406,
                    1.0074949314152695,
                    1.0616214312820142
                ],
                [
                    0.29703700717886716,
                    -0.06489605677152634,
                    0.10568562302210947,
                    0.9646857204857446,
                    -0.23310011179567824,
                    0.830036299676506,
                    0.2083356700349227,
                    0.6590985658304455,
                    0.29991312401551773,
                    0.43817943598071346,
                    1.2261139984946159,
                    0.22755490073067694,
                    -0.005212795655226324,
                    -0.23193259862862764,
                    0.39944699607261225,
                    0.6128987363243197,
                    0.4545254513435605,
                    -0.18166049067833492,
                    0.4304454258072566,
                    -0.06994055865167036
                ],
                [
                    0.28596537878310113,
                    0.20640247794731603,
                    0.6479615273564301,
                    0.34551077469787456,
                    -0.19398031626700452,
                    1.2569307074969787,
                    -0.05776250539708419,
                    0.483864350494553,
                    0.6327872833214551,
                    -0.13250061579332859,
                    1.2941575041674123,
                    0.44668811167182,
                    0.8529452083029074,
                    1.0586581761834941,
                    1.2893573578278819,
                    0.1846317890860148,
                    0.7759578619683081,
                    0.5206008629858281,
                    0.5150181028097688,
                    0.49972580185648435
                ],
                [
                    0.3553160986953871,
                    0.17319516094261714,
                    0.21649455019739716,
                    0.7443160856965123,
                    0.2852735308276587,
                    0.13549959097143455,
                    0.2672943804137096,
                    1.0119440356365945,
                    0.18443610815967942,
                    0.5430579190632122,
                    0.41633414801286905,
                    0.5665832254090843,
                    1.324462727552242,
                    1.4279592578264049,
                    0.9999533665948959,
                    0.20426389331651051,
                    1.2227499732741542,
                    0.46193529411732526,
                    0.7671357800697851,
                    0.04090611466252336
                ],
                [
                    -0.09548059993973548,
                    -0.06729018699771963,
                    1.2624536412687264,
                    -0.17367988699279996,
                    0.4822285703090836,
                    0.64621479403025,
                    -0.2609650851429378,
                    1.0813450372465685,
                    0.4735974153853678,
                    0.6865856980027782,
                    0.0905677835387157,
                    1.1250262348070565,
                    0.7175590336581095,
                    0.7283102094800262,
                    0.4086830835020383,
                    0.2213254562888414,
                    0.6475883022703286,
                    -0.2854076881267468,
                    0.5744267537262663,
                    0.8213342713067493
                ]
            ]
        },
        {
            "input_nodes": 20,
            "nodes": 2,
            "activation_function": "relu",
            "bias": [
                0.21530320573949743,
                -0.39524710722072737
            ],
            "weights": [
                [
                    0.6401376307118958,
                    1.0270103671229662
                ],
                [
                    0.3577180154189549,
                    0.23433291022784644
                ],
                [
                    0.7548037267421212,
                    -0.4355155707722329
                ],
                [
                    0.17533859136705904,
                    0.8359127043309481
                ],
                [
                    0.7779158489245253,
                    -0.08488166720144094
                ],
                [
                    0.14016245484550538,
                    -0.0926072425018635
                ],
                [
                    0.33525220597143224,
                    -0.03224281240737319
                ],
                [
                    -0.24407156336290167,
                    0.16050340731131735
                ],
                [
                    -0.11816811141667388,
                    0.5764923265812921
                ],
                [
                    -0.09553956816670009,
                    0.11983059532062464
                ],
                [
                    0.5856304249656235,
                    0.3904157491081134
                ],
                [
                    1.139389273498273,
                    0.6223774108359148
                ],
                [
                    0.9827630473096793,
                    0.6212334170331183
                ],
                [
                    1.05595333916472,
                    -0.0016845885043368473
                ],
                [
                    1.4332097543793476,
                    0.30550725613770313
                ],
                [
                    1.2736489701442748,
                    0.288284378919939
                ],
                [
                    0.20022605989392375,
                    -0.09574174725532772
                ],
                [
                    0.6777070964934233,
                    0.5444582246826066
                ],
                [
                    0.27917460344573886,
                    0.014746519400443997
                ],
                [
                    0.6248466913247366,
                    0.18474687989879268
                ]
            ]
        }
    ]
}
