{
    "input_nodes": 6,
    "output_nodes": 2,
    "hidden_layers": 6,
    "hidden_nodes": 6,
    "layers": [
        {
            "input_nodes": 6,
            "nodes": 6,
            "activation_function": "sigmoid",
            "bias": [
                -0.017548619861071646,
                0.017854539600068706,
                0.44249606946218445,
                0.35773068849806444,
                -0.6732334254117622,
                0.11190966374062573
            ],
            "weights": [
                [
                    0.6679094285522966,
                    -0.1281552127507346,
                    0.33405403463280825,
                    0.02468883822291123,
                    -0.34467190634224454,
                    -0.11642717837806439
                ],
                [
                    0.3312111691787765,
                    0.06025892073935926,
                    0.04928338631167441,
                    0.262189642017637,
                    0.13445081808934664,
                    -0.6320361912591723
                ],
                [
                    0.6597704812410411,
                    0.13830782332836206,
                    0.3696830637416841,
                    -0.2528931016618567,
                    0.3482425751803738,
                    0.34470075039608256
                ],
                [
                    -0.5557016073095526,
                    -0.2791239404278827,
                    -0.39286281494367387,
                    0.40046602805369147,
                    -0.0058183558177006545,
                    -0.19042553227215678
                ],
                [
                    0.11018648468024071,
                    0.07506201943599768,
                    0.8726005745975117,
                    -0.4544593973695909,
                    -0.12150896926687507,
                    0.3695278839076632
                ],
                [
                    0.2674456941434664,
                    -0.008446280098748177,
                    0.06551114307334917,
                    0.144668072461897,
                    -0.7068072612838189,
                    -0.21284039221300272
                ]
            ]
        },
        {
            "input_nodes": 6,
            "nodes": 6,
            "activation_function": "sigmoid",
            "bias": [
                0.1301422884448979,
                -0.1367020287658395,
                -0.32019361517110906,
                -0.29116470892076,
                -0.30525078717041365,
                -0.019342963331710608
            ],
            "weights": [
                [
                    -0.5625714726538331,
                    0.02366358689186432,
                    -0.4143595704782361,
                    1.0021373196212728,
                    -0.15567792010653353,
                    0.604424928381869
                ],
                [
                    0.43348148976668066,
                    -0.18459056495205428,
                    -0.09380573982558217,
                    -0.20157627918246343,
                    0.29573370549147204,
                    -0.31884829771979184
                ],
                [
                    -0.360458118241999,
                    0.09771765836360669,
                    0.055495057743004644,
                    -0.41661383353338344,
                    0.1735823098678495,
                    -0.768249716309628
                ],
                [
                    -0.18466609527859962,
                    -0.48356033114770797,
                    0.3783656867941725,
                    -0.4091529670152522,
                    -1.2830169909482136,
                    0.2761258747088248
                ],
                [
                    -0.2538909944395574,
                    0.468975020538394,
                    -0.08081608180618208,
                    -0.23336831067592276,
                    0.03623969301216079,
                    0.2346003773748839
                ],
                [
                    0.3817850167234801,
                    -0.4328256174064622,
                    0.13950489527889262,
                    0.05767411309512735,
                    0.07797494863429037,
                    -0.48086408762263977
                ]
            ]
        },
        {
            "input_nodes": 6,
            "nodes": 6,
            "activation_function": "sigmoid",
            "bias": [
                0.09502480413499675,
                -0.06393849416461916,
                -0.2605166602942146,
                0.1712280221678319,
                0.32199037127197677,
                -0.1069646781965004
            ],
            "weights": [
                [
                    -1.0235885614969773,
                    -0.39359567965036896,
                    0.19872096010016846,
                    -0.3525048782254131,
                    -0.124151611431121,
                    0.7039079940906573
                ],
                [
                    0.5181570963243126,
                    0.24677885978742253,
                    0.22472240346973577,
                    -0.22175709184483042,
                    0.47339674473141696,
                    0.39100368776738476
                ],
                [
                    0.06340549545711174,
                    -0.3770559817279459,
                    -0.09809116458996173,
                    0.4463959503871662,
                    0.22035686220559167,
                    -0.33322352085588786
                ],
                [
                    0.3194186422989466,
                    -0.020161135444917287,
                    0.26876522945690035,
                    -0.19184141223643014,
                    -0.07681470345005002,
                    -0.1654646615625239
                ],
                [
                    -0.007460632825778812,
                    -0.6211346289967328,
                    -0.51555893921407,
                    0.4563079231101702,
                    1.162786565361996,
                    -0.07707839611139249
                ],
                [
                    0.7792993855418725,
                    -0.35494973063210283,
                    0.21578570690300444,
                    -0.2857964560359085,
                    0.6467967593449253,
                    -0.4440316064531882
                ]
            ]
        },
        {
            "input_nodes": 6,
            "nodes": 6,
            "activation_function": "sigmoid",
            "bias": [
                -0.31206489520776787,
                0.0248252462061532,
                1.0369381157749726,
                -0.5432121977588227,
                0.17776608264287763,
                -0.06446161309931675
            ],
            "weights": [
                [
                    0.4205522075928184,
                    0.036728052421528413,
                    -0.12008933707002062,
                    -0.34215672763298766,
                    0.3052039296892816,
                    0.16210883513124164
                ],
                [
                    0.09920778923827928,
                    0.522193432080331,
                    0.5445093647706445,
                    -1.0758835131916658,
                    0.4313906681236262,
                    -0.5248831788019017
                ],
                [
                    0.35093666847805094,
                    0.3615189510665192,
                    -0.22839532166167606,
                    0.6872236157967331,
                    0.003970504280567846,
                    -0.11622477129618666
                ],
                [
                    0.010657463520994642,
                    0.3082691095622093,
                    0.07349397722168874,
                    0.9180454056408968,
                    0.3607070247017925,
                    0.20207695455554567
                ],
                [
                    0.566367960034046,
                    0.19348168570496366,
                    0.2508041036363942,
                    -0.0390390818424472,
                    -0.04282169509047906,
                    0.2375514072067607
                ],
                [
                    0.18407427167546883,
                    -0.3664979285627494,
                    -0.08404069668035015,
                    -0.16747290476186338,
                    0.4198255963665658,
                    -0.7755523352745366
                ]
            ]
        },
        {
            "input_nodes": 6,
            "nodes": 6,
            "activation_function": "sigmoid",
            "bias": [
                -0.830007119889396,
                0.054263048963515526,
                0.1502849013507043,
                -0.10950884530263474,
                -0.07801201328184701,
                -0.39991695545716976
            ],
            "weights": [
                [
                    -0.1581929044125566,
                    0.1413346773911326,
                    -0.1411499031777456,
                    -0.019889090349700184,
                    -0.1729562828962981,
                    -0.0973608955024569
                ],
                [
                    -0.6800298006374847,
                    -0.055466644434190235,
                    0.523030508596662,
                    0.3251244690449324,
                    -0.12792799479477596,
                    -0.13669154001087142
                ],
                [
                    0.21036529746386537,
                    -0.16389011630749145,
                    0.5382250306181974,
                    0.15559301853268806,
                    -0.5982480574177016,
                    -0.645397252435532
                ],
                [
                    -0.05155181270395956,
                    -0.08758295478565259,
                    0.16131435090549318,
                    0.306003312579613,
                    -0.10384466499675916,
                    0.2693296725518506
                ],
                [
                    -0.7931752926900837,
                    -0.11255497294862643,
                    0.08166663342484368,
                    0.3157313681289707,
                    0.36065131657875354,
                    0.4590023355209754
                ],
                [
                    -0.372437715645985,
                    -0.1528191645872179,
                    -0.629523662313579,
                    -0.5914365892826103,
                    -0.17461847918829032,
                    0.4056320985655306
                ]
            ]
        },
        {
            "input_nodes": 6,
            "nodes": 6,
            "activation_function": "sigmoid",
            "bias": [
                -0.45534866611270175,
                -0.47194506801453356,
                0.3055233477166805,
                -0.66176173454919,
                -0.5851360246380267,
                -0.46156815200899226
            ],
            "weights": [
                [
                    0.2979016771681522,
                    0.2233662977132944,
                    0.031865687963615386,
                    0.2753592081257433,
                    0.7238891922078377,
                    -0.1435811147827393
                ],
                [
                    -0.30034691107778055,
                    0.5510810800170706,
                    -0.01066422849806753,
                    0.2896001839349354,
                    0.07704198015333372,
                    -0.18587291690645316
                ],
                [
                    -0.06620451994063227,
                    -0.2519044275560359,
                    -0.1790869856840442,
                    0.2855492353478109,
                    0.4964217935300298,
                    0.3204541400737221
                ],
                [
                    0.4881463319225047,
                    -0.6234523218537288,
                    -0.5360515926859972,
                    -0.2716050934289378,
                    -0.3429499805017008,
                    0.11324445780969267
                ],
                [
                    0.3132172277955325,
                    -0.32991930619246196,
                    0.37145873736498664,
                    -0.1455734669499735,
                    0.22558934272969638,
                    0.5909141767794958
                ],
                [
                    0.07495148872501117,
                    -1.0996597015690472,
                    -0.15004198093839197,
                    0.09955685030329019,
                    -0.2654720351434663,
                    0.14593457533950835
                ]
            ]
        },
        {
            "input_nodes": 6,
            "nodes": 2,
            "activation_function": "relu",
            "bias": [
                -0.10645586667000326,
                0.6796588197734458
            ],
            "weights": [
                [
                    0.45931785509268336,
                    0.8805896155081966
                ],
                [
                    -0.2829175381104049,
                    0.5984594955273276
                ],
                [
                    -0.2505081970783316,
                    0.4872747622820436
                ],
                [
                    0.09425997129019335,
                    -0.5623161264384383
                ],
                [
                    -0.013756906724536375,
                    1.03442921139311
                ],
                [
                    0.17612523897771287,
                    0.6287859028385046
                ]
            ]
        }
    ]
}
