{"input_nodes":6,"hidden_nodes":8,"output_nodes":2,"weights_ih":{"rows":8,"cols":6,"data":[[-1.1554007501927284,0.0084407786222832,0.0745518088146295,-0.4299323626966503,0.3480737348772226,-0.049402251330804337],[-0.005599248547743893,0.19907409920941374,-0.5183103265492983,-0.376551154715583,-0.6585153515050062,-0.8892357852946967],[2.0747727903354756,1.4915541529161782,1.1551734129034361,1.4475243526936112,1.854707273180263,-0.3495220136143746],[0.3035073093633896,-1.8094362013930638,-0.48754058352562546,0.2513862832154856,-0.7663970967066586,0.9391677887967984],[0.15916272937996512,-0.8326207014868415,0.8094176258039066,1.0360548142365442,1.711690930917244,1.323723706581539],[-0.1053960406191195,-0.9184046332884033,-0.18187022044434473,1.2419272077413113,1.9121215240471399,1.3810993042557862],[0.7806625423825324,1.2198482101024348,0.7786741293943481,-0.6680044387875865,0.6028195072200739,0.34686705723311057],[1.2981246651724871,-1.3362876868421485,0.04115601980344609,0.9104906780363191,0.056270454856857596,-0.09663448320986992]]},"weights_ho":{"rows":2,"cols":8,"data":[[0.23003279242961153,0.29386777830206673,-0.439630983899831,0.4864017125334974,-0.6452326200001575,-0.5897989503507319,-0.583951247567636,-0.5288922620376785],[1.4386413276388594,0.4727096454741848,-0.8457926848011149,-0.09555662396094,0.790273498832079,0.897815518496395,0.22079326835663357,0.48058315099727056]]},"bias_h":{"rows":8,"cols":1,"data":[[-0.71185281563055],[0.5806863781740244],[-0.9187060924752178],[0.7019526427924586],[-0.025426690964339936],[-0.03920100507882111],[-0.8429722117204818],[-0.10535829980630128]]},"bias_o":{"rows":2,"cols":1,"data":[[-1.2492898755597002],[0.4308508466014532]]},"learning_rate":0.1,"activation_function":{}}