{"input_nodes":6,"hidden_nodes":8,"output_nodes":2,"weights_ih":{"rows":8,"cols":6,"data":[[-1.2970658559159995,0.09657843903763848,-0.21765436872819807,-0.6038519915175596,0.4568024306036797,-0.24054095768193906],[-0.3389699562295926,0.1388530722723042,-0.9593214943040341,-0.4827610842093504,-0.7498756093988941,-1.1014146540779084],[2.199582964865474,1.4459384033909917,1.0603905397983653,1.4465841388697662,2.0090732298694074,-0.467091392465154],[0.8699519516582978,-1.6494707289843726,-0.637677105812023,0.08297232318710593,-0.8306460601405055,1.2907836218557613],[0.06530014267386511,-0.7936256514707116,1.001483709921103,0.9962406686250052,1.878419759969338,1.3686640070939675],[-0.23029064207042696,-0.9184046332884033,-0.15888289827698568,1.2911301140351337,2.0704326730248996,1.4690188401512048],[0.8213116909313282,1.3703376994022904,0.8482023292337455,-0.6612030795065335,0.4794960424621991,0.7760034329988214],[1.111603235637693,-1.4784167647836934,0.05541193347873994,1.0565732410071624,0.5339746351385344,-0.02461838610792225]]},"weights_ho":{"rows":2,"cols":8,"data":[[0.32302406766974273,0.02028060746132426,-0.3903200539029756,0.4864017125334974,-0.611302147310985,-0.6540554899047677,-0.5431758183371342,-0.4699219572865747],[1.4580431957003719,0.6982993468357663,-0.7789892983555641,-0.13243308347329313,0.9875945185206967,0.9026550743106624,0.11279399848247529,0.5865892243778983]]},"bias_h":{"rows":8,"cols":1,"data":[[-0.6604445494044414],[0.5001219056321855],[-0.8666047909659562],[0.8298999523091278],[-0.0721170818560264],[0.035546141006299894],[-1.061980826775113],[-0.005788007751537677]]},"bias_o":{"rows":2,"cols":1,"data":[[-1.192275478968608],[0.5721107312473657]]},"learning_rate":0.1,"activation_function":{}}