{"input_nodes":6,"hidden_nodes":8,"output_nodes":2,"weights_ih":{"rows":8,"cols":6,"data":[[-1.3083136432176894,-0.17797100498427354,0.8329864708895054,-0.6201287512743955,0.4075682575137325,-0.2260096203342395],[0.17547824208980656,-0.12385439122759172,-0.5639647642429955,-0.338390156641317,-0.3528792768787308,-1.5838391072362819],[2.3948043992927763,1.4182205116090938,1.5877633994468634,1.8099217940411068,2.0123943461831413,-0.5007575522613692],[0.578260500583591,-2.026269641198381,-0.22723652344490466,-0.1418135642641667,-0.5556307559969818,1.1277495189116251],[0.6682059090426237,-0.5574024610253224,0.4055055110738028,0.8151654283846717,1.7819585014947648,1.2736165305812561],[-0.19957957797751186,-0.9662013020019556,0.04026205102314137,1.0626474218113802,1.8560188552407901,1.240033182032093],[0.7192678643876487,1.5778975305104113,0.829066462026851,-0.3758973143095189,0.48541599221612763,0.12854683959691862],[1.462681146780673,-1.1568314400742659,-0.15755260881252736,0.7788369653511795,0.44695261930692776,-0.2907041566198649]]},"weights_ho":{"rows":2,"cols":8,"data":[[0.18322249680506375,0.018168583533250515,-0.5063456798560222,0.5629150342019844,-0.9719590142490274,-0.43286329353734937,-0.23418877945255082,-0.22327413693186482],[1.6975433036623877,1.1263232269933707,-0.7148029605734992,-0.5445680718016419,1.1995199591699641,0.5197395186135619,-0.0670884454394924,0.6153151415314841]]},"bias_h":{"rows":8,"cols":1,"data":[[-0.6304941837663726],[-0.22293859786365605],[-0.9846643186033367],[0.42716028607126194],[0.08096192975416465],[-0.22373645978038142],[-0.29967862991153665],[0.02709904368148952]]},"bias_o":{"rows":2,"cols":1,"data":[[-1.2480354854809987],[0.3099228829174636]]},"learning_rate":0.1,"activation_function":{}}