{"input_nodes":6,"hidden_nodes":8,"output_nodes":2,"weights_ih":{"rows":8,"cols":6,"data":[[-1.0577104311263692,1.2151929064231557,-0.013016721240142692,-1.433874566164453,-0.20595784490610425,-0.4377306647647208],[-0.12529710910129638,1.4482841069659123,-0.5612042920892343,-1.9771622732862153,-0.01767624198446685,-1.2777700943765307],[2.0851533824777557,1.1552010380437099,0.9065020826136191,2.749720398734118,1.3004161847889144,-0.044610805863375375],[0.5392926132492961,-2.051137879435769,-0.7733360129277284,0.6329416967296161,-0.8377011771286162,0.8251843353011342],[0.11270494723405639,-0.06768650205089898,1.195101213975111,0.7792649482927446,0.6223554840995722,0.5971309533742222],[0.7681658250889751,-0.06878439215611704,0.14549101425200434,1.9301411939401953,1.5478257807817077,1.1751537321794197],[1.9302202083043603,0.31979847759087365,1.0777212862639345,-0.3968403396096204,0.6634244445522073,0.8555985622237193],[2.499197255471224,-1.0309370176972898,0.994874722043803,0.397755527772778,0.3984953545677945,0.6722303737254388]]},"weights_ho":{"rows":2,"cols":8,"data":[[0.6233786096747128,-0.04570707224268365,-0.7794001086942005,0.8766078892223295,-1.3078168271256532,-0.14735506579275381,-0.16566719832191112,-0.6303932357947631],[1.7746384977365406,0.44735474198923075,-0.2563760321853676,0.6651682773830679,0.3359663849360976,0.4674970412238844,1.0832200556802496,0.555149403340057]]},"bias_h":{"rows":8,"cols":1,"data":[[-1.0763162798163202],[-0.40629959386908776],[-2.121624358008733],[1.8580780723672568],[0.2945278754111747],[-0.24074505020926928],[-0.3936948844031922],[-0.08583535817488963]]},"bias_o":{"rows":2,"cols":1,"data":[[-1.150820358453097],[0.33797619999494627]]},"learning_rate":0.1,"activation_function":{}}