{"input_nodes":6,"hidden_nodes":8,"output_nodes":2,"weights_ih":{"rows":8,"cols":6,"data":[[-1.480250020879894,1.2941699653348062,-0.07954130681481034,-1.2911662998350206,-0.6295225294290943,-0.4235667686956397],[-0.6016792324393959,1.425833866356461,-0.20033411564520479,-2.1037794307488484,0.0013996980986172836,-1.4150895102088021],[1.940000557041011,1.6072403545260543,1.3520834185470454,3.0293989024611476,1.5379689613387497,-0.22047266388951325],[1.06756348922056,-1.6157734966785398,-1.1089287650604687,0.3613232832854785,-0.8982550931759268,0.7378329834131003],[0.37366900774731776,-0.5157792088482398,1.7568408724269289,1.0160064188614648,0.5644621896157543,1.1029874698074287],[0.5632898307627104,-0.26429974204911183,0.21778076537282312,1.042301396369865,1.0189566331869968,1.772115571303293],[1.5394423535506252,0.02758889015422255,1.1285230663967956,-0.30090024619568567,0.310914837007502,0.3492339268029345],[2.3140930662778434,-0.7225269021856733,1.1734910725924117,0.9864790816177673,0.23716715537326333,0.49046374167496243]]},"weights_ho":{"rows":2,"cols":8,"data":[[0.572141153676645,-0.10059184307423212,-0.8992462508451811,1.0523478626529403,-1.4008400605469156,-0.49658971132323987,-0.09999355508130174,-0.3566112124023721],[2.073470952264725,0.3578126548587054,0.20062544115109257,0.767269561962518,0.1633975487046015,0.5685242258362178,1.092797904104759,0.6374702023574863]]},"bias_h":{"rows":8,"cols":1,"data":[[-1.1680973305851585],[-0.6092607983665084],[-1.820546484474987],[1.7387188766211965],[0.1288604941138668],[-0.04826465653256025],[-0.7359152143798708],[-0.2533443343347706]]},"bias_o":{"rows":2,"cols":1,"data":[[-0.8523086754009268],[0.740680073576142]]},"learning_rate":0.1,"activation_function":{}}