{"input_nodes":6,"hidden_nodes":8,"output_nodes":2,"weights_ih":{"rows":8,"cols":6,"data":[[-1.3536153077656916,0.06289530092324316,-0.016010511664366248,-0.4130384165587555,0.3480737348772226,-0.049402251330804337],[0.12851317724743166,0.2574979463268293,-0.49651245866211646,-0.376551154715583,-0.755812602742264,-0.8892357852946967],[2.0747727903354756,1.5149020250366136,1.1551734129034361,1.3608760122684804,1.9397776303180734,-0.3495220136143746],[0.2240979838208425,-1.7694068488825268,-0.48754058352562546,0.030145895114231866,-0.7744523156874155,0.9391677887967984],[0.15916272937996512,-0.8538029251693006,0.8094176258039066,0.8819769423093912,1.8343090159522255,1.323723706581539],[-0.1091723725913014,-0.9184046332884033,-0.18187022044434473,1.0189425807770414,1.9121215240471399,1.3810993042557862],[0.6856927714342593,1.3297846088444683,0.7786741293943481,-0.6283715158163402,0.7555609022940151,0.34686705723311057],[1.2643631493126335,-1.1390966428425706,0.04115601980344609,0.9104906780363191,-0.18235644221021796,-0.09663448320986992]]},"weights_ho":{"rows":2,"cols":8,"data":[[0.23003279242961153,0.1856154976098932,-0.439630983899831,0.4864017125334974,-0.6452326200001575,-0.5246714503343456,-0.583951247567636,-0.4528545265481787],[1.432884068435091,0.5015687148243131,-0.9637599328836678,-0.15204789327259838,0.7511632010611853,0.9711228976807631,0.22079326835663357,0.48058315099727056]]},"bias_h":{"rows":8,"cols":1,"data":[[-0.7451755035811026],[0.5373170966123983],[-0.9187060924752178],[0.5490366416629695],[0.03083711472639275],[-0.1176228662970568],[-0.8429722117204818],[-0.004811454854626113]]},"bias_o":{"rows":2,"cols":1,"data":[[-1.2492898755597002],[0.24980869758235716]]},"learning_rate":0.1,"activation_function":{}}