{"input_nodes":6,"hidden_nodes":8,"output_nodes":2,"weights_ih":{"rows":8,"cols":6,"data":[[-1.5099400200700306,-0.20474658846332516,0.4521024612659286,-0.2824158858945759,0.39521790651964994,0.2119216326944131],[-0.17373892683950606,0.11554445630123548,-0.740634981768728,0.5167414652134263,-0.6259222234707285,-0.7011683490536426],[1.9922418467274623,1.483780968747527,0.9438464031496617,1.2262502169121134,1.9429646540539958,-1.0814154295095004],[0.12414810408795207,-1.833385183452781,-0.07678675081267473,0.5375301032434746,-0.5363347220926682,0.5593820403075717],[0.8499609192075871,-0.9754064837486182,0.8452742313346656,0.19284470436304005,0.8825101088802544,1.338794161026459],[0.035672241325142406,-0.35605323501869357,-0.10288020102229099,1.4740994199025435,1.261647383045851,1.134412834987802],[0.7454137543954122,1.878771216375405,0.41933942175172595,-0.45486474159324874,0.7111196674685106,0.020293687455337408],[0.9880174262434611,-1.591216609240326,-0.11778744804412897,0.6244112637315828,-0.41854511197953953,0.15111684129206465]]},"weights_ho":{"rows":2,"cols":8,"data":[[0.4032051779400221,-0.07348102352532938,-0.9044744580714867,0.038464298271792846,-0.48186011628670555,-0.4844762508555214,-0.5751516212892719,-0.3456236897017557],[1.4055885321926957,1.0118545192455335,-0.4930643626626505,-0.49487336849732716,0.8306791221537835,0.6150684566440735,0.32995435479390967,0.5307537294326867]]},"bias_h":{"rows":8,"cols":1,"data":[[-1.1136357937911887],[1.2769008623269447],[0.12425916842002943],[0.3250853914724911],[0.7206839405751756],[0.6443348041722538],[-1.2089153030035582],[0.033139493067657066]]},"bias_o":{"rows":2,"cols":1,"data":[[-0.8986904712106305],[0.01767254064968766]]},"learning_rate":0.1,"activation_function":{}}