{"input_nodes":6,"hidden_nodes":8,"output_nodes":2,"weights_ih":{"rows":8,"cols":6,"data":[[-1.1192773842836923,-0.09056594341454474,0.3409517273861523,-0.3296034578399881,0.5159659105738056,-0.4074726737202453],[-0.1674199007267126,-0.08987822271670443,-0.49391248869551874,-0.586357623985195,-0.39927949306035837,-1.3933737762402525],[2.2018070578616595,2.0682946433125826,1.2219723420206734,1.6507051548782437,2.090530015882175,-0.7567629552168281],[0.510369515713574,-1.800213716034261,-0.15116289714981795,0.2939834594845156,-0.18684869508203314,0.8479816072081172],[0.2826150808309275,-0.7204680635717434,0.664224433253453,1.1240744318208555,1.8363697335987503,1.2845653861670117],[0.08145487627688118,-0.7998766581323051,-0.48849450294441077,1.349603380098774,1.9151546046045034,1.083378394136371],[0.8241881247383989,1.291851466368606,0.813825852361839,-0.9722683478822919,0.6317296926100999,0.3719135144981459],[1.377098871690124,-1.3635429878576224,0.09076962626085244,0.9299671478247273,0.056270454856857596,0.09708967580337352]]},"weights_ho":{"rows":2,"cols":8,"data":[[-0.06726269935859325,0.42021910770597093,-0.5165424746536232,0.4911749063244892,-0.5949626442817322,-0.4953121436580533,-0.5121065677690448,-0.7110015531669815],[1.3265772839221668,0.43895107234967357,-0.7532374054645309,-0.05738165554809247,0.9668279911404247,0.5913287280038235,0.5707030151942127,0.8736040480432218]]},"bias_h":{"rows":8,"cols":1,"data":[[-0.7196644761575238],[0.2981155951453863],[-0.996724072143339],[0.38340711105208375],[0.1901713850445957],[-0.019493931333497538],[-0.9487602836268929],[-0.019845902433029215]]},"bias_o":{"rows":2,"cols":1,"data":[[-1.160838774803661],[0.23062486420094896]]},"learning_rate":0.1,"activation_function":{}}