{"input_nodes":6,"hidden_nodes":8,"output_nodes":2,"weights_ih":{"rows":8,"cols":6,"data":[[-1.2512713227222052,-0.40056005281327367,0.4521024612659286,-0.2946368319835786,0.3020034851691854,-0.08058318802688602],[-0.3749268062301975,-0.2726573583346602,-0.7154057725151244,0.3217434721838865,-0.4432587684959302,-0.5999276299050492],[2.1250920938904456,1.4729752444543418,0.6576330895126039,1.0943920114619565,2.090908833553202,-1.0924931860990315],[0.042793999619597706,-1.786656380709917,-0.04919915429632417,0.5240169533018821,-0.50761899805833,0.6423931901506286],[0.6812961515313043,-0.9508449882719233,0.5802785316558832,0.3324994289565151,0.8355666996028466,1.2114613521010453],[-0.03460383866548082,-0.19968959451311277,-0.3426242204281331,1.3439434602515596,1.374654097719739,1.134412834987802],[0.7965312329904004,1.6010852447054658,0.583332548458019,-0.45486474159324874,0.7111196674685106,-0.07128597487035858],[1.0243905326605067,-1.5808366530850098,-0.11778744804412897,0.5414029500986217,-0.3104426775317835,0.15111684129206465]]},"weights_ho":{"rows":2,"cols":8,"data":[[0.14257597268816952,-0.1977814705688621,-0.6848311765916265,0.038464298271792846,-0.6345739402531532,-0.5932882861342135,-0.4339550181120715,-0.3052999727775664],[1.2974710099303253,1.0096065150370221,-0.5609915539704001,-0.49487336849732716,0.9000954985942222,0.6637566719068868,0.4103851060503721,0.5240337978392788]]},"bias_h":{"rows":8,"cols":1,"data":[[-1.0951537939838754],[0.8774116344260734],[0.026377142486568236],[0.4360893460339411],[0.7533619067338755],[0.6339585350917902],[-1.0823997832116226],[0.23326813284298895]]},"bias_o":{"rows":2,"cols":1,"data":[[-0.8236505743522723],[0.05073619626321029]]},"learning_rate":0.1,"activation_function":{}}