{"input_nodes":6,"hidden_nodes":8,"output_nodes":2,"weights_ih":{"rows":8,"cols":6,"data":[[-1.07782333212398,0.3266135851141519,0.44873701426852053,-0.6884579137156845,-0.1021604334437412,-0.199076692127684],[0.15150012629036444,0.1860604004223269,-0.49823304757553166,-0.41972543580211374,-0.47485516100785863,-1.3372801117188182],[1.8123552318277647,2.1763138831267215,1.038151324524734,2.874029093615076,1.2593623156837026,-0.28072768765940587],[-0.14335706317646305,-2.2987261770711327,-0.6801420836799663,0.3344572665292106,-0.31979509462654404,0.8980097508701572],[0.27754717892457986,0.10003166399767432,0.5509106212148532,0.6421382383568743,0.979727666806423,0.8970979363771506],[0.3325624059709316,-0.5655319715925526,0.04995549795124182,1.79071974528198,2.544394006503687,1.4363966782200455],[0.9873692838946186,1.1890269922347114,0.6200736859386794,-0.18794285360190058,0.22282471722316377,0.6233974425508092],[1.161885689634797,-0.7932058941974934,0.6992278616635067,1.1146940571581823,0.3080321608321741,0.19461083844070676]]},"weights_ho":{"rows":2,"cols":8,"data":[[-0.014135575082319218,0.2757869706323403,-0.3684682452243812,0.5002520374571771,-0.9691625977297458,-0.5526216636479612,-0.011547800471589154,-0.5582744021171601],[1.4525169294488867,1.3611539554282117,-0.5773806379921849,0.7298211311894867,0.6515301897511575,0.19193756395252387,0.4723542771856319,0.4778128905487921]]},"bias_h":{"rows":8,"cols":1,"data":[[-1.5869817163271076],[-0.883906906013479],[-1.5747260011549746],[0.7516970960517487],[0.37106790620347435],[-0.057174694211658134],[-0.6656231954304657],[-0.299662252115118]]},"bias_o":{"rows":2,"cols":1,"data":[[-1.147754676148184],[0.15540215462600052]]},"learning_rate":0.1,"activation_function":{}}