{"input_nodes":6,"hidden_nodes":8,"output_nodes":2,"weights_ih":{"rows":8,"cols":6,"data":[[-1.403361958816086,-0.2787132317164719,1.263746052727089,-0.62779690533417,0.41920707196134704,-0.3572186510779597],[-0.05132537725846818,-0.05881043242295547,-0.5639647642429955,-0.5057635467415738,-0.3806281621030544,-1.3610742851302653],[2.486607944535258,1.4182205116090938,1.5392801559855622,1.7248510555005419,2.1070448472102106,-0.6008551188303539],[0.6007907261885336,-2.369343077896755,-0.1721490611086648,-0.4178954396810019,-0.5679299425417723,1.0644850205524174],[0.6570162639149273,-0.4081580026150508,0.37752473891805577,0.7087188111840078,1.7819585014947648,1.4032408305940305],[-0.2744414745685803,-0.6484361311915938,0.4081963407345902,1.083640800331603,1.9676155943730318,1.2347590467300076],[0.8632124928961749,1.6615703963111346,0.9700001780985411,-0.5152807245322699,0.42368800779545995,0.4624300337130228],[1.4955136333841532,-1.0499726643407243,-0.18286969820970903,0.9487986774665703,0.5470255575276196,-0.2956134673366933]]},"weights_ho":{"rows":2,"cols":8,"data":[[0.21811588401069754,-0.047665152502405626,-0.3881789896159753,0.46315115096270676,-0.9994531033113663,-0.42303278377745324,-0.23403375228706025,-0.19583169290476268],[1.9878608930727888,1.059808747870152,-0.5932309917356715,-0.6385868047306652,1.2979246335495789,0.6788304818809694,-0.08812418527833102,0.5763791793465451]]},"bias_h":{"rows":8,"cols":1,"data":[[-0.3867866874299565],[-0.13456498094460725],[-1.2092035088856699],[0.5553172533334674],[0.36539101950260744],[-0.19735962460713546],[-0.29967862991153665],[0.1463304454732208]]},"bias_o":{"rows":2,"cols":1,"data":[[-1.2622295533484729],[0.3385279604684701]]},"learning_rate":0.1,"activation_function":{}}