{"input_nodes":6,"hidden_nodes":8,"output_nodes":2,"weights_ih":{"rows":8,"cols":6,"data":[[-0.7517015810374807,-0.18380374268466504,-0.07861574820856781,0.373766900307783,0.19852250995991666,-0.25557768767361627],[0.1288473548196296,-0.09977496894008492,0.5864302610868701,-0.1881847306217684,-0.9484588380938487,-0.434025559678602],[1.5636741989862035,1.0831095525781393,0.34897340829190027,-0.01619149734694239,1.3959075590515682,-0.24263209447624418],[-0.09747361044128904,-0.7809448093165038,-0.7167763033549281,0.21154782665981736,-0.2684404786133118,0.8532187320474425],[-0.4306888669825542,-0.8958013859026086,0.7547004469457204,0.6777271061544479,0.8200997794449376,-0.11364040788609428],[0.1497777428734533,-0.47059029051072343,-0.14961065979225285,0.0584008551010628,1.007479065355691,0.8273706621228648],[0.7470846551005985,0.12241991913114794,-0.10289238026110042,-1.0894064141445339,0.021715756326897026,0.15819228354464399],[1.0763537867066086,-0.5378236846036673,0.24371582714151493,0.65674774466079,-0.24613045252883597,-0.22437729087266228]]},"weights_ho":{"rows":2,"cols":8,"data":[[-0.12007563792499851,0.7652613916152557,-1.2065169025490112,-0.5103057956298822,-0.6976313428651963,-0.16753300875971683,0.06611905394808106,-0.7347339246125018],[1.684346006300246,0.12051419472479662,-0.7995896305369511,0.48642065803825185,0.5486361581059511,0.2104030694498768,-0.7426906558435352,0.320975272737621]]},"bias_h":{"rows":8,"cols":1,"data":[[-0.4421102081367763],[0.2685558363680885],[-0.1996326877803341],[0.7825389193771942],[0.9662316263056481],[0.5328114537074873],[-0.9096426559776085],[0.0669526088419907]]},"bias_o":{"rows":2,"cols":1,"data":[[-0.8061441436488811],[-0.08720764832659854]]},"learning_rate":0.1,"activation_function":{}}