{"input_nodes":6,"hidden_nodes":8,"output_nodes":2,"weights_ih":{"rows":8,"cols":6,"data":[[-0.6613283298432373,0.5111776180574291,1.261874478832839,0.2804681528167985,0.19526013448098106,-0.45588485839967174],[0.6511757748998956,-0.5075937501970869,-0.2173159873110172,0.16930977907126282,-0.7841077381166136,-0.9413820523782898],[1.7411582232806255,1.3966038942499408,0.36850288895876343,0.6921267376378448,1.8058052131414661,-0.24371365785933705],[-0.6158368612856613,-0.7446471536646974,-0.07949784053296298,1.3442097864458675,-0.8010381594498993,1.0862835615850963],[-0.070639049787776,-1.6094905509904966,0.715148396630982,1.1570895724349426,0.4736035243884549,0.2556935157511258],[-0.17638931507035993,-0.9225371541000215,0.03615183140616239,-0.060484773511813916,1.635422474551997,1.1080615178024107],[1.4956498806581524,2.1150047986942817,0.18974071891021446,-0.730534584543324,0.1057053564477681,-0.24144234907553722],[0.9134596153424526,-1.348644443576673,-0.12434505246481603,1.0658394565670841,0.3961481107981033,0.21301762120516538]]},"weights_ho":{"rows":2,"cols":8,"data":[[-0.3072834382183477,0.5895073537148319,-0.770061866735756,-1.03651408378612,-0.8582521151896645,-0.6492446335400385,-0.4341253754309663,0.08680193352838549],[1.605105746906619,0.7339380237191429,-1.1268453348937875,0.0019939861909670786,0.830086330353918,0.739679912680734,0.7174134531545244,1.0360486925442263]]},"bias_h":{"rows":8,"cols":1,"data":[[-0.34018536368135405],[0.41894937681009703],[-0.571400877797221],[-0.2531239084729447],[0.7001294162418735],[0.6440870438583514],[-1.015949964606146],[0.15755283750669624]]},"bias_o":{"rows":2,"cols":1,"data":[[-0.46747374607066833],[0.09655862181794439]]},"learning_rate":0.1,"activation_function":{}}