{"input_nodes":6,"hidden_nodes":8,"output_nodes":2,"weights_ih":{"rows":8,"cols":6,"data":[[-0.6308366432439138,-0.001310537295786604,-0.6389650017493121,0.20376836064058024,0.2158403546925624,-0.32708474158678236],[-0.014428686519228545,0.37672689956674327,-0.006862842426686111,-0.5030659909506914,-0.7344864424484979,-0.8555307913701913],[1.1947655534542847,1.0720727031396469,0.08494768711207609,0.21524941922355117,0.5031448467997892,-0.3842741785592002],[-0.007307541339254625,-0.572017919614216,-0.4024701348847427,0.4575250253368852,0.18103351781132024,0.9046961621371795],[-0.11628576646227572,-1.3048395124310275,0.87291705219871,-0.5343605826834796,0.6001610745104247,-0.3325437695215402],[-0.19692375684671887,-0.16525589158614223,-0.5077017236958179,0.352016922544624,0.684548806998981,0.8049389381941666],[0.7650997169584832,0.2411605792774683,-0.06642295369601388,-0.7488959233125759,0.3099683022752368,0.07356415573481963],[1.1256429469409268,-0.035048793268077624,0.21665960898545225,0.5618268071492324,-0.5614601559826322,0.04740664083198222]]},"weights_ho":{"rows":2,"cols":8,"data":[[0.05482656162112544,0.39299659518551316,-0.6288644208293398,-0.6876431605520146,-0.8491242778912477,-0.036503434711674734,-0.07331023027542438,-0.7176713863021597],[0.6743623973407984,0.14696556700490468,0.3579735763210561,0.3817752015170628,0.9263105536202856,0.3824049955922504,-1.1188503620083468,-0.1102761359962954]]},"bias_h":{"rows":8,"cols":1,"data":[[-0.14889739660870766],[0.3182393520381529],[0.11311193475085439],[0.8219958400215667],[0.560848968932054],[0.590506650253322],[-0.37520118844602773],[-0.1482761355119618]]},"bias_o":{"rows":2,"cols":1,"data":[[-1.1460794226168018],[0.0674975879988517]]},"learning_rate":0.1,"activation_function":{}}