{"input_nodes":6,"hidden_nodes":8,"output_nodes":2,"weights_ih":{"rows":8,"cols":6,"data":[[-0.18841783214261815,-0.09295254712728637,-0.5692564907327196,0.39688760282371915,-0.5064583492848459,-0.2152527673015472],[-0.07157371052616672,-0.31882184856869245,-0.04674345870260989,-0.2618502006168241,-1.421083761750991,-1.244938844739402],[1.3895580931139357,1.1661781020916178,0.25928821491030796,0.548483475450357,1.026577174813269,-0.03433250409799728],[0.07393104116664029,-0.3227743876654626,-0.9005732229994245,1.0753655761787715,-0.3041857947702907,1.0145579867061552],[0.02838049463601891,-0.9424481280415906,0.47042454433059927,0.38456131409681027,0.32836803266412423,0.1218006544011436],[0.023759444819811265,-0.608018307979006,0.03475666036957767,0.02016577778516171,1.1339540023736503,0.9846831586644329],[0.7954368065260523,0.02807556952164894,0.15110770995504794,-1.0219085885208343,0.12656833275068224,0.7595055595094076],[1.300147694053347,-0.5160572289036195,0.10025273562332465,0.14133885171452867,0.03888183445486931,-0.35974254944983675]]},"weights_ho":{"rows":2,"cols":8,"data":[[-0.05405745727288121,0.8155729912012726,-1.0520437162326624,-0.5098275565453143,-0.9472607806623409,-0.019772378983110704,0.1763699977568471,-1.347679038516907],[1.8346868516976802,0.26288367948948616,-0.3497066344037832,0.2833882863293007,1.1284534853823285,0.8810122905732494,-0.4156368039063204,0.4633269967198848]]},"bias_h":{"rows":8,"cols":1,"data":[[-0.4760144192435593],[-0.08064914060456937],[-0.7866512781213169],[0.2562392201594438],[0.8381375085628171],[0.07817991691156007],[-0.5986075599350529],[0.19221167345355]]},"bias_o":{"rows":2,"cols":1,"data":[[-0.6364214049746233],[-0.04522365137024281]]},"learning_rate":0.1,"activation_function":{}}