{"input_nodes":6,"hidden_nodes":8,"output_nodes":2,"weights_ih":{"rows":8,"cols":6,"data":[[-1.403361958816086,-0.2787132317164719,1.1498819219879577,-0.62779690533417,0.41920707196134704,-0.3572186510779597],[-0.16546146497304456,-0.15240791454920513,-0.5639647642429955,-0.5057635467415738,-0.3806281621030544,-1.399632877648654],[2.486607944535258,1.4182205116090938,1.5392801559855622,1.7248510555005419,2.1070448472102106,-0.3382909815926123],[0.5088674849903688,-2.369343077896755,-0.039500987939198984,-0.4178954396810019,-0.5679299425417723,1.0644850205524174],[0.6570162639149273,-0.4081580026150508,0.37752473891805577,0.726317291829039,1.7819585014947648,1.4032408305940305],[-0.2744414745685803,-0.6484361311915938,0.4701512023838275,1.083640800331603,1.9676155943730318,1.1198180587488804],[0.8632124928961749,1.6615703963111346,0.9700001780985411,-0.5152807245322699,0.42368800779545995,0.3390316213195885],[1.4955136333841532,-1.1958406508772619,-0.18286969820970903,0.9487986774665703,0.5470255575276196,-0.2639301744346688]]},"weights_ho":{"rows":2,"cols":8,"data":[[0.078672028584142,-0.047665152502405626,-0.3881789896159753,0.46315115096270676,-0.9994531033113663,-0.37471451945093603,-0.23418877945255082,-0.19583169290476268],[1.899822090017483,1.059808747870152,-0.5932309917356715,-0.6385868047306652,1.087478646330976,0.6788304818809694,-0.08812418527833102,0.5763791793465451]]},"bias_h":{"rows":8,"cols":1,"data":[[-0.3867866874299565],[-0.11688123405444964],[-1.2927982789036672],[0.5553172533334674],[0.36539101950260744],[-0.19735962460713546],[-0.29967862991153665],[0.1463304454732208]]},"bias_o":{"rows":2,"cols":1,"data":[[-1.2597076729181982],[0.3385279604684701]]},"learning_rate":0.1,"activation_function":{}}