{"input_nodes":6,"hidden_nodes":8,"output_nodes":2,"weights_ih":{"rows":8,"cols":6,"data":[[-0.9253031384333783,0.7061649976303721,0.6537456747786943,-1.0460864521725273,0.06458718702841745,-0.5192686456014501],[0.06835620816135947,0.6828178454780298,-0.6885167978503759,-1.01225404981712,-0.7121402254621032,-1.1597786149632339],[1.9660162782550021,1.3279154209480257,1.044815359532701,2.685883181882509,1.4174335202835355,-0.9611376945493092],[0.29188494940223286,-2.375982957216909,-0.9029773865440575,0.3999033858222738,-0.8243140451786487,0.5267338261925562],[-0.04472666061777547,-0.6275212847607163,1.3274341098485514,0.7403278211208595,1.1064736210494412,0.9348271609557577],[-0.12193760047170503,-0.6181769008205183,-0.26043955273822195,1.9918770052603039,2.239073981436349,1.376793395884816],[1.4578475018296324,0.7003718783506403,0.5942004230890251,-0.45401122299437047,0.3685279518224414,1.2493508475701767],[1.1384357049020266,-0.9013751832622232,0.5895040092801662,0.6853290633066547,0.1700247641346429,0.3002615313017159]]},"weights_ho":{"rows":2,"cols":8,"data":[[0.3704518249294177,0.02935948532218567,-0.33645059506677577,0.49170458370868453,-0.9157187133486157,-0.4514074056748075,-0.2050859775185618,-0.6252720989136435],[2.037938224019625,1.0930058208535096,-0.46996992507562396,0.709099309213393,0.1308729813447605,0.32648540620823335,0.8429471701808022,0.7693039225814263]]},"bias_h":{"rows":8,"cols":1,"data":[[-0.6673342432085125],[-0.8979440778089602],[-2.0245007795611136],[1.091830785665759],[0.3308108268991699],[-0.2394722271313308],[-0.8801256953380233],[-0.20521919101217562]]},"bias_o":{"rows":2,"cols":1,"data":[[-1.273865063264049],[0.3147259312443546]]},"learning_rate":0.1,"activation_function":{}}