{"input_nodes":6,"hidden_nodes":8,"output_nodes":2,"weights_ih":{"rows":8,"cols":6,"data":[[-1.3083136432176894,-0.17797100498427354,0.8596722963489007,-0.6201287512743955,0.4075682575137325,-0.2260096203342395],[0.17547824208980656,-0.131529541841449,-0.5639647642429955,-0.338390156641317,-0.3593888797342307,-1.5838391072362819],[2.3948043992927763,1.4182205116090938,1.5330696575670126,1.8235646037860722,2.0123943461831413,-0.5007575522613692],[0.583772944201046,-2.026269641198381,-0.22723652344490466,-0.1418135642641667,-0.5556307559969818,1.1277495189116251],[0.6682059090426237,-0.4973976120944581,0.3655327442615692,0.8151654283846717,1.7819585014947648,1.414451248952211],[-0.19957957797751186,-0.8386969351247553,0.476838389935356,1.0626474218113802,1.8560188552407901,1.3844557763708725],[0.7192678643876487,1.5480195747793886,0.829066462026851,-0.5152807245322699,0.48541599221612763,0.12854683959691862],[1.462681146780673,-1.1568314400742659,-0.23310884721722688,0.8513639739258168,0.44695261930692776,-0.2907041566198649]]},"weights_ho":{"rows":2,"cols":8,"data":[[0.11153125658202138,-0.024763928918892487,-0.31627459419430515,0.47843105996411367,-1.0657716593582478,-0.43286329353734937,-0.23418877945255082,-0.22327413693186482],[1.6975433036623877,1.059808747870152,-0.6243765874969731,-0.5445680718016419,1.1294707529783383,0.6278758268053708,-0.15833351165112441,0.6153151415314841]]},"bias_h":{"rows":8,"cols":1,"data":[[-0.43845978971169575],[-0.15270155757224818],[-0.9846643186033367],[0.4926583727393736],[0.23313111253143415],[-0.1519533785049686],[-0.29967862991153665],[0.24077189113647318]]},"bias_o":{"rows":2,"cols":1,"data":[[-1.2622295533484729],[0.3099228829174636]]},"learning_rate":0.1,"activation_function":{}}