{"input_nodes":6,"hidden_nodes":8,"output_nodes":2,"weights_ih":{"rows":8,"cols":6,"data":[[-1.041396227299583,1.0871337963609804,0.5854932836084332,-1.1939794934709462,0.048926303090140066,-0.3078639983078635],[0.11787178517661726,1.362646693003241,-0.12501237683991823,-1.9592707302069743,-0.35337862482510307,-1.7904371292370067],[2.148433371957961,1.3175977059256594,1.3370687859952295,2.521547696601871,1.6771414968474843,-0.547653167895644],[0.8256646797153131,-2.2577874049271056,-0.8525495794553578,0.728794740443126,-0.7503606689787683,0.8568565920439793],[0.44513506315456064,-0.6934359568739804,0.950957216255247,0.5605240675406713,1.1066287918977042,0.6333919495929206],[0.07734346136603176,-0.13194964142450788,-0.22012959161075854,2.032427030725143,2.0098817170306753,1.0957191635704182],[1.5304826235454894,0.7094782063586842,0.9484754402097039,0.16197190317164795,0.8011610710651237,1.3055429880993938],[1.7799348894586844,-1.2550423249065867,0.23702630468847663,0.31555418813966063,-0.051507687447959555,0.3524836384781272]]},"weights_ho":{"rows":2,"cols":8,"data":[[0.6401333274958997,-0.06979463469831387,-0.8374319084747059,0.7597456746068303,-0.8849336671922973,-0.6907457677554444,-0.08533566119526259,-0.5325987513560794],[1.1945738160622514,1.1191080349314337,-0.34488175578581753,0.729486441089187,0.8609560500355804,0.35383163903271364,1.172930039863295,0.7751937683112683]]},"bias_h":{"rows":8,"cols":1,"data":[[-0.8393686539509224],[-0.7523432159386647],[-1.459519524021372],[1.3071484963534108],[-0.23614828727880965],[-0.04048593546608201],[-0.4969779607103512],[-0.17714609075355986]]},"bias_o":{"rows":2,"cols":1,"data":[[-1.1490307091892435],[0.17320889726236408]]},"learning_rate":0.1,"activation_function":{}}