{
    "input_nodes": 3,
    "output_nodes": 2,
    "hidden_layers": 5,
    "hidden_nodes": 6,
    "layers": [
        {
            "input_nodes": 3,
            "nodes": 6,
            "activation_function": "sigmoid",
            "bias": [
                0.5967987381256578,
                -0.08282287472342831,
                0.4262855212318881,
                -0.5133058064068934,
                -0.17154068596755506,
                -0.14780664047801825
            ],
            "weights": [
                [
                    -0.07046011810417382,
                    0.11767938252368469,
                    -0.22136789622096992,
                    0.42980438924131215,
                    -0.20838772453442198,
                    -1.137888349526919
                ],
                [
                    0.8018185918838293,
                    -0.2313333978083072,
                    -0.1159253716152621,
                    0.11378153988968984,
                    -0.11949966509937832,
                    -0.3061223503190706
                ],
                [
                    -0.6230650453491883,
                    0.12517426193561307,
                    0.28492410050359446,
                    0.03369930231235216,
                    -0.31212009207068847,
                    -0.33020676356149653
                ]
            ]
        },
        {
            "input_nodes": 6,
            "nodes": 6,
            "activation_function": "sigmoid",
            "bias": [
                -0.25630900174081517,
                0.5263566480108532,
                -0.31100532144679927,
                0.3580085267366419,
                -0.36744825348508986,
                -0.12768754684941003
            ],
            "weights": [
                [
                    -0.12443241960077447,
                    -0.46293807753640026,
                    -0.29892965288658535,
                    0.20014494271326147,
                    -0.20019237491940353,
                    0.3395164735363554
                ],
                [
                    -0.7567976967213138,
                    -0.33134419974253887,
                    0.41180044070863453,
                    -0.0634059705661833,
                    0.7899008313206355,
                    0.6176398454847563
                ],
                [
                    0.20586829618727243,
                    -0.5076864922961469,
                    0.44992620375396086,
                    0.1849320046635737,
                    -0.39342395312963724,
                    -0.17868878877181674
                ],
                [
                    0.0548654370220667,
                    0.37222762420775735,
                    -0.28367822347277144,
                    0.08680213082439715,
                    0.21512120968835885,
                    -0.07814277422428798
                ],
                [
                    -0.6917799975424883,
                    0.4756482453904358,
                    -0.26363289322759076,
                    0.08952166244438581,
                    -0.5392055590875208,
                    0.2497973781250301
                ],
                [
                    0.32038811845754045,
                    0.3504021596665828,
                    0.03371148682184968,
                    -0.43676781676112864,
                    -0.07374883759282436,
                    1.0408821790556435
                ]
            ]
        },
        {
            "input_nodes": 6,
            "nodes": 6,
            "activation_function": "sigmoid",
            "bias": [
                0.3353552925382281,
                -0.09195402001628955,
                -0.20891636994009546,
                -0.22609215723116274,
                0.24457854262931686,
                1.1211462599658537
            ],
            "weights": [
                [
                    -0.7072756191427699,
                    -0.0526416712062544,
                    0.5006141115778351,
                    0.6019112153459307,
                    -0.025898824028075765,
                    0.12767859411389315
                ],
                [
                    0.13380181267546304,
                    -0.1175167295919024,
                    -0.18832716749834905,
                    -0.17476371222767784,
                    0.21891362716311508,
                    0.07536520162706128
                ],
                [
                    -0.021394561363391518,
                    0.16714443127842163,
                    0.1091992017002183,
                    -0.26677226378142926,
                    0.09547231267299161,
                    -0.14293344049237094
                ],
                [
                    0.14231245707167298,
                    -0.17129370795979557,
                    -0.5794821226588724,
                    -0.3408903091753214,
                    -0.48918184918116925,
                    0.2229004327944157
                ],
                [
                    0.18590829841898932,
                    0.4143762546760128,
                    0.4127347499258947,
                    -0.8919129813599751,
                    -0.2818768764836813,
                    -0.25218370053069594
                ],
                [
                    0.031458802512847356,
                    -0.6438468283576511,
                    -0.2851232976597004,
                    -0.626634604989195,
                    -0.009525796627524709,
                    0.4584765523014021
                ]
            ]
        },
        {
            "input_nodes": 6,
            "nodes": 6,
            "activation_function": "sigmoid",
            "bias": [
                0.46413437328793,
                -0.42431208588711267,
                0.13141954672696915,
                0.5371399160535769,
                0.3102592523383858,
                -0.10372192568956262
            ],
            "weights": [
                [
                    0.24415266402181127,
                    0.9970295921473457,
                    0.06740197188012434,
                    0.5598824208856163,
                    -0.5877169789747185,
                    0.4618689777715844
                ],
                [
                    0.277911098356385,
                    0.6151331611812304,
                    0.18448646512250474,
                    -0.46453957028335874,
                    0.23486158802361415,
                    0.784590964996877
                ],
                [
                    -0.14244046902342428,
                    0.13318310723816912,
                    -0.0906086337685416,
                    0.07784417568367298,
                    0.38587715916346094,
                    0.12299209355706432
                ],
                [
                    -0.0030186002815920654,
                    -0.02733798198742335,
                    -0.2452952043054796,
                    0.006109895193656581,
                    -0.3513381391604833,
                    -0.40771788649610136
                ],
                [
                    -0.36421171673471714,
                    -0.002627853043799172,
                    0.014561878144407292,
                    -0.5727629694501502,
                    0.4510669539873604,
                    0.36723784468743803
                ],
                [
                    -0.16145583807878183,
                    -0.01977894628954041,
                    -0.7582889961210595,
                    0.21144536056776225,
                    -0.35522627149141134,
                    -0.03995811277957251
                ]
            ]
        },
        {
            "input_nodes": 6,
            "nodes": 6,
            "activation_function": "sigmoid",
            "bias": [
                0.30863180576741456,
                0.5020967030462649,
                0.19096912361286691,
                -0.19475887958244628,
                0.41563314378732813,
                0.3510627819197837
            ],
            "weights": [
                [
                    0.703903594095969,
                    0.663533990876587,
                    0.677499916902065,
                    -0.5338680470641148,
                    0.09508235956129582,
                    -0.3177088062036635
                ],
                [
                    0.050102619232328664,
                    -0.2362300389281758,
                    0.47019556438690846,
                    -0.47763928984234694,
                    -0.3100324589011731,
                    -0.07745605639747244
                ],
                [
                    0.23992304289216004,
                    -0.061741190247567815,
                    -0.49087528488488097,
                    -0.37538069320393225,
                    -0.009105337657250495,
                    -0.05850466515059771
                ],
                [
                    -0.20317096969465698,
                    -0.2777787029157123,
                    0.062247773877473725,
                    -0.2083685343827012,
                    -0.17045921609931514,
                    -0.34682895281513143
                ],
                [
                    -0.011905531643872258,
                    0.8101453194118318,
                    -0.1690860568179292,
                    -0.42818773433748475,
                    0.4257826797781085,
                    -0.0034529755744508225
                ],
                [
                    0.5009992549459841,
                    -0.11889702770170135,
                    -0.3684240660284187,
                    -0.37803487603097136,
                    0.33431914435052384,
                    0.34109388794724355
                ]
            ]
        },
        {
            "input_nodes": 6,
            "nodes": 2,
            "activation_function": "relu",
            "bias": [
                0.23671528711072132,
                1.0908116354757842
            ],
            "weights": [
                [
                    -0.16067193406111904,
                    0.3691916288271299
                ],
                [
                    -0.2147818028896044,
                    0.20437241667688172
                ],
                [
                    -0.15658086726502848,
                    0.18915238927202435
                ],
                [
                    -0.2674063477268094,
                    -0.013658650252390075
                ],
                [
                    -0.08640008704296001,
                    0.29553815604329825
                ],
                [
                    0.5105565901464004,
                    0.7625395983130132
                ]
            ]
        }
    ]
}
