{
    "input_nodes": 3,
    "output_nodes": 2,
    "hidden_layers": 3,
    "hidden_nodes": 6,
    "layers": [
        {
            "input_nodes": 3,
            "nodes": 6,
            "bias": [
                -0.5779521888773634,
                0.265718799860328,
                0.5321556824493154,
                -0.2987482172275654,
                0.14734305514526133,
                -0.21405777862538228
            ],
            "weights": [
                [
                    0.0905279867738769,
                    0.7325583882430801,
                    -0.5217211742832923,
                    0.7685206341466866,
                    1.7552864990073367,
                    0.07575487092812462
                ],
                [
                    0.408413973055001,
                    0.14115336702059694,
                    0.08595059772210294,
                    -0.6816389374272394,
                    -0.29739836220285826,
                    0.2835938487058815
                ],
                [
                    1.797237969136865,
                    -0.9735510487614585,
                    0.6270364721764549,
                    -0.8421228954364295,
                    0.6775042686359432,
                    1.575651677065862
                ]
            ],
            "activation_funcname": "sigmoid"
        },
        {
            "input_nodes": 6,
            "nodes": 6,
            "bias": [
                -1.3409976189156876,
                0.5552605537874141,
                0.7690322143655803,
                -2.1343571201944487,
                0.15133789329954755,
                -1.132061882919662
            ],
            "weights": [
                [
                    -0.9959991319649592,
                    0.5666507277600378,
                    -0.1833420350652475,
                    0.662391967356737,
                    0.06187534303875488,
                    0.45205598712974715
                ],
                [
                    -1.0144876164891659,
                    0.2974311131428608,
                    2.685048918094383,
                    0.48244886814699317,
                    -0.30481475108587464,
                    -0.12193516825531084
                ],
                [
                    1.6010232760822758,
                    0.5691804721997924,
                    0.3051353201874658,
                    0.9381209676424993,
                    -0.9024759341853281,
                    1.3702026723408356
                ],
                [
                    -0.9003643665294533,
                    -0.047052198002990375,
                    0.29387922693841273,
                    0.06655739592754653,
                    -0.2681208531270779,
                    2.259506548901228
                ],
                [
                    1.3433213671088498,
                    -1.2797557498283558,
                    2.6666140749618448,
                    -0.3121795166901108,
                    2.218663563308332,
                    0.5180310508058319
                ],
                [
                    -0.40761171700360066,
                    -1.1032425708201532,
                    0.7225468624083068,
                    -1.2703383085757098,
                    1.4419028093050725,
                    1.0611144619476582
                ]
            ],
            "activation_funcname": "sigmoid"
        },
        {
            "input_nodes": 6,
            "nodes": 6,
            "bias": [
                1.0333906068141352,
                -1.263045514552614,
                1.4067621377835593,
                -0.041597389382093286,
                0.1368484413617057,
                -0.5421553895759108
            ],
            "weights": [
                [
                    -0.0771760787547718,
                    -1.316455363023841,
                    0.12537051928526807,
                    1.5656791139458255,
                    -0.2805267643805641,
                    -0.4081433269536154
                ],
                [
                    2.177824593540225,
                    -0.43555450810222296,
                    -0.21211897026425658,
                    0.18524320801819508,
                    1.0174735809773818,
                    0.22438203365111792
                ],
                [
                    0.7660924131704853,
                    -0.5495760775396288,
                    0.48951112085010173,
                    -1.071857819351896,
                    0.0621488680942098,
                    -1.842804811762156
                ],
                [
                    -0.4768904230649944,
                    -1.5069921749044348,
                    0.01879081381815323,
                    0.2509129410518542,
                    0.6810622706411902,
                    -0.9837969143097217
                ],
                [
                    0.6703554299206009,
                    0.07958173282718052,
                    -1.236325881761,
                    0.6718405865297301,
                    0.5352226162750761,
                    0.46281847977838
                ],
                [
                    -1.126227274689109,
                    -1.6720001578836574,
                    -0.5572657133882394,
                    -0.6719650594743306,
                    0.28988316908206024,
                    -0.9807196920290762
                ]
            ],
            "activation_funcname": "sigmoid"
        },
        {
            "input_nodes": 6,
            "nodes": 2,
            "bias": [
                -0.2013246123751078,
                1.2151734313052143
            ],
            "weights": [
                [
                    -0.710716510087605,
                    0.6773658673619056
                ],
                [
                    0.40409716333548096,
                    -0.14117792774636867
                ],
                [
                    0.5506050954573415,
                    -0.9870312040446861
                ],
                [
                    0.8693563510339459,
                    -0.31975705640466
                ],
                [
                    0.10209067355242449,
                    1.2656980325340232
                ],
                [
                    3.7033468473457125,
                    -1.474595363445383
                ]
            ],
            "activation_funcname": "relu"
        }
    ]
}
