{
    "input_nodes": 3,
    "output_nodes": 2,
    "hidden_layers": 4,
    "hidden_nodes": 6,
    "layers": [
        {
            "input_nodes": 3,
            "nodes": 6,
            "activation_function": "sigmoid",
            "bias": [
                -1.4748170330836023,
                -1.0173918025735789,
                0.2351951357046871,
                -0.6334035665053838,
                -0.1598645185372086,
                0.12572849196635938
            ],
            "weights": [
                [
                    -0.44893044249898206,
                    0.3004542872660329,
                    1.326474279516657,
                    -0.3555296714264599,
                    -0.12803549304322503,
                    0.258447734200833
                ],
                [
                    -0.060638490991295965,
                    0.4055544817345524,
                    0.07033060213864488,
                    0.14235613312276377,
                    -0.00040507786725624273,
                    -0.13765387832043885
                ],
                [
                    0.47922699104982674,
                    -0.9756128784048922,
                    0.6578416152132496,
                    -0.16935021803002206,
                    -0.9610740666836957,
                    -0.04303057239029445
                ]
            ]
        },
        {
            "input_nodes": 6,
            "nodes": 6,
            "activation_function": "sigmoid",
            "bias": [
                -0.379113845105538,
                0.02583662461968733,
                0.10098042459812824,
                0.1748435685348751,
                -0.08964592572585618,
                -0.7830412041984992
            ],
            "weights": [
                [
                    0.002648905385214076,
                    -0.28956453395532855,
                    0.19261955171833695,
                    0.20843057100036794,
                    0.15586653896061906,
                    -0.5150026333578663
                ],
                [
                    0.558738068921386,
                    -0.10123988655188801,
                    0.07549506535899837,
                    0.6590229636654032,
                    -0.1132318660445887,
                    -0.22917225358226181
                ],
                [
                    0.13447697259620822,
                    0.7545910342307055,
                    0.4741276435020724,
                    -0.493005174224398,
                    0.7963934546978109,
                    -0.6287559038138373
                ],
                [
                    0.4574756828324371,
                    -0.31529931813551243,
                    0.1898012080719669,
                    0.19253894069127026,
                    0.2772938580303931,
                    0.5989801051334244
                ],
                [
                    -0.4451137948464808,
                    0.3340222315568294,
                    0.6584547133225032,
                    -0.41955523550457935,
                    0.09854646007297654,
                    -0.7173817084915692
                ],
                [
                    -0.8667344614847421,
                    0.03780192276599596,
                    0.0049423007677597,
                    -0.6869761323403516,
                    -0.29274600267212736,
                    -0.2527377202513549
                ]
            ]
        },
        {
            "input_nodes": 6,
            "nodes": 6,
            "activation_function": "sigmoid",
            "bias": [
                0.032734673506145166,
                -0.19737810303877767,
                -0.1164840460368174,
                0.5694486091481723,
                -1.0143781771601292,
                -0.04553850370846539
            ],
            "weights": [
                [
                    0.16433836862060602,
                    0.2629941363780017,
                    -0.210801679828958,
                    0.06151604171801216,
                    0.011494471714062225,
                    0.5886969028824466
                ],
                [
                    0.6218191685374936,
                    -0.19828503976991138,
                    0.2636961002023599,
                    0.24279040268950347,
                    -0.024817844888130047,
                    1.26666687241006
                ],
                [
                    -0.04662746546589991,
                    -0.349742337881989,
                    -1.089562010668918,
                    -0.7349336951033543,
                    0.17149321252815927,
                    -0.6977506434249998
                ],
                [
                    0.684395779852408,
                    -0.5999813599682616,
                    0.018157231703662263,
                    0.04881439876742125,
                    -0.13045059035915096,
                    -0.18601796244879915
                ],
                [
                    0.20261538591158074,
                    -0.04909540094967506,
                    -0.32797860314578553,
                    -0.14764496401269522,
                    -0.4994434163515283,
                    0.8993623029705872
                ],
                [
                    -0.06838077624446472,
                    -0.794394961981942,
                    0.12211584690973304,
                    -0.41739778643930536,
                    -0.3164499094005616,
                    -0.38744640537179664
                ]
            ]
        },
        {
            "input_nodes": 6,
            "nodes": 6,
            "activation_function": "sigmoid",
            "bias": [
                0.2627775998889528,
                0.07321225204938758,
                -0.4313303279337993,
                0.035778500845925515,
                0.178106539982349,
                0.6380162427785394
            ],
            "weights": [
                [
                    0.17509364628890473,
                    -0.15590173217969083,
                    -0.8971440007462611,
                    0.3667800639658844,
                    0.4212476443155926,
                    0.15432574215578043
                ],
                [
                    -0.3099035814498085,
                    -0.4926899666497737,
                    -0.6733882439709081,
                    -0.3210698876123336,
                    0.3863853615734192,
                    0.7026001533271424
                ],
                [
                    -0.08469459228475383,
                    0.08270561877925778,
                    0.48758084908326726,
                    -0.02533039109197971,
                    0.07799877503215558,
                    -0.8343312991547095
                ],
                [
                    0.14814721629618888,
                    0.2339342970902963,
                    -0.09963406815771161,
                    0.16852838609179924,
                    0.8284761878249124,
                    0.10274622305592128
                ],
                [
                    -0.38419339905620054,
                    -0.3565403812256845,
                    -0.40263693621370966,
                    -0.4758589022609782,
                    -0.14594783622190344,
                    0.6254356757323257
                ],
                [
                    -0.08323138919805376,
                    -0.29721944629355457,
                    -0.23603738291642506,
                    0.5666534003771803,
                    -0.4368109068185959,
                    0.5244809366425688
                ]
            ]
        },
        {
            "input_nodes": 6,
            "nodes": 2,
            "activation_function": "relu",
            "bias": [
                -0.15412370559193733,
                0.9969272442982426
            ],
            "weights": [
                [
                    0.101286310084506,
                    -0.5905908171127594
                ],
                [
                    -0.1823215848640666,
                    0.07946049087064705
                ],
                [
                    0.2766816029975296,
                    0.6541191167651746
                ],
                [
                    -0.24468441514693648,
                    0.6204561926111062
                ],
                [
                    0.36064146426124244,
                    0.8447994833578276
                ],
                [
                    0.09386373075976728,
                    1.0434686055920712
                ]
            ]
        }
    ]
}
