{"input_nodes":6,"hidden_nodes":6,"output_nodes":2,"weights_ih":{"rows":6,"cols":6,"data":[[-0.6752615541945014,0.8314912013477653,0.48114440662388464,0.31726101507372895,0.06350362252807597,0.47232258124855614],[-0.46920091300519506,-0.8166875348879268,-0.8190443448882185,0.22934883376922016,-0.9797812421067452,-0.33917220620851746],[-0.7555812855315271,0.006407790186065299,0.5880258439515783,0.019765201726302584,-0.6276410316314136,0.2592861017388093],[0.8619215436999594,-1.0025317741054585,-0.1804576946470281,0.14137156389069974,0.6933314698354981,0.04518278670953654],[-0.681447777639726,-0.5941239797549317,-0.9998179237437004,-0.2699292283114131,-0.15408300831355187,0.06777496292549706],[0.842214036114001,0.43460080177089727,-0.5844221971278722,0.9928316817503675,-0.7787263234796696,0.5514810854030013]]},"weights_ho":{"rows":2,"cols":6,"data":[[1.022940127603029,0.8162129769574377,0.6247730848912112,0.9288250131210642,-0.14345839645987551,0.7230074807591582],[0.20263882810796946,0.1687344319311552,0.9143234852223039,-0.21175826174696125,-0.05719655305250594,-0.17039877882197846]]},"bias_h":{"rows":6,"cols":1,"data":[[1.3928647345940486],[-0.3536518207629441],[0.792251097826196],[-0.9269230670989869],[0.7980329588550594],[-0.4428515188211711]]},"bias_o":{"rows":2,"cols":1,"data":[[0.8301364289037665],[-0.18206989360692133]]},"learning_rate":0.1,"activation_function":{}}