{"input_nodes":6,"hidden_nodes":6,"output_nodes":2,"weights_ih":{"rows":6,"cols":6,"data":[[0.21316280641157162,0.8735768534720277,0.40513986066384544,-0.959950166544028,0.2776538639723529,-0.5301327340155093],[0.6313308472518622,-0.5963244212720642,0.436851788172703,-0.7926273072994814,0.8210008564813932,0.05788129636065978],[0.9463602642551703,-0.7623048544457772,-0.7742558881246226,-0.07206087638948452,0.8091046517409524,-0.10664960799097269],[0.2868908470514163,-0.9034557245093411,0.20803532835604088,0.12419534807286715,-0.06737449583554225,0.42997652255656693],[0.22320600330679902,0.45352312912909376,-0.6723002485060955,0.4665214835381935,-0.6697273792118814,-0.3158576785259015],[0.1561867006823146,0.2521797293528145,0.7654188830547268,-0.03706731701053734,0.1497104115372605,-0.07760615658210437]]},"weights_ho":{"rows":2,"cols":6,"data":[[0.7593768953758704,0.6742027234865071,0.47555808394363625,1.2275703470954724,0.3613511698383624,-0.32124358358823485],[-0.014257612433434114,1.2257611346123782,-1.4598589578239638,0.5884518153070057,0.958828087499145,-0.30006079929447466]]},"bias_h":{"rows":6,"cols":1,"data":[[-0.022603829922011702],[0.4642271661671714],[-1.0275131136003974],[0.7918831144590815],[0.6524710075415714],[-0.4751040241227798]]},"bias_o":{"rows":2,"cols":1,"data":[[1.2368689960129178],[0.8515656602366486]]},"learning_rate":0.1,"activation_function":{}}