{"input_nodes":6,"hidden_nodes":7,"output_nodes":2,"weights_ih":{"rows":7,"cols":6,"data":[[0.5934698106377453,1.1340642350659116,0.2339630607891807,-0.27602905524452775,0.25251844542872753,-0.5421604051668244],[-0.427501124211409,-0.17818146453946837,-0.11508028896322826,1.272957035606444,-0.46710237021415557,0.14613993840366502],[0.7654355653737579,0.048633049992283156,1.0761253704861327,0.37969014271835694,0.32225316620482264,0.963488236254179],[-0.5063989198451357,-0.3900857161249911,0.495943404348128,0.03809466625200771,-1.3038952308040797,0.7497321606406837],[1.2999911762739984,0.6248765597705984,-0.6641554335443044,1.605867728613074,-0.5888062757044331,0.8047975140965996],[0.7543081413191874,-0.4837811192076153,-0.11277088452198955,0.02564347838805754,0.3302231416231009,0.36445326099134784],[0.7039789993577814,0.38943779160166503,0.6525562713631922,0.09997309250405764,0.6746159374063325,-0.034762588820735275]]},"weights_ho":{"rows":2,"cols":7,"data":[[-0.9764968693941407,0.7176404960698162,-0.9258916937580733,-0.6559231315502108,0.20825268716735096,0.1249475316856078,-0.9889224304625572],[0.8601316406539994,0.059297061032752396,1.1588450030631496,0.9159689355631971,-0.06862229789342641,0.007086660406652401,-1.0633134968798317]]},"bias_h":{"rows":7,"cols":1,"data":[[0.529664768414313],[-0.34010203081311796],[0.6543559985577159],[0.9679582856599014],[-0.27009955216521775],[0.40371067076166883],[0.17177478684183906]]},"bias_o":{"rows":2,"cols":1,"data":[[-0.661907975545458],[-0.5280266549763993]]},"learning_rate":0.1,"activation_function":{}}