{"input_nodes":6,"hidden_nodes":7,"output_nodes":2,"weights_ih":{"rows":7,"cols":6,"data":[[0.4066560621471751,1.2791210634491657,0.16190319040614004,-0.293608067732828,0.0789329713928285,-0.6202634970273311],[-0.30688442609105443,-0.18124069539012297,-0.14614174071577016,1.063070492031177,-0.27739999888233347,0.1908271843424366],[0.991616289712415,0.10153329246746683,1.3410781725634302,0.36045135690049124,0.0884396580652478,0.8710997332321173],[-0.41163449357131376,-0.326964562400034,0.40188909103885667,-0.13477072435023585,-1.4252247918419927,0.6801705561562877],[1.504853316062479,0.38858782284892457,-0.8341843409862432,1.605867728613074,-0.8496707526262269,0.831445530686492],[0.399491561507126,-0.46183418185694897,-0.15526952447024778,-0.050659575427471584,0.36368234363946295,0.1808930916100067],[0.8157670425210906,0.4077822735354111,0.7373675883241949,0.09997309250405764,0.7321329658845728,-0.034762588820735275]]},"weights_ho":{"rows":2,"cols":7,"data":[[-1.0116700374552678,0.6035057899780781,-1.0132088233877878,-0.5252840270075154,0.14935626875673289,0.23505301850364782,-1.0248093457499035],[0.841619705562787,0.13840303299005463,0.9596989754619728,0.9159689355631971,-0.06945287006422739,0.17155206624562225,-1.0633134968798317]]},"bias_h":{"rows":7,"cols":1,"data":[[0.4720169620193234],[-0.3467968765623626],[0.5653275597832613],[0.8826563542372565],[0.07739399927461851],[0.35942558714865647],[0.22296218000934664]]},"bias_o":{"rows":2,"cols":1,"data":[[-0.6423542508484725],[-0.47315127034568544]]},"learning_rate":0.1,"activation_function":{}}