{"input_nodes":6,"hidden_nodes":7,"output_nodes":2,"weights_ih":{"rows":7,"cols":6,"data":[[-0.09913993557719471,-1.2873514735902558,1.6911128518038552,0.4517691693246877,-0.6452300845032946,1.0128649019638682],[0.8382878741552263,0.789515880470825,0.05659307481979882,-0.08095235946861584,-0.5851450073292717,-0.9127838356252682],[-1.6220086275538736,-1.0341936203751008,-0.14124198272050556,0.5472314556247374,-0.6444306488681139,0.3583457878403792],[2.0930263208615045,-1.5776350688683005,0.6815159732876516,-1.3543422514595636,1.012238170521265,0.6955495348140383],[-0.6148739703920942,0.7895796115706355,-0.27863966590466005,-0.18528508718216594,1.38546784224619,0.1600462553286862],[1.6005807879235665,-0.8112414694277175,0.29670034523566774,-1.904674947835659,-0.37402821551267984,-0.6660984806077954],[0.2491939438827449,1.1798054328611156,-0.8547876487756849,-0.6634075875204888,-0.1212924839929858,0.7514379987110745]]},"weights_ho":{"rows":2,"cols":7,"data":[[0.7930386188550508,-0.3435620702637596,0.332363507454536,-0.3583532764836618,-0.5858003664159706,-1.2898642804838443,-1.3926113054740552],[0.673228703883688,1.4272764913603142,0.5404835281020839,1.3229799103898772,-1.2743708580981061,-1.2466399454837789,-0.3743663229755432]]},"bias_h":{"rows":7,"cols":1,"data":[[-0.8123237566161623],[-1.9563612608808612],[-0.5468751476462148],[-0.6401303061639595],[-0.4576041096577172],[-0.7572117481650835],[0.527079053688363]]},"bias_o":{"rows":2,"cols":1,"data":[[-0.8129142076373189],[0.5674654256521643]]},"learning_rate":0.1,"activation_function":{}}