{"input_nodes":6,"hidden_nodes":8,"output_nodes":2,"weights_ih":{"rows":8,"cols":6,"data":[[0.5593649408741432,0.47672878383909234,-0.8770567861771743,-0.6589667492440237,0.21476263008829177,0.2657476455917389],[0.17501583861062464,0.04497754522340536,-0.6137605277611238,0.3300292497593209,-0.9185253583146125,0.12103108046140543],[-0.010891651073607012,-0.5655918817910996,0.4126369958310647,-0.2414677229533081,0.12785564596754062,0.1826879213965636],[0.9274859607864916,0.2041081455728676,0.3381906812831151,-0.4101130899236476,0.4034724856983245,0.6827827959959163],[0.8179121521986402,-0.6710582788664525,0.8144213301207825,0.8055159987293218,0.40391640729886813,0.5452806853053893],[-0.5023390841930815,-0.8562880511019971,0.0031108272829071804,0.4447968782987104,0.829904979886726,-0.04491130742865357],[-0.09637926220010185,-0.6287422535793565,-0.5620251834334784,-0.15107971844257057,-1.023030895992728,-0.446115046119849],[0.8745305310963963,-0.2086377597584841,-0.04401492539805929,0.09973358475684696,0.524356753174056,-0.32674204530605994]]},"weights_ho":{"rows":2,"cols":8,"data":[[-0.589942640059972,0.05490743959853524,-0.808440410881591,0.5517904029972085,0.04630497332204345,0.830519901508957,0.35582597384983516,-0.6116605372853385],[0.0407206093941781,-0.6527962563910554,-0.46909758133869306,-0.05074480434986306,0.7679970970454342,-0.19244374021805544,-0.0467636493073314,0.7840237021746796]]},"bias_h":{"rows":8,"cols":1,"data":[[0.5698982639272954],[0.16481618875643522],[-0.503887990515222],[0.8857239978742308],[0.8181039596452723],[-0.9830487152910158],[0.8176322548654489],[0.8176649500136834]]},"bias_o":{"rows":2,"cols":1,"data":[[-0.7253891965389818],[0.528220449426972]]},"learning_rate":0.1,"activation_function":{}}