{
	"input_nodes": 6,
	"hidden_nodes": 7,
	"output_nodes": 2,
	"weights_ih": {
		"rows": 7,
		"cols": 6,
		"data": [[-0.44782836880008065, -1.5100300610499224, 1.1964876478707798, 0.7173462474440799, -0.34410887213663943, 1.1788068745948752], [0.04977334928789842, 0.22359331084801848, 0.1931667964424271, -0.47574657413780713, -0.2111001476966322, -1.4377801394321064], [-1.9183806449144845, -0.31706808259657393, 0.3010356458103167, 0.6947070768965077, -0.46023917873424686, 0.9130177431050382], [1.63619495379553, -1.5776350688683005, 0.7905736463070443, -1.0557741685088173, 1.0362257640341996, 0.27598254672305556], [-0.3533772302983721, 0.7880739246780906, -0.04205872835939752, -0.2290588889603418, 1.0726812272816824, 0.3892799933696603], [1.3825210728611448, -0.6634661157246818, 0.20177751408609124, -1.8710023354396204, -0.13076616757872356, -0.8615804182253275], [-0.20665328195542093, 1.0299855362129637, -0.5237285866107492, -0.46658290027821536, -0.18045987874418173, 0.6857563220954708]]
	},
	"weights_ho": {
		"rows": 2,
		"cols": 7,
		"data": [[0.5299461488309354, -0.41556304008852074, 0.4639444151821269, -0.2522761788889418, -0.7505377712558515, -0.9708081070329184, -1.5503427702135457], [0.02427805062202447, 1.7046818518129492, 0.23772690710140498, 0.7702534534528406, -1.1823053332627176, -1.1100972534721152, -0.24887789854265668]]
	},
	"bias_h": {
		"rows": 7,
		"cols": 1,
		"data": [[-1.0750060180356618], [-1.0660773712366396], [-0.8399177810831967], [-0.4306122355935339], [-0.013034933749683703], [-0.6605056841174535], [0.2603969568083837]]
	},
	"bias_o": {
		"rows": 2,
		"cols": 1,
		"data": [[-0.6258677364115506], [1.204423119904077]]
	},
	"learning_rate": 0.1,
	"activation_function": {}
}
