{"input_nodes":6,"hidden_nodes":7,"output_nodes":2,"weights_ih":{"rows":7,"cols":6,"data":[[0.7029507421150077,1.1340642350659116,0.5089148425034439,-0.32206545925697555,0.16816229903174496,-0.39990377911662306],[-0.38871741467375587,-0.040764724934168106,-0.14154055456823073,1.114541138660205,-0.6544257773689947,0.2062605989074807],[0.7654355653737579,0.26666537284928626,1.0894135796036115,0.3569609907298812,0.19719983345858216,0.8639832194844419],[-0.42934675812404216,-0.263724892084478,0.24975292020501558,0.026140956196134407,-1.1490938906364798,0.9337551092760404],[1.1105551831051812,0.7133452585374713,-0.5306071340526728,1.8174771305509982,-0.615689232112928,0.875347614677333],[0.7755266940945228,-0.7713498810021445,0.2025280094469961,-0.17485662389823092,0.21214411450401832,0.25226788809943673],[0.6986842497776078,0.49515448653367267,0.5786503377250294,-0.08988037052224772,0.7461865214623298,-0.282737529353068]]},"weights_ho":{"rows":2,"cols":7,"data":[[-1.023725310698818,0.6324425585613989,-0.836787553917395,-0.6147242107732869,0.1875687404922943,0.2975805754137478,-1.0234210699229476],[0.6881721077652688,0.1279004794943609,1.0887657863031406,1.0078528053115499,-0.06862229789342641,0.19945164129507176,-1.1896687339877627]]},"bias_h":{"rows":7,"cols":1,"data":[[0.5106341044263246],[-0.34010203081311796],[0.5936128583072549],[1.1713111339026665],[-0.0705681898231882],[0.567353174369055],[0.41096741528884545]]},"bias_o":{"rows":2,"cols":1,"data":[[-0.661907975545458],[-0.5528617993791392]]},"learning_rate":0.1,"activation_function":{}}