{"input_nodes":6,"hidden_nodes":7,"output_nodes":2,"weights_ih":{"rows":7,"cols":6,"data":[[-0.04682403402370769,-0.8005156729324825,-0.16346488042638072,-0.2165136076283109,0.39754991283379143,0.19771505738891135],[1.3861750420919368,0.10548966353775519,-0.6523061790726574,-1.3733950263827364,0.3303929794429657,-0.7961551672988767],[0.2148867979361772,-0.32894152539717025,-0.23296454886060083,1.4329033233185444,-0.9149362427188399,0.6631782108518821],[0.24735103980600934,0.6574440293071758,-0.2227510286178887,0.6035318990075051,-0.5796675557507079,-0.30531103297832984],[-0.29731367667863606,-0.6940954267468826,1.651428096194783,-0.3599357866404276,-1.1658310690008047,-0.4998738519671032],[-0.2739536819602679,-0.7349370705228668,0.1423695080529576,-0.6974889324347702,-1.0235998978945315,0.8780736881648448],[0.6428399309069338,-0.8410662583169517,0.5274844559882507,-0.34794530730013584,-0.0547864511239798,-0.2578972450861931]]},"weights_ho":{"rows":2,"cols":7,"data":[[-0.05645328729248167,1.4841376517334604,0.599617609801536,-0.2239163454861082,0.6292236791586877,0.8491150244153196,0.5372896206865987],[-0.18523835201840622,-0.6517452738065137,0.3155461389243118,-0.3654396100822466,-0.9210871231065839,-0.16564335959288912,1.431372764253103]]},"bias_h":{"rows":7,"cols":1,"data":[[-1.1502966357199633],[-0.5618645761167157],[0.7378296379578312],[1.3191684275039375],[-0.04370714808727959],[0.11691350300381763],[0.4073967305106326]]},"bias_o":{"rows":2,"cols":1,"data":[[1.3476060188356442],[0.1570545434985462]]},"learning_rate":0.1,"activation_function":{}}