{"input_nodes":6,"hidden_nodes":8,"output_nodes":2,"weights_ih":{"rows":8,"cols":6,"data":[[-0.26501086225213233,0.873448581031885,-0.585181719544727,-0.16882430181953587,-2.4957154564569217,-1.09854764930096],[-0.8006462765263869,-2.226902803072856,-0.3232593065067359,-2.049674356121284,1.2512517575187494,-0.639727931332997],[-1.0992937761212764,-0.4602987035689534,1.5772085576538681,-1.9127197232104376,-1.9890251139414208,0.9497965339437502],[0.1472986370957869,0.7177538392505207,0.4165491048953307,0.18763667968558184,1.0838641086284888,1.339016138124707],[-0.7168657312843629,-0.6202087736242716,-1.4443081979620789,0.47644130213349345,-1.669673226120778,0.18334188466760923],[1.6634703492463458,0.03384270288416821,-0.5412985268155276,-0.7679772781671255,0.6482265978924475,1.537740592930868],[0.9245657897738337,1.2747217344687811,-1.8403972287499122,-1.0163530754296966,1.0179669729917622,-0.02503878997757461],[-0.7555682823441906,-0.4722932537508795,-0.47347535697703447,-1.9475687699414184,0.8942548639606716,1.2843002352177924]]},"weights_ho":{"rows":2,"cols":8,"data":[[0.5991216942318995,2.0323792657910755,-0.32305155938823166,-0.8669222179451078,-1.1333344052421837,1.7054685883164582,-0.6476380094272651,-0.7568886176910585],[1.489834734015089,-0.7547891472759296,0.446907797864871,-1.0861976180294217,1.0849089208286349,0.36612885604796486,1.322674789154397,0.9032205098276798]]},"bias_h":{"rows":8,"cols":1,"data":[[-0.18388748483114667],[1.990777755489113],[0.7046605942172427],[-0.43282234216089865],[-0.23372757203432232],[-1.222032591386983],[1.6631951490608863],[-2.7946774818058704]]},"bias_o":{"rows":2,"cols":1,"data":[[0.9605322448168522],[2.5726057399238518]]},"learning_rate":0.1,"activation_function":{}}