{"input_nodes":6,"hidden_nodes":6,"output_nodes":2,"weights_ih":{"rows":6,"cols":6,"data":[[-1.2513752689186353,-0.37426713537865597,0.6356866439464632,2.9905211493386292,0.8332997194090822,-0.21260956452475568],[-0.1768513581714379,-1.1677959637559279,-0.040590611231783987,-0.021416717252549497,0.027789862518630627,0.17927014526478596],[-0.24758675490964466,-0.20024336827223108,1.3265370425564353,-0.40713042376606956,-0.7304543947495893,-0.7230440805475844],[2.0465522473922624,-1.3660109149135204,0.9606719110713071,-0.11231213014874708,-0.1336860844633696,-0.3078832409357012],[-0.0013037827313382017,-0.40287080184713353,-1.0236726459937242,-0.40433166529555875,0.4387804037996988,-1.0374701585165198],[-1.3313210091879957,0.38622982226173197,-0.9296869779676842,3.266592548639014,-0.8763241351729226,1.38826647063533]]},"weights_ho":{"rows":2,"cols":6,"data":[[0.6380860003773118,0.9121858676781465,0.7905872642136952,0.14749164059952702,-0.22897650288104016,0.3322839037750355],[0.8594222245051,0.11706348714732491,0.4175171468769252,0.9503312689931646,0.5651122924857809,0.6939063121731783]]},"bias_h":{"rows":6,"cols":1,"data":[[-0.15826424732073496],[0.011479035926226122],[1.4467859373908345],[0.6265199671134563],[1.7314549492144073],[-2.0634662722916843]]},"bias_o":{"rows":2,"cols":1,"data":[[1.3872316400748967],[-0.6441812860461609]]},"learning_rate":0.1,"activation_function":{}}