{"input_nodes":6,"hidden_nodes":7,"output_nodes":2,"weights_ih":{"rows":7,"cols":6,"data":[[-0.6305899772467164,-1.483545233922364,1.1964876478707798,0.5368275735506501,-0.49080126620992887,1.1787993088683457],[0.25834257602693134,0.4987126213817971,-0.02813505129734331,-0.38247403166694877,-0.33677317603463774,-1.2050284164877922],[-1.7564089252616804,-0.5344430058272751,0.3010356458103167,0.6947070768965077,-0.3296321473139856,0.9130177431050382],[1.63619495379553,-1.5776350688683005,0.7523145537131141,-0.8566171998865288,1.0362257640341996,0.27598254672305556],[-0.4354159696605848,0.6762610585562839,-0.10034364814686204,-0.3054357836469133,1.0726812272816824,0.4360549645883389],[1.4446716745131183,-0.6875628232105911,0.4061159614659723,-1.967981502042545,0.03556981884852056,-0.8615804182253275],[-0.13179898487514835,0.9971007926024424,-0.5237285866107492,-0.4282390948203408,-0.16352693961449988,0.7170059363130534]]},"weights_ho":{"rows":2,"cols":7,"data":[[0.6168550890026877,-0.3767801126552165,0.31110343124326173,-0.21928358783128388,-0.7220251921076442,-0.9708081070329184,-1.5503427702135457],[0.019486912975782856,1.6740836345376664,0.3285651984625314,0.8025675182068577,-1.3980908956310367,-1.0286034275248126,-0.3280154577494975]]},"bias_h":{"rows":7,"cols":1,"data":[[-0.8158289941671067],[-1.1707496620597007],[-0.780637693133439],[-0.6166543990407363],[-0.045384935052031325],[-0.4490606150864],[0.14536292807924012]]},"bias_o":{"rows":2,"cols":1,"data":[[-0.6566330751949297],[1.377412756332506]]},"learning_rate":0.1,"activation_function":{}}