{"input_nodes":6,"hidden_nodes":18,"output_nodes":2,"weights_ih":{"rows":18,"cols":6,"data":[[-0.894223294487458,0.302659139742564,-0.8094160198503497,-1.9977013457738857,-1.3604839962515929,0.6196629668623083],[0.7835538407336013,0.3651967523492843,-0.9016928690455631,1.2863650468298051,1.1357294427058555,0.37346533764785084],[1.097575834041265,0.149618067897967,0.45134542508897735,-0.8565621855745837,-0.10517595568366801,0.13106163803137616],[2.014834192400102,-0.7010901786911063,1.0358224274550412,-0.4023923191191225,1.0607490250084193,-0.16032722790639847],[-0.2860688286553191,0.029170319689374447,0.42039708618191973,-0.38801558436031636,-0.251748263084215,-0.21345656879383554],[1.2053803467498863,0.601240644805014,-0.4027899171926017,-0.44795027475038446,-0.3953604903199178,1.9719701587318519],[-0.21533287982559599,1.313902794788074,-0.6591860355395872,-0.3931210951667904,-1.319337604496626,0.5681708031952845],[1.2922961521718939,0.3791927544418463,1.599523670073284,0.6545183123388805,-1.6802377346213015,1.0919191109919],[0.7445259498766825,1.5843411489159323,-0.13011483615141084,-0.8096221294758046,0.39298720442248325,1.2742719773459108],[0.2794084856844422,0.022486668786962316,0.9345857409119246,-0.29498188291106103,-0.16000280723842525,0.14702818823826608],[0.05541522699492262,-0.07778478651863101,1.306323852579273,0.22006696790587318,-2.0962270286918945,0.9992592442252846],[-0.18971366335029377,0.4290113706807389,-0.47527780547318943,-0.753078664998421,1.0049282613554043,-0.6602875335780111],[-1.2708790918286246,-0.21101699706769694,-1.1653038733048044,-0.04300109465055256,-1.0179153126410654,-0.0678199075038565],[-0.7360637962666745,-0.6961369873236688,1.7103694141802888,1.698131539654587,-0.9748975297582128,0.26732158646355625],[-1.139814368511895,-0.006609831409578326,0.31519000675717934,-0.697950180085976,-1.394554860817596,-0.6203651782088446],[-0.423498476142794,-0.674491698172522,-0.7588341588267783,-1.0811964856187242,1.2868647283845926,0.15592178391711525],[1.222864565273328,2.295897454374396,-0.03139373309755045,-0.8903170399566948,-0.055081110271540445,-0.660067365006526],[0.4406513227692522,1.0238159015250559,0.07852364850355151,-1.5643337221256264,0.05714527784595924,-0.6087536920427532]]},"weights_ho":{"rows":2,"cols":18,"data":[[-0.17960270093552774,-0.9725328229139749,-0.7837567897576138,-1.2995579778107909,-0.013145880070653017,1.0881443648785918,-0.5910581794324462,-1.0356161589085624,-0.45114081545238155,-1.698510359089536,0.8525393512300152,1.7425847861634798,-0.08383218118583764,-0.4510353076959301,-1.9013907677886976,1.5785505212702402,-0.4422447263800757,1.164597073529609],[-0.15653954283626836,0.4617974810466612,0.16704813784182848,-0.4620686777151871,-0.03398426697644974,-0.6850319629885262,0.302555891272289,1.2364341379133241,0.0645816294178851,1.543877370172613,-1.2968721007755668,2.306153338102511,0.23504344105511493,0.6024637383124629,-0.4589429820878221,0.7701734475570882,-2.0711531823201246,0.6429351689697791]]},"bias_h":{"rows":18,"cols":1,"data":[[2.203535669931955],[-3.36149003677612],[1.5054803933626337],[0.14932084280326524],[1.4892965988983562],[1.121481928451719],[0.7906891823321941],[1.488014959582832],[-0.5327571257510848],[0.0922589129988455],[-0.48528108871779246],[2.4846682551990766],[-1.1917672684011638],[2.1956835496991745],[-1.9441791456507833],[-0.29009805186506454],[0.973558630866387],[1.7924786724211106]]},"bias_o":{"rows":2,"cols":1,"data":[[-1.5637261673718694],[1.241044803895831]]},"learning_rate":0.1,"activation_function":{}}