{"input_nodes":6,"hidden_nodes":7,"output_nodes":2,"weights_ih":{"rows":7,"cols":6,"data":[[0.5648539869516433,0.7857042488487694,0.22887979810527226,0.058920499488028216,0.5299580761315573,-0.9168219354867062],[-0.37036409181857227,-0.2605805063349888,-0.06333227179685125,1.5526824028094017,-0.7838025630868093,0.5452346048744382],[1.4717306054765071,0.20408258401347082,1.005984589868238,0.36593037564014286,0.10760689776626098,0.8055885228168806],[-0.7082495985218811,-0.0966124154365676,0.23811971525108627,-0.18840062322832674,-0.9837473318183099,0.3728865578249382],[1.2494041912163925,0.4194673724147117,-0.6530667985648788,2.040066746221045,-0.7423234139488657,0.8163703001591861],[0.3823246374194255,-0.456857627620043,0.09265865613593097,-0.01171908027034163,0.4355092386577958,0.022054467938249264],[0.564718758690286,0.6946179096633542,0.7196200324146977,-0.08360702578922241,0.5948865829850666,0.13013056389396563]]},"weights_ho":{"rows":2,"cols":7,"data":[[-0.8049059933211434,0.4749920943927856,-0.966290373473278,-0.7730934503261866,0.2773639787650836,-0.019734896182863726,-0.9219163475869107],[0.726472979049461,0.17767721333351583,0.7197725115594077,1.029635193797487,-0.289730003194904,-0.04639057183935537,-1.081036680853108]]},"bias_h":{"rows":7,"cols":1,"data":[[0.5101873992088253],[-0.3084085667930389],[0.7277223716806288],[1.0777461433324775],[-0.1334585836769088],[0.34578906137752535],[0.005052921336348415]]},"bias_o":{"rows":2,"cols":1,"data":[[-0.5892496970634435],[-0.3426517721462761]]},"learning_rate":0.1,"activation_function":{}}