{"input_nodes":6,"hidden_nodes":8,"output_nodes":2,"weights_ih":{"rows":8,"cols":6,"data":[[-0.7289317994530409,0.13173347638188115,0.683205279543045,0.08797744917906636,-0.6141732260563916,0.9694929567599173],[0.9876427034993367,-0.6144493920275842,0.6550674597565532,0.1733546055658266,0.5254874273130986,0.24118460681282938],[0.7296377393882097,-0.7988996911725641,0.7314313695918878,0.9851234607833619,-0.9843568529678772,0.326828379401066],[0.9526397209339428,-0.42670558554905913,-0.09624069096394895,0.04891798652492385,0.08685774450477902,-0.5745583052584755],[-0.5501283034833374,-0.5204788842275406,-0.24248963714744914,0.904901277721397,-1.0420132351651354,-0.09262786460861516],[0.303988909422062,0.5168956920096939,0.9643286927428552,-0.7874955766949818,0.7597493242811216,-0.07704123436388599],[1.01825236485012,0.8829320860934771,0.22176034937196487,-0.13089590952517138,-0.5203909509049166,-0.7543073471130031],[-0.5499294966466781,-0.831861523761795,0.9104857147298389,0.5068200035236575,0.8786035529656107,0.3495075516259682]]},"weights_ho":{"rows":2,"cols":8,"data":[[-0.37254117023777794,-0.5604621855354056,0.27578100221588303,0.004533117879759643,0.5751514023625176,-0.6322341437126575,0.6464029565852214,-0.6288630528659073],[-0.582808195808621,1.0099583656248057,-0.1281260698576867,0.8580886567175048,-0.2590888468974385,-0.19055245795737807,-0.29146126659722693,0.7153699852169402]]},"bias_h":{"rows":8,"cols":1,"data":[[1.109850828526188],[0.27009527036282555],[-0.9765199721740392],[-0.2782437071856379],[0.6437394685666372],[-0.5790554953615197],[0.08676800388186372],[0.6310939784086389]]},"bias_o":{"rows":2,"cols":1,"data":[[0.9927636843489749],[0.522534240230816]]},"learning_rate":0.1,"activation_function":{}}