{"input_nodes":6,"hidden_nodes":12,"output_nodes":2,"weights_ih":{"rows":12,"cols":6,"data":[[-1.248726671270566,1.3163546565364197,-0.4879614173453912,1.577653969814926,-1.1056817394361784,0.29628049013202595],[-0.6726592762230934,-0.20389661615505555,-1.338242770466359,-0.4794282047017393,0.5502680089305411,0.13228812069889895],[-0.9790924479466365,0.16139670746852927,-0.22053984028639828,1.138412053147293,1.2750234066947506,0.16189214784093353],[0.6112649569552215,1.6431621463197656,-0.7309907999493456,-0.17402246109774994,2.505103063419239,-0.7853731738701861],[0.2875149919598381,2.066552465192569,0.18060409553766382,1.1682199464303156,1.507868076383387,0.7723300411909969],[1.3967637647280722,0.608989927872049,1.3281025182502015,-1.3801397501726265,0.8978829390322755,-0.14777031622548414],[0.320861501807894,-0.6760608182500427,0.7594730841513184,0.8070401358821009,-0.7890658400315876,-0.10731422490378684],[-0.17477089034245863,0.5874523191115228,-2.150318983249887,-1.7669596677832275,-0.7507770680850745,0.09789441249764141],[-0.18386441325057265,2.1466886425174208,-0.1523316923488678,1.4092946256311907,-0.42093034010840974,-0.7212107682102976],[-0.4987076590889743,2.0667036328493613,-0.08091313916025278,-0.6843023112253561,-0.24908898958759954,-0.30232144979596676],[0.3262662791114852,-0.7801134658799919,-3.134866903396487,0.6559538474328933,0.9725783953828805,-1.7684306064005706],[0.03827528856056553,-1.744674392974528,1.802729653366653,-0.7031834558911233,0.49024103194353913,1.1608736295083644]]},"weights_ho":{"rows":2,"cols":12,"data":[[1.0771724494966726,-1.145389792493048,-0.8556836408234665,0.49417423282166617,-1.6009913336357446,-0.3081221248659492,0.7939087621933001,-0.9531515817101004,-0.19951035937171518,-0.6493124653823891,-1.0098992184194837,0.007019206057667593],[0.23591904540467462,-0.12429660022537949,0.9320656873153221,-0.09811694451277406,-0.3867436651684398,1.2982547295356692,0.5440489888695967,-1.071808476885624,0.9048642988254862,0.586662916194988,-0.04702278011223318,1.0086467708906008]]},"bias_h":{"rows":12,"cols":1,"data":[[0.2748798204733269],[-0.3623272388181916],[1.7919960393925587],[-1.2131374548695644],[-2.4779957888824553],[-0.5803727509229589],[-0.9016684851214241],[1.8662195126635492],[-2.1590294050062226],[-0.43783551902043477],[0.12500044972158952],[0.07745102073360569]]},"bias_o":{"rows":2,"cols":1,"data":[[0.06325885985031851],[1.9683680524671792]]},"learning_rate":0.1,"activation_function":{}}