{"input_nodes":6,"hidden_nodes":7,"output_nodes":2,"weights_ih":{"rows":7,"cols":6,"data":[[1.1436739420046276,-0.264360334744122,-0.5522684964626163,-0.015132774945651309,0.4497329825124753,2.1636562166112974],[-1.4206958035499666,0.4173140133132782,0.1874038013353691,-1.142211234995897,-0.8178271996597137,-0.9080499067123731],[0.3402587167723512,0.9465368769550858,-0.6813517777764598,0.9215236895420724,-0.09571199319132986,0.325668518373171],[-0.8116342106271677,0.8783341221274578,-1.0695932834855393,-1.0000622928863632,2.0552643510434194,0.7394064755509808],[-0.4607383835016625,-0.5014536531655087,-0.990986556870971,1.7113386126395993,0.021478098082772096,1.2485734512180078],[0.46413033347000143,-0.7544586548655001,-0.6102150361183062,-1.1066207626441842,1.1336615435053097,0.10773866272921279],[-0.7070464607698446,-1.250334559937623,-0.361626027772553,-0.09661850076453313,-0.030688986921924233,0.22746397002890495]]},"weights_ho":{"rows":2,"cols":7,"data":[[-0.10925352901876761,1.076675266455002,-1.1466899220717695,0.42646674440954546,0.5437503622873489,1.6168549724521433,2.0873942798169605],[1.190209673600024,-0.7067140548138782,0.2562771410393056,-0.07238285268738644,-1.0792849722341133,1.6864961119672102,-0.32101854918714556]]},"bias_h":{"rows":7,"cols":1,"data":[[1.840750498497681],[0.9762410752160584],[-1.2988766478259313],[0.16113315699371333],[2.1384099066775124],[-0.007808993738984332],[-0.0984279194253902]]},"bias_o":{"rows":2,"cols":1,"data":[[-0.6369443655560582],[0.7438503442610488]]},"learning_rate":0.1,"activation_function":{}}