{"input_nodes":6,"hidden_nodes":12,"output_nodes":2,"weights_ih":{"rows":12,"cols":6,"data":[[-0.7812534241335841,1.4854110533992855,-0.6008095358725299,1.498435121146508,-1.31425569974265,-0.01737968618959057],[-0.565252775652806,-0.47275959920785315,-1.8879966798662255,-0.038096948557731915,0.8894218347004977,0.4632804049231361],[-0.396735379321049,-0.2684459033355498,-0.26227931911612606,0.8059511843382748,2.2452688105776755,-0.31844684399131934],[0.18326885268412413,1.099387029555053,-1.0807238389335012,0.14108080331095377,3.026589532213648,-0.6462672479788316],[-0.5864580485878732,1.6660868803598547,0.21695278977328009,1.5790337232990153,1.3943296706142738,0.8422965327034857],[1.8827415419823612,0.8487963497836652,1.370893815301913,-1.319488195895607,0.9870715523896921,-0.840669994908624],[0.8936937243052627,-0.9853105498954083,0.3380270107802936,1.1749465906649064,-0.41358409244020444,-0.008078610615007878],[-0.053315606603895324,0.11364606980477807,-2.327174774969297,-2.170500056616147,-1.1859257573261102,0.09710133108203833],[-0.4747530456390957,1.8561236472043154,-0.7098772584818472,1.4808708291885668,-0.42887407882811135,-0.6791453986031839],[-0.3900623089780051,2.6163956957717036,-0.17619893220310606,-0.7095467517881664,-0.6885793163643712,-0.3582746363646381],[0.47991266780486924,-0.8005412249868686,-2.7256022632725503,0.14911088562975927,0.06720385424245318,-2.368611192751752],[0.37898740978794376,-0.9858012417975021,2.266579848574758,-1.1606316566572898,1.033662760896782,1.960410812003097]]},"weights_ho":{"rows":2,"cols":12,"data":[[0.7380727335383512,-1.1658345739535565,-1.2314062816436406,0.273625729187296,-1.0302954922401224,-0.3953601342640478,1.0247422798585044,-0.46415714090952015,0.2596086628550497,-0.8698947818131728,-0.7778179930261375,-0.1289628315954663],[-0.29458934240487583,0.022817289255476148,1.6215778379460415,0.2432885180264523,-0.46707784039097255,0.47002942594613195,0.5085794421739587,-0.7277770527555181,1.3498464680058038,-0.5608574872486344,0.34921909695897924,1.1388283218991924]]},"bias_h":{"rows":12,"cols":1,"data":[[-0.1661537824953491],[-0.21555078362840357],[0.9460894319211822],[-1.1498530058623155],[-2.4476797471543628],[-0.9178660612950438],[-1.090450848142072],[2.0360147794494075],[-1.9827281791847673],[-0.3072326490876102],[0.35100284792455827],[-0.19568719516749805]]},"bias_o":{"rows":2,"cols":1,"data":[[0.20231086638878612],[1.6178056085801074]]},"learning_rate":0.1,"activation_function":{}}