{"input_nodes":6,"hidden_nodes":10,"output_nodes":2,"weights_ih":{"rows":10,"cols":6,"data":[[1.0904832378632827,0.4593396481942467,1.416638425776205,0.7691334189632832,0.5500198727137353,0.8900468177479699],[1.2750138403692435,-0.5111206632466168,-0.17392422932346954,0.7852445057403988,-0.8529634845551283,0.046535951621236],[0.25876201363511675,-0.577578898163861,1.1443259927763236,0.017634441449284,0.1888200722140859,-0.010329796359960203],[-0.4944792881706854,-0.5938201543869455,-1.1142671548646654,-1.5709426670878377,-0.32099605631089906,-0.8298525066283801],[1.007416447347697,-0.24681149067112962,1.0753673867463494,1.2952446874677956,-1.2352082711769246,0.4719469117779268],[-0.2543538666873475,-1.1188690580055578,-0.11973803073380664,0.5839656729085956,-0.0031330421905503975,0.34936268684161514],[0.044631535648660826,-0.6607837047395048,-0.6046841424316989,0.17432508087443338,-0.87809480519352,0.8614642844525907],[-0.9942075265261733,-0.05737068016896364,-0.8391308692691729,0.794316025231261,0.31161660301730554,-0.8988618814103163],[0.01390238264758123,-0.6600389083525835,-0.17334899484268537,0.1258066305853966,-1.9315029857035777,0.3781456787887612],[-0.7911323949713692,-0.4616834797893618,-0.21814149022464188,-0.7956884190598789,0.7732721598577668,-0.49838697317906544]]},"weights_ho":{"rows":2,"cols":10,"data":[[1.0790736958089637,0.4630191995642694,1.2647035635943498,-1.671237647271239,-0.012179431897863153,-0.2694416719964007,1.193522166255633,0.6074910455803111,-0.16974158208614876,0.8026576571581183],[0.09019330341181714,-0.2551673149100333,0.6168351006384345,0.021894483598159528,0.36857418426600613,1.6321026135897148,0.15735339693383266,-0.4093679930580625,1.3345638455175344,0.27738356503334005]]},"bias_h":{"rows":10,"cols":1,"data":[[1.3651935368123425],[-0.7661212865190554],[-1.7880445807878895],[0.03261006571382925],[-1.8410746682880508],[-0.5418108345178869],[0.5550525989300736],[0.44334852095860133],[0.6030411042648351],[0.1177761735060808]]},"bias_o":{"rows":2,"cols":1,"data":[[0.5479052972176311],[-0.8020242483471729]]},"learning_rate":0.1,"activation_function":{}}