{"input_nodes":6,"hidden_nodes":10,"output_nodes":2,"weights_ih":{"rows":10,"cols":6,"data":[[0.9939535897434792,0.07915963544120921,0.8093170388227229,0.20321554263325714,0.5284611257033089,0.48223199965969027],[0.8522581661613255,-0.8087871274105884,-0.15856794124797774,0.15738105997413243,-0.7341170297894686,-0.4070681278331967],[0.48460327299077727,-0.0725658186131917,0.8886419817819844,-0.28239460020526774,0.46068905492721024,-0.252547013562757],[-0.5919974574351623,0.087219909819654,-0.510184454178065,-0.5822385459824372,-1.0084565112051183,-0.5075462525398476],[0.9137975868817738,0.7733712002679565,0.9621935434436435,1.0221588273044873,-0.5855114043152876,0.015435510883150788],[-0.6120295221809529,-0.7094305825005072,-0.09332012156208715,0.4792539883188125,-0.2491317518633049,0.16535066505781149],[-0.4083931820278466,-0.4010037079701227,-0.5429966008167111,0.49687127317691826,-0.24927615667635986,0.5531401137582042],[-0.4451847748625397,-0.3038379863675642,-0.6478970656268981,0.25909392786226615,-0.33708851291983716,-0.6194057907232293],[-1.0339977330930126,-0.712470925609717,-0.46551542704393883,0.49616137761003193,-0.9034767477895657,1.0433303918034382],[-0.5947390253742793,0.17389193387699775,-0.4377954224782967,-0.7403641823898082,0.7101479177346575,0.8460152344074934]]},"weights_ho":{"rows":2,"cols":10,"data":[[0.9906039783764604,0.696754043208184,0.6247499279005084,-0.8396531426915746,0.2481223711534022,-0.42544608677042334,0.862848818684109,0.5084780950134942,0.07187419671211881,0.4812246589658359],[-0.30802232494926024,-0.8051340384835632,0.09906793585394257,-0.5851601886366353,-0.6821058332601982,0.9861468802101663,0.32066176128564655,-0.48199792768835525,0.6729917985616203,0.1223399635092619]]},"bias_h":{"rows":10,"cols":1,"data":[[0.7390477958064148],[-0.44582994799777326],[-1.1840842896478883],[0.2925143449886658],[-0.41238488852561717],[-1.027037798655274],[0.05748230687242106],[0.6372331881350832],[0.687588837639515],[0.48110179091977323]]},"bias_o":{"rows":2,"cols":1,"data":[[0.7095221327443864],[-0.2366843212027986]]},"learning_rate":0.1,"activation_function":{}}