{"input_nodes":6,"hidden_nodes":10,"output_nodes":2,"weights_ih":{"rows":10,"cols":6,"data":[[0.8943818835292774,-0.016664405157533348,0.9970807883587695,-0.07175499836200966,0.3109944750500688,0.302277980553434],[1.2266776760856732,-0.9626689219261695,-0.218593719704544,0.15772775592423646,-0.8471663168710011,-0.35807060574036575],[0.6094926850847154,-0.6442566807040913,0.6064780847303984,-0.13540491666317467,0.40037679443110596,-0.18296729411760732],[-0.49592161261871237,-0.0610701011965423,-0.2744990342310365,-0.8540833947862116,-0.47364844946907314,-0.2345215352970048],[0.9072348920627875,0.32420880981112155,1.4824238134434164,1.1814996886515317,-0.6435911476588883,0.038600217778149315],[-0.8760422161121224,-1.413090273645223,-0.2901796486821623,0.3355137675247629,-0.15129382382681628,0.04293075723358217],[0.019410136220179768,0.05650596714753681,-0.40311387727024467,0.3437682925635902,-0.29708658277777955,0.6424949388299739],[-1.0547024987319749,-0.3771785050064986,-0.9792693483807317,0.7372617143250852,0.479712133611931,-0.9059322735820152],[-0.6906034428399718,-1.0862734997642591,-0.2896639864613055,-0.43091362431931046,-0.9597900837082631,0.9318103010459745],[-0.347254994294229,-0.1931092961096978,-0.07171312706699609,-1.0865630274950897,0.7946249260561393,0.19240447026056418]]},"weights_ho":{"rows":2,"cols":10,"data":[[0.9974247594302121,1.0054302606682017,0.7996058801574113,-0.9018198179661802,0.3561064455858735,-0.47036797853538764,0.7479559059006007,0.6143907750457437,0.3543445500634228,0.3388959543534844],[-0.45391726541548383,-0.7414768742231276,0.04745906814331312,0.24429812377780466,-0.35650265594450475,1.15046431915876,0.5638868985615881,-0.20966742044388884,1.9675591477381695,0.022841468438690143]]},"bias_h":{"rows":10,"cols":1,"data":[[0.6867097412888282],[-0.4706446583013708],[-0.8612365883469811],[0.2375567643615312],[-1.1590456900176047],[-0.5757821878756457],[0.2539909966835697],[0.8015588932276909],[0.17504199035727713],[0.3279726983371819]]},"bias_o":{"rows":2,"cols":1,"data":[[0.6500964879589487],[-0.07918379139637927]]},"learning_rate":0.1,"activation_function":{}}