{"input_nodes":6,"hidden_nodes":10,"output_nodes":2,"weights_ih":{"rows":10,"cols":6,"data":[[1.402331938823369,0.07514500014772149,0.83887587500706,-0.0028211472426858397,0.40259196297458955,0.7199754685616893],[1.1958030221931717,-1.0274488066623677,-0.3594558838485114,0.10313969024940643,-0.908315560324663,-0.5954758316734456],[0.39129072780796526,-0.6488534014131369,0.7518725560123455,0.04558556140077022,0.821975689201814,-0.01780303717693525],[-0.4963048984255054,-0.29625012360990227,-0.6662126743408245,-0.767196596609881,-0.8434061092236529,-0.568161811678961],[0.6048113037296267,0.5818612830024248,0.5993433821578307,1.0711745643884913,-0.5931755856183069,0.1603759906322676],[-0.7414200725982468,-1.2278730323035911,-0.18162516360072933,0.3197526019604673,-0.2175530930286574,0.03974799192505718],[0.03132438755746403,-0.3662979274556083,-0.5234463819266201,0.23660249329320024,-0.3649493475543138,0.8526427298108609],[-0.6153754961864156,-0.4096208901918297,-0.6512132093732275,0.20831908854515954,0.3085268542700456,-0.9675001949110584],[-0.6892951090035685,-0.7789126371316097,-0.6919872800109425,0.0815240748356319,-1.3177813823070674,1.1835365845922552],[-0.16104729670555212,-0.025702331239110175,-0.4303609732146664,-0.8980679504401118,0.9706559722110473,0.31779131862011645]]},"weights_ho":{"rows":2,"cols":10,"data":[[1.0179843745210586,1.0975450818816708,0.477149599561488,-0.7969096826558785,0.5725986870184516,-0.4633634999526084,0.5730445517371702,0.7883106358426413,0.32900918930510514,0.22600457997590623],[0.03390553569948626,-0.8250242882239464,0.32615662222339414,-0.2098497000326985,-0.4196812338666316,0.4588867305636231,0.524589312629494,-0.3404402629126702,1.2421648662978413,0.008558755009287766]]},"bias_h":{"rows":10,"cols":1,"data":[[0.6401482942513206],[-0.6141524172811231],[-1.001706254533179],[0.28016572689358904],[-1.0415299021830073],[-0.8257345435818371],[-0.14448648781709203],[0.757856442742647],[0.3718745671876174],[0.08484336663807568]]},"bias_o":{"rows":2,"cols":1,"data":[[0.718752730943818],[-0.07699854902134172]]},"learning_rate":0.1,"activation_function":{}}