{"input_nodes":6,"hidden_nodes":10,"output_nodes":2,"weights_ih":{"rows":10,"cols":6,"data":[[1.1138641480832217,0.052192666804357496,1.2263616645529973,-0.5401520920255891,0.3057748998650049,0.48186288840843405],[1.2987355993935925,-1.335775065247666,-0.3475987988504525,0.7522567672725357,-1.2905966382782934,-0.27854246752370526],[0.34136658429001826,-0.6476618087607201,0.7263897022505472,0.4746285264437538,0.9293358783864136,-0.43407463539752766],[-0.9399099968349828,-0.4454176154789997,-0.6991112450259448,-1.3627688963051017,-0.7695106823941017,-0.09434492807636524],[0.4818218052705067,-0.06006233424050425,0.7907994564552491,1.4190751588241686,-0.8861165070636132,0.27380883879598505],[-1.00225990081194,-1.182756234748608,0.21007702221448066,0.27994532169824693,0.2154624923896708,-0.40700918057030516],[-0.3763672994580072,-0.25196035725186916,-0.4788218892703022,0.2480912217872476,-0.218748928507899,0.36046163318847635],[-0.7980267422496801,0.2443463060382918,-0.7246447284040415,0.4744757630908435,0.680794402073955,-1.071888315181053],[-0.08933722348663278,-0.7358131133359433,-0.4667440477775011,0.3643484818330722,-1.074687849088253,0.7462961317092723],[-0.03663765543938876,0.27611107507857824,-0.3352797327961945,-0.8985775569409944,0.48384598305835047,0.2890888359614903]]},"weights_ho":{"rows":2,"cols":10,"data":[[0.739616249762497,1.1877326457676705,0.7504652079417162,-0.7100360582885439,0.32589070560093003,-0.24642239272245312,0.06017794307324992,0.7110294136496992,0.569830012432429,1.0497761184962415],[0.2027668861807866,-0.8455876711914707,0.29770163954293594,0.2784897766874182,-0.1920418838057495,0.9441697527911965,0.4323666545432769,-0.4114694634657532,1.995718056757145,-0.4812613889202964]]},"bias_h":{"rows":10,"cols":1,"data":[[0.3210836349370203],[-0.7602246739054553],[-1.079042437857761],[0.4969717149910797],[-1.0793397122468609],[-1.3676073696737938],[0.48735122615122206],[0.8439988222828467],[0.3970929862516343],[-0.3915720730583627]]},"bias_o":{"rows":2,"cols":1,"data":[[0.6722509457101052],[0.44855304240335164]]},"learning_rate":0.1,"activation_function":{}}