{"input_nodes":6,"hidden_nodes":10,"output_nodes":2,"weights_ih":{"rows":10,"cols":6,"data":[[1.2223250815679283,-0.00183980635876424,0.6669675349404698,0.07627428668638808,0.20701169930008587,0.5535981159789671],[1.2270702904553394,-0.9212153802810616,-0.28976855837071597,0.0043893596155680495,-0.8605152032089858,-0.917016137362873],[0.37933291016086873,-0.5425727161516153,0.7518725560123455,-0.12607742071259148,0.6951556504314156,0.025284959470043708],[-0.4047686620345128,-0.0172370160289948,-0.7008890487638387,-0.8860425419254554,-0.9848095265312965,-0.6546060643392999],[0.6564255134503891,0.6928951564787464,0.9197190397279669,1.2038477761231676,-0.539191142416921,0.09674421427683919],[-0.7531714107927544,-1.0853434388878984,0.0797535900907145,0.4269643179278175,-0.20633034244386117,-0.15139589730757524],[-0.021355967855409642,-0.6652549934643065,-0.6762913733375295,0.5188505731256879,-0.42829373924280867,0.4201603907635463],[-0.6531612234091407,-0.6390134889948539,-0.5935088700034342,-0.046494860089776754,0.32241446871038826,-1.306294465254042],[-0.6038862220008172,-0.7403707096246279,-0.5541314982536649,0.0007729911073579843,-1.0278524802584765,1.1877449385452807],[-0.05232286092478591,-0.12850847379556504,-0.603560166671194,-0.8086066097652638,0.9937902869251698,0.3900627649344425]]},"weights_ho":{"rows":2,"cols":10,"data":[[1.0970883218863403,1.1105909715187647,0.3889138965411865,-0.6845134491679356,0.5699308289466098,-0.6247506159426878,0.5843777149977077,0.8041534248942781,0.42532618754086665,0.3709081207785587],[-0.2962203791698456,-0.8445050466213374,0.04094969478329899,0.07235523133204272,-0.23411696618275313,0.7190667707090789,0.3102091211872648,-0.3404402629126702,1.3215639403240131,0.393502536482062]]},"bias_h":{"rows":10,"cols":1,"data":[[0.7333890787501675],[-0.32113256659026257],[-0.9899406158674416],[0.49715136809754784],[-0.7285994495967825],[-0.7894126767082826],[-0.1494956773957831],[0.72342491890534],[0.36701778795298706],[0.3793670422130433]]},"bias_o":{"rows":2,"cols":1,"data":[[0.5664058160981427],[-0.05541316339551637]]},"learning_rate":0.1,"activation_function":{}}