{"input_nodes":6,"hidden_nodes":10,"output_nodes":2,"weights_ih":{"rows":10,"cols":6,"data":[[1.0908343883320917,-0.12055788030210254,0.922503642805087,-0.013895246333307529,0.3454353289189395,-0.20614819401438872],[1.2050156243384038,-1.2333496824107972,-0.28807882650100514,0.14973131070706563,-0.8845306531165755,-0.43951153613267446],[0.6860588383582534,-0.7377889201055516,0.5124563671100165,0.3280342067303081,0.35342650797048586,0.042052109618522696],[-0.3348865178413702,-0.20142808075675261,-0.5346834684246632,-0.7556156539572161,-0.5398738671869886,-0.4539224315599492],[0.6404917611113308,0.385132192123792,1.1116256582122934,1.1027308597968295,-0.7659156544921719,0.27745460927105736],[-1.0926901908441216,-1.0483429197179386,-0.08685265757910089,0.22192547398570628,0.07010599549574685,-0.009933624444153348],[0.10744722150524,-0.30519247553299844,-0.5714482774031312,0.04101302730913561,-0.450813978844361,0.3919079538442526],[-0.976487940399162,-0.18707259252835118,-0.7552449051301684,0.5641804725536593,0.36089769203842276,-0.826729402777594],[-0.6052674237776096,-0.9462636876340084,-0.44801751270353585,0.505009631353894,-0.8876060382805643,0.7326838280449802],[-0.17180101109048873,-0.10870522765090523,-0.27128989017006333,-1.0447078627245427,0.8105292945891992,0.1715007623227253]]},"weights_ho":{"rows":2,"cols":10,"data":[[1.0395184204852166,0.7990624669938499,0.5243097513516649,-0.9052921033921213,0.5712000520199254,-0.4520283081130527,1.0124241934211997,0.7103998316178091,0.36725187553754596,0.535309517142389],[-0.2749849220049417,-0.7928589260393532,0.049712357595076154,-0.032230722920594236,-0.4395428304019056,1.0726174548944793,0.4019724943715388,-0.4045975583006882,1.9829873274129968,0.0607900023079118]]},"bias_h":{"rows":10,"cols":1,"data":[[0.6867097412888282],[-0.5050748018054827],[-0.970750059539234],[0.5785247885903557],[-0.9709448131066705],[-0.6139271438009901],[0.2286675319215995],[0.5796205475722664],[0.09649384571196451],[0.12963452231041275]]},"bias_o":{"rows":2,"cols":1,"data":[[0.5999169865111464],[-0.15417835031947796]]},"learning_rate":0.1,"activation_function":{}}