{"input_nodes":6,"hidden_nodes":10,"output_nodes":2,"weights_ih":{"rows":10,"cols":6,"data":[[1.244722057532547,-0.11372985900517758,0.8331507240541408,0.12709329083540327,0.22844934923661106,0.6485399589300495],[1.396015676985774,-0.8122492256947335,-0.2720612812101639,0.015488273770838775,-0.8518805137495703,-0.6898859495820422],[0.7143731243277278,-0.5131661679722886,0.7318944893452226,0.12623857245691691,1.0959338779626044,0.20082444773422484],[-0.43134029320682843,-0.0172370160289948,-0.8660846544575163,-0.8777499504971676,-1.1744533230631635,-0.5641217967962903],[0.4759116497828373,0.6834738596163877,0.9445936011888383,1.4516987027847452,-0.4648009954690634,0.09978896561759026],[-0.5091812276817035,-1.710961610986034,-0.054072942525319925,0.33146532173783727,-0.3193014880071041,-0.2627500592533246],[-0.21096310017056608,-0.621011468055699,-0.3093016622848446,0.2316253544464966,-0.5239759948440446,0.6768122579389343],[-0.45991974578514155,-0.382051281150406,-0.5920965075620077,0.5228298269426379,-0.0891091012824801,-1.088035189289777],[-0.4347544417442749,-0.7162185411442841,-0.6090513978066191,0.018230598352798888,-1.2647766407401295,1.0434425264442875],[0.3366774922264745,-0.1468772214534021,-0.5446210323547083,-0.9019788974992771,0.8911792021801208,0.38697965001343576]]},"weights_ho":{"rows":2,"cols":10,"data":[[0.8943193661689657,1.109175697343957,0.5896617815446489,-0.7523368242409398,0.6019535367876622,-0.8249400086291362,0.48695037532593216,0.8568933943759554,0.5536441998037418,0.34652142347089826],[-0.15121470083962676,-0.5549869494235404,0.21650729033187832,0.015408768237519965,-0.27681835081617134,0.3990370779636785,0.48240807002083724,-0.27273267207992596,1.2561799414209767,0.4492636039688678]]},"bias_h":{"rows":10,"cols":1,"data":[[0.5775138716859276],[-0.8029849839448847],[-0.9213987658423428],[0.31929962776419807],[-0.6513209097123287],[-1.0397331366800506],[-0.06433788811467345],[0.8347010019689437],[0.5307019040416194],[0.14964563449465632]]},"bias_o":{"rows":2,"cols":1,"data":[[0.44319557706553114],[-0.15278498496633605]]},"learning_rate":0.1,"activation_function":{}}