{"input_nodes":6,"hidden_nodes":10,"output_nodes":2,"weights_ih":{"rows":10,"cols":6,"data":[[1.388842288852203,0.17017656106521192,0.7833715597606147,0.2346197107244888,0.41064093761021303,0.501462551616202],[1.1822946504515215,-1.207207819577981,-0.36200745934066575,-0.1903245179221028,-0.6864711327060719,-0.7184330233021542],[0.4471348994190859,-0.5510874081788801,0.625407767708675,0.04558556140077022,0.637860630596977,-0.01780303717693525],[-0.6233747416752733,-0.29625012360990227,-0.4015685613375005,-0.9581337329248741,-0.41734891328969914,-0.6128711319116672],[0.6048113037296267,0.4503552413665236,0.827498596952279,0.8875234958625897,-0.46854630048911194,0.19621782283338063],[-0.8193015341656074,-1.1509262872743902,-0.15162417317020827,0.25453047656985106,-0.32504114602527734,0.08941427040113722],[0.16590208553287145,-0.3662979274556083,-0.5234463819266201,0.31726730047874135,-0.5165131556740219,0.5919622204745678],[-0.5556568550725324,-0.5945115866581234,-0.609030141165202,0.0745751506639662,0.3740387639134883,-0.8441820683945036],[-0.5377942889460797,-0.5920452745415352,-0.7571824914546483,-0.0561017514421831,-0.9197231214440504,1.1709227204131003],[-0.033930349922897396,0.3272634021188237,-0.45184852067028214,-0.8980679504401118,0.9019167222696546,0.18018468083457428]]},"weights_ho":{"rows":2,"cols":10,"data":[[0.9517458222179926,0.8734153152054538,0.6766483851085633,-0.8873732561754436,0.4598156495100754,-0.596009091222356,0.6383778177642578,0.79359115283381,0.32900918930510514,0.25738031544173023],[0.040181784568921027,-0.9296197222700743,0.16219022096156904,-0.17127665171376097,-0.28608259782321294,0.718340985128493,0.524589312629494,-0.3404402629126702,1.4480553192677148,0.008558755009287766]]},"bias_h":{"rows":10,"cols":1,"data":[[0.8841227166319713],[-0.5433900571188957],[-0.8155955601032072],[0.22844661629729754],[-0.9793843778422536],[-0.8257345435818371],[-0.16331604232951127],[0.7514071744632261],[0.683315387001341],[0.07431362078597264]]},"bias_o":{"rows":2,"cols":1,"data":[[0.718752730943818],[-0.07699854902134172]]},"learning_rate":0.1,"activation_function":{}}