{"input_nodes":6,"hidden_nodes":10,"output_nodes":2,"weights_ih":{"rows":10,"cols":6,"data":[[1.2223250815679283,-0.016664405157533348,0.8985403012571076,-0.013895246333307529,0.22504574997249271,0.40123559528547076],[1.206519134469055,-1.0726476654033528,-0.28342933540874654,0.05318000429246185,-0.9566731083888703,-0.5591614817768367],[0.46814236292747174,-0.8422550352659632,0.7518725560123455,0.3383886877442495,0.6976412357539304,-0.05411903818905326],[-0.48221240213149763,-0.20741250060130667,-0.503258593433318,-1.1073812721444372,-0.662969612712085,-0.5243280081513052],[0.5732431446162375,0.4071735591728394,1.0851953943837827,1.179902041188187,-0.6655931827246921,0.3157387960225507],[-0.9063470723259711,-1.3858388500959624,0.03547911931269411,0.49590263487707015,-0.04679893522573994,-0.026389305123422552],[0.009757816363567581,-0.15939847115722983,-0.39577003345307726,0.22238516300637348,-0.4209259898945091,0.6996979534610102],[-0.7567125801914946,-0.31509974734185797,-0.5658806376025847,0.570078461933612,0.36297668964437374,-0.9778082728857712],[-0.6052674237776096,-0.9462636876340084,-0.46080168754166007,0.060376419630880085,-1.0031704151132816,0.8787232784959931],[-0.08402958741410914,-0.09873322041272317,-0.2933668299924589,-0.8980679504401118,0.7201703062448713,0.1456051792248514]]},"weights_ho":{"rows":2,"cols":10,"data":[[1.0606766239103897,0.875734016123876,0.5724220008585665,-0.9246420828434244,0.5269221230552945,-0.5287434450696276,0.5444078775732235,0.7897545309558469,0.2820223462651341,0.4019470444341693],[-0.2172752178271085,-0.853822161721671,0.17433278212646064,0.03171773998311253,-0.2976541997430601,0.9259758134765455,0.4158449286701805,-0.346818140659066,1.990056060373918,0.0414940854793787]]},"bias_h":{"rows":10,"cols":1,"data":[[0.6252865232533621],[-0.4961152823928068],[-1.0631033635389038],[0.4496493739499564],[-1.0897948609698445],[-0.8589664000880177],[0.1486676819133509],[0.7655954289904738],[0.32234694998386204],[0.2404082589883737]]},"bias_o":{"rows":2,"cols":1,"data":[[0.6342684029599311],[-0.2632225206846236]]},"learning_rate":0.1,"activation_function":{}}