{"input_nodes":6,"hidden_nodes":10,"output_nodes":2,"weights_ih":{"rows":10,"cols":6,"data":[[1.2491436389815846,-0.2660809684555318,1.268034591170401,-0.16786683199556493,0.4546153607808575,0.6469813184671898],[1.2343176750627116,-1.0244324620282088,-0.07646287576124769,0.6004718385923635,-1.3049691519298827,-0.5277664747976991],[0.5405773733718746,-0.8284123438558477,0.7167006741528408,0.2734924635569289,0.6325139779949434,-0.2209885802622597],[-0.7592420675402967,-0.6438019054625259,-0.5910927501423588,-1.195230055633195,-0.6655842283555256,-0.2595935883536332],[0.9552127752675017,0.3827492929376983,1.0560403014805522,1.2934408523144492,-0.6078128634591596,0.2264001120285344],[-1.1322448877841336,-1.3152598399457378,-0.20218571643052757,0.330534093708573,0.14058968228083824,-0.21999181665793935],[0.02997744251147396,-0.28294705905832185,-0.4772337917500533,0.6018146539467801,-0.22471516200914365,0.4245717691587574],[-0.48428049110364063,-0.19506270126076378,-0.6668016460401718,0.6457003568704351,0.31500393313279895,-1.004584765951253],[-0.2527451762715235,-0.6648293864877808,-0.31694882917529316,0.2273323923691422,-0.6848431915979676,0.6875646726995657],[-0.0817191297437531,-0.20129882804505075,-0.2403263947108954,-0.8091814326342518,0.47273434426718913,-0.090476326756707]]},"weights_ho":{"rows":2,"cols":10,"data":[[0.9678625779691793,0.8900365013060649,0.6085876122486014,-0.8182352318165952,0.4001692680901286,-0.19417471504355854,0.3360709067725527,0.763635088600361,0.3602818218783038,0.9925359035239855],[0.19518139710971658,-0.8961583812236609,-0.06220976261797179,0.010281496358173936,-0.3669204945977995,0.9078159022016483,0.5042596122244859,-0.21688401945754598,1.7996212047355844,-0.0922298326578295]]},"bias_h":{"rows":10,"cols":1,"data":[[0.2792265619578045],[-0.5256482629320673],[-0.827307578023384],[0.4569033893869007],[-1.1032678624078625],[-0.9046042128558915],[0.09772081907049163],[0.6064870841623643],[0.5655274513832376],[-0.35730038978967243]]},"bias_o":{"rows":2,"cols":1,"data":[[0.5115299760760332],[0.22230366610732505]]},"learning_rate":0.1,"activation_function":{}}