{"input_nodes":6,"hidden_nodes":10,"output_nodes":2,"weights_ih":{"rows":10,"cols":6,"data":[[1.0685895870603057,-0.5380332965878142,1.5049992914836614,-0.16786683199556493,0.21279697004444215,0.6469813184671898],[1.2757751943322038,-1.0244324620282088,-0.291503757863342,0.6463311363116733,-1.3278663021403256,-0.4913436115753325],[0.5405773733718746,-0.6269170736025327,0.6293616144299754,0.2734924635569289,0.820290366130567,-0.2209885802622597],[-0.7592420675402967,-0.6438019054625259,-0.5910927501423588,-1.1581832512807837,-0.6655842283555256,-0.2119807804869252],[0.8518835784354437,0.3827492929376983,0.8681457485762668,1.2547166719231586,-0.7611822694394661,0.2519281561459363],[-1.1322448877841336,-1.3152598399457378,-0.021081889881752122,0.5103507111963562,0.26089998001089915,-0.21999181665793935],[-0.17006355125214828,-0.28294705905832185,-0.34239341965291054,0.48337813782289996,-0.22471516200914365,0.4245717691587574],[-0.3477659460652033,-0.2844854358973238,-0.5915390732281407,0.8935552846448775,0.283374183829236,-1.004584765951253],[-0.21708237166238725,-0.6755782771988985,-0.42239790931920496,0.2273323923691422,-0.8990225606520887,0.6507162600103232],[-0.0817191297437531,-0.20129882804505075,-0.3580412192767469,-0.9530656820132518,0.5467078945657179,-0.090476326756707]]},"weights_ho":{"rows":2,"cols":10,"data":[[0.9678625779691793,0.8560657532788352,0.5569327162994797,-1.014946943667338,0.4001692680901286,-0.1748591021815279,0.46532896558423453,0.6853977116585864,0.31292726220216466,1.0817025092281098],[0.06528912481940055,-1.012521263054103,-0.06220976261797179,-0.05884088246180405,-0.3669204945977995,0.9078159022016483,0.5324628084380196,-0.21688401945754598,1.6390001240551708,-0.31301509982336234]]},"bias_h":{"rows":10,"cols":1,"data":[[0.2618016114715538],[-0.45082692810379943],[-0.8261849550772302],[0.5721913502558105],[-1.1032678624078625],[-0.9046042128558915],[0.09772081907049163],[0.6064870841623643],[0.5655274513832376],[-0.42363209486799375]]},"bias_o":{"rows":2,"cols":1,"data":[[0.6479357516270542],[0.2558102850121343]]},"learning_rate":0.1,"activation_function":{}}