{"input_nodes":6,"hidden_nodes":10,"output_nodes":2,"weights_ih":{"rows":10,"cols":6,"data":[[1.5654528980958349,0.12403122421460447,0.9287111013889475,0.7430561448682151,0.49245943696286676,0.7549000024457634],[0.6682533307455504,-0.33787234502039665,-0.19789762635821437,0.3606803180382985,-1.2278098825809838,-0.28822020265874215],[0.1728089586034499,-0.9509326960348695,1.2113146908677357,0.21823136612731084,0.20642005853589662,-0.05146556200243505],[-0.11166328762788046,-0.3122936867531565,-0.8404860556729663,-2.1158324995442834,-0.5687806089266578,-0.9318985400271205],[0.7132964107334346,-0.5758494359470632,0.7265871186039352,2.2493957144089474,-0.9394242268123456,0.48945413510892055],[-0.322740085771881,-1.2379307787719602,0.1072383138638463,0.7935057983719036,0.297368499687502,0.3898131656658757],[0.05694915004631167,-0.2846821978393591,-0.7797068859655895,-0.4508497342209066,-0.5927243410402867,0.29008084838034914],[-1.2587578711297673,-0.2868866672621285,-0.9598893806729373,0.2129622272917079,0.17608793305392428,-0.7967949435968642],[-0.6096771882649511,-0.5864245892623764,-1.0636279037248035,0.554172534965641,-2.637040396433657,0.487913234138034],[-1.003894679737949,-0.2328744025974972,-0.1950393133483193,-0.539055561599304,1.0632049685054148,-0.6526086162432247]]},"weights_ho":{"rows":2,"cols":10,"data":[[1.2475494166875882,0.6120824801810931,0.8113918623238874,-2.032367197160478,0.03753735194916712,0.1255889765194358,1.3031246298958588,0.4305983468461472,-0.2619543493799049,0.733689049793567],[1.0124516894245903,0.038389086193494786,0.6468500726835803,-0.023060022937809788,0.46548941452775183,2.0805896450081054,0.5275210935515677,-0.17630156112006778,1.6384320749055892,0.024238145476500897]]},"bias_h":{"rows":10,"cols":1,"data":[[0.621944347750113],[-1.003863263854944],[-2.158585863208343],[0.011747103336417168],[-1.3465779379212217],[-0.7341796383631738],[0.7583717839451006],[0.5645542748025838],[0.49062533205782927],[0.011088584349595476]]},"bias_o":{"rows":2,"cols":1,"data":[[0.5412599959757383],[-1.0752858542134807]]},"learning_rate":0.1,"activation_function":{}}