{"input_nodes":6,"hidden_nodes":10,"output_nodes":2,"weights_ih":{"rows":10,"cols":6,"data":[[1.4722475713898384,-0.042152077138359986,0.687443636664388,-0.0028601454603182238,0.1355173879106693,0.4594598144887804],[1.1609953681639342,-1.0477009722142516,-0.50009134751601,0.10313969024940643,-0.9667233596927798,-0.5954758316734456],[0.3783092220242768,-0.6487426994071877,0.7424136542280225,0.04558556140077022,0.6536057540414155,-0.0479192859366909],[-0.544363790981278,-0.2839347745955888,-0.7529055012012864,-0.9667759482197019,-0.8434061092236529,-0.5979271035010963],[0.6421834680450218,0.6866760283141042,0.8214391333922759,1.0085967468837949,-0.48251962884771366,0.2250478071649687],[-0.6592059884083508,-1.405420328029779,0.021771684194502483,0.34489385901796554,-0.14981323743361447,0.020822305667204027],[-0.02964619524944443,-0.3989112685220482,-0.31455739388696724,0.17850280464636153,-0.22541715719129213,0.6995817416001042],[-0.6511413755757797,-0.4178743409672071,-0.6745752159049159,0.1653866602455077,0.3085268542700456,-0.95870814343169],[-0.6892951090035685,-0.6868935264695962,-0.7015312433360292,0.07674770710552241,-1.3177813823070674,1.0935477715921929],[-0.06398897669986006,0.08439176570914711,-0.5089780151088783,-0.9387354041930813,1.0953803039385959,0.31779131862011645]]},"weights_ho":{"rows":2,"cols":10,"data":[[1.0179843745210586,1.177671132817069,0.6904945726022688,-0.7969096826558785,0.5324380543566154,-0.6356099062464702,0.5730445517371702,0.7897545309558469,0.3762061796325428,0.22600457997590623],[-0.12222932710040971,-0.8473094446014585,0.32615662222339414,-0.15335193809281059,-0.28608259782321294,0.4548283723813654,0.524589312629494,-0.3404402629126702,1.3901038129945422,0.008558755009287766]]},"bias_h":{"rows":10,"cols":1,"data":[[0.6401482942513206],[-0.6141524172811231],[-1.001706254533179],[0.262393558205027],[-1.0415299021830073],[-0.8338257555162316],[-0.3355427553930118],[0.6464595346638389],[0.40402737575375064],[0.08484336663807568]]},"bias_o":{"rows":2,"cols":1,"data":[[0.718752730943818],[0.05037947591906132]]},"learning_rate":0.1,"activation_function":{}}