{"input_nodes":6,"hidden_nodes":12,"output_nodes":2,"weights_ih":{"rows":12,"cols":6,"data":[[0.9023587272884835,-0.887912446762675,0.008889139771997942,1.479560345240685,0.8985542679093315,0.3858401318767506],[-0.20360675790827953,1.3608359195535615,-0.7068705736039869,-0.8552133112939704,0.9552887158129706,1.3519991337129516],[1.137055093031692,-0.7595694361428049,-0.1364744449933497,-0.033517345303313205,0.35640765245936507,-0.3328459522933442],[0.3904467186564271,1.776036976836215,-1.832121039477646,-1.6381986490476228,0.9437996944312691,-0.18933602493870766],[0.4650119745565752,-0.004902913890422057,-1.2505591392389634,0.3486190810458012,-0.2684194513059188,-1.0901965171657197],[0.5069050894391497,-0.07741640613052878,-1.1496592941295156,-0.6551309945359498,-0.38628310571405033,-2.048412286760038],[0.11011827900455429,0.24517642086699754,-0.6694723742900439,1.2680458578875062,-0.8352967769599094,0.6087656282228879],[0.9375697558063681,0.4513365817126823,0.7337593919075072,-0.2849962960455608,0.9747427991547376,0.4967999078610666],[-0.11420166044672651,1.3760710587504719,0.5115725140146773,-0.7449815146904732,-0.13458330415919836,1.180134758470172],[-0.30118411311746945,-1.1002105021153337,-0.879247538385374,1.8128083906117343,0.9678223738515942,0.40877193567595616],[-0.13552864485377772,0.488414025195827,0.5589153392093047,-0.34490557182791837,-0.1287436702314798,-0.7255509903494484],[-1.543915699414084,-0.27602949927371656,-0.9976593256978021,-1.1277499530489226,-0.05425005675254831,0.8029686776688807]]},"weights_ho":{"rows":2,"cols":12,"data":[[1.9807187046696788,-0.5601479437749682,-0.4097551750512199,-1.5547885867594866,0.7671723666974587,0.7625574780732166,-0.009693537247422064,-0.3262321071146945,-1.135765828459879,1.2858778120590522,-0.18726273669351914,0.642577353676153],[0.6195151805402314,0.5777521233610645,1.5521594194518584,0.40987942165470176,-0.40046830344515433,0.6149280451870349,-1.427917045611381,-1.2676691272656193,0.7631548565770974,0.4061328759234054,1.2341069254200552,0.6485179580222669]]},"bias_h":{"rows":12,"cols":1,"data":[[-0.9697767362968226],[0.4147151996534368],[-0.7615118421683988],[0.31365654821319205],[0.3747334459163347],[-1.9544544082335078],[-0.545524996154699],[-0.011903746282029462],[-0.8717744369783107],[-0.39186059415064045],[-0.48040523429103854],[1.3880764390920493]]},"bias_o":{"rows":2,"cols":1,"data":[[-0.20501579657074376],[0.33162919416589937]]},"learning_rate":0.1,"activation_function":{}}