{"input_nodes":6,"hidden_nodes":12,"output_nodes":2,"weights_ih":{"rows":12,"cols":6,"data":[[0.8362827586817841,-1.2850702272363115,-0.15247798133495277,1.4344573181176772,1.0194319004664716,0.42679477880240857],[0.1996622561177025,2.0264695789581118,-0.554699521885426,-0.5305853792247549,0.6480277557905796,1.3280143997068012],[1.116605895742353,-0.4991694707595863,-0.14778747262460373,0.1871810577781365,-0.03231235981126285,0.2703589317165421],[0.5154307923978155,1.7904546138227568,-1.7770887612845554,-1.3892252638721256,0.9906361622585712,0.13905063947973587],[0.18864688104848548,-0.0015953384390379154,-0.8536758940407245,0.1561427632103024,-0.48880938638955995,-0.9115369386587082],[0.21586932325035638,-0.43356646952914546,-1.531107292796957,-0.6134903936556773,-0.4756785833323811,-1.5910309371371045],[0.2308279059540149,0.4557467463264444,-0.6630643827664444,1.4357153682271317,-0.9149157634180195,0.08253871540942825],[0.9611641723608139,0.684374750782309,0.6437079082188415,-0.12123452800521714,1.3116731221301507,0.31834851398172115],[0.03222351328338405,1.07321820148604,0.4671798090423914,-0.886796270010702,-0.05639697862913677,1.0568269562265304],[-0.2862102150667727,-1.130428054654279,-0.9420713497139034,1.633685030582334,0.5643831168881985,0.596418135080071],[0.016699026010259105,-0.1966213017797961,0.7031608191549583,-0.2340949960400756,-0.13025001672914432,-0.5745703610634078],[-1.3316181946682863,-0.14538113961471386,-0.8355914991545867,-0.7486743143022851,0.07719963596529808,0.5738218485085637]]},"weights_ho":{"rows":2,"cols":12,"data":[[1.8481885669576217,-0.5240490292517416,-0.27696263761269785,-1.637191442921449,0.35875776016602634,0.7956449328022946,0.4760432151853491,-0.25009793014028153,-0.785235380263126,1.214560994049709,-0.10283164428917012,0.5691006169092284],[0.727900799140363,0.7018330268931436,0.9956052364128046,0.20930199677178343,-0.3902923887606756,0.6660911892688307,-1.1434441982844306,-1.3034050092099811,1.061969155255707,0.9042989465341791,0.6208611886367649,0.293647482402243]]},"bias_h":{"rows":12,"cols":1,"data":[[-0.7376207531903834],[0.21575991192423882],[-0.7329318453706656],[-0.13386684775144242],[0.5199534560885166],[-1.303689082418545],[-0.17573389929221167],[-0.3917420609763673],[-1.3370337137408728],[-0.1663698231252051],[-0.9208389321477484],[1.3651364612709282]]},"bias_o":{"rows":2,"cols":1,"data":[[-0.5918757137351062],[0.6920857683921062]]},"learning_rate":0.1,"activation_function":{}}