{"input_nodes":6,"hidden_nodes":12,"output_nodes":2,"weights_ih":{"rows":12,"cols":6,"data":[[0.7349247588831009,-1.3211787364626746,-0.14020172073465487,1.5010188760440988,0.9559598525176212,0.1424217212362629],[0.448671096584039,1.6932653486548412,-0.7540420131324825,-0.4760824435082503,0.6683147441474623,1.2363459518223807],[1.529296476181643,-0.3430622647986665,0.2321085652184973,0.34802976406740355,-0.11964362553611625,0.24365807261962993],[0.4024567873198491,1.9016940828548863,-1.7653207372060928,-1.2985182131650352,1.1264555563698764,-0.16615062897867178],[0.24618067026676477,-0.0392981444271815,-0.5119663458474101,0.19917656898137726,-0.14721599486101422,-0.6789739814630785],[-0.19747559998975678,-0.40662018837237635,-1.3259258988914708,-0.577289217132345,-0.49011587921547095,-1.3178761623205024],[0.1955092211843576,0.3211582892802899,-0.5446606286237764,1.447274673993453,-0.7028256500992112,0.25154820531104694],[0.790754249600305,0.13156502236387377,0.7666709909947635,-0.06429210535286942,1.328144627539503,0.6144798565676888],[-0.2878863896967136,0.9139742875848542,0.07340254355245061,-0.9856902326595002,0.0786792803371454,1.2486995749572682],[-0.3783804951794377,-1.1330760680531784,-0.8378594722059793,1.455906328005725,0.5713682486099924,0.6900245895231896],[-0.06638086173310005,-0.18969078618710805,0.5417579729984623,-0.5107920579993772,-0.2887622379675501,0.019426367765873157],[-1.436659492236796,-0.027429090223737004,-1.0289635445285406,-0.906234276766501,-0.07416818351109289,0.40799098726910915]]},"weights_ho":{"rows":2,"cols":12,"data":[[1.8046518374921723,-0.296970810638801,-0.36705316094668616,-1.6633840800010682,0.45038351080558553,0.8223401083160808,0.4921914689403291,-0.25659950992378583,-1.1299530929598391,1.417548488181604,-0.23132782102728489,0.31816860224443444],[0.758602662561946,0.3896535536505895,0.9364296187918137,-0.005374122634772625,-0.2718321009912671,0.846495998482572,-1.1970190361337016,-1.4323178731337114,1.132683282297265,0.575912119391639,0.5587749333344812,0.4853301953739546]]},"bias_h":{"rows":12,"cols":1,"data":[[-0.9198225871003913],[0.11469995420966239],[-0.5498143411438797],[-0.47116751648727284],[0.5652149157233775],[-0.9915362580378096],[-0.09113262294028711],[-0.03205984430975681],[-1.3095413650360386],[-0.02466612577495196],[-0.7914184107237325],[1.2982710124094938]]},"bias_o":{"rows":2,"cols":1,"data":[[-0.6417743713712776],[1.2653038202967617]]},"learning_rate":0.1,"activation_function":{}}