{"input_nodes":6,"hidden_nodes":12,"output_nodes":2,"weights_ih":{"rows":12,"cols":6,"data":[[0.9023587272884835,-0.887912446762675,0.008889139771997942,1.3591912539592743,0.88745556438832,0.391100769059259],[-0.3313193614190281,1.3608359195535615,-0.6760841679929428,-0.7865345515179096,0.9552887158129706,1.3519991337129516],[1.0861503571200286,-0.8042166221099304,-0.4280194520325945,0.029237297478692158,0.3443736729188849,-0.2506000502337968],[0.6036055671861301,1.69058192189688,-1.832121039477646,-1.5513354461784858,1.0144893050418684,-0.18933602493870766],[0.4650119745565752,-0.004902913890422057,-1.1863598403530757,0.3486190810458012,-0.2684194513059188,-1.0901965171657197],[0.5069050894391497,-0.006190062949194828,-1.1496592941295156,-0.6551309945359498,-0.38628310571405033,-2.0659928581734164],[0.1559877870385467,0.24517642086699754,-0.6694723742900439,1.1237789007802874,-0.9244300676819706,0.6087656282228879],[0.9020651163730018,0.47495138796762326,0.7337593919075072,-0.4676425117043096,1.185271593613748,0.4967999078610666],[0.0013862089864459942,1.3760710587504719,0.41579439670285784,-0.8140921953237801,-0.13458330415919836,1.180134758470172],[-0.30118411311746945,-1.1892662834360748,-0.879247538385374,1.758562533975109,0.9678223738515942,0.40877193567595616],[-0.11329418380428224,0.510030302878521,0.4221971541736074,-0.3726195630882393,-0.204613714006389,-0.7255509903494484],[-1.360155719462092,-0.27602949927371656,-0.9976593256978021,-1.1277499530489226,0.04049364617175388,0.8029686776688807]]},"weights_ho":{"rows":2,"cols":12,"data":[[2.0316118973390505,-0.629875239844016,-0.4097551750512199,-1.5991673176616834,0.9640513763266972,0.7625574780732166,0.2111180716111174,-0.3262321071146945,-1.135765828459879,1.2858778120590522,-0.12325544328441372,0.642577353676153],[0.7116392715051189,0.5777521233610645,1.5521594194518584,0.40987942165470176,-0.40046830344515433,0.5719756499994818,-1.2699546595326878,-1.279863589556932,0.7631548565770974,0.2718370985435834,1.1956415626803978,0.6581312333843709]]},"bias_h":{"rows":12,"cols":1,"data":[[-0.9697767362968226],[0.4927658875721665],[-0.6315192447479578],[0.3012649190450462],[0.09814209143332059],[-1.9633350519938353],[-0.545524996154699],[-0.011903746282029462],[-1.015221243954612],[-0.505503525486032],[-0.4503792070482401],[1.416554045922689]]},"bias_o":{"rows":2,"cols":1,"data":[[-0.20501579657074376],[0.3745412183003514]]},"learning_rate":0.1,"activation_function":{}}