{"input_nodes":6,"hidden_nodes":12,"output_nodes":2,"weights_ih":{"rows":12,"cols":6,"data":[[0.1775437390891827,-1.579941936906613,-0.46316409664640285,2.1022943201775783,0.647647017788126,0.3649829915699188],[-0.1133825742844296,2.9504531832187584,-1.236887746554997,-0.8725185138377637,-0.015133921645627768,1.1245071249492224],[1.774146964101506,-0.6808096612195667,-0.5141876669789855,0.2909943876639604,0.7826137041753208,-1.070998445140768],[0.03690047802718687,2.226358934752657,-0.9481718984770482,-1.6929533930118599,0.2284627531008957,-0.5364498532164405],[0.15679656777550194,1.327977967991445,-1.802776595194727,-0.3288962454955842,-0.03693832257958758,-1.3674069076094384],[1.2643921384859964,0.6767297942901637,-0.46074759606489124,-1.4339053861696283,-0.725006138997412,-2.091632613263456],[-0.04876959878922067,-0.15368013690760213,-0.019122435472816224,1.64305111816113,-1.1326709704993982,-0.5539925582891625],[0.9049109301116922,0.09585449961644699,0.56102647840918,0.06328647627057696,-0.4499628146172283,0.17588453680304733],[0.47637717925733336,0.7320208744925459,0.6956438879508402,-0.780027628028296,-0.32671183211996263,1.1789221345268688],[0.25750344099826017,-0.2280242871837403,-0.39801239233740193,1.4247483844181836,0.8076208643615446,0.6138750816555646],[0.3099975541138473,0.2742892769475952,0.5339753347254564,0.39472037698993206,0.6751063596874622,-1.4009711395256028],[-1.2525212389362843,-0.6801734437938487,-1.6736904931132748,-2.311300798636275,-0.7435115344676392,0.2852017305565796]]},"weights_ho":{"rows":2,"cols":12,"data":[[2.9212319128940254,-0.25630962060846346,-0.14857704007098882,-1.2179102500796994,0.3743164703727909,1.0899082374470765,0.2787713780139824,-1.2058395878897892,-1.0147612088984526,0.38674341441903054,-0.2960174354405892,0.4198626724859179],[1.7592083439685717,0.9824465823706289,0.6964332951028727,0.9486106649876637,-0.34288982950909364,2.076471053610436,-0.7999373786631154,-0.7988382491836974,1.2158008432501157,-0.21729397666641825,0.6071574448999739,1.1778694978709399]]},"bias_h":{"rows":12,"cols":1,"data":[[-0.9618391637638519],[-0.3098874249410167],[-0.09919967120301001],[-0.6456014239131265],[-0.15434940597843805],[-1.406823828805037],[-0.3052446119362571],[0.2382139409544343],[-1.6166485877421763],[0.0998989455847154],[-1.9134910405059982],[0.8305477772126315]]},"bias_o":{"rows":2,"cols":1,"data":[[-0.20048240975960466],[-0.10951792138736345]]},"learning_rate":0.1,"activation_function":{}}