{"input_nodes":6,"hidden_nodes":12,"output_nodes":2,"weights_ih":{"rows":12,"cols":6,"data":[[0.6204660304997843,-1.9404911658133388,0.3830750737958878,2.5892846398817624,0.8798278124325033,0.27422286004658586],[-0.27371516712416677,2.8670865510744257,-1.154061511815632,-1.318846116202607,0.5128348403535037,0.6970240472819619],[2.000206758131477,-0.4951271819738334,0.08918410474111912,0.1816502465902978,1.110181886996886,-1.1643396083355766],[-0.2766902857283275,2.5615541021402435,-0.9943415087874294,-1.6119541089430771,0.5782957927510762,0.29555133051008164],[0.048433613657310144,1.371658620632566,-1.6099727215376172,-0.6430055717406096,-0.1796523079673879,-1.7957334991680445],[2.0655576381029315,0.2699382728538948,-0.4304754425539129,-1.5049618892315948,-1.420788096673528,-2.5473549902795285],[0.5983754754580917,0.0025498642771339813,1.199156486798433,0.9687411922369327,-0.6380679498546349,-1.2811208245607455],[0.49527129115545704,0.2245123789396651,0.6473508011617125,0.0681446058400978,0.2417170437770234,-0.3568068983680691],[0.10631592110393995,0.8362340332436582,0.15554766866819764,-0.8231557739765174,-0.12767329882865236,0.8664455026939772],[0.6404518347937557,-0.617784613809167,-0.8642255194072624,1.2436677943355363,1.5684653740709433,0.8285765789391306],[0.8942836598839925,-0.7714587612349201,0.5648525639385948,0.5178144321699887,0.021615683159553895,-1.4503284223782154],[-0.39369751232135586,-1.0773173982028021,-1.6767533576679523,-0.8961319571174414,0.42907828990592956,-0.02738524154988957]]},"weights_ho":{"rows":2,"cols":12,"data":[[2.1697708034084746,-0.43576547150545153,-0.2805020028229402,-0.9520770290436344,0.034690491565864734,0.8065980974930794,0.583120967118052,-1.732313650786695,-0.6719139319984957,0.4992957458445658,0.012243983354332452,0.16174461806564344],[2.3233292570552333,1.6383258811720158,0.9971039580834745,0.6251520762184272,0.932211605985703,1.820088867999588,-0.010859166213239596,-1.2898288905858,1.0767304639558624,-0.33465595450948527,0.501727411659269,1.5927680777563527]]},"bias_h":{"rows":12,"cols":1,"data":[[-1.0082797343711905],[-0.28051383864588925],[-0.07718489981324428],[-0.07969129136448866],[0.1712251738429576],[-1.1443898147653346],[-0.1290432642496815],[0.2911636878589339],[-1.37871136586217],[0.9419751551503602],[-1.3869300991707338],[0.7146158284986894]]},"bias_o":{"rows":2,"cols":1,"data":[[0.2823503121505572],[-0.5095280809783957]]},"learning_rate":0.1,"activation_function":{}}