{"input_nodes":6,"hidden_nodes":12,"output_nodes":2,"weights_ih":{"rows":12,"cols":6,"data":[[1.1638821105972166,-2.1806362779193833,-0.8690546860924719,1.3521043921948421,0.6309426436812418,0.27307896625773204],[-0.2692015150858244,1.9810557498854933,-0.14622416124279203,-0.7644707348528178,0.9413353365585589,1.6719672341001188],[0.6889095194951252,-0.675497327896594,0.21711155811280614,0.19895914992915398,1.1943157973528902,-0.7515075942871673],[0.26437179102755504,2.4741996155749026,-0.7291016704167025,-2.0006373331488105,0.10663982732725633,-0.3743399080322938],[0.4000144157091279,1.1996357295769764,-1.4823849158121085,0.22002882381374786,-0.10923269072608166,-2.0216386220850375],[1.0907928919659529,0.44659997129139806,-1.1580507273857812,-1.2696920033708452,-0.6323836549713275,-1.5825991546981861],[0.36504887456073054,0.4264271057969873,-0.5513859392171139,1.915836473053902,-1.1220383355283592,-0.13797791730629672],[0.9886506279226215,0.21789895675513354,1.2920509507431674,-0.5138124313015717,0.19553400379371233,0.9209075132221825],[0.2503820510828713,-0.21600409180884955,0.9397374555423559,-1.132055062494793,-0.0033648983360481666,0.3414292141340041],[-1.0069056150017595,-0.10135509414161056,-0.709028138604635,1.5290809174230955,0.7390917245755555,0.688853834787146],[-0.06148194924716783,0.040081441790842894,0.3826679312560532,-0.03937916615525394,0.9673544538053727,-1.1303125520139476],[-2.328170457728441,-0.7211313815536349,-1.4183296040559232,-1.9114372223508882,-0.32488419771813204,0.15033742570212583]]},"weights_ho":{"rows":2,"cols":12,"data":[[2.0806273463414646,-0.4319502883378035,-0.062286013466007206,-1.870494939945466,0.7296752577939307,0.9002630285265466,0.3750619475650758,-0.3081457052020235,-0.947755715090767,1.1001555358050767,0.12067730694342892,0.3525418629386634],[1.0592724961512348,0.6000775996856541,1.2346790982141966,1.0212930389593091,-0.30763126633663884,1.7429911360574888,-1.7970490500762424,-0.19730033310048828,0.616058520565834,-0.4024835771219501,1.101306036961627,1.0273965834526944]]},"bias_h":{"rows":12,"cols":1,"data":[[-0.8001338599072356],[-0.2004837922881676],[-0.3922629063047107],[-0.14863975584384492],[-0.10680292140848285],[-1.6818832247509594],[-1.093326511844713],[0.3037473237800034],[-1.4980308194277763],[0.16893857988724825],[-1.4450914519109967],[1.6369129617271632]]},"bias_o":{"rows":2,"cols":1,"data":[[-0.34305567471397],[0.14954101388587598]]},"learning_rate":0.1,"activation_function":{}}