{"input_nodes":6,"hidden_nodes":12,"output_nodes":2,"weights_ih":{"rows":12,"cols":6,"data":[[0.7848595824702655,-1.3934098998349655,-0.1475249248209815,1.5010188760440988,0.983235751343098,0.2288094866860023],[0.36209772225763653,1.621769802752129,-0.7540420131324825,-0.4050378267974955,0.6683147441474623,1.1231947950375256],[1.2851453258599839,-0.5337613833751242,-0.031001696721828148,0.38467384947327815,-0.209916942363638,0.24365807261962993],[0.4024567873198491,1.6970607700821319,-1.7653207372060928,-1.2221717149534048,1.1264555563698764,-0.16615062897867178],[0.3763876146575435,0.011016162598247642,-0.3646732349934221,0.19917656898137726,-0.14721599486101422,-0.6674874921138254],[-0.0720897044951294,-0.45428654219213976,-1.3259258988914708,-0.6134903936556773,-0.40713509491276956,-1.2986524094618543],[0.3781232449574416,0.3211582892802899,-0.6321119685654091,1.447274673993453,-0.7028256500992112,0.2251423823307612],[0.86950136191329,0.45948276364307433,0.7290330260912314,0.05095661352916493,1.3127148552292003,0.6144798565676888],[-0.2162030108406887,1.07321820148604,0.0596371636151183,-0.9856902326595002,-0.0038202840518861553,1.2486995749572682],[-0.29918072326442735,-1.1336876753362892,-0.929100889986419,1.455906328005725,0.49292969226102773,0.6900245895231896],[-0.06638086173310005,-0.18969078618710805,0.5404784541757761,-0.43104003364138505,-0.32969883995016896,-0.23265722966286406],[-1.4770144104671472,0.055708783493497185,-0.9187477589853499,-0.6723079311371031,-0.05605210416703148,0.40799098726910915]]},"weights_ho":{"rows":2,"cols":12,"data":[[1.8046518374921723,-0.45105509773104613,-0.3734185880091109,-1.6633840800010682,0.42113485960610686,0.6676205266608606,0.5304523516230414,-0.269899213202569,-0.983463438310041,1.2852557417052508,-0.15698114908273195,0.49941310070026235],[0.8061402437272349,0.1649107642407301,1.0288197197421984,-0.005374122634772625,-0.07635881097627406,0.846495998482572,-1.1953046606827409,-1.4323178731337114,1.1659513966041524,0.5657190334478033,0.4823403788404258,0.4853301953739546]]},"bias_h":{"rows":12,"cols":1,"data":[[-0.9198225871003913],[0.11469995420966239],[-0.49209273951256804],[-0.32517386870577714],[0.627826054429963],[-1.1402577183106488],[-0.1597790111450526],[-0.03205984430975681],[-1.3095413650360386],[-0.02466612577495196],[-0.8343120272447724],[1.075334292127903]]},"bias_o":{"rows":2,"cols":1,"data":[[-0.5771784005692838],[1.189979101678384]]},"learning_rate":0.1,"activation_function":{}}