{"input_nodes":6,"hidden_nodes":12,"output_nodes":2,"weights_ih":{"rows":12,"cols":6,"data":[[0.8429618819957322,-1.2850702272363115,-0.14875999264206324,1.6371298870445834,1.0194319004664716,0.304311974975743],[0.1996622561177025,2.1507326920919336,-0.5143548615069526,-0.29048479633930185,0.7329611994547265,1.3256244353484292],[1.0948730198857741,-0.4991694707595863,-0.2169217114804775,-0.045979757906439656,-0.03231235981126285,0.2614627842036201],[0.5154307923978155,1.7397738263208637,-1.9038162224951205,-1.5312355901957446,1.159945495350527,0.13905063947973587],[0.10674773414332406,-0.16910518446176412,-0.8124358002268343,0.1561427632103024,-0.43192032919849016,-0.9953648749468905],[0.19202557577273283,-0.43356646952914546,-1.5800642534153317,-0.5557530232348993,-0.5346364708016843,-1.5910309371371045],[0.2308279059540149,0.32148254814022836,-0.5881151819787784,1.4357153682271317,-0.9640323494004005,0.08253871540942825],[0.9611641723608139,0.26665756686089764,0.7696184564094811,-0.21850240773624302,1.3116731221301507,0.5551010788444523],[0.03222351328338405,1.239855055404771,0.432204563365087,-0.9202682252290335,-0.10747621602114205,0.9769658285727421],[-0.23083564209442034,-1.1275912809365078,-0.914242240454237,1.633685030582334,0.5643831168881985,0.596418135080071],[0.016699026010259105,-0.11527025826219303,0.7031608191549583,-0.2340949960400756,-0.14343783201464386,-0.5616114493449273],[-1.5675871243573904,-0.1604029931984353,-0.6192278618852013,-0.7486743143022851,0.07719963596529808,0.6481627657693685]]},"weights_ho":{"rows":2,"cols":12,"data":[[1.910142573772281,-0.6203707900301986,-0.5628323756157634,-1.7396095380565257,0.44811642503436255,0.7836513626369676,0.5073318738460126,-0.26682243200825606,-0.785235380263126,1.1554979322056786,0.03064647551081426,0.6989027746656935],[0.727900799140363,0.8942725603333425,0.9956052364128046,0.19295195331743886,-0.35459543836434654,0.553888563883911,-1.108168009499887,-1.3034050092099811,0.9794324891049211,0.9042989465341791,0.6208611886367649,0.3306706679396196]]},"bias_h":{"rows":12,"cols":1,"data":[[-0.8831955153039517],[0.18873608255011545],[-0.7360385320193794],[-0.26435612105598744],[0.5199534560885166],[-1.4135980128832517],[-0.14443268370648643],[-0.267974880193267],[-1.3808549409586033],[-0.004292123301174067],[-0.8348957120215612],[1.3651364612709282]]},"bias_o":{"rows":2,"cols":1,"data":[[-0.5918757137351062],[0.5421169333721012]]},"learning_rate":0.1,"activation_function":{}}