{"input_nodes":6,"hidden_nodes":12,"output_nodes":2,"weights_ih":{"rows":12,"cols":6,"data":[[0.014921434060330915,0.622916819080599,-0.14266579682913827,-0.9780727870267354,0.7838749118413547,0.7052370158935215],[-0.8043315585957707,-0.5505399191230413,0.21956589666809379,-0.8580110608514762,0.12124290593107409,0.9346913280831707],[0.34480613496445134,-0.662002434203043,-0.8502441458488321,0.87180572359166,0.23119872949040765,0.38870972459120545],[-1.2075781923860336,-0.47585560786443226,-0.32724770047628204,0.15756712952405777,-0.8329377311356871,0.7607447219012635],[0.45269268741889673,-0.9154173327916042,0.11892304688953086,-0.6439115563673634,-0.8989236436843334,-0.15808759492227065],[0.20143255704577845,-0.6484459436573546,-0.1302916793564418,0.9151183710333397,-0.33499610089897824,-0.661447052996639],[-0.05915868553778347,-0.49362871760179383,-0.3500472757669101,0.43885430280289434,0.5524428061981144,0.006110674999949453],[0.49857880857506576,0.9869826983664223,-0.10592705535917417,-0.8649894956985872,-0.46473104624884515,-0.49151231253112687],[-0.23260840309478814,0.15705240158450318,-0.7318680442683494,-0.02566526850345552,-0.13579609565344963,-0.3713647888965094],[0.8704110384429873,0.7132301191738436,-0.16431839157412007,0.667835724242532,-1.0694419213261537,-0.7587082605632509],[0.40472705874807824,-0.608335878769108,-0.5280555429714401,0.2912971824195836,-0.8983832385397599,0.3523644783879205],[0.9691182270090675,-0.4248383101772763,0.29155027851390103,0.08762988581349275,-1.1184800585114536,-0.7460020596282049]]},"weights_ho":{"rows":2,"cols":12,"data":[[-0.8772957321922288,0.23024541223884606,-0.12725883131566937,-0.6862135775029192,0.8360959079119477,-0.5705975380814365,0.7401983550285478,-0.8575006625383005,-0.8455623358690769,0.8397185889443093,-0.01570337796474826,-0.7639921939251066],[0.20742059212915231,-0.903264891134179,-0.005292075261563861,-0.1699976799705758,0.06717270230612349,0.5369621130923479,-0.6718323222200739,-0.5700054553713128,0.8961223078364149,-0.49819900028654807,-0.03154998295696565,-0.6809447266062056]]},"bias_h":{"rows":12,"cols":1,"data":[[-1.1685080256093938],[-0.4386683393568086],[0.17711747641518766],[-0.4882098289310056],[0.20999289263040666],[0.6394060498372887],[0.42325722804178545],[0.15657095057055104],[-0.6717853272096054],[0.3824541334488497],[-0.42975573487690655],[-0.8542145805780201]]},"bias_o":{"rows":2,"cols":1,"data":[[0.37313395386262904],[-1.0140300287670323]]},"learning_rate":0.1,"activation_function":{}}