{"input_nodes":6,"hidden_nodes":12,"output_nodes":2,"weights_ih":{"rows":12,"cols":6,"data":[[0.18391839231043455,-1.2650539159855492,0.23646916985358918,1.2358679423963546,0.21092181912595143,0.4609119916581793],[-0.07018130895637585,1.5574601874547092,-1.0769697757901562,-1.0544702354391544,0.8533076753454131,1.1125561494466196],[1.5272709017777975,-0.8218597194425235,-0.04790392603138026,0.0698957415038749,1.15893267261719,-0.06904781418388667],[0.722066099996963,2.3361044996734126,-1.09828847965075,-1.2021441148863454,0.19981221588620643,-0.5895192048600881],[0.1335055832900352,0.8320489318812334,-1.3801623014151492,0.48106805163614363,-0.2941796617332658,-1.2399857987852643],[1.1245171249596844,0.6255390571818181,-1.681760741326243,-1.2198317629416253,0.2182336294578115,-1.6377651509612998],[0.11935705773760685,0.8239239734498502,-1.31378183128666,1.5977244165110862,-0.7127705780335272,-0.24110524475986506],[1.2505868145887735,0.5180557324791338,0.17940215508318796,-0.2878795257536964,0.817954355625674,1.1275411280690797],[0.9045236239694913,0.8231724317526584,0.31977610031171716,-0.5780485210141216,0.3996193158363058,0.3313080468428341],[-1.1825170071831257,-0.5970778341169417,-0.945241173350154,2.0037782507887187,1.5982302644075959,0.5846470424577717],[0.5366625005582023,0.31026000790606534,0.08349270316010757,-0.471891390349265,0.2530995813323487,-0.8608468284210683],[-1.536023253202189,-0.23149509848211156,-1.384685874922223,-1.1896817125331622,0.06271526251345241,0.47529404733693126]]},"weights_ho":{"rows":2,"cols":12,"data":[[2.698488860879652,-0.8459775138246218,-0.4110973305547446,-1.5946474846805962,0.9419605300121843,0.7747188099445831,0.492528681034521,-0.27044517862089473,-1.1949137430246903,1.305302709956665,0.15743535920526347,0.330671202380336],[0.34783516984854423,-0.004539660968666898,1.358047106994353,0.7432635489927865,-0.5338597144965467,1.0099682261517076,-1.726399150167755,-0.403951610312237,0.13406939860682943,0.22848638865237159,1.1655814065907266,1.7997475159601932]]},"bias_h":{"rows":12,"cols":1,"data":[[-1.091717424442727],[0.4351540681558208],[-0.6525595325678153],[0.29084694002232364],[0.5554682365990775],[-1.8933283436635022],[-1.2606587378171394],[-0.3516998500212235],[-1.7366826280633298],[-0.4606056674655664],[-0.9635026047954984],[1.3639055533205113]]},"bias_o":{"rows":2,"cols":1,"data":[[-0.3218410927266129],[0.5078707878238551]]},"learning_rate":0.1,"activation_function":{}}