{"input_nodes":6,"hidden_nodes":12,"output_nodes":2,"weights_ih":{"rows":12,"cols":6,"data":[[0.8184386917016602,-0.9825229795994643,0.041584944215217454,1.4546464410518758,0.9742222727172718,0.42698224528831863],[-0.3782874550516605,1.0862244421992173,-0.6780751491334769,-0.7261955204301518,0.9803026609404283,1.1020129743269815],[1.0896889571770323,-0.7775228691541382,-0.2807050472017839,-0.12592208311640438,0.42047264107151694,-0.16769971094715974],[0.2191466380549746,1.9182853113149707,-1.6312070055251218,-1.743178823313294,0.8970053815039973,-0.35841924053505897],[0.5321159358076766,-0.2021542298023252,-1.2105962323887394,0.3373490159738352,-0.2824803897469656,-1.1332618287191665],[0.534214476810646,-0.24098732224174546,-1.110087698092932,-0.7926822929692746,-0.5604207268590362,-1.92696663232403],[-0.025176910177030415,0.11197166201163908,-0.6032253386801028,1.3429284723817392,-1.0896947017826006,0.6774929338243941],[1.0961446799705723,0.3797744687881182,1.0093137824521428,-0.4462260213158759,0.8818959394014837,0.43375274453910584],[-0.04611372440662205,1.6134722633153369,0.6686979740246218,-0.6713519492231134,-0.4046078031789673,1.4042197171009705],[-0.41449523299275814,-1.0673809586615726,-1.0612762746172293,1.8621708961007761,1.1484549962281312,0.2854635201350207],[-0.27005390481353536,0.4999667478869627,0.7831168107309643,-0.6325325774745786,0.35125003163539464,-0.908178232157789],[-1.5857569162551584,-0.34747507229906094,-0.6664375901820249,-1.078583835238814,-0.010834750425764733,1.1062585372931577]]},"weights_ho":{"rows":2,"cols":12,"data":[[1.9336474501151657,-0.5452174554065863,-0.4718470641474692,-1.5615554354118604,0.6446142062163175,0.7637810172356786,-0.021104061500994274,-0.3704731851845419,-1.30615123046317,1.1432189970612943,-0.3296280605136722,0.7788225270274126],[0.5300784092274051,0.3156641521184769,1.5419807654453752,0.5883451186135825,-0.5447043748416717,0.9531689593940698,-1.3747326692820372,-1.3282957819135959,0.6407289122104847,0.6515269985805696,1.311647388328846,0.40400715665938813]]},"bias_h":{"rows":12,"cols":1,"data":[[-0.9697767362968226],[0.2003224644868667],[-0.8801050304086961],[0.14351615919074623],[0.4458202818768835],[-1.5009929605122372],[-0.7993346421909105],[0.08494577769368324],[-0.9193286127111506],[0.0024648216539986945],[-0.38347686995454716],[1.5670609903486652]]},"bias_o":{"rows":2,"cols":1,"data":[[-0.2303950912614307],[0.4828188404666258]]},"learning_rate":0.1,"activation_function":{}}