{"input_nodes":6,"hidden_nodes":12,"output_nodes":2,"weights_ih":{"rows":12,"cols":6,"data":[[0.7349247588831009,-1.319275387836405,-0.14541357606220434,1.5704798599553094,0.9559598525176212,0.2288094866860023],[0.3327844465858574,1.56260654072699,-0.7540420131324825,-0.4760824435082503,0.6683147441474623,1.2363459518223807],[1.2851453258599839,-0.636830885505713,0.012563105713492374,0.47331498224213187,-0.11964362553611625,0.22150001562143692],[0.4024567873198491,1.7372543163301402,-1.7653207372060928,-1.2985182131650352,1.1264555563698764,-0.16615062897867178],[0.3029338367550195,-0.1282431863505938,-0.5214656200866409,0.19917656898137726,-0.14721599486101422,-0.6674874921138254],[-0.19747559998975678,-0.40662018837237635,-1.3259258988914708,-0.6134903936556773,-0.40713509491276956,-1.1607613656075855],[0.3781232449574416,0.3211582892802899,-0.6321119685654091,1.447274673993453,-0.7886837364150497,0.25154820531104694],[0.86950136191329,0.2906119355375767,0.8278718498237178,-0.06429210535286942,1.287667508268757,0.5561021905310084],[-0.2162030108406887,0.9139742875848542,0.1488150259282159,-0.9856902326595002,-0.0038202840518861553,1.2486995749572682],[-0.3783804951794377,-1.1459520630735447,-0.9525328357142382,1.455906328005725,0.5713682486099924,0.6900245895231896],[-0.06638086173310005,-0.21463497491317934,0.5417579729984623,-0.5107920579993772,-0.32969883995016896,-0.09850100651852048],[-1.526055534961132,-0.058825372267080324,-0.8727908982341618,-0.906234276766501,-0.2735294621252222,0.5251205270426729]]},"weights_ho":{"rows":2,"cols":12,"data":[[1.8046518374921723,-0.296970810638801,-0.3734185880091109,-1.7239387053981032,0.42113485960610686,0.6676205266608606,0.4921914689403291,-0.269899213202569,-0.983463438310041,1.4732108340793462,-0.3578704160028543,0.31816860224443444],[0.8061402437272349,0.40523733977665327,0.9364296187918137,-0.005374122634772625,-0.2718321009912671,0.7376547386205616,-1.165698570346701,-1.3096645697161777,1.0169258292801664,0.5657190334478033,0.4823403788404258,0.44593226679861453]]},"bias_h":{"rows":12,"cols":1,"data":[[-0.9198225871003913],[0.11469995420966239],[-0.47041589086386615],[-0.32517386870577714],[0.6971063088480648],[-1.1402577183106488],[-0.2137162695290384],[-0.03205984430975681],[-1.3095413650360386],[0.08640090156024262],[-0.7914184107237325],[1.3159940286904857]]},"bias_o":{"rows":2,"cols":1,"data":[[-0.6417743713712776],[1.2653038202967617]]},"learning_rate":0.1,"activation_function":{}}