{"input_nodes":6,"hidden_nodes":12,"output_nodes":2,"weights_ih":{"rows":12,"cols":6,"data":[[0.877500861297594,-1.36933862907854,-0.14541357606220434,1.5010188760440988,0.9559598525176212,0.18592600269568738],[0.3327844465858574,1.621769802752129,-0.7540420131324825,-0.4760824435082503,0.6683147441474623,1.2363459518223807],[1.2851453258599839,-0.5337613833751242,0.04793203283243411,0.15872390856142365,-0.11964362553611625,0.24365807261962993],[0.4024567873198491,1.7372543163301402,-1.7653207372060928,-1.2985182131650352,1.1264555563698764,-0.16615062897867178],[0.3940687150656422,-0.0392981444271815,-0.661923683748162,0.19917656898137726,-0.14721599486101422,-0.6674874921138254],[-0.19747559998975678,-0.45428654219213976,-1.3259258988914708,-0.6134903936556773,-0.40713509491276956,-1.1607613656075855],[0.1824539272525489,0.3211582892802899,-0.6321119685654091,1.447274673993453,-0.7028256500992112,0.25154820531104694],[0.86950136191329,0.2906119355375767,0.7290330260912314,-0.06429210535286942,1.287667508268757,0.6144798565676888],[-0.2162030108406887,0.8468398081299339,0.07340254355245061,-0.9856902326595002,-0.0038202840518861553,1.2486995749572682],[-0.31607730444031257,-1.1336876753362892,-0.8378594722059793,1.455906328005725,0.5713682486099924,0.6900245895231896],[-0.06638086173310005,-0.18969078618710805,0.5417579729984623,-0.5107920579993772,-0.32969883995016896,0.022059234491691476],[-1.436659492236796,-0.027429090223737004,-0.9187477589853499,-0.906234276766501,-0.07416818351109289,0.40799098726910915]]},"weights_ho":{"rows":2,"cols":12,"data":[[1.8046518374921723,-0.296970810638801,-0.3734185880091109,-1.6633840800010682,0.42113485960610686,0.6676205266608606,0.4921914689403291,-0.269899213202569,-0.983463438310041,1.417548488181604,-0.3578704160028543,0.31816860224443444],[0.8061402437272349,0.40523733977665327,0.9364296187918137,-0.005374122634772625,-0.2718321009912671,0.846495998482572,-1.1953046606827409,-1.5182490826717372,1.132683282297265,0.5657190334478033,0.5598513646985649,0.4853301953739546]]},"bias_h":{"rows":12,"cols":1,"data":[[-0.9198225871003913],[0.1351537329626637],[-0.47041589086386615],[-0.32517386870577714],[0.6971063088480648],[-1.1402577183106488],[-0.2137162695290384],[-0.03205984430975681],[-1.3095413650360386],[-0.02466612577495196],[-0.7914184107237325],[1.3159940286904857]]},"bias_o":{"rows":2,"cols":1,"data":[[-0.6417743713712776],[1.2653038202967617]]},"learning_rate":0.1,"activation_function":{}}