{"input_nodes":6,"hidden_nodes":12,"output_nodes":2,"weights_ih":{"rows":12,"cols":6,"data":[[0.731842650540099,-0.5907741556243664,0.04471241307060124,1.2851450872112877,0.6135656198514415,-0.23206811001971864],[0.878387040133355,0.8478200711032461,-0.1726183489548846,0.6676695672075506,-0.06854270786664685,0.5681449917349068],[0.9408769735013173,0.523627012656637,0.22691799873699217,-0.3506872007909189,-0.16270686438910217,0.3581100626417769],[0.6877394207310576,0.6486782123359314,-0.8875930780144191,-0.20702632603187357,0.6436498650919011,-0.7095808263716046],[0.5333353196853406,0.8361482790506299,0.0446275567427787,0.28785328529732956,0.2366493242846528,-0.22077587560624928],[-0.4398059322742348,-0.22555469155429042,-0.9785994634044786,-0.3407097705386781,-0.4670189437309124,-0.8487037730736777],[0.4811042213264998,0.24941425247412657,-0.7503653242515601,0.5130496005067595,-0.8525519956195551,1.138752991637743],[0.47410935900181445,-0.38432589861978195,-0.09616612005467856,0.7815178301558959,1.0802679656682967,0.8533175542983046],[0.25498504854748455,0.36418162496372836,-0.0015462694342691582,-1.0190125119788727,0.5050263084854454,0.8183152672429654],[-0.5597844241700345,-0.7670108730339638,-0.8434124680003323,0.9034682071952528,0.6633807776902353,1.114615117793659],[-0.0224597604506723,-0.7648383771235883,0.7787360710983942,0.037197430464934414,-0.14406487564841974,0.3357386800968938],[-0.9320692173863131,0.5840545846434266,-0.5246494077990032,-0.41266245072128693,0.16516266488780476,0.4109886005137945]]},"weights_ho":{"rows":2,"cols":12,"data":[[0.8544561102460017,-0.9753462863347032,-0.012764784784132633,-1.125452061436814,1.04159966074862,0.43092445993358386,0.5539305486402444,0.30381536688249494,-0.5459019344545863,0.6958693389991378,-0.33978679337344825,0.013243331375943981],[0.7648931093452583,0.7892542113478314,0.7701875059673309,-0.6647588810141588,-0.7990419065255148,0.8609453258718612,-0.7833500321930544,-0.1212278406711514,1.0184020127119535,0.48729902632236155,-0.20383247575087876,0.6583630503117037]]},"bias_h":{"rows":12,"cols":1,"data":[[0.24474078335310573],[-0.2198726313700372],[0.25706339625724556],[-0.08661339129395017],[0.12679080100232992],[-1.0573410724160364],[-0.13239019933311838],[0.2900586122161593],[-0.9425024777587635],[-0.32501046237339243],[-1.0047597299538995],[0.9316847395511056]]},"bias_o":{"rows":2,"cols":1,"data":[[-0.5962661172924373],[0.441072120568726]]},"learning_rate":0.1,"activation_function":{}}