{"input_nodes":6,"hidden_nodes":12,"output_nodes":2,"weights_ih":{"rows":12,"cols":6,"data":[[0.2636117136755933,-1.2831303599493864,0.27839577461208787,2.1756690607623033,0.9227566519213485,0.6420340213266396],[-0.3009734037882244,3.1510193164210256,-1.195641016934692,-1.1042715976384785,-0.3733958238100178,1.3882985845137756],[1.5907807536977439,0.03663517763970012,-0.44638769000101425,0.9029306182255111,0.8878744759196451,-0.9499868409945968],[0.14336591408278357,2.430066443139231,-0.9853219040202914,-1.7436748366425627,0.31832777536890355,-0.26680213440038],[0.15115718562269842,1.060084345910354,-1.730407026864934,-0.18852363646965525,-0.1120499816093062,-2.2053360500842687],[1.6089742265545997,0.39804779974501936,-0.40637279384328334,-1.0588962930892087,-1.372493464502205,-2.337050713061886],[-0.31250814222473033,-0.2539821903819256,0.5879728380270399,0.975304775450265,-0.8955953222970136,-0.6707812506905478],[0.9794592063436504,0.1479017688743216,0.456042645021397,-0.3073873347126903,0.24789355538044466,0.09955453543796774],[0.26651131421738133,0.5629210604086731,0.23176918402037539,-0.9462097382070518,-0.1488725291772266,1.1900150421520543],[1.0270016590942912,-0.6699413744077517,-0.7473295325052325,0.9298648183088376,1.1772618240504877,0.6697414736374813],[0.9912062075909598,0.45330866536222275,0.47613228697437626,0.07057924678206136,0.12282900578653033,-1.8192625109905287],[-0.7402139536477796,-0.9818170946980409,-1.549083452852913,-1.4150055997099964,0.11291454594841319,0.3376861430143556]]},"weights_ho":{"rows":2,"cols":12,"data":[[2.1909172568961015,-0.5662505672449012,0.02191878946769471,-1.2725554753422683,0.2165469001473756,1.1935250248785032,-0.024090471875290634,-1.629141299432514,-0.7196334286962746,0.3873232862354596,-0.38942522413575764,0.1853408332054281],[1.568106573217871,0.9312963546146457,0.3061741007723522,0.3143243588174242,0.9186678918107866,1.3253852840790221,-0.8096705102065996,-1.025939769071496,1.3682944583829568,-0.5323760359775853,0.3742223716830482,1.176346399022308]]},"bias_h":{"rows":12,"cols":1,"data":[[-1.2060110955157575],[-0.19016035906302173],[-0.5284531549098904],[-0.24227660811694252],[0.34325433319397824],[-1.0560616031587808],[-0.46325041496224006],[-0.09527533846249266],[-1.8803680683186472],[0.6802776447350062],[-1.9941413684331593],[-0.06840543788760442]]},"bias_o":{"rows":2,"cols":1,"data":[[0.3011088597078997],[-0.5412261353872558]]},"learning_rate":0.1,"activation_function":{}}