{"input_nodes":6,"hidden_nodes":12,"output_nodes":2,"weights_ih":{"rows":12,"cols":6,"data":[[0.8806461267230475,-1.1997710834010604,0.07560648435621167,1.1921781779078784,0.9570792399386321,0.3263173926319398],[0.5064137385611467,1.5690175578996977,-0.3381822653757077,0.44113041077872783,0.48752637306208524,1.6394982260713367],[1.7574353503882718,-0.36249303514254966,-0.3856899993051436,-0.24014264685670522,-0.48781449932666193,0.6201910272101213],[0.3709468804447597,1.4159592080371417,-1.49275346775724,-0.9910066081201933,0.7077229229604487,-0.5328259327736486],[0.514115389225966,-0.2652330825131666,-0.6943901988067087,0.295565570763395,0.03258468833270284,-0.07636434748950693],[-0.5894155153338694,-0.428187386005257,-0.9728565883722577,-0.24767775420319324,-0.6479667460481596,-0.7428520712166488],[0.061928079934949753,0.365103805616078,-0.8191078501132526,0.979312693935431,-0.23941188526953672,0.5087205377088504],[0.5987268409069954,0.880759899724604,-0.15039495520872798,0.29369774105174196,1.4940359755333286,0.6454013025012539],[0.2795588934968627,0.2798096957171284,0.017246040451287484,-0.9514182311874984,0.31782540287033184,0.7113474825773834],[-0.19049431681910528,-0.6359802475768284,-0.8777442264601784,1.3776541956902408,0.766710720507183,0.7150149181267521],[-0.005915842539622032,-0.4047666489854758,0.6091310162268055,-0.14360051916002223,-0.15726540020526422,0.239378219240947],[-1.0646688345443407,0.2686177898166441,-0.45222053595624423,-0.5267250657145016,0.39955841318314067,0.702617611232554]]},"weights_ho":{"rows":2,"cols":12,"data":[[1.648144077243223,-0.688361813921835,0.0628318185519896,-1.0658575700978599,-0.021778443649433266,0.20003364417316505,0.45671643351375696,-0.3805036990327864,-0.9693506710935341,1.0025606264315552,-0.6290890426672139,0.6993601508877572],[0.7898806923316825,1.064604153604843,1.2402035638888376,0.09433267361029667,-0.4369017697195965,1.0461645448578274,-1.1867952714681598,-0.6287666861658123,1.3096876756515912,0.013074648243096676,0.2685150830398238,0.6205522928372297]]},"bias_h":{"rows":12,"cols":1,"data":[[-0.1707299888527568],[0.3505970085633093],[-0.3618456935112398],[-0.23068835763080103],[0.322576610405481],[-0.9503806200838254],[-0.7592171652399514],[0.6272662516055155],[-0.8431807976838944],[-0.4509665046170046],[-0.9105907070606272],[1.0264091960001822]]},"bias_o":{"rows":2,"cols":1,"data":[[-0.5921077839975377],[0.897010327156564]]},"learning_rate":0.1,"activation_function":{}}