{"input_nodes":6,"hidden_nodes":12,"output_nodes":2,"weights_ih":{"rows":12,"cols":6,"data":[[0.09616730352361354,-1.428750078776359,-0.7233337647237151,1.9043000858062897,0.2623801615581816,0.3663841608714019],[0.0738260930591701,2.190329621707838,-0.7980269492730349,-1.1042890697904304,0.3354579741266094,0.8576732593587179],[0.9016055277528673,-0.28698889996340504,-0.19357915440702816,0.2726959038326413,0.8078616342711065,-1.1298032598445804],[0.11489530207882195,2.1954973328982135,-0.9774265727030927,-1.604057489483119,-0.03310116516624417,-0.29751184959323385],[0.360663821979332,1.3836143260605183,-1.8035374603633172,-0.25902966868596367,-0.24481414705671303,-1.5371612138919446],[1.6998096638497586,0.40598822923970046,-0.9515440002847015,-1.4567813255912303,-0.6266551371403677,-1.6685393440954273],[-0.24770189775220078,0.16476726633804478,0.4229040919117575,1.707285980674451,-0.8660992153115161,0.1360111677446048],[1.4658557796105753,0.14357121069354287,1.110318091806699,0.02907807714253144,0.01726313250090457,0.519506446743421],[0.6933647064403364,0.5833158021182915,0.820554242535476,-0.9226017182841492,0.2236211255130754,0.6581817695148668],[-0.2108961364785227,-0.08772153481248202,-0.6545344427037441,1.391103348343603,0.4502943679468386,0.9535093584538179],[0.6032313893108463,0.30211252107136344,0.3315604942581546,0.4482194581419499,0.776682004688361,-1.6118994891251996],[-1.8367417995007531,-0.6142406141336529,-1.6991062159359365,-1.2208981046395413,-0.5321528650267711,0.31943856783217683]]},"weights_ho":{"rows":2,"cols":12,"data":[[2.1488132305807697,-0.30084636848454505,-0.005901174315639385,-1.8546518284638625,0.3139450085701374,0.8643696726245865,0.25374982430329873,-0.445352659581869,-1.2207852931417063,0.7660236323730818,0.02171593028239415,0.2071802034830687],[1.43804084454458,0.9511714348628357,0.5528485710972829,0.5161658187888216,-0.14949687937110306,2.231176047846675,-0.7810292558369744,-0.6367407895687119,1.2008222817743084,-0.29804300307390624,1.3121329470452499,0.9350650302411052]]},"bias_h":{"rows":12,"cols":1,"data":[[-0.842384614403878],[0.14423315042632737],[0.02677681662461391],[-0.3974787065917927],[-0.5337289351857671],[-1.386291769142288],[-0.532060106566047],[-0.11310051462192927],[-1.2811849891995004],[0.2931084940228421],[-2.082479564552535],[1.057843813621276]]},"bias_o":{"rows":2,"cols":1,"data":[[0.016138776589748965],[-0.1436378474987718]]},"learning_rate":0.1,"activation_function":{}}