{
    "input_nodes": 3,
    "output_nodes": 2,
    "hidden_layers": 4,
    "hidden_nodes": 6,
    "layers": [
        {
            "input_nodes": 3,
            "nodes": 6,
            "activation_function": "sigmoid",
            "bias": [
                -1.7224605313039705,
                -0.6849628098737941,
                0.031335427641829894,
                -0.4415358218214305,
                -0.5508721286447735,
                -0.07288620233268908
            ],
            "weights": [
                [
                    -0.40593501367582985,
                    -0.06508526373679997,
                    0.7824513454151248,
                    -0.21976238412081617,
                    0.47231148014777813,
                    -0.05870425435047609
                ],
                [
                    0.04925231753977775,
                    0.19417843341573446,
                    0.3440785573324284,
                    -0.06314252103083486,
                    0.1675259363143325,
                    0.0015342713591458973
                ],
                [
                    0.329745776339242,
                    -0.632952708290588,
                    0.6903729427884134,
                    -0.13775871556371974,
                    -0.4376320780586366,
                    0.15847746266291887
                ]
            ]
        },
        {
            "input_nodes": 6,
            "nodes": 6,
            "activation_function": "sigmoid",
            "bias": [
                -0.18615671561786346,
                0.24849801245080927,
                -0.13925740474019288,
                0.06190516655505528,
                -0.30557534277113435,
                -0.35001844269629445
            ],
            "weights": [
                [
                    0.13343034537597087,
                    -0.2296093255111048,
                    -0.1726946525460431,
                    -0.010633272147703828,
                    0.025529469719419592,
                    -0.7396592530400026
                ],
                [
                    0.47323213394246244,
                    -0.08941054109568466,
                    0.052662091101733345,
                    0.374937349173089,
                    -0.5508718863059243,
                    -0.10465677732589987
                ],
                [
                    0.1676424929895092,
                    0.3673023230682557,
                    0.29011734652248705,
                    -0.6202645884738806,
                    0.8875312673772434,
                    -0.5080449229470474
                ],
                [
                    0.30314477659344424,
                    -0.001648720431370777,
                    0.2676017746846774,
                    -0.1242572623265509,
                    0.1871008750650514,
                    0.24510329084458818
                ],
                [
                    -0.3651853740383305,
                    0.14174879576670835,
                    0.5677942486301577,
                    -0.5499027443191689,
                    -0.039897140198876746,
                    -0.580986148354775
                ],
                [
                    -0.3711335446385699,
                    0.2601565848659374,
                    -0.04055491462491764,
                    -0.2289906032771095,
                    -0.31239931620791594,
                    -0.04740963228814447
                ]
            ]
        },
        {
            "input_nodes": 6,
            "nodes": 6,
            "activation_function": "sigmoid",
            "bias": [
                0.11442543933616964,
                0.2526031408763382,
                -0.16910388177692204,
                0.3873729620339593,
                -0.23147319205097358,
                0.03918308834911105
            ],
            "weights": [
                [
                    0.14391132137028978,
                    0.04257337445444313,
                    -0.10924326258841616,
                    0.00244988868560779,
                    0.2132989403971128,
                    0.22581073166861984
                ],
                [
                    0.8635881105057119,
                    0.18182765543206156,
                    0.0836656581332197,
                    0.08739006048945985,
                    -0.4201797288730218,
                    0.8864030961048271
                ],
                [
                    -0.15072454741261143,
                    -0.36328487201689347,
                    -1.0388311515052655,
                    -0.6223480645854393,
                    0.0881838020785401,
                    -0.5038574810962421
                ],
                [
                    0.6476153726704077,
                    -0.3334784469331632,
                    0.3359897119844662,
                    0.26950653605061137,
                    0.020026493894894137,
                    -0.02785505419874844
                ],
                [
                    0.38519298199801333,
                    0.18847205512280035,
                    -0.14128285315709832,
                    -0.4023829422408895,
                    -0.8235651840867497,
                    0.29862792369486046
                ],
                [
                    0.11493558484802935,
                    -0.3192222654755845,
                    0.33389440623918715,
                    -0.22425481078206774,
                    -0.14236258068721758,
                    0.026993496280430927
                ]
            ]
        },
        {
            "input_nodes": 6,
            "nodes": 6,
            "activation_function": "sigmoid",
            "bias": [
                -0.2562018819617479,
                0.016745308668683623,
                -0.2370593634693093,
                0.16977153597072275,
                0.19543771680868977,
                0.7500399044169341
            ],
            "weights": [
                [
                    0.14112247628989832,
                    -0.03141124357253865,
                    -0.1092430084744243,
                    0.7315223020359837,
                    0.5593330927803787,
                    0.15432574215578043
                ],
                [
                    -0.1453919318414797,
                    -0.5146877636488961,
                    -0.4189460771774819,
                    -0.00841546116014117,
                    0.058575766301902504,
                    0.8060897434733573
                ],
                [
                    -0.1312326938562494,
                    -0.3042445579466815,
                    0.15708738764539917,
                    0.6111600066953218,
                    -0.2336939966966324,
                    -1.0103760112923132
                ],
                [
                    0.14337114881080965,
                    -0.08893023716284071,
                    -0.026870501912131473,
                    -0.06151638196952548,
                    0.6006137318068698,
                    0.2220013401305254
                ],
                [
                    0.041595357610426646,
                    -0.12038854096023924,
                    -0.28835331324124513,
                    -0.5084344441365278,
                    -0.11456675295240408,
                    0.40418515419577467
                ],
                [
                    -0.16602767771786406,
                    -0.003355890688055002,
                    0.07592138703422166,
                    0.39698179538936285,
                    -0.11132604189762302,
                    0.12491928160568178
                ]
            ]
        },
        {
            "input_nodes": 6,
            "nodes": 2,
            "activation_function": "relu",
            "bias": [
                -0.062132318593174904,
                0.6194874695083418
            ],
            "weights": [
                [
                    -0.24444990468635105,
                    -0.15838429559200726
                ],
                [
                    -0.036450295780153616,
                    0.17812834322306018
                ],
                [
                    0.33393623113479776,
                    0.5625880907799785
                ],
                [
                    -0.04584516659986129,
                    0.39185811140572946
                ],
                [
                    0.28244243627496285,
                    0.5533536569827167
                ],
                [
                    -0.08296306470280587,
                    1.1308261819347443
                ]
            ]
        }
    ]
}
