{
    "input_nodes": 3,
    "output_nodes": 2,
    "hidden_layers": 5,
    "hidden_nodes": 6,
    "layers": [
        {
            "input_nodes": 3,
            "nodes": 6,
            "activation_function": "sigmoid",
            "bias": [
                0.9419399637404711,
                0.2067706882096348,
                -0.022343842013778953,
                -0.6157787164060236,
                -0.5511636557232142,
                -0.19094041161353129
            ],
            "weights": [
                [
                    -0.5806007140125061,
                    -0.1541041748877116,
                    -0.39078734834478035,
                    0.07154868995382963,
                    -0.5229684819218859,
                    -1.1356842270132477
                ],
                [
                    0.80731208893273,
                    0.2251355591003455,
                    -0.2098066708650825,
                    -0.15984362744531763,
                    -0.37121193740745306,
                    -0.11811958443326101
                ],
                [
                    -0.5593118622768246,
                    0.549158377746103,
                    0.1720174615071462,
                    0.032036513642571166,
                    -0.4692427114919424,
                    -0.7763603397069524
                ]
            ]
        },
        {
            "input_nodes": 6,
            "nodes": 6,
            "activation_function": "sigmoid",
            "bias": [
                0.2617853192331716,
                0.6128848840752742,
                -0.8884106594475975,
                0.31375916124353986,
                -0.02955909617470559,
                -0.13314673085811374
            ],
            "weights": [
                [
                    0.32714483196238847,
                    -0.702275929275567,
                    0.14813170960233712,
                    0.22816377883923583,
                    0.30262637797844394,
                    0.23183361007280662
                ],
                [
                    -0.8169438673914513,
                    -0.4248983836431235,
                    0.6682700972902716,
                    -0.11283961093066025,
                    0.6199250402126307,
                    0.39425925525069655
                ],
                [
                    0.41854489750341783,
                    -0.9676852726743401,
                    0.17991900392003476,
                    0.14513860645822696,
                    -0.7122640984661198,
                    -0.6375255426056794
                ],
                [
                    -0.09999190280304524,
                    0.47217445185393253,
                    -0.20327086661707228,
                    -0.3398324936248406,
                    0.2995387182839228,
                    -0.5258011909830587
                ],
                [
                    -0.5068242723710755,
                    0.47316374779241094,
                    -0.21416122881398642,
                    0.09329620331332016,
                    -0.3927919342098283,
                    0.08600352965821545
                ],
                [
                    0.32318020021165317,
                    0.2723276146963569,
                    -0.18109095667443395,
                    -0.6345458906910738,
                    0.043389164950335846,
                    0.8694729679343531
                ]
            ]
        },
        {
            "input_nodes": 6,
            "nodes": 6,
            "activation_function": "sigmoid",
            "bias": [
                0.17848142725094993,
                0.4817202791728824,
                -0.043894923929665694,
                -0.5980882363193496,
                0.30994221805538136,
                1.1657541754598426
            ],
            "weights": [
                [
                    -0.46759628773437456,
                    0.09923198866395558,
                    0.6788417315145129,
                    -0.23253456266193262,
                    -0.09363295606787267,
                    0.23298041735525082
                ],
                [
                    0.40409873854733375,
                    0.0633693449405391,
                    -0.355425318977484,
                    -0.21632538550159636,
                    0.20484658166162834,
                    -0.3434958431332725
                ],
                [
                    0.14618246310447042,
                    0.6959230860442248,
                    0.5738602270308957,
                    -0.44259561933685443,
                    0.327877010355915,
                    -0.21363055631724578
                ],
                [
                    1.0293000806747679,
                    -0.27333791583763845,
                    -0.3655931178362939,
                    -0.32680300895123654,
                    -0.9738662775972176,
                    -0.09840058498802792
                ],
                [
                    0.2904973232890823,
                    0.4023086991447543,
                    0.49228132644470957,
                    -0.789418906038543,
                    0.3151855836797789,
                    -0.251474467927143
                ],
                [
                    -0.06975723422059057,
                    -0.9520498699565562,
                    -0.5597980771411118,
                    -0.5492100782284035,
                    -0.014345035949959211,
                    0.9081624984940054
                ]
            ]
        },
        {
            "input_nodes": 6,
            "nodes": 6,
            "activation_function": "sigmoid",
            "bias": [
                0.44463501322511084,
                -0.30244938118472964,
                0.05016315502453643,
                0.5740412056845839,
                0.3418073640522208,
                -0.06458664379634105
            ],
            "weights": [
                [
                    0.22565302732894937,
                    0.4380574646499452,
                    0.17048842815193213,
                    0.2713315536011124,
                    -0.45493588398007057,
                    0.576145345950206
                ],
                [
                    0.34736681914545137,
                    0.5349987163772073,
                    -0.3925422046606818,
                    -0.7201212006531037,
                    0.11165836461052167,
                    0.6705742428170575
                ],
                [
                    0.04001894286881272,
                    0.10030245468614941,
                    -0.19972317322066457,
                    -0.4730962577656491,
                    0.4243086421047906,
                    0.36274373341833777
                ],
                [
                    0.20174470803274397,
                    -0.8536703038353233,
                    -0.3866810185063453,
                    0.2785422841637848,
                    -0.5414881820314936,
                    -0.019373751593817448
                ],
                [
                    -0.6172209583861141,
                    -0.0268767962956043,
                    0.12317183444227328,
                    -0.7099316983096333,
                    0.07396802020888935,
                    0.24883012110319774
                ],
                [
                    -0.4583968865220054,
                    0.1588284548989296,
                    -0.4420389611272031,
                    0.13040989212964177,
                    0.28071543175340485,
                    0.2353376441093456
                ]
            ]
        },
        {
            "input_nodes": 6,
            "nodes": 6,
            "activation_function": "sigmoid",
            "bias": [
                0.4219530711136723,
                0.3982253105022142,
                -0.7148106753194589,
                -0.21873215130191398,
                0.6732282524674079,
                0.3359906024909226
            ],
            "weights": [
                [
                    0.43337688062944896,
                    0.8666585271870004,
                    0.7751486185820543,
                    -0.8996750199646016,
                    0.02744685064025723,
                    -0.3545781714662813
                ],
                [
                    0.34676659771359486,
                    -1.1451694897839368,
                    0.4606507322708099,
                    -0.7530789968847635,
                    -0.32866545257172064,
                    -0.3086460779931729
                ],
                [
                    0.15921770458298357,
                    -0.4314326418083865,
                    -0.49588455365892714,
                    -0.3309489144405904,
                    -0.3975038156915715,
                    -0.02994911551525281
                ],
                [
                    -0.049788061972362775,
                    0.055250193920250754,
                    0.05305223587840441,
                    0.13120137886742728,
                    -0.28681761467018485,
                    -0.37661289796283987
                ],
                [
                    0.2093372795885593,
                    0.29167010023832907,
                    -0.03734235027932936,
                    -0.2561841205664181,
                    0.29888525006214883,
                    -0.8901164727435926
                ],
                [
                    0.45130705264156457,
                    0.2222569646216327,
                    -0.44082218459799904,
                    -0.021231506801739325,
                    0.26791740989088436,
                    0.19441748102528014
                ]
            ]
        },
        {
            "input_nodes": 6,
            "nodes": 2,
            "activation_function": "relu",
            "bias": [
                0.16742841505723743,
                1.1307589103282918
            ],
            "weights": [
                [
                    -0.01230340779030244,
                    0.07467785167121653
                ],
                [
                    -0.16303068003332122,
                    0.40019983325023833
                ],
                [
                    -0.20756205035343317,
                    0.14971306715423624
                ],
                [
                    -0.4351998322271906,
                    0.0395838872621425
                ],
                [
                    -0.11860168155752623,
                    0.7880408835853631
                ],
                [
                    0.6216211650334657,
                    0.7971820990836019
                ]
            ]
        }
    ]
}
