{"input_nodes":6,"hidden_nodes":12,"output_nodes":2,"weights_ih":{"rows":12,"cols":6,"data":[[0.2893228197656368,-0.3274099177389719,0.016359869724085666,-0.2030096761017554,0.5203112505522818,-0.20286629342317575],[0.8361136086961326,-0.7057284436230453,0.6743790426302971,-0.8597028398552997,-0.727557644699488,-0.7395672810088274],[0.017753239577355195,-0.99772927540819,0.4961201542189593,0.6713729155744315,0.8049688724404963,0.36426420655229524],[-0.7921263243530787,-1.1220207072593718,0.8865790233018274,0.637469319357328,0.4379160254888406,0.7660635124833113],[-0.8307241081254257,0.4752441290356102,0.2966121727242829,-0.8877605068183434,0.35495702194260925,0.8223722414396972],[-0.13886706143600025,0.2566961151519451,0.23859011201181882,-0.07458494531803211,0.62117219291251,0.19294972694594648],[-0.7321351571204813,-0.24746535449487753,-0.9574725103886932,0.7125609164657929,0.49660135400345407,-0.8670587735876114],[0.4656599147353337,-0.3031010414082928,-0.05142862128987902,0.5683484553149456,0.15051703597645327,-0.7570003524821822],[0.3716349904834497,-0.3307152361279111,0.06440835569406067,-0.015426077861762172,0.26083502367218786,-0.860789254475296],[-0.8092026975120604,0.14429975270913897,-0.25384948165493615,0.8019248902290796,-0.2050640810047235,1.0635594255095622],[-0.006002500647199163,-0.38987917602003463,0.1970393222149398,-0.8119448515263907,-0.8479013364482548,-0.2116643078506943],[-0.6777672252092739,-0.624797499206571,0.43714401596008423,0.028225390403172637,-0.38439720111306175,-0.04133254846797664]]},"weights_ho":{"rows":2,"cols":12,"data":[[-0.4309031348427248,0.21571119343568762,0.9639030200129288,-0.44082092327150413,-0.8184665970143801,0.22244857069848578,0.27684023734708196,0.2965430703526175,0.10918820794498929,-0.21581628229027586,0.7598424018457322,-0.18175176714829666],[-0.13221607187795664,-0.21049013270869565,0.46201376115494835,-0.24447956487752887,-0.24553172079261154,-0.046726815296811545,-0.4851880188401996,0.8392501805340751,-0.41104015720937515,0.945719337376842,0.6742272909046121,-0.37634276665896865]]},"bias_h":{"rows":12,"cols":1,"data":[[-0.7668142763837866],[0.16244740140068936],[-0.6786402368614857],[0.7395444742619629],[-0.45751002048473177],[0.7178104409455448],[0.5808782991673453],[-0.7670242187646314],[-0.7406503646064837],[0.10137258880721411],[0.3462686320553189],[1.1684903871675383]]},"bias_o":{"rows":2,"cols":1,"data":[[-0.04034765314312727],[-0.43892997374035136]]},"learning_rate":0.1,"activation_function":{}}