{"input_nodes":6,"hidden_nodes":12,"output_nodes":2,"weights_ih":{"rows":12,"cols":6,"data":[[0.5795358188316164,0.7864110179916818,0.7607748077795595,-0.2597582564341402,0.9901501716061991,-0.6047228469961103],[0.1675029671667882,-1.0860854899940424,1.3668993794422193,-1.478042183976357,-0.9410806663788556,-0.2737263574970411],[-0.5191084258645698,-1.4491856643985739,-0.4892080408922602,1.775103449067732,0.5102847968205297,0.6631532778567347],[-1.825023819925021,-0.9943044972422705,1.180313034534403,0.050067049710980846,0.6588200429051778,0.7926675394724625],[-0.500149851571479,1.0210687158466003,1.420178004755512,-1.7777518037794966,0.4275384257468192,1.8306886136890688],[-0.21989284771039588,0.5725134870158963,0.2759205014043178,-0.411093257227298,0.447678645086278,0.27153387069633506],[0.29065643423764154,-0.024731696438600077,-1.82111371756161,0.03834385932309339,1.0281516354086384,-0.3900887690584978],[-1.2444416213812004,-0.878128229821158,-0.6675359079805837,-0.9385857249473548,-0.19563632281842233,-0.047605468316846186],[0.20296481389167642,-1.218312706978484,0.4514554688568254,0.02613312864159866,0.17240559475101758,-0.34127376019089767],[-2.1410322432449624,-0.04885052643110874,-0.42540371925049736,1.4668846961288269,-1.0632596329912556,0.9195223784429611],[0.9681010593050098,-2.1077806443326534,-0.006417744337103834,0.15042026523838445,-0.020893815268589244,-0.032820397091269424],[-1.495786504958246,-0.152628304945732,1.2654680041044235,-0.6399343090011045,0.019548275472149698,-1.0565446466063697]]},"weights_ho":{"rows":2,"cols":12,"data":[[-0.001299140795697068,0.15175651131321943,2.0448520003951907,-0.13075446388913337,-1.460063514184754,-1.212086211310023,0.5558048876711521,-0.45080636908682103,0.5816562836535868,0.5577756796619432,1.4477483856804272,-0.8318907927573893],[-0.59053260137425,0.15545716242564334,-0.1796769764434639,-0.461841179355161,-0.3494978597667508,-0.9245681288469357,-0.31726105958747536,-0.4878363252911643,-0.804643061727158,1.8915556001101683,0.963937725482604,0.4774235832887666]]},"bias_h":{"rows":12,"cols":1,"data":[[0.3245589055895323],[-0.45818049974175673],[-0.7250207601346703],[1.3909136822995216],[-1.511529923000004],[0.3529105171397289],[0.19699331476673707],[0.12366027569534929],[-1.7451044838256267],[0.2604055734345851],[0.5609874296317449],[-0.21996761595376976]]},"bias_o":{"rows":2,"cols":1,"data":[[-0.11024317449352472],[-0.7267580392447504]]},"learning_rate":0.1,"activation_function":{}}