{"input_nodes":6,"hidden_nodes":12,"output_nodes":2,"weights_ih":{"rows":12,"cols":6,"data":[[1.1210632118823662,0.6769755742812594,0.5313595159307268,-0.3007630590104165,0.6278601059643807,-0.47065448191904224],[0.6436086261284053,-1.311496059200741,1.3827779310616322,-1.7437567496583632,-0.9322388087712314,-0.4543416746036577],[0.1641534462097731,-1.7442963524354038,0.15810440284743627,1.819363236673831,0.8378175174878791,0.927346900437136],[-1.2987943759275242,-1.2312197639281723,1.0376517536315988,0.08981291744499276,0.36511760744566923,0.9922499558454686],[-0.5201038840094037,0.9694839944976698,1.138896392261947,-2.4239220309455853,0.8371889358917003,1.8643162729386715],[-0.7416066668651974,0.7927249235123305,0.49318970380024074,0.016110864323507917,0.62798393697397,0.6726702759871909],[-0.12871502173002605,-0.13886544866753595,-1.5823690385932807,-0.05259771873481366,0.6191874638732684,0.12891658362199557],[-0.7126006133876917,-0.5044485227553147,-0.35553732352379386,-0.7731076647282967,0.12095322284184311,-0.18022348733465504],[0.35516049803567284,-1.4025583267118975,0.6892847408406163,-0.1284018681381346,0.6186128191044413,-0.5518153776958161],[-1.1213147179587402,-0.033780482580642715,-0.7843700017242667,0.7284150949133364,-0.9619010864548975,1.163007241457377],[0.548056581170593,-1.4875454241558594,-0.0095110893395901,-0.2665601528397912,0.008524077593598384,-0.04418223587160595],[-1.6692108022496852,-0.3326590326656371,0.695413914693416,0.016597766180599112,0.14349475068932732,0.31247658624046293]]},"weights_ho":{"rows":2,"cols":12,"data":[[-0.3838411169089569,0.6451745930897113,2.372404952770988,-0.28039938224744204,-1.5446316211930189,-0.6399541831385833,0.3522688916951837,-0.10272526051407657,0.6613527286510865,0.96992442448256,0.5556601497158259,-0.6018278525929742],[-0.3615082639092496,-0.07241881496019205,-0.1252051254304972,-0.19683413500927482,-0.2896243186951986,-0.9715447207965665,-0.11894291385991296,0.11491436002532135,-0.40252739901730245,1.2682116103923398,0.6933579992197756,-0.06363822734001981]]},"bias_h":{"rows":12,"cols":1,"data":[[-0.2180786758347471],[-0.7811148520925233],[-1.1440511284107835],[1.5725803316240206],[-1.2214229258790565],[0.9100858336177168],[0.31050862680654134],[-0.21051292663993915],[-1.2381172304744905],[0.4444666900322408],[0.6605742428772168],[-0.33038064715666443]]},"bias_o":{"rows":2,"cols":1,"data":[[-0.1401150462197021],[-0.9541593142307214]]},"learning_rate":0.1,"activation_function":{}}