{"input_nodes":6,"hidden_nodes":12,"output_nodes":2,"weights_ih":{"rows":12,"cols":6,"data":[[1.2904519735952797,0.44064097642371625,0.31184579778720334,-0.6031053169653644,0.2155734378874946,-0.5517753383909301],[0.5393928870305233,-1.9176526667271188,1.4149565402000226,-1.6702531837149799,-1.0790252371064213,-0.3748942715037324],[0.10300953643698432,-1.3932418952812766,0.2148234313183314,1.6335260127273865,0.7122110056438155,0.7654772213931571],[-1.4181491529622636,-1.0091934562184004,0.9951849823610279,0.7597604735370893,0.2919802975328308,1.6982433307428526],[-0.651670335455359,0.7378123739141058,1.2361820108888872,-1.8942545155042694,1.0132472542542517,1.7879604445696402],[-0.24452692392794514,0.7395128257194342,0.24168988468907956,0.14000590182991002,0.4271297883002908,0.5165199214768177],[0.011988775009340286,-0.0018617581025260482,-1.6334663304308012,-0.06800725807331114,-0.2594643342644459,0.12016629345613045],[-0.6367207196503866,-0.8007827711968339,-0.24040326200172174,-0.7070874944153736,0.4314286398246551,-0.16027592011345146],[0.4516163503501177,-0.9518655308073468,1.1257043014296921,-0.5108943099651182,0.5763630172837803,-0.48890323651950063],[-1.2020175051625492,-0.34035564462996026,-0.7271447884709253,1.1106353327436376,-0.902095944650604,1.5626925882262723],[0.9061804353454451,-1.770190931442262,-0.20085640822872286,-0.0683010048920061,-0.13522551199000757,-0.3006955488181895],[-1.459884489566787,-0.20585025191254763,0.4825101750435858,0.005398610080316182,0.08788473747333286,0.44253024191315954]]},"weights_ho":{"rows":2,"cols":12,"data":[[-0.7619989488315929,0.6012861162566989,2.743003318473181,-0.4123507992622595,-1.8252554926352234,-0.5368875254973532,0.3961752123449338,-0.3131172146587503,1.0981556301986575,0.8148071219379391,0.5582950249867257,-0.5624920167109735],[-0.13680208281259498,0.0030827899862916203,-0.02547972110906642,-0.31968137440592287,-0.5055049760555228,-0.5316382540427099,-0.09036682463960319,0.5142259038998456,-0.5498067199806134,1.4001070258824075,0.9307890092884012,0.2818009342254199]]},"bias_h":{"rows":12,"cols":1,"data":[[0.1093260560981066],[-0.7776161686690227],[-0.8812566151124712],[1.844758362073752],[-1.110686654037578],[0.9952297354961269],[0.2840212391515623],[-0.151689152162392],[-1.0148357789059284],[0.7591020633866535],[0.7866381569004497],[-0.07882748808757317]]},"bias_o":{"rows":2,"cols":1,"data":[[0.02719214892603831],[-1.0207227851198515]]},"learning_rate":0.1,"activation_function":{}}