{"input_nodes":6,"hidden_nodes":12,"output_nodes":2,"weights_ih":{"rows":12,"cols":6,"data":[[1.1317405972856904,1.0322652444054592,0.2445513104728482,-0.47802140932910603,0.9734482734496723,-0.03194777243244726],[0.2973320203119895,-0.9633318215321738,0.6987165005576814,-1.7583688525381584,-0.5700083855539109,-0.651070160176173],[-0.5620558745720383,-1.7009379373877838,-0.24617975115134133,1.3664184106951396,0.543655328657964,0.5230827534297097],[-1.8098282555034957,-1.183732266356616,0.8808677986153768,0.23818959447792903,1.0867156842670644,0.5377761180523154],[-0.6263637014306126,0.919325429203027,1.1745493576113062,-1.8283201495337102,0.5197544517788155,1.6472938254213068],[0.006760813768868765,0.5972033027705228,0.6458279258827704,-0.6795101162095678,0.7932128903845679,0.5300301870056587],[-0.1339526494377172,-0.16659092959256003,-1.490334575769319,0.2008379690387363,1.1033060559853147,-0.17941791151483155],[-1.3915439609650573,-0.8474315816533354,-0.5091861503729153,-0.5665433029417635,0.8016555129755154,-0.36525760440117083],[0.262185063396276,-1.4790463102001086,0.7927797051284179,0.0353885215699028,0.09385722066174441,-0.021985556173599527],[-2.2460387941701843,-0.07021496421609949,-0.13055848078372614,1.7760297578903335,-0.8230316126203486,0.8247910801329437],[0.6816987280007162,-2.218296068160762,0.030434650626503343,-0.13311676801170746,-0.5287766021719874,0.2684602513090077],[-1.4033520727905593,0.023409082678654283,1.0153117366885929,-1.2928587751985823,-0.0038328915378906085,-0.5583496125125467]]},"weights_ho":{"rows":2,"cols":12,"data":[[-0.3596079317906792,-0.069608538778999,1.8816945135612824,-0.060217647489883924,-1.4496164845425354,-1.2783370006468595,0.7978696547291318,-0.05608168397678655,0.4387772144412942,1.1421855350139838,1.1369587640504681,-0.858798091724827],[-0.6405067284533202,-0.16417815981073502,-0.2208420826880182,-0.7948295907007653,-0.11045484291565903,-0.30544234192488323,-0.1924214072815364,-0.13996324394552942,-0.5076379811473519,2.200783392726385,0.9141738424374961,0.4571398441247201]]},"bias_h":{"rows":12,"cols":1,"data":[[-0.09398092131874172],[-0.14063696058031916],[-0.27126532193513603],[1.6912931826169257],[-1.4267776969354893],[-0.09895236006757915],[-0.1374394182146376],[-0.1471156957388515],[-1.66417698718774],[0.16705180384728796],[0.4536529343361544],[-0.44950212288430524]]},"bias_o":{"rows":2,"cols":1,"data":[[-0.1783445599111642],[-0.867116380661865]]},"learning_rate":0.1,"activation_function":{}}