{"input_nodes":6,"hidden_nodes":12,"output_nodes":2,"weights_ih":{"rows":12,"cols":6,"data":[[1.0863828566405063,-0.23493405336887396,0.3436030266576601,0.17289990429837232,0.6051599246285666,-0.1708951517382988],[0.6139434146361495,-0.8334882238398253,0.8084163205566881,-0.9890746136098982,-1.899794222119318,-0.5255315290344886],[-0.0754163640996445,-1.521972857745838,0.5086687875090726,1.1020195410776499,1.2983973618990208,0.5624884401346641],[-0.8473998479670881,-1.0926427841868258,1.276587753300099,0.835094737274511,0.3327692662660025,0.9226554689482288],[-1.154885368813686,1.1824195113007463,1.2378948540735946,-1.7479425311205417,0.2891388003363698,1.39794067259542],[-0.18951706716221242,0.24040480898380834,0.1765692910755349,-0.5289668840997259,0.7968144326308196,0.702739670158515],[0.23220821623957635,-0.34173023858103074,-1.3910016531156326,-0.17505066647082054,0.126609181657784,-0.21913704045005397],[-0.7606645408404389,-0.39282649696513416,-0.3432706680975733,-0.34106798280395667,0.03845252448697815,-0.6329444538692514],[0.40908609557571346,-1.3280853918451048,0.034249773479743006,-0.19081761609940673,0.16773906215083226,-0.5252446474126709],[-1.125048191750639,0.10312257607727841,-0.6669885942459264,1.1278996856440333,-0.697333141309913,1.4484367955491444],[0.40887353616723193,-1.3537771363087792,-0.48950785105811856,-0.4285701418804384,0.18216634258682568,-0.49672634373283303],[-1.681071204893728,-0.37204401951674715,0.9400802628540712,-0.806392473733336,0.10947365128019124,0.21062679152616165]]},"weights_ho":{"rows":2,"cols":12,"data":[[-0.15148103291194348,0.3859351558275802,2.1600738822116448,-0.30953792203303476,-1.9084259161397277,-0.751096620509539,0.4482798077487351,0.5489173234763072,0.6932074502982916,0.630524006560891,0.5823983346606407,-0.33450436424028585],[-0.3101402989853115,-0.3213131084561968,-0.02888646872390771,-0.16699045250351394,-0.31933619339307584,-0.7405687679431149,-0.22417056393135643,0.969556093374416,-1.012761440636973,1.6515774475759795,0.8661876789761471,0.16758251828687729]]},"bias_h":{"rows":12,"cols":1,"data":[[-0.3851166894354845],[-0.4102766359277659],[-0.9546617967197678],[1.2953101666382607],[-0.9741115603927273],[1.1944996421432765],[0.015423452813428079],[-0.2886349529345389],[-0.9778633293295094],[0.3828980864518154],[0.4106674829969924],[0.024593937287622873]]},"bias_o":{"rows":2,"cols":1,"data":[[-0.14169433181096092],[-0.343708105381597]]},"learning_rate":0.1,"activation_function":{}}