{"input_nodes":6,"hidden_nodes":12,"output_nodes":2,"weights_ih":{"rows":12,"cols":6,"data":[[1.5016942664190673,0.32130028749248263,0.2644713143868307,-0.35489028566982217,0.6474581608605174,-0.598746774304531],[0.4239303664904403,-1.6337843164631285,1.4149565402000226,-1.7900610624515552,-0.9927342159233675,-0.4140028439671163],[0.034096223937863046,-1.5682833851455094,0.46614365954758663,1.8186667165435815,0.27584902285774854,0.8086363304542481],[-1.5075626717837587,-1.0906084119969544,0.9951849823610279,0.9605542272937981,0.2504322432142654,1.566278464449844],[-0.8747624879141725,0.668669010614315,1.2027237247264804,-1.7864052936004287,1.0921761626615156,1.7879604445696402],[-0.14820768722167277,0.7338282710242313,0.4024050186495892,0.0900620888235545,0.49464438557120527,0.5909333586546033],[0.026782940342857046,-0.17857302467329667,-1.7659337878825123,-0.127973022904646,-0.22105875250951246,-0.05051102946378367],[-0.5967521471990901,-0.7854038132484216,0.16070892706839984,-0.7156633887643937,0.5279307683167267,-0.16027592011345146],[0.35516049803567284,-0.7844419843557865,0.9479164855982974,-0.5671035300996136,0.5937008164478778,-0.34995204818691367],[-1.01269273450293,-0.30595432114842763,-0.5265515675143259,1.2693829061879165,-0.7152645478878461,1.5453443708518988],[0.9656577630985839,-1.8762756562991387,-0.13773021866921595,-0.17975272618908417,-0.1653977144046716,-0.35475996866818044],[-1.253042205630887,-0.13438649590425616,0.4977665528137354,0.05438241844082696,0.049062656524346604,0.5648524548301102]]},"weights_ho":{"rows":2,"cols":12,"data":[[-0.809293955508556,0.6206957571112516,2.75993745307492,-0.38338482590580314,-1.6880872886042435,-0.585178211801645,0.35165814320380107,-0.4225857967886053,1.0592558217783261,1.008888228523993,0.7585357250879463,-0.4730262114027329],[-0.3677288396885664,-0.08643783330269134,-0.1952679224381148,-0.26417080597669357,-0.28217003351427783,-0.5759740673052024,-0.054374528387524455,0.7313227756085929,-0.5498067199806134,1.540088714216094,0.9163086787053251,0.3033009712383682]]},"bias_h":{"rows":12,"cols":1,"data":[[0.1093260560981066],[-0.6703676121624468],[-0.8812566151124712],[1.958018132367632],[-1.0093602400404789],[0.9952297354961269],[0.26027020419395563],[0.15724741808436],[-0.9158184397238873],[0.7591020633866535],[0.6792630336183064],[0.005359198401839486]]},"bias_o":{"rows":2,"cols":1,"data":[[0.08249302915211333],[-1.1228520411093406]]},"learning_rate":0.1,"activation_function":{}}