{"input_nodes":6,"hidden_nodes":12,"output_nodes":2,"weights_ih":{"rows":12,"cols":6,"data":[[0.6580592843032548,-0.24573292721778028,0.3978684613184991,-0.3776063561629217,0.8001568974399359,-0.4077024719816843],[0.06795512212478577,-0.37531631200838156,0.8408309072858166,-0.8375906563520655,-1.2628396248918297,-0.1415192009974346],[0.0016560834477719055,-1.796102452048291,0.5380588037297133,0.5526650838684461,0.8552568052923176,0.6017313594514374],[-0.5827539516587064,-0.977591227353407,0.8442953547703266,0.5085241682400172,0.10950157983163405,0.8597812128928848],[-1.0952556299441465,1.0582701375214414,0.9247255662658131,-1.3745688039434023,0.4281138991000082,0.9814615907473245],[-0.6773926507110231,0.39549106076598634,0.1255007948269772,0.08630409585297556,0.6028034885418224,0.28319865433827396],[0.2259745229710507,-0.2513493608988413,-1.5879909096680038,0.38722200254718664,0.36831362204560547,-0.627535144312569],[0.11953309897448015,-0.15092881399421348,0.13761886196630438,0.17914151109355617,0.04604574929229278,-0.4404912018491859],[0.19365218955407718,-0.38804489316799373,0.27479074189844716,-0.3349613677683274,0.4013178279950332,-0.8076231349730594],[-1.1527698483540265,0.15093677328193694,0.38936044156092675,1.140613993607547,-0.7084277061575509,1.3982767104513645],[0.023221604930640738,-0.6861538175573358,-0.2136723525801229,-0.3870631257927733,-0.395756744931679,-0.5116741454823264],[-0.9813736666035072,-0.5104036893287581,1.417638628220059,-0.6258298735952585,0.1265662492471823,-0.2692043497949581]]},"weights_ho":{"rows":2,"cols":12,"data":[[-0.36028614421329364,0.6669091944312577,1.6564932787937239,-0.6526850203280701,-1.465757017727857,0.03582874568544381,0.7926910736843581,0.24414096939099303,0.5200048336559524,0.03501367009472099,1.3332048175397335,-0.35185127453513193],[-0.6579099873529888,-0.05236430625949093,0.4313402196671231,-0.24792044977693994,-0.100111707563472,-0.3834414438109279,-0.21086638589349865,0.6709566173682995,-0.8386475098020139,0.6088576384156854,0.29087622567508176,-0.2760734045254504]]},"bias_h":{"rows":12,"cols":1,"data":[[-0.7192812846555451],[0.16978614553502505],[-0.8179375275874469],[0.6927481774970614],[-0.34868267861251445],[0.45944786899230894],[0.5074235507930267],[-0.872195466610293],[-0.8708008154048058],[-0.1483889075103234],[0.7187967463827541],[0.7349354371423414]]},"bias_o":{"rows":2,"cols":1,"data":[[-0.2290235329841835],[-0.6158973858793023]]},"learning_rate":0.1,"activation_function":{}}