{"input_nodes":6,"hidden_nodes":12,"output_nodes":2,"weights_ih":{"rows":12,"cols":6,"data":[[0.5795358188316164,0.9151209454222917,0.6653943083409092,-0.2597582564341402,0.9372961345858563,-0.7907992048823618],[0.2762029280077011,-1.0860854899940424,1.5012666544583415,-1.478042183976357,-1.013446257125881,-0.1364423867747147],[-0.4021740153836005,-1.4453787611204676,-0.4892080408922602,1.8783466782245173,0.5213985638589551,0.6060939495519999],[-1.4236955003879497,-0.8608161829493157,1.149247628909848,0.027031348271011515,0.44540836859593264,0.6390753567314952],[-0.8335766186787239,0.9770517930667811,1.420178004755512,-1.723987970451377,0.37376849228425985,1.8306886136890688],[-0.44006413221712354,0.7631147086461912,0.3363565922523514,-0.13764712599769693,0.22503317440013682,0.25062415129257787],[0.1682973975164834,-0.12160547827286333,-1.7666565088017003,-0.07356876917704244,1.1629787528270523,-0.15053151001864867],[-1.4154884095928215,-0.9012890593168785,-0.706464425415841,-0.7440944982122994,-0.11231369828697452,0.15809758444650573],[0.2590423058715935,-1.2037366591366354,0.4514554688568254,-0.01591900810600081,-0.06779049866917031,-0.3425424793564237],[-2.142435081585337,-0.19080389138633702,-0.42540371925049736,1.5398855914834326,-1.3564424066250207,0.8378831585440608],[0.9855364394520832,-2.1077806443326534,-0.05155843772642392,0.31134714051266366,0.4205183669034427,0.26597389447386427],[-1.481712331218368,-0.16840126694671598,1.5133695573292587,-1.1636027292669051,0.2927804564684695,-1.0565446466063697]]},"weights_ho":{"rows":2,"cols":12,"data":[[0.1551344843814198,0.10017954038869838,2.0264109440764924,-0.11461733870653021,-1.5124551014161134,-1.3113068854839955,0.4384536740938967,-0.407650366911518,0.5580426158978584,0.5577756796619432,1.150770776414739,-0.8658415510264401],[-0.6230569595275532,0.15545716242564334,-0.1796769764434639,-0.679199953237477,-0.526818153455839,-0.8559727719177158,-0.36789207348568814,-0.3791273096444878,-0.5896811524815629,1.954129065080517,0.963937725482604,0.43175968615475974]]},"bias_h":{"rows":12,"cols":1,"data":[[0.04757568975745481],[-0.275484205870893],[-0.7041660933073679],[1.2894992362126199],[-1.6922048512308954],[0.4285661539176342],[0.19699331476673707],[-0.03440718004577556],[-1.7022084726735296],[0.42580881128415615],[0.4925021513982313],[-0.30779583541756883]]},"bias_o":{"rows":2,"cols":1,"data":[[-0.16294581193985702],[-0.8240162801385429]]},"learning_rate":0.1,"activation_function":{}}