{"input_nodes":6,"hidden_nodes":12,"output_nodes":2,"weights_ih":{"rows":12,"cols":6,"data":[[0.7439341053286187,0.45625650770085957,0.877250966785021,-0.5390019863220057,1.448919305377442,-0.5257603966835811],[0.4160325744660989,-1.0555153701624214,1.2391604472399813,-1.3671227773185441,-0.6275444552089461,-0.7082982953157951],[-0.3430219560814221,-1.509089790835695,-0.4024551944462331,2.1022059211027484,0.4915351550265931,0.5867810078916337],[-1.2852759381183227,-0.7320397521986262,0.9262453640253079,0.4704930551965063,0.42523974639357137,0.9584157822566735],[-0.8170104478977389,1.3923467870272324,1.1162902140125568,-1.716904781026772,0.3702558730946912,2.0607805277488835],[-0.14710330145724934,0.7130123629052016,0.6582657714423097,-0.13821469601653597,0.8005929483201522,0.1592195744111702],[-0.10956320686183946,-0.27405969268265223,-1.3547971219710309,0.27581775872275704,0.6870589434501739,0.592049014546432],[-0.9790380520560044,-0.7637523412960743,-0.6743111380746203,-1.1273580562596655,0.10634548311443523,-0.14090618074087713],[0.3904522990664672,-1.2619370079308232,0.8794216178303516,0.1880986618843234,0.42217891204580454,-0.3885899468553506],[-1.895852446095544,-0.14197723616914107,-0.1353629491829335,1.056239475948586,-0.8396620668337529,1.5193039427039952],[0.7116573528285446,-1.671019270399952,-0.1428560848235994,-0.6725430589257148,-0.1994471701469134,0.007628417504964319],[-1.3564475884275533,-0.23161749705344642,1.321388859911992,-0.6684958934441176,0.6251337813719732,-0.3112693172232773]]},"weights_ho":{"rows":2,"cols":12,"data":[[-0.19654449249330036,0.1351827277203577,2.335632085753938,-0.19983474750892952,-1.7474695191486236,-0.9373622920081515,0.45431213309889884,0.2867537397579445,0.611867761518304,0.6178134012103572,0.47665002347572727,-0.8298230591876523],[-0.4802726346569867,-0.39311494865994046,0.26385087966526033,-0.11852174797775392,-0.8554424505520876,-0.8243168142927284,-0.550067492856807,-0.2959367191720219,-0.3784040528914981,2.0571265576003963,0.6000803168907035,0.5347443476119145]]},"bias_h":{"rows":12,"cols":1,"data":[[0.46305673424210636],[-0.2986469918875037],[-0.6729521408696297],[1.2536466947233589],[-1.2659165351480086],[0.8630338646299189],[0.4272987895370051],[0.041555860741268394],[-1.0347211373060075],[0.26619461676140627],[0.46911057380401605],[-0.3077790897814993]]},"bias_o":{"rows":2,"cols":1,"data":[[0.35387838804882404],[-0.7000667397366458]]},"learning_rate":0.1,"activation_function":{}}