{"input_nodes":6,"hidden_nodes":12,"output_nodes":2,"weights_ih":{"rows":12,"cols":6,"data":[[1.3272923417633853,0.5894724164194739,0.3735820517211845,-0.4266465904286531,0.5553632957084912,-0.47065448191904224],[0.5891831855052304,-1.303890485449918,1.398677114469347,-1.7437567496583632,-0.9528131955169467,-1.0151240757824682],[0.09737914576379944,-1.7755158700534128,0.3804212836292157,1.8316156556744656,0.9746898776709745,0.7671415397804412],[-1.3374636090752683,-1.2279945514334143,1.218663408845287,0.004408471509638176,0.35246318745804295,1.0658220501297397],[-0.5078853745624512,0.9858708910961996,1.2339293736867412,-2.236138796609192,0.592202460288261,1.8643162729386715],[-0.824815263055875,0.6521695096134439,0.4865851478585523,-0.07550292880135638,0.511194799561753,0.7409090423797642],[0.25320976120114813,-0.10013087720909546,-1.4421353770080065,-0.05259771873481366,0.7322416132805419,0.126360407082259],[-0.7126006133876917,-0.5537328088695874,-0.35553732352379386,-0.6842023204634672,0.044307959736474306,-0.2617582160134573],[0.2827517702010438,-1.312237897789596,0.7148896283978468,-0.2277986081699067,0.6056489859352658,-0.5518153776958161],[-1.202184529522608,-0.11542902941224734,-0.6059875750677937,0.8372743949391724,-1.0688592968102755,1.191386917947824],[0.8291291587115133,-1.4921857802782725,-0.1523931612278225,-0.2665601528397912,0.015697670014779896,-0.031750561381220774],[-1.8347288881058048,-0.14672059432840565,0.41613561868695254,0.003811562550639719,0.14583576263948933,0.2867857392686656]]},"weights_ho":{"rows":2,"cols":12,"data":[[-0.3838411169089569,0.8280889179965784,2.3740925715053525,-0.38517832340007857,-1.6494507728377237,-0.5414126185860995,0.3522688916951837,-0.1646874791626699,0.7811004965482886,0.7840336135528082,0.5239935155348763,-0.6583448916910625],[-0.44911345525044716,-0.23766450033287778,-0.21557284496643003,-0.14626168160489206,-0.2896243186951986,-0.9076803111649816,-0.08905276540582102,0.14370632364476318,-0.40252739901730245,1.35362333850454,0.6606766001072466,0.006252081047032787]]},"bias_h":{"rows":12,"cols":1,"data":[[-0.33282548807674966],[-0.5132547700591802],[-1.1848560174628173],[1.878141933520309],[-1.2538413748851376],[0.8937084594537876],[0.28814782596563504],[-0.2276338195720986],[-1.1235019683016805],[0.3995446910430856],[0.7514075133493866],[-0.16437731810452852]]},"bias_o":{"rows":2,"cols":1,"data":[[-0.1401150462197021],[-0.7529760050360734]]},"learning_rate":0.1,"activation_function":{}}