{"input_nodes":6,"hidden_nodes":12,"output_nodes":2,"weights_ih":{"rows":12,"cols":6,"data":[[0.7261429262400262,0.45188191584599147,0.7736946585100256,-0.5085942085842714,1.0097131363565728,-0.3677553222131573],[0.18970243802365078,-1.1487539961476452,1.4189664217540938,-1.0802200024648705,-0.8679232788616567,-0.6110256553064889],[-0.4361132304506427,-1.3102897579301902,-0.11658814450783252,1.7097503305308857,0.4861146323036144,0.7477500497957328],[-1.6044451356256735,-0.8278631076632145,1.1957906186226162,0.21386876954804676,0.605955053836074,0.970678252833854],[-0.6074250942536779,1.1351512391258398,1.102468174967103,-1.6869407104841165,0.41744264819780386,2.0607805277488835],[-0.2522778365925641,0.8474415371358629,0.5579265995040941,-0.17697963295688612,0.8484184042205121,0.2161862851918885],[0.10670302719973285,-0.38557978603273957,-1.3093015362698595,-0.027232005477875697,0.4291707471226869,0.20752647502101823],[-1.2770912486067205,-1.0275753358105866,-0.23636819051939528,-0.891504916568912,0.10634548311443523,-0.40506755318942556],[0.8793788826234631,-1.3001830908448924,0.4835247871627172,0.11862313833458091,0.4454137552306748,-0.3885899468553506],[-1.748450929998381,-0.01979266898609018,-0.7188366209172065,1.8154807851382884,-0.8910991384401976,1.4781660846785019],[0.8794823094423442,-2.0844158271758864,-0.012746690992086309,-0.3584120717315984,0.04184241797537362,-0.355519715988916],[-1.5354120507377307,-0.06612822409975308,1.0718225979566987,-0.7413997121362437,0.4725957601672871,-0.398120818287104]]},"weights_ho":{"rows":2,"cols":12,"data":[[-0.20997107815065957,0.1351827277203577,2.4298295783096773,-0.17742954154663326,-1.7313940363275604,-0.9995547650104173,0.580418435446061,-0.03163277147953478,0.657005555153494,0.5040291111882369,0.7520150159539635,-0.8298230591876523],[-0.5096980830549717,-0.025134120969977365,0.28631667540858047,-0.2967134769792092,-0.5935129859262622,-0.8105084392715537,-0.2169766891001963,-0.18855765454796578,-0.5429685672710898,1.9160245125175892,0.5901018443935043,0.6788274413519405]]},"bias_h":{"rows":12,"cols":1,"data":[[0.35140325991619614],[-0.40359680463160486],[-0.8489229407478902],[1.464700668708514],[-1.490173162952403],[0.7428827624628416],[0.3541220509710118],[0.035511038025047945],[-1.4540235284828498],[0.2565467450537842],[0.7803288917247779],[-0.34656100504434856]]},"bias_o":{"rows":2,"cols":1,"data":[[0.21752860675364347],[-0.8592587907571114]]},"learning_rate":0.1,"activation_function":{}}