{"input_nodes":6,"hidden_nodes":9,"output_nodes":2,"weights_ih":{"rows":9,"cols":6,"data":[[-0.8364688787576129,1.4955378593514168,-0.9243119507959014,0.7145973177149432,-0.013342400646831912,-1.5014360773995699],[0.19997427888676958,1.461470849743526,-1.8307830317963347,-1.2875607590374547,-0.26470304252152377,-0.8953056890587171],[0.3684960269607739,0.5614990553905397,-0.32981027292839676,0.37270150851415534,-1.2741161592961183,0.704107644801099],[1.1260265940394452,-0.17941826225686408,2.430931301876621,-0.3335631657275327,-0.05226544164967138,-0.7522627657445894],[-1.4531552414829256,-1.6465998080786874,-1.216910047561951,-1.7728876606515163,-0.17335533829363478,-1.2013181892060747],[1.2383459243592272,1.1172291444333549,1.7289296184684921,-1.8017713362939218,-1.0680223863338865,0.78833077871181],[-0.45953648911501543,0.3834439714044277,-0.605961813062687,1.1852511916852484,-0.8690295751942693,-0.251551481032835],[0.49892679734479933,-0.9212714543765916,-0.5431791021602805,1.2076180776589571,-0.9132297526929531,1.141070755544908],[0.61056646867596,0.812976728671069,-0.09691631515102754,-0.3832713971779854,0.06225204983516677,0.2128474782818748]]},"weights_ho":{"rows":2,"cols":9,"data":[[-0.21456228948378575,-0.12872436727378972,-0.016793361901458557,0.1573963804978159,-0.7634415469252392,-0.9428595692459879,0.48302919761467356,0.48034355513942834,-1.683720877704175],[1.003650058351917,0.39514252659481774,0.6038259353365538,-0.13730051277892277,0.8437942684546269,0.027223219625797577,-1.8705987433502052,0.44338899292718403,-1.1027316274247343]]},"bias_h":{"rows":9,"cols":1,"data":[[-0.727308539449677],[0.5106785941607297],[1.8233915497132374],[-1.2477718517634822],[-0.3110003440645861],[1.1297569912845489],[-2.3301375553355133],[-0.1543879430304646],[-1.0898830965245614]]},"bias_o":{"rows":2,"cols":1,"data":[[-0.9287180042559807],[-1.4675235204961998]]},"learning_rate":0.1,"activation_function":{}}