{"input_nodes":6,"hidden_nodes":9,"output_nodes":2,"weights_ih":{"rows":9,"cols":6,"data":[[0.4206104087484635,0.9151982139705517,-0.30592919126261325,0.6234458050934769,-0.3839467664168499,-1.3951201804633562],[-0.316866119762765,1.4390062714108753,-0.9957951508723616,-1.135872990034913,0.24444735531500073,-0.7847948608659663],[0.6560042815169052,-0.8062545842344916,-0.31486865111543083,0.3026353611102352,-0.40145674134097914,0.6142101313394732],[0.8126403494465416,-0.63606651694204,1.080801030767546,-0.37060649265693313,-0.35219403472703636,0.12965933315995015],[-1.225626420208895,-0.6770578213177125,-0.8174777564278534,-1.8574705570019345,0.2965896990970598,-0.8672807548832051],[0.9822351210025242,1.373511936690481,2.0069654037091254,-1.0912575399633324,-1.5412203496374208,1.0832363699281706],[-0.9998506273277744,0.7384102977422063,-0.4111691237141626,-0.5257116497459502,-1.074318290131442,0.7092005237532931],[0.3675672880504527,-0.661790714364889,-0.7532343892860627,0.9529661602006556,-0.6000016018296028,-0.04084443659447007],[0.6507128854324504,0.16992092463924474,-0.1356629734969329,-0.37684019887157316,-0.15787197788880014,0.8574898649580238]]},"weights_ho":{"rows":2,"cols":9,"data":[[-0.3971617887035626,-0.9709494242227599,0.3534963459746039,-0.12554157186662288,-0.003984290405809186,-0.67786423256574,-0.5872299062994705,0.08270992954311104,-0.8221809134574491],[1.2710700906491328,0.9742489201852168,0.46672989740957344,-0.05594020323588778,0.2669786731406114,0.2202378540904706,-1.795346276582959,-0.40305331425561747,-0.6674574886493423]]},"bias_h":{"rows":9,"cols":1,"data":[[0.1493958540648487],[0.4654134029070423],[0.7361226621356644],[-0.6287485318551395],[-0.18237480050561694],[0.9006525033874754],[-1.7518480584706404],[-0.035318647001173126],[0.1288534096397928]]},"bias_o":{"rows":2,"cols":1,"data":[[-0.6037995790474764],[-0.9537687139398561]]},"learning_rate":0.1,"activation_function":{}}