{"input_nodes":6,"hidden_nodes":9,"output_nodes":2,"weights_ih":{"rows":9,"cols":6,"data":[[0.12557223812489798,1.0786348910274253,-0.7730334696923413,0.41838834176401346,-0.540661254468438,-1.4507182986274796],[0.3665872940031414,1.2387627114027153,-1.1061675634199069,-1.2697796515479745,-0.17332496822549806,-0.5470953581225525],[0.8633486118178608,-0.5299915721962433,0.0772879644522946,0.5259834302863136,-0.9791338566297881,0.6568910100566174],[0.4602710631474606,0.11098077117090525,1.491386730390682,0.7409384404308754,-0.6836180257561594,0.21694564356314325],[-1.0262103757648704,-0.493232937449519,-1.0201612592032374,-1.5149385218355518,0.87143311338177,-0.27454446864392845],[1.2660314818510048,0.9692461207778079,1.1427948259103722,-1.4253629594420032,-1.0105764276004043,0.06462653767232007],[-0.4963968230514717,0.4399916560257041,-0.0024358066780670803,-0.1956434799235683,-1.1558657587669732,0.5018139374373951],[0.9699880923858146,-0.3277765465100801,-0.9137364308928886,0.6111512750811204,-0.2412633474582223,0.6359543449040463],[1.1607968935618338,-0.0663683340566768,0.056143879665919647,-1.0722268909858714,-0.17466486570429324,0.5505330649265021]]},"weights_ho":{"rows":2,"cols":9,"data":[[-0.490331105552424,-0.62786664935774,0.3734427713574909,-0.5294974603204647,-0.14623771757459508,-0.7648432115220201,-1.0414001875236918,0.07503811965753465,-0.7379290065106937],[0.1343817186661899,0.0876122487557143,0.2783437550937234,0.46507460764888553,-0.4294483036737804,0.7300991972252987,-1.3595110410395213,0.31196644219088726,-0.8369417353243014]]},"bias_h":{"rows":9,"cols":1,"data":[[-0.0007213811701512101],[0.49696032799850215],[0.7473605799627799],[-0.5008265251917354],[-0.7851023083470103],[-0.13527222435947905],[-1.280122125507339],[0.2521400019455849],[0.4463445117072615]]},"bias_o":{"rows":2,"cols":1,"data":[[-0.7904544389835128],[-0.584553435955895]]},"learning_rate":0.1,"activation_function":{}}