{"input_nodes":6,"hidden_nodes":9,"output_nodes":2,"weights_ih":{"rows":9,"cols":6,"data":[[-0.8462088816665649,1.4830065148713778,-0.6372348789526582,0.4667598788840403,-0.04572322176038574,-1.332062189610672],[0.32497736977753566,1.2588513530290937,-1.842869850963771,-1.5647748691412986,-0.5853322364838076,-1.131730944187318],[-0.044478513271656826,0.23881232800788965,-0.26612882961719264,0.37270150851415534,-1.2153538894316838,0.7639102897132135],[0.9607374391644246,-0.37696112249329755,2.278313243749825,-0.3636516733420561,0.05839435335760501,-1.0844605207668656],[-1.4531552414829256,-1.4415498410257486,-0.882678914658522,-1.6533120874564853,-0.38376274298024016,-1.1499124566289756],[1.4388494853084866,1.1983255388292093,1.1989193015953956,-1.3332930776879794,-0.9111533117301148,0.5590605182678223],[-0.6051985602833676,0.7013818058795593,-0.5774510760962421,0.9354501991028117,-0.684371459615812,-0.16902290627302108],[0.28898741628141816,-0.951018122724576,-0.49946840179892843,1.1381359967477356,-0.5539036459034348,1.325173053178671],[0.7242989373653206,0.5722030243993842,0.011083655739866652,-0.4859082651079336,-0.1699214953490472,0.40151343484087304]]},"weights_ho":{"rows":2,"cols":9,"data":[[-0.3000431816495756,-0.10123801277504092,0.014786542006565085,-0.1184803190967132,-0.6046937739126673,-0.9792302477435949,0.7571664666799817,0.46398034777681396,-1.683720877704175],[1.1353991362639255,0.6303760458116165,0.5483238898526663,-0.2670913931528165,0.8463138922085304,0.04021223612102498,-2.0624531714361103,0.3426360218494964,-1.19262907995609]]},"bias_h":{"rows":9,"cols":1,"data":[[-0.5662139619207862],[0.6057919957285733],[1.6180780320705757],[-1.5203508538119426],[-0.47479603046406377],[0.9879453980935916],[-2.1832246947241325],[-0.41510831662779246],[-0.8651085460036391]]},"bias_o":{"rows":2,"cols":1,"data":[[-0.8591336302124808],[-1.9082704742250831]]},"learning_rate":0.1,"activation_function":{}}