{"input_nodes":6,"hidden_nodes":9,"output_nodes":2,"weights_ih":{"rows":9,"cols":6,"data":[[-0.013448988324022573,0.7195438068884351,-0.4499672746960424,0.1484822049974636,-0.848645131910263,-1.5533598594691724],[0.00691715734865711,1.2659144146763344,-1.2519420530067211,-1.267958057319961,0.05028211455811351,-0.7881282021541947],[0.8637390460891776,-0.7721792170813198,-0.41853647340934624,0.30759351165123827,-0.9764658421061851,0.7523834733556505],[0.5732811820381339,-0.005137651026236256,1.4287072407099168,0.39337479983748624,-0.7041704260857882,0.31311324488538544],[-1.236193115554582,-0.680135104019479,-0.8857246864233663,-1.583648985302765,0.6443967702650619,-0.6045722335166469],[1.2174437694031146,1.5085485563365935,1.3906718499813584,-1.430142886070966,-1.0505428476245922,0.200627079676462],[-0.48880002044571474,0.6516290884093966,0.09965267703550452,-0.16607140262657483,-1.0658974941571893,0.14164873575107514],[0.8624991516101478,-0.49319119984426907,-0.9728712396419488,0.5299976192023004,-0.5867777628270936,0.5336626209094981],[1.1136147547024835,-0.26232647050395336,0.16143152565381613,-0.7633257390693218,-0.33465258443352575,1.1014282668222801]]},"weights_ho":{"rows":2,"cols":9,"data":[[-0.5651682134778493,-0.7378324645369004,0.17415464594763239,-0.34916587548695976,-0.14734685590059152,-0.7201696757418662,-0.8189308953648811,0.3180256245536674,-0.7514362337069056],[-0.034356146908009914,0.13680946545324804,0.6133273297963474,0.5771117583121576,-0.28537161159378505,0.7564004837044488,-1.3284196233620431,-0.04947583869548895,-0.7930671475449461]]},"bias_h":{"rows":9,"cols":1,"data":[[-0.24334875232852415],[0.4861295167648736],[0.7015041547577019],[-0.5847854593698468],[-0.6432351183535944],[0.10988304595498989],[-1.5754815459244544],[0.22604398166384804],[0.44896026653938326]]},"bias_o":{"rows":2,"cols":1,"data":[[-0.7948625334115536],[-0.6196371965937553]]},"learning_rate":0.1,"activation_function":{}}