{"input_nodes":6,"hidden_nodes":9,"output_nodes":2,"weights_ih":{"rows":9,"cols":6,"data":[[-0.6256502639777051,0.5325886170141043,-0.34892984605656546,0.25799719713099867,-0.6412241718756143,-0.5743479076145278],[-0.02292377709297252,0.2820735578267808,-0.8947283919711466,-0.8040299885151219,0.04897256854187983,-0.4193891563090588],[0.37362595705310264,-0.21895816337060114,0.4485732229691292,1.107638671374126,-0.7581030910200431,0.47601056063318054],[0.8137734218982023,0.7430075558081457,0.8051874563380967,0.25851793140344725,-0.0697709062195358,0.35895221872380473],[-0.7042483080964201,-0.49492747203904264,-0.6774035664440861,-0.7646704504309279,-0.30082599567224555,-0.6693552698544715],[0.8664188731652701,0.9193894254505661,0.8236218789375654,-1.0893107150778927,-0.8459517791140224,0.4296355513107969],[-0.23001340755928285,0.20026216195052893,0.7360139541425292,-0.172503682603252,-0.6703817384661511,0.4878707288569303],[0.9719451610575893,-0.19887189567346528,-0.6360328875174965,0.5786016245700227,0.6390464346198425,0.8883182620615804],[0.25519666870534585,0.8901064452630295,0.21541151790058377,-0.8395456586441766,-0.36688369143084937,0.5531834288543931]]},"weights_ho":{"rows":2,"cols":9,"data":[[-0.9041272440965232,-0.2782097262879985,0.5063169647141436,-0.597154958236152,-0.2174270975205847,-0.7612578984178404,-0.16461736747288705,0.03394391193316085,-0.8291811668508164],[0.7459770643918752,-0.7677830410608251,0.34551032713542634,0.7957068435790506,0.5516166279870377,0.5194075499934425,-0.9469281052968987,0.4736565705586141,-0.5746978733732875]]},"bias_h":{"rows":9,"cols":1,"data":[[-0.3869373535413032],[0.2776089687027277],[0.2757829792663238],[-1.1122215532588242],[-0.728491616938689],[-0.29462794916927826],[-1.0755986852148494],[0.06522990302151041],[0.610529378625217]]},"bias_o":{"rows":2,"cols":1,"data":[[-0.8698713984552247],[-0.416080531188515]]},"learning_rate":0.1,"activation_function":{}}