{"input_nodes":6,"hidden_nodes":9,"output_nodes":2,"weights_ih":{"rows":9,"cols":6,"data":[[-0.787138644278828,0.5325886170141043,-0.4418262399262862,0.25799719713099867,-0.66565611477468,-0.745348746370305],[-0.0022745624270429365,0.2820735578267808,-0.8843572272564941,-0.9399701665656821,-0.09334484633968833,-0.4193891563090588],[0.37362595705310264,-0.46290138481912857,0.5351190934883273,0.9879961622167395,-0.45864059076663555,0.4634373736564723],[0.8137734218982023,0.5733959345001036,0.8811831715449281,0.3108595522806627,-0.12399965128824597,0.3537905118950344],[-0.7042483080964201,-0.49492747203904264,-0.7588520123614191,-0.7646704504309279,-0.19124965779978886,-0.5339040335825072],[0.7457711091811126,0.9193894254505661,0.8236218789375654,-0.8976156667996724,-0.7180996076719053,0.4833699766327922],[-0.23001340755928285,0.11144708314733132,0.7095985864819319,-0.11613270860098757,-0.6313503661608628,0.3593210414157647],[0.7313675502762217,-0.18301213093109192,-0.7730123427165467,0.609564356397477,0.7808901140405449,1.030172934465715],[0.25519666870534585,0.5719229225390932,0.21541151790058377,-1.024547221579983,-0.346442921873066,0.5531834288543931]]},"weights_ho":{"rows":2,"cols":9,"data":[[-0.8369157011449028,-0.28398284132383994,0.4984170030669917,-0.597154958236152,-0.3440893532578043,-0.7261850260862336,-0.20209263555903512,-0.01419510505116417,-0.9127642781676892],[0.8451749588717641,-0.7891786546775879,0.34551032713542634,0.9686631049499494,0.3845641131071754,0.5194075499934425,-0.9108336018985379,0.33116188023371596,-0.558135584624397]]},"bias_h":{"rows":9,"cols":1,"data":[[-0.4958264751277836],[0.3048695431706375],[0.4797181880997451],[-0.82364424374969],[-0.8263391607686136],[-0.33843783637378255],[-0.7761239665494591],[0.3060943776435563],[0.5553323252870194]]},"bias_o":{"rows":2,"cols":1,"data":[[-0.8698713984552247],[-0.4127985802055746]]},"learning_rate":0.1,"activation_function":{}}