{"input_nodes":6,"hidden_nodes":9,"output_nodes":2,"weights_ih":{"rows":9,"cols":6,"data":[[-0.6463657901107687,1.060772773905839,-0.56174998445792,0.13376257959311763,-0.6368604008709189,-1.1541258592539227],[0.013440125491369243,0.6474131488524782,-1.1284648634144894,-1.0534605065239688,-0.11558441008894764,-0.22790886860984286],[0.8920106500993374,-0.4098440512113243,0.1655083738945325,1.0496267515181656,-0.8816847635902854,0.5739548562277957],[0.8660703717383053,0.4838927780881653,1.3833230156480443,0.6037379307358511,-0.43233623283981204,0.517891199854053],[-0.8784630400653577,-0.6211771788528523,-0.6400110428618733,-1.335093321138992,0.5163762763688543,-0.30393443056977304],[1.0605613507515694,0.48160616040856064,0.8744418229852395,-1.0421749885527227,-0.9584221501377533,0.8279088480479256],[-0.19126894641138126,0.17310399450989922,0.6418345148567647,-0.08071084415579773,-1.05722755924189,0.2778410338987614],[1.1504898653440583,-0.3203693222408226,-0.6953872125868117,0.6611483993184194,0.2659563234542268,0.7561741582194927],[0.6485612626258221,1.0019549120518518,0.3650437350528089,-1.0568939914720956,-0.13193449737754756,0.49502226786635883]]},"weights_ho":{"rows":2,"cols":9,"data":[[-0.6366173380082734,-0.4946213338696239,0.5111466842795724,-0.39829426501266835,-0.16991415359603299,-0.40594400637080347,-0.6613670312490172,0.006493704420101484,-0.7683803959814243],[0.5459967234609543,-0.3101964170578284,0.5750417898281188,0.7211433977369823,0.8455787833182447,0.9591311051683176,-0.24383860120250242,0.22715776801903123,-0.823488571455869]]},"bias_h":{"rows":9,"cols":1,"data":[[-0.0679115129191814],[0.5957165110899729],[0.25079688053291954],[-0.8514308507424488],[-0.7520089436397357],[-0.30313308301862596],[-1.175954978057579],[0.37426994641397515],[0.36485546051618467]]},"bias_o":{"rows":2,"cols":1,"data":[[-0.944792629975399],[-0.3088318196187579]]},"learning_rate":0.1,"activation_function":{}}