{"input_nodes":6,"hidden_nodes":9,"output_nodes":2,"weights_ih":{"rows":9,"cols":6,"data":[[-0.4456222766784837,1.0037157741081641,-1.295292378815412,-0.1233905025620664,0.5073059800259156,-1.4709510337412572],[0.30484309979847524,0.727289779385182,-1.721239209519026,-1.100274161889031,0.7077923669151976,-1.5804134008556296],[-0.21584513040564623,1.2815928801039727,0.05516537260816247,0.6998783615920107,-1.5558724915034938,0.9746587318602257],[1.2935172526775878,0.097151372727252,2.9926185690459897,-0.32212787521125386,0.9181009506726041,-0.9291454662905633],[-0.3866003454198052,-1.8779342588875676,-0.5652919533242411,-1.2042354862340485,-0.34350227290636465,-1.7067049761868638],[0.3171261022144491,0.9035450088565607,1.859442757779943,-1.3827561943828526,-1.6893497142914682,-0.37992508182550294],[1.017740218573467,-0.7224322201500444,-1.2349730705108861,0.09849159835875838,-2.0863292659587054,0.6088102646475613],[-0.03991787189824888,-1.182648366540142,-0.7142381556643087,1.779104022532826,-0.36436894235589623,1.2161270836180793],[0.7807273300857527,1.0951254605178626,0.2395091093098576,-0.9046275188238764,0.004961618587029093,0.2181584783327329]]},"weights_ho":{"rows":2,"cols":9,"data":[[-0.484606859261858,-0.16745338959854766,-0.24210622786445257,0.4368948873153405,0.1257430334230805,-1.2185610460932323,1.4961987899919147,0.39396575434341696,-0.8622180482347377],[1.313056605954949,0.7713602575577498,0.4888296235474471,-0.0716684625306453,2.213527291029338,-0.4116809842024049,-0.3292765319039179,-0.4476826788486025,-1.1175975429911775]]},"bias_h":{"rows":9,"cols":1,"data":[[-2.348627407511841],[0.646703760432182],[0.9872471181461535],[-2.2173908547576353],[-0.1308068527635341],[1.1709017323993205],[-2.4121151005881236],[-1.4453439504445724],[-1.1927994454359465]]},"bias_o":{"rows":2,"cols":1,"data":[[-1.1355755720373062],[-2.5102009159604126]]},"learning_rate":0.1,"activation_function":{}}