{"input_nodes":6,"hidden_nodes":9,"output_nodes":2,"weights_ih":{"rows":9,"cols":6,"data":[[-0.32637863025841124,1.1362875279952525,-1.6125916798125657,0.7071182904611745,-0.008290030722401753,-0.9383945004450519],[0.5979647547997744,1.1094293451704793,-1.8914149421036714,-1.2805953437898532,0.28677985170604403,-0.8918112067097297],[-0.3270691938213447,0.44303369007051885,0.1693351807468929,0.41160230161968503,-2.047211470583387,0.7815122367087741],[1.1680408864366645,-0.04516395428047067,3.1089276742954355,-0.35805691902031966,0.7859683546089852,-0.5816834082251165],[-0.5636691415579199,-1.9502759122843785,-1.1129100632590085,-1.7771824973361081,-0.7063192073270946,-1.3644770236308805],[1.0044172196015766,1.0242671098113278,1.3640751190446505,-1.5245085099423115,-1.5405450766927888,0.010528407158521942],[0.20635271805373837,-0.24073783295531256,-1.2016301094546376,0.5228490253814921,-1.3353511916337135,0.46643188602740115],[0.03257542942788694,-0.8220279480108259,-1.1549848039921728,1.5632671533498579,0.01014389963629083,0.9735216536459929],[0.914753811091866,0.9826021669203602,0.08261361121855561,-0.5301964240523382,-0.047375694446420535,0.3837583072135513]]},"weights_ho":{"rows":2,"cols":9,"data":[[-0.07931190502825858,-0.41124056251925833,-0.0829655177656381,-0.014790254865113997,-0.12392746248350449,-1.1039785476860537,1.5141028462606891,0.10992193659327261,-0.7153023867117251],[1.072757666345264,0.6118463392497552,0.6889577952473216,-0.5094974887367858,1.2255913217918595,-0.3027511580137364,-0.8734529973971372,0.27966850538671384,-0.9155666021214642]]},"bias_h":{"rows":9,"cols":1,"data":[[-1.2994751533620525],[0.4472514077502025],[0.9636797882564075],[-1.723071030551871],[-0.430229349936913],[1.3328555176178114],[-2.026508624259714],[-0.9921091826587206],[-1.1551299048328474]]},"bias_o":{"rows":2,"cols":1,"data":[[-0.9956126305742223],[-1.4981276803641597]]},"learning_rate":0.1,"activation_function":{}}