{"input_nodes":6,"hidden_nodes":9,"output_nodes":2,"weights_ih":{"rows":9,"cols":6,"data":[[-0.6423666200755211,0.9361975208516029,-0.16069044041459085,0.1891632068808051,-0.5363695091214074,-1.6091172482734766],[0.33979351847049544,1.4659851643056152,-1.2410017144775065,-0.9844332803074552,-0.07151864525423848,-1.211303779297137],[0.31535440379199575,0.0038066006684767395,-0.07994552276911428,0.6313247265446176,-1.582576832814187,0.4946349984844819],[0.6548951214864002,-0.10209117025900635,1.7318950853361166,-0.05267690505058987,-0.6231396106149362,-0.7446520512521411],[-1.2518231122093384,-1.702053772724638,-0.6420249862538367,-1.8486676748484339,-0.1874893331136021,-0.8744789073495094],[1.4678168142086763,1.493189773028638,1.2102740865431927,-0.9518488149115808,-0.8191560873208614,0.8949357230594788],[-0.7736282713205243,0.943097834916489,-0.4408433771096639,0.4217537195312042,-1.153322916486305,0.6260494154997264],[0.6811481151941134,-0.7666041552924883,-0.8362990759699104,1.1443756825160827,-1.1920240899340109,0.9081232381498497],[1.234643859234292,0.2921662011300922,-0.22544677584623785,-0.5422976854461556,-0.20583163478445454,0.3753859825363909]]},"weights_ho":{"rows":2,"cols":9,"data":[[-0.17001349068235636,-0.862306412987995,-0.1146024006710554,0.20596139552913198,-0.19479878070332932,-0.9155329682112172,0.04748584893046725,0.5238584899653022,-1.0995665153845864],[1.2208887849755599,0.28164596945813414,0.8431470029022246,-0.15572823089740803,0.7361053462819576,0.15551530782625267,-1.8712118382025447,0.5097115154556456,-0.9864653784363132]]},"bias_h":{"rows":9,"cols":1,"data":[[-0.8368000971411887],[0.10752490112775973],[0.8631336058167616],[-0.8816160952476038],[-0.2738902314159708],[0.9856686545340351],[-2.1920825456113797],[0.6447273361091798],[0.12207414716179495]]},"bias_o":{"rows":2,"cols":1,"data":[[-0.6946362234975174],[-0.8911315847810003]]},"learning_rate":0.1,"activation_function":{}}