{"input_nodes":6,"hidden_nodes":9,"output_nodes":2,"weights_ih":{"rows":9,"cols":6,"data":[[-0.7652264404712661,0.8695764075320105,-0.5683451266596649,0.19721884157916386,-0.6043332439286925,-0.8023223240545602],[0.14265807641121733,0.5769589676506974,-1.086847105002402,-1.0840176247353588,-0.0473374453651,-0.4313784351309484],[0.7199530597510123,-0.23704626176183352,0.055511162758665814,0.9161812046101909,-0.6549105456950302,0.4054998510714364],[1.1739037841639297,0.6892358913530338,1.1652257823623333,0.4590052226558137,-0.2801368154791446,0.39446135342741684],[-0.5668454830288198,-0.43825347804175524,-0.4905589522921525,-1.2295226895894467,0.13429282772643247,-0.05063360369163694],[1.116254770387978,1.0062134371419564,0.7681139845179944,-1.2792482965049592,-0.6074308688223318,0.5953535119616775],[-0.34353724627459536,0.16811846758840293,0.8417760782663404,-0.03340558858183496,-0.9390370896462902,0.2647458521899203],[1.2237995445677488,-0.38830509781473355,-1.0084391769969878,0.8186859523709286,0.5068280872656719,0.9033712621642503],[0.5614072755594317,0.6885292413219839,0.2991796068128711,-1.0899511392141359,-0.4075245721702583,0.6223088851123336]]},"weights_ho":{"rows":2,"cols":9,"data":[[-0.6659035632788592,-0.4516492071345567,0.5633305310583693,-0.4365826195520818,-0.1487602637809452,-0.6771877958684998,-0.7812386808156112,0.05775425494423496,-0.7683803959814243],[0.36317897470164084,-0.6855086649579327,0.2896023108337911,0.6270536616725985,0.4818170949267361,0.6886941697209116,-0.7143070259319219,0.10192363400937166,-0.6967026848959955]]},"bias_h":{"rows":9,"cols":1,"data":[[0.03094075291394919],[0.6667960559113055],[0.4057555843423033],[-0.7374794011705779],[-0.7845954070978096],[-0.7042738294599676],[-1.1184331643059529],[0.366735886672176],[0.546917014476634]]},"bias_o":{"rows":2,"cols":1,"data":[[-0.8698713984552247],[-0.45326749573726693]]},"learning_rate":0.1,"activation_function":{}}