{"input_nodes":6,"hidden_nodes":9,"output_nodes":2,"weights_ih":{"rows":9,"cols":6,"data":[[-0.11687386809083711,0.7058467041809877,-1.8007460116499443,-0.463958682857728,0.09167843379253596,-0.9139640695471526],[0.2684459401824766,0.7548316704538706,-1.7584639966936835,-1.713635206262725,0.08448193710431534,-1.275980907343584],[-0.14616575931887238,0.5834107525645462,0.051444112675258384,0.9725124168572139,-1.0589905589407753,0.5933541711309618],[1.0175068958908746,0.5970914874098365,3.3869488489249973,-0.06963789007570306,1.7623099099307036,-1.5179034172488728],[-0.5917026257670003,-2.047117279054898,-0.032262245120549704,-1.7811525522447376,-0.4339789215764961,-2.3163508479971004],[0.7451560284294273,1.4634138809086161,2.227554252600392,-1.3698724532168653,-1.5239379457267457,-0.5452444578354876],[1.2130539630746018,0.49792145414096134,-1.5855921452331645,0.5399075288083632,-2.0840719075443435,0.5483084267255696],[0.58542101648783,-0.3395650620298284,-0.7350640476241957,1.545281993224463,-0.10494072330404974,0.8936483788852209],[0.9040291508178843,1.0424462280268025,0.38321572570093143,-0.8718545533763858,-0.292795596648573,-0.283818365031022]]},"weights_ho":{"rows":2,"cols":9,"data":[[-0.7240169282066045,-0.266262070526596,-0.1258151354297827,0.49139002463412407,0.3227120078586182,-1.5732360125130433,1.451408528370143,0.20197250208031386,-0.7298663949422867],[1.1456551037944251,0.30747919527414297,0.5813036091298399,0.06511410830319224,2.262218212849996,-0.20053755191136058,-0.3534875810431046,-0.29823461546189944,-0.4782892205475081]]},"bias_h":{"rows":9,"cols":1,"data":[[-1.2653858438238572],[0.6642416294625881],[0.5395337013863843],[-2.0994114247965214],[-0.037098922026304104],[1.066499743890098],[-2.219181821472774],[-1.7164545382131315],[-1.3766632532862926]]},"bias_o":{"rows":2,"cols":1,"data":[[-1.0763176884963332],[-2.200467498679569]]},"learning_rate":0.1,"activation_function":{}}