{"input_nodes":6,"hidden_nodes":9,"output_nodes":2,"weights_ih":{"rows":9,"cols":6,"data":[[0.005262249865963737,0.826653325999694,-0.4499672746960424,0.13253153665803133,-0.848645131910263,-1.583665742327685],[0.00691715734865711,1.2659144146763344,-1.2519420530067211,-1.4040203217098106,0.05028211455811351,-0.8976166760660531],[0.9078538513372421,-0.7721792170813198,-0.48246661297735816,0.30759351165123827,-0.9764658421061851,0.7523834733556505],[0.590484746328661,-0.005137651026236256,1.4287072407099168,0.39337479983748624,-0.7041704260857882,0.31311324488538544],[-1.236193115554582,-0.6583984950644534,-0.8857246864233663,-1.583648985302765,0.6443967702650619,-0.6045722335166469],[1.2174437694031146,1.5085485563365935,1.3146770822561697,-1.389154100898659,-1.0505428476245922,0.200627079676462],[-0.6404888700950587,0.49306889908146706,0.09965267703550452,-0.09074077159938966,-1.0658974941571893,0.03426346091724436],[0.8624991516101478,-0.5251669307734672,-0.9101073193950446,0.5299976192023004,-0.5867777628270936,0.5336626209094981],[1.1136147547024835,-0.26232647050395336,0.07748121216408921,-0.7633257390693218,-0.33465258443352575,1.1014282668222801]]},"weights_ho":{"rows":2,"cols":9,"data":[[-0.5651682134778493,-0.7378324645369004,0.17415464594763239,-0.41355109076484015,-0.003947126146879587,-0.7201696757418662,-0.865436231038155,0.212628272416932,-0.7989781345899621],[-0.034356146908009914,0.14412546657728223,0.5837281739126253,0.4943318088091743,-0.1814222965912742,0.7564004837044488,-1.3284196233620431,0.038110450936264334,-0.8972790990891556]]},"bias_h":{"rows":9,"cols":1,"data":[[-0.24334875232852415],[0.4861295167648736],[0.7015041547577019],[-0.5427456324729737],[-0.497699701720678],[-0.028296549785391575],[-1.5754815459244544],[0.22604398166384804],[0.35646852696606873]]},"bias_o":{"rows":2,"cols":1,"data":[[-0.7724097286696938],[-0.6196371965937553]]},"learning_rate":0.1,"activation_function":{}}