{"input_nodes":6,"hidden_nodes":9,"output_nodes":2,"weights_ih":{"rows":9,"cols":6,"data":[[-0.8330298902073747,0.5325886170141043,-0.4418262399262862,0.25799719713099867,-0.6115256179954414,-0.7052634814719436],[0.11174646117895026,0.2820735578267808,-0.8843572272564941,-0.912644122156073,-0.09334484633968833,-0.4193891563090588],[0.37362595705310264,-0.46290138481912857,0.46462578261522314,0.9083756231832076,-0.5976383998460281,0.38497307991374635],[0.8137734218982023,0.5925531835877181,0.8811831715449281,0.3108595522806627,-0.12399965128824597,0.3537905118950344],[-0.8272843577386251,-0.49492747203904264,-0.6774035664440861,-0.8385685022848466,-0.19124965779978886,-0.5124243547901411],[0.8539278180970107,0.9193894254505661,0.9550177874102208,-0.8976156667996724,-0.7180996076719053,0.4833699766327922],[-0.19996446251409106,0.11144708314733132,0.7360139541425292,-0.11613270860098757,-0.6313503661608628,0.3414972885717269],[0.9719451610575893,-0.18301213093109192,-0.7730123427165467,0.6754234056843864,0.7808901140405449,0.9661607461387952],[0.34894092228949664,0.6102276961563691,0.21541151790058377,-1.024547221579983,-0.346442921873066,0.5531834288543931]]},"weights_ho":{"rows":2,"cols":9,"data":[[-0.8369157011449028,-0.23505205328920784,0.4133476368293846,-0.46402130531672603,-0.25982431842318165,-0.6155424673987591,-0.3689747885691461,-0.01419510505116417,-0.8403892320213395],[0.8118903181650159,-0.7811366117708549,0.26524372362947046,0.7957068435790506,0.4762364749807908,0.5194075499934425,-0.9108336018985379,0.33116188023371596,-0.7384001047817095]]},"bias_h":{"rows":9,"cols":1,"data":[[-0.3227589849321539],[0.28310598624383654],[0.4797181880997451],[-0.82364424374969],[-0.8263391607686136],[-0.33843783637378255],[-0.8157646343590765],[0.3060943776435563],[0.5553323252870194]]},"bias_o":{"rows":2,"cols":1,"data":[[-0.8698713984552247],[-0.4127985802055746]]},"learning_rate":0.1,"activation_function":{}}