{"input_nodes":6,"hidden_nodes":9,"output_nodes":2,"weights_ih":{"rows":9,"cols":6,"data":[[-0.929153861293307,1.060772773905839,-0.5427651199766251,0.2913652204780827,-0.756278830993664,-1.1541258592539227],[0.013440125491369243,0.5215792373792755,-1.054698525691964,-1.0817935416359283,-0.11558441008894764,-0.2680208766537087],[0.8920106500993374,-0.38179770222305925,0.09354364527579302,0.8504410718862663,-0.8816847635902854,0.5739548562277957],[0.8092667829705795,0.4565868108474607,1.1736478555600378,0.6770413147419587,-0.5268400617186416,0.589008523903958],[-0.9177435953957215,-0.3925188270829394,-0.6400110428618733,-1.4878024750644863,0.703851905023998,-0.30393443056977304],[1.1603564838462814,0.6892603379502296,1.0808158707206015,-0.8168828195372003,-0.7906156451407962,0.733765382601527],[-0.19668241608954137,0.2631766572140194,0.6689599826123501,-0.08392423294743222,-1.0448182676347915,0.2009996017999238],[1.3052687080801173,-0.23293616707987636,-0.5439935376170046,0.7826260779819422,0.30848698546655906,0.7561741582194927],[0.8345299779568318,0.8544643747009775,0.2109412620472322,-0.9650360430113454,-0.1499429182006864,0.5417600861686193]]},"weights_ho":{"rows":2,"cols":9,"data":[[-0.6255525713494653,-0.9467856905567366,0.6013171893459471,-0.4327008093524622,-0.08420898542012756,-0.20927776866759953,-0.7260781663306224,-0.014599683448797987,-0.720932810166706],[0.4851176157707965,-0.3101964170578284,0.8081422787901591,0.7325727039864237,0.8455787833182447,0.8771955798728945,-0.24383860120250242,-0.09027179421670062,-0.9039670844834071]]},"bias_h":{"rows":9,"cols":1,"data":[[-0.1835242120961339],[0.5688330491921249],[0.46239171422813186],[-0.9028066984270581],[-0.7526422181925683],[-0.30313308301862596],[-1.1160133254870097],[0.3245473152006974],[0.281539674349207]]},"bias_o":{"rows":2,"cols":1,"data":[[-0.9677093137573147],[-0.5244778746284096]]},"learning_rate":0.1,"activation_function":{}}