{"input_nodes":6,"hidden_nodes":9,"output_nodes":2,"weights_ih":{"rows":9,"cols":6,"data":[[-0.787138644278828,0.5325886170141043,-0.16076145038559136,0.25799719713099867,-0.515023580756945,-0.7052634814719436],[-0.0022745624270429365,0.2820735578267808,-0.8843572272564941,-0.8340174200093888,-0.09334484633968833,-0.4193891563090588],[0.46437865637556064,-0.4853409665610261,0.41195943268649443,0.9879961622167395,-0.6001777882218298,0.4634373736564723],[0.8308492871694106,0.5733959345001036,0.6978203823646107,0.3108595522806627,-0.26461969972234844,0.35393311000868566],[-0.7042483080964201,-0.49492747203904264,-0.5365172506156208,-0.9445801623896807,-0.24332089013880004,-0.42964186738960797],[0.7457711091811126,0.9193894254505661,0.870099056433933,-1.0893107150778927,-0.7180996076719053,0.4833699766327922],[-0.34662611042330793,0.22529257377834358,0.7360139541425292,-0.11613270860098757,-0.5538384309599129,0.3964766280582332],[0.9719451610575893,-0.3339621245612546,-0.7730123427165467,0.609564356397477,0.7808901140405449,1.030172934465715],[0.25519666870534585,0.5719229225390932,0.21541151790058377,-1.024547221579983,-0.36487805910071236,0.3474019167109947]]},"weights_ho":{"rows":2,"cols":9,"data":[[-0.8849923453126781,-0.13686218511754963,0.4358247755896409,-0.597154958236152,-0.25297479337374185,-0.7612578984178404,-0.3194366592983624,-0.01419510505116417,-1.0079131167582422],[0.7623318679909288,-0.7677830410608251,0.34551032713542634,0.7957068435790506,0.4762364749807908,0.5194075499934425,-0.9108336018985379,0.33116188023371596,-0.6087648070978555]]},"bias_h":{"rows":9,"cols":1,"data":[[-0.4958264751277836],[0.3048695431706375],[0.4797181880997451],[-0.82364424374969],[-0.6025349968012071],[-0.33843783637378255],[-0.6330848962383637],[0.2664241806315219],[0.5989167021527959]]},"bias_o":{"rows":2,"cols":1,"data":[[-0.7117820098392119],[-0.4681473587397061]]},"learning_rate":0.1,"activation_function":{}}