{"input_nodes":6,"hidden_nodes":9,"output_nodes":2,"weights_ih":{"rows":9,"cols":6,"data":[[-0.12931815449856943,0.9782144030078694,-0.556555184078398,0.5832669328587807,0.01191129383406532,-1.1284904002173965],[0.6025382019706991,1.3323530340008696,-2.3625587551261926,-1.6001499600489815,0.05026347190815897,-1.1643711835920774],[0.2887837231933822,-0.017454416306740883,-0.2962535696102909,0.5965636593309603,-1.5659471466380686,0.622849859749164],[0.8654771641458958,0.33944215139458245,2.3255362995753632,-0.658666833402402,-0.37763632772025535,-0.9997913126293676],[-0.515880126752823,-1.705864866732,-1.1076652639509241,-1.431844589242947,-0.548068619960807,-0.7383227826869733],[1.3169990748278377,0.7873875270063552,1.3815262010600293,-1.311202524756244,-1.0221355202340476,0.13671277873508494],[-0.5936946976275279,0.39156985416428336,-1.4154917732438184,0.7112767230322504,-0.7086668874034883,0.12777584679694706],[0.10921330240800722,-1.3401660078418411,-0.5878591470851762,1.0309533130298616,0.054153177795457266,0.8167174952690207],[0.6708191558687444,0.6172760499005824,0.06745251742062713,-0.5519827920918927,-0.13112989902794697,-0.01543883233397142]]},"weights_ho":{"rows":2,"cols":9,"data":[[0.009977919794025666,-0.2765386024002784,-0.19959674655813556,-0.05041865985083323,-0.4257697255733897,-0.9602772910687027,0.9123474760670883,0.47657884373750087,-1.63994969395264],[1.4577896866998206,1.0879662418462899,0.5491527840834551,-0.0553333209741762,1.1920649330055761,-0.40602062674028444,-1.266921008954095,0.22461504203425098,-1.448360814637018]]},"bias_h":{"rows":9,"cols":1,"data":[[-0.7291583852166355],[0.5259449047104304],[1.1116054362107501],[-1.3905147285803696],[-0.3445521738022299],[1.3156051980789116],[-2.1083824786470204],[-0.22491951493311274],[-1.3823635799505138]]},"bias_o":{"rows":2,"cols":1,"data":[[-1.0653035618362314],[-1.3371715222581813]]},"learning_rate":0.1,"activation_function":{}}