{"input_nodes":6,"hidden_nodes":9,"output_nodes":2,"weights_ih":{"rows":9,"cols":6,"data":[[-0.7313392256728224,0.697872336189987,-0.49291570962677966,0.012680066659945005,-0.4869768492751838,-0.7917494670929455],[0.15823523816430246,0.2820735578267808,-0.9230459830325153,-0.912644122156073,-0.19828960125972878,-0.33843800166539306],[0.57159391398481,-0.24022494091205573,0.46462578261522314,0.8698752308546767,-0.6137026190327122,0.4634373736564723],[0.7995457140735798,0.5826519376033145,0.9175482009321524,0.3108595522806627,-0.2801368154791446,0.48079260945081487],[-0.8272843577386251,-0.6642290179781943,-0.7737500143002642,-0.8385685022848466,-0.09326031026560899,-0.3282192400951168],[0.9371290021610982,0.9193894254505661,0.9550177874102208,-0.8047236345729102,-0.6412400627466486,0.4833699766327922],[-0.19996446251409106,0.11144708314733132,0.6986019655135698,-0.07158877398152935,-0.8335609397663108,0.3414972885717269],[1.0637808458244065,-0.2661166863342108,-0.9060876646032876,1.013615662838855,0.6866427506351314,0.9661607461387952],[0.3088518305089889,0.5812502693271352,0.03382152835391383,-1.217486308825139,-0.3479551088766509,0.5531834288543931]]},"weights_ho":{"rows":2,"cols":9,"data":[[-0.8369157011449028,-0.17325643656546708,0.3724268596749294,-0.26136237571795873,-0.25982431842318165,-0.6950497540069791,-0.3655138720422105,-0.01419510505116417,-0.9732723037887712],[0.8118903181650159,-0.6905865772607853,0.26524372362947046,0.8522737260279051,0.5222549934175843,0.7269922599048984,-0.9108336018985379,0.2777431445243975,-0.7384001047817095]]},"bias_h":{"rows":9,"cols":1,"data":[[-0.3093460948311734],[0.4636011948077807],[0.454647773248238],[-0.8601591705395032],[-0.5866223886029023],[-0.3150521941749265],[-0.7144425280500206],[0.3060943776435563],[0.5790619141102579]]},"bias_o":{"rows":2,"cols":1,"data":[[-0.8698713984552247],[-0.3888442404676778]]},"learning_rate":0.1,"activation_function":{}}