{"input_nodes":6,"hidden_nodes":9,"output_nodes":2,"weights_ih":{"rows":9,"cols":6,"data":[[0.3311966738720443,1.1615615804805588,-0.5009331548404408,0.06931646882360895,-0.7131998056809925,-0.9787389077406341],[0.43459514820458683,1.419106012147608,-1.692693849285543,-1.1187640063901234,0.2527056605469439,-1.0660192593839375],[0.8085798881382926,-0.969697612537023,-0.9212318827346119,0.539051988763837,-0.8321053714127158,0.7898506671281413],[0.6449819001583198,-0.5715251577332591,1.492402293867549,-0.21469567359747133,-0.8371301997381301,0.24824512016400654],[-1.1604595796783117,-1.0563803603533553,-0.7218363550824854,-1.6054593254498537,0.49066298578347334,-0.5822525309727336],[1.4034433216920787,1.4822241027939573,1.1528798286225095,-1.4195124026589754,-1.5534610485651774,0.6862048624632938],[-0.5040440863596778,0.9390833440000271,0.025654734250387577,-0.20013689003054497,-1.1677665846602632,0.27487730926589926],[0.6855918702364308,-0.5873152347378288,-1.2376801791692795,-0.11245684716813299,-0.6021109463688634,0.3387833077135191],[1.2147066233020427,-0.21351896406010784,0.15853458490012226,-0.6409380884559379,-0.4854701772230291,1.153541743366661]]},"weights_ho":{"rows":2,"cols":9,"data":[[-0.24218219432964322,-0.5673394166180006,0.6474233454614666,-0.2582523178986654,0.1460833932900384,-0.714804775002477,-0.6933648681948316,0.2570270706808992,-0.9436352912028222],[-0.03346117199556403,0.42786601377969946,0.2403925123277253,1.0113411868082043,0.6111530098126571,0.5956335148029915,-1.402226337922223,0.21723304385926054,-0.6963846506899228]]},"bias_h":{"rows":9,"cols":1,"data":[[-0.07416409641839027],[0.9064738172396876],[0.26916275215071034],[-0.8996849614184046],[-0.7370302323856156],[0.30466332126881424],[-1.8304949085275972],[0.4580637332166502],[0.18637739873976153]]},"bias_o":{"rows":2,"cols":1,"data":[[-1.0468556677794223],[-0.6573020494541136]]},"learning_rate":0.1,"activation_function":{}}